55 32
</s> 0.000000 0.000000 0.000000 0.000000 0.000000 0.000000 0.000000 0.000000 0.000000 0.000000 0.000000 0.000000 0.000000 0.000000 0.000000 0.000000 0.000000 0.000000 0.000000 0.000000 0.000000 0.000000 0.000000 0.000000 0.000000 0.000000 0.000000 0.000000 0.000000 0.000000 0.000000 0.000000 
dfs 0.097711 0.178789 -0.142157 -0.012374 -0.360668 -0.246825 -0.296687 0.081216 0.060220 0.218514 -0.086867 0.397565 0.359145 -0.005738 -0.048020 -0.214699 0.212743 -0.057427 -0.388863 0.021679 0.320237 0.075035 0.205417 0.123699 -0.552809 -0.264965 -0.455514 0.032423 -0.496510 -0.036009 0.229226 -0.304709 
INFO 0.092485 0.172034 -0.134200 -0.002392 -0.335368 -0.239035 -0.281571 0.076267 0.055320 0.194939 -0.073374 0.365931 0.336305 -0.013950 -0.044715 -0.201376 0.202399 -0.043685 -0.371346 0.020932 0.297112 0.063591 0.192158 0.112393 -0.516396 -0.239649 -0.419155 0.029932 -0.457250 -0.034268 0.215184 -0.281632 
block 0.086162 0.160520 -0.126421 -0.002212 -0.310230 -0.206516 -0.262801 0.073881 0.055483 0.189870 -0.069939 0.346106 0.314725 -0.010354 -0.042771 -0.190774 0.184214 -0.047641 -0.338138 0.018048 0.272008 0.060546 0.174428 0.097803 -0.475855 -0.225089 -0.385889 0.021975 -0.423647 -0.033833 0.194562 -0.259371 
to 0.078123 0.149919 -0.119594 -0.009883 -0.310835 -0.211362 -0.254545 0.066577 0.045901 0.187798 -0.075419 0.344562 0.301207 -0.012971 -0.040749 -0.184962 0.184455 -0.050499 -0.338466 0.007740 0.280075 0.075645 0.180217 0.107898 -0.481431 -0.226385 -0.396682 0.044987 -0.428543 -0.029739 0.199254 -0.262668 
FSNamesystem 0.056092 0.126528 -0.092897 -0.004698 -0.246850 -0.165440 -0.192086 0.057211 0.026955 0.134752 -0.059116 0.267509 0.235326 -0.008163 -0.026155 -0.139419 0.142274 -0.035245 -0.268611 0.001581 0.213826 0.062640 0.134064 0.089229 -0.368626 -0.167229 -0.303003 0.035936 -0.330384 -0.028805 0.155965 -0.201827 
NameSystem 0.076659 0.144556 -0.114738 -0.004526 -0.292390 -0.197569 -0.237713 0.069623 0.039006 0.173874 -0.068375 0.321842 0.282717 -0.011373 -0.036154 -0.168390 0.169707 -0.050251 -0.319199 0.006928 0.260726 0.072996 0.166484 0.099107 -0.443203 -0.205900 -0.364923 0.040640 -0.399423 -0.032806 0.181043 -0.243204 
size 0.052686 0.104379 -0.079908 -0.001108 -0.200856 -0.131644 -0.164764 0.046406 0.032213 0.114787 -0.044616 0.215465 0.194627 -0.006718 -0.026223 -0.113785 0.109047 -0.028419 -0.217802 0.007619 0.172350 0.049096 0.112544 0.067258 -0.299399 -0.138633 -0.244756 0.018883 -0.266475 -0.022146 0.128464 -0.161774 
is 0.073355 0.139290 -0.112478 -0.004785 -0.285620 -0.193016 -0.235922 0.065824 0.038983 0.169935 -0.064450 0.315734 0.275843 -0.014036 -0.036126 -0.163817 0.169131 -0.043653 -0.310630 0.002631 0.258983 0.070635 0.162576 0.098719 -0.432661 -0.202109 -0.360736 0.043851 -0.390181 -0.031975 0.183361 -0.238376 
added 0.060130 0.124254 -0.092204 -0.003379 -0.244231 -0.167805 -0.201791 0.054892 0.037762 0.143466 -0.056017 0.265485 0.239074 -0.016062 -0.033207 -0.143154 0.139451 -0.035740 -0.268786 0.002820 0.221566 0.063973 0.139491 0.080647 -0.378550 -0.170346 -0.309826 0.038422 -0.341872 -0.028636 0.155955 -0.203229 
of 0.055309 0.109781 -0.084623 -0.004366 -0.219319 -0.152046 -0.184415 0.048941 0.032354 0.130009 -0.052761 0.238707 0.213016 -0.013574 -0.031093 -0.128583 0.127050 -0.031689 -0.245219 0.005002 0.196797 0.045097 0.127066 0.071100 -0.338947 -0.154974 -0.272757 0.027222 -0.303815 -0.022143 0.138262 -0.182749 
for 0.057634 0.109314 -0.086364 -0.002536 -0.214676 -0.151609 -0.180776 0.049596 0.035545 0.124950 -0.044532 0.240956 0.213666 -0.008729 -0.030785 -0.132259 0.127933 -0.029003 -0.240491 0.012661 0.193985 0.048400 0.126554 0.074535 -0.334803 -0.155210 -0.273879 0.016579 -0.299827 -0.028414 0.144407 -0.178895 
addStoredBlock 0.052800 0.102981 -0.074627 -0.001760 -0.201053 -0.137549 -0.169111 0.044117 0.029812 0.119976 -0.043660 0.221660 0.197227 -0.014119 -0.027167 -0.123009 0.113781 -0.029807 -0.220674 0.002925 0.182571 0.049634 0.116880 0.066221 -0.307184 -0.141591 -0.253184 0.026476 -0.279033 -0.020889 0.133321 -0.167248 
blockMap 0.061615 0.118779 -0.090145 -0.002986 -0.229682 -0.155146 -0.189332 0.052984 0.033472 0.140019 -0.052452 0.255475 0.221212 -0.009468 -0.024176 -0.139706 0.131334 -0.037658 -0.245386 0.007072 0.207597 0.056853 0.129511 0.075187 -0.347418 -0.161148 -0.289903 0.030894 -0.317963 -0.024090 0.149066 -0.187493 
updated 0.028841 0.061725 -0.040204 -0.002770 -0.117741 -0.076872 -0.090515 0.026125 0.015019 0.063963 -0.027913 0.125813 0.114524 -0.007889 -0.013978 -0.071399 0.066868 -0.013324 -0.126406 0.000474 0.098390 0.032408 0.060744 0.044265 -0.175021 -0.079940 -0.141844 0.017947 -0.151692 -0.011835 0.074276 -0.096247 
PacketResponder 0.047960 0.097532 -0.077075 -0.001983 -0.186972 -0.124364 -0.153462 0.044481 0.030438 0.109845 -0.040112 0.208903 0.186537 -0.002378 -0.022603 -0.112265 0.110455 -0.027963 -0.201396 0.010532 0.163218 0.040729 0.107491 0.064237 -0.284587 -0.134428 -0.234371 0.014030 -0.256292 -0.018659 0.123396 -0.154803 
terminating 0.036811 0.074456 -0.059013 -0.005629 -0.145676 -0.094504 -0.120929 0.035403 0.022223 0.087143 -0.030006 0.161436 0.143653 -0.005339 -0.018581 -0.089527 0.085703 -0.020384 -0.160549 0.009600 0.128960 0.027739 0.084859 0.045421 -0.221596 -0.102588 -0.182581 0.009122 -0.201468 -0.015203 0.091562 -0.120012 
Received 0.044620 0.093757 -0.069901 -0.003264 -0.179112 -0.121760 -0.147594 0.042954 0.029289 0.104114 -0.040420 0.195912 0.177151 -0.006836 -0.024210 -0.105085 0.104865 -0.025202 -0.195576 0.007909 0.154968 0.035275 0.101570 0.060176 -0.272128 -0.126783 -0.219341 0.012145 -0.240934 -0.015788 0.115577 -0.148633 
src 0.046338 0.100114 -0.076272 -0.000319 -0.194725 -0.129009 -0.155972 0.047790 0.027482 0.111057 -0.043013 0.214229 0.186349 -0.008850 -0.019873 -0.113180 0.114082 -0.025001 -0.210719 0.010363 0.168062 0.040737 0.111893 0.066748 -0.295482 -0.132709 -0.240964 0.025877 -0.259600 -0.022062 0.126912 -0.157690 
dest 0.045598 0.089333 -0.068801 -0.001587 -0.172854 -0.119684 -0.142799 0.044372 0.023781 0.102146 -0.037437 0.192875 0.168976 -0.008428 -0.021315 -0.105479 0.097507 -0.025575 -0.191511 0.008618 0.153307 0.035351 0.100587 0.056407 -0.264943 -0.123420 -0.216563 0.019362 -0.236292 -0.022297 0.109501 -0.142339 
from 0.052787 0.099871 -0.070506 -0.002163 -0.193030 -0.130514 -0.157318 0.043750 0.028787 0.112833 -0.044221 0.210678 0.188084 -0.010562 -0.025837 -0.115762 0.109436 -0.027850 -0.209862 0.009158 0.168441 0.038812 0.110506 0.066012 -0.290002 -0.137566 -0.235941 0.017190 -0.256570 -0.021071 0.124028 -0.159349 
Receiving 0.053195 0.099942 -0.077228 -0.001350 -0.186818 -0.127006 -0.154702 0.045021 0.030491 0.116443 -0.042960 0.209493 0.186715 -0.005242 -0.023594 -0.110202 0.108033 -0.031793 -0.208243 0.010591 0.161547 0.041426 0.109212 0.059554 -0.286220 -0.133937 -0.234336 0.020015 -0.259014 -0.020280 0.118422 -0.158563 
FSDataset 0.045439 0.066251 -0.055195 -0.001053 -0.140633 -0.104449 -0.123082 0.027878 0.030327 0.091665 -0.033099 0.159099 0.142986 -0.004878 -0.024635 -0.088508 0.083925 -0.023976 -0.160238 0.007607 0.129763 0.022154 0.085841 0.044291 -0.229694 -0.108465 -0.179187 0.007269 -0.198371 -0.018050 0.087611 -0.124265 
Deleting 0.066584 0.109976 -0.085148 -0.005323 -0.219047 -0.166072 -0.182490 0.043243 0.038663 0.131156 -0.051542 0.239586 0.226991 -0.004358 -0.029600 -0.140960 0.139590 -0.033348 -0.244236 0.015205 0.202693 0.043234 0.130699 0.073698 -0.349314 -0.162088 -0.282052 0.018560 -0.305539 -0.021693 0.135152 -0.183921 
file 0.056273 0.094338 -0.071444 -0.003412 -0.191468 -0.140755 -0.161316 0.040137 0.037648 0.122246 -0.047130 0.218031 0.195929 -0.010266 -0.029874 -0.125975 0.118347 -0.031701 -0.214614 0.010542 0.176342 0.034536 0.116185 0.064801 -0.310739 -0.149733 -0.246900 0.014599 -0.266171 -0.023272 0.122972 -0.167511 
mnt 0.044251 0.068649 -0.053679 -0.000910 -0.150865 -0.118849 -0.132728 0.032044 0.028439 0.089743 -0.037172 0.163201 0.157651 -0.010667 -0.025235 -0.102438 0.095853 -0.020723 -0.167047 0.006531 0.144724 0.020557 0.091383 0.049925 -0.243348 -0.120481 -0.192759 0.006005 -0.215740 -0.015789 0.090958 -0.134386 
hadoop 0.059902 0.090567 -0.068663 -0.005608 -0.185100 -0.144174 -0.158453 0.034352 0.038185 0.114806 -0.048955 0.203408 0.193785 -0.002206 -0.029386 -0.121889 0.115559 -0.031066 -0.210610 0.018953 0.171616 0.028385 0.112384 0.062213 -0.303905 -0.146396 -0.240217 0.006654 -0.259219 -0.021164 0.114986 -0.160345 
data 0.056010 0.087409 -0.067054 -0.003859 -0.178461 -0.135486 -0.151302 0.038049 0.030703 0.110324 -0.041241 0.199956 0.183953 -0.007351 -0.027628 -0.116857 0.111742 -0.027613 -0.198150 0.012096 0.166267 0.027602 0.108078 0.058849 -0.284281 -0.136562 -0.228504 0.013142 -0.247962 -0.021110 0.111708 -0.154905 
current 0.058535 0.091603 -0.078737 -0.005055 -0.191010 -0.141254 -0.164125 0.039055 0.037396 0.122272 -0.043862 0.217066 0.197935 -0.003974 -0.030656 -0.123148 0.120802 -0.032473 -0.211133 0.010281 0.178071 0.039186 0.114126 0.063194 -0.304881 -0.148727 -0.250722 0.014780 -0.270350 -0.021108 0.117304 -0.165833 
delete 0.043341 0.083942 -0.069309 -0.007248 -0.182625 -0.128696 -0.151939 0.041362 0.022007 0.106829 -0.045411 0.200813 0.173069 -0.007581 -0.023673 -0.101182 0.111802 -0.028530 -0.200851 -0.001354 0.168236 0.045721 0.106198 0.065139 -0.281267 -0.129265 -0.236216 0.036642 -0.259320 -0.016809 0.117694 -0.156941 
invalidSet 0.038039 0.075832 -0.063279 -0.004969 -0.167480 -0.114052 -0.136303 0.036588 0.021709 0.096734 -0.043856 0.180737 0.159269 -0.009700 -0.022715 -0.093522 0.095716 -0.023077 -0.183567 -0.001347 0.146951 0.043302 0.096646 0.058790 -0.261458 -0.118986 -0.208367 0.029419 -0.227455 -0.015915 0.106791 -0.137920 
allocateBlock 0.036918 0.078372 -0.065628 0.001989 -0.155877 -0.108189 -0.128508 0.037160 0.018204 0.094444 -0.035085 0.175093 0.155173 -0.004948 -0.015619 -0.093876 0.091461 -0.025778 -0.169831 0.004129 0.138110 0.035905 0.084769 0.051908 -0.236103 -0.106244 -0.191748 0.011333 -0.214382 -0.014926 0.092798 -0.127095 
user 0.017426 0.037591 -0.026551 0.001103 -0.065127 -0.043479 -0.054501 0.018336 0.004270 0.034927 -0.014888 0.071188 0.064276 -0.002032 -0.006397 -0.038900 0.038982 -0.011268 -0.075579 0.002569 0.054995 0.011219 0.033319 0.016038 -0.093995 -0.042166 -0.080432 0.008742 -0.088137 -0.011261 0.035390 -0.051583 
root 0.024156 0.044073 -0.035626 0.001992 -0.086624 -0.056622 -0.069983 0.024216 0.006481 0.051572 -0.016793 0.099772 0.082874 -0.001724 -0.007001 -0.049314 0.049842 -0.014247 -0.090674 0.003765 0.072907 0.022572 0.045949 0.030379 -0.125103 -0.058112 -0.103855 0.007618 -0.119936 -0.009709 0.049533 -0.067364 
part 0.026304 0.062441 -0.048637 0.000139 -0.120676 -0.084963 -0.093640 0.028537 0.012022 0.068116 -0.029099 0.135165 0.114661 -0.003977 -0.009693 -0.073025 0.072341 -0.021169 -0.133101 0.006059 0.104689 0.027225 0.067428 0.040188 -0.182350 -0.084827 -0.153177 0.014398 -0.162882 -0.012739 0.072630 -0.102953 
Served 0.040150 0.075307 -0.058931 -0.002339 -0.150152 -0.105137 -0.124182 0.032538 0.023847 0.089477 -0.034663 0.167000 0.147967 -0.005526 -0.020726 -0.090124 0.088592 -0.022704 -0.165593 0.004950 0.134717 0.032611 0.086067 0.051188 -0.231654 -0.108950 -0.189959 0.016521 -0.206631 -0.016704 0.095219 -0.127296 
WARN 0.035854 0.062910 -0.048672 -0.001789 -0.126954 -0.087572 -0.106223 0.027058 0.019502 0.076820 -0.028680 0.140936 0.125525 -0.006514 -0.018313 -0.077910 0.076307 -0.020037 -0.140348 0.003854 0.115180 0.027741 0.075174 0.042430 -0.197256 -0.092086 -0.160408 0.014753 -0.175143 -0.013447 0.081395 -0.105329 
Got 0.042663 0.082185 -0.062164 -0.001649 -0.160268 -0.110337 -0.133220 0.036656 0.025195 0.096429 -0.037187 0.176276 0.159811 -0.007090 -0.020342 -0.096274 0.093627 -0.024330 -0.176263 0.006666 0.142338 0.034914 0.091253 0.053596 -0.247172 -0.113033 -0.199071 0.017747 -0.220350 -0.016699 0.101317 -0.132070 
exception 0.045826 0.084970 -0.067369 -0.001981 -0.171087 -0.117645 -0.140681 0.037869 0.027025 0.102010 -0.038812 0.189807 0.168639 -0.006587 -0.022771 -0.102257 0.102316 -0.025597 -0.185774 0.007350 0.152560 0.036609 0.097797 0.058645 -0.263439 -0.123166 -0.214067 0.016974 -0.232469 -0.018614 0.108344 -0.143161 
while 0.049741 0.089242 -0.069670 -0.003287 -0.179741 -0.125347 -0.150670 0.040539 0.030360 0.108718 -0.041519 0.198668 0.179422 -0.006741 -0.025140 -0.108984 0.106411 -0.027612 -0.196902 0.008439 0.161568 0.038639 0.103261 0.060889 -0.278006 -0.130073 -0.226330 0.017891 -0.247344 -0.018797 0.113721 -0.150464 
serving 0.048344 0.089323 -0.068887 -0.002876 -0.179712 -0.123106 -0.148684 0.041140 0.027385 0.107622 -0.042894 0.197620 0.176433 -0.006712 -0.022920 -0.106559 0.103683 -0.028210 -0.194869 0.006948 0.159426 0.039225 0.101041 0.061505 -0.273661 -0.128805 -0.223134 0.020233 -0.244805 -0.019582 0.113815 -0.149809 
DataBlockScanner 0.020411 0.039638 -0.032268 -0.001341 -0.080355 -0.054115 -0.065784 0.020487 0.012039 0.046765 -0.018661 0.088729 0.077987 -0.003264 -0.010803 -0.047316 0.047533 -0.013374 -0.086530 0.002685 0.069732 0.017458 0.045222 0.027222 -0.120208 -0.058163 -0.098983 0.008512 -0.108054 -0.008476 0.048677 -0.065945 
Verification 0.021303 0.042297 -0.033582 0.000175 -0.084586 -0.056814 -0.070226 0.020495 0.011949 0.049030 -0.017832 0.090906 0.082825 -0.005370 -0.012194 -0.049027 0.049288 -0.013409 -0.089297 0.003238 0.073560 0.017482 0.047604 0.028021 -0.127598 -0.060733 -0.102250 0.007436 -0.111670 -0.009311 0.052035 -0.069503 
succeeded 0.015734 0.031639 -0.024210 -0.000649 -0.063740 -0.046993 -0.052107 0.016160 0.009636 0.035326 -0.014301 0.070378 0.062510 -0.002784 -0.007703 -0.038012 0.037885 -0.010105 -0.069563 0.001189 0.055080 0.014029 0.035597 0.022329 -0.097387 -0.046247 -0.078383 0.006913 -0.084420 -0.007374 0.040426 -0.052879 
rand 0.011848 0.022721 -0.017483 -0.000431 -0.044808 -0.030481 -0.037305 0.011186 0.007520 0.026598 -0.010418 0.049665 0.044933 -0.001742 -0.005552 -0.027706 0.026841 -0.006801 -0.048830 0.001884 0.040309 0.009275 0.025815 0.014447 -0.068842 -0.032513 -0.056488 0.003823 -0.062064 -0.005236 0.028188 -0.037290 
randtxt 0.018773 0.035663 -0.028133 -0.000838 -0.071807 -0.048899 -0.059155 0.016027 0.010742 0.042279 -0.015952 0.079539 0.071297 -0.003040 -0.010058 -0.041935 0.042690 -0.010748 -0.079681 0.001538 0.063940 0.016282 0.040747 0.024479 -0.109821 -0.050279 -0.089708 0.008802 -0.097587 -0.007283 0.045644 -0.060304 
sortrand 0.004536 0.008032 -0.005097 -0.000389 -0.015698 -0.011487 -0.013219 0.003699 0.002401 0.007947 -0.003978 0.016876 0.015350 -0.000778 -0.002542 -0.009575 0.009126 -0.001957 -0.018119 0.000836 0.013706 0.002925 0.008792 0.005760 -0.024364 -0.011866 -0.019539 0.001731 -0.020903 -0.002174 0.010900 -0.013405 
ask -0.001314 -0.003515 0.002408 -0.000025 0.006679 0.004480 0.004556 -0.001795 -0.000650 -0.002895 0.001662 -0.007324 -0.005612 -0.000727 -0.000271 0.002856 -0.003992 0.001093 0.006619 0.000416 -0.005324 -0.002114 -0.002306 -0.003241 0.008581 0.004150 0.008200 -0.001955 0.008069 0.001067 -0.004922 0.006079 
DataNode 0.001575 0.003399 -0.002593 -0.000207 -0.006775 -0.004649 -0.005450 0.001409 0.001316 0.004037 -0.001721 0.007274 0.006688 -0.000204 -0.000819 -0.004089 0.003993 -0.001017 -0.007183 0.000345 0.005979 0.001408 0.003930 0.002333 -0.010418 -0.004913 -0.008487 0.000563 -0.009194 -0.000514 0.004483 -0.005807 
Starting 0.001984 0.003992 -0.003288 -0.000273 -0.008383 -0.005699 -0.006460 0.001990 0.000910 0.004631 -0.001924 0.009091 0.007506 -0.000434 -0.000893 -0.004767 0.004816 -0.001058 -0.009074 0.000220 0.006993 0.001692 0.004716 0.002939 -0.012513 -0.005828 -0.010014 0.001186 -0.010945 -0.000713 0.004746 -0.007047 
thread 0.000000 0.000000 0.000000 0.000000 0.000000 0.000000 0.000000 0.000000 0.000000 0.000000 0.000000 0.000000 0.000000 0.000000 0.000000 0.000000 0.000000 0.000000 0.000000 0.000000 0.000000 0.000000 0.000000 0.000000 0.000000 0.000000 0.000000 0.000000 0.000000 0.000000 0.000000 0.000000 
transfer 0.004591 0.008972 -0.007182 -0.000097 -0.017915 -0.012737 -0.015561 0.004240 0.002830 0.011049 -0.004052 0.019935 0.017977 -0.001370 -0.002408 -0.010979 0.010793 -0.002448 -0.019962 0.000585 0.016323 0.003597 0.010237 0.005896 -0.027874 -0.012823 -0.022594 0.002282 -0.024732 -0.001932 0.011373 -0.015051 
replicate 0.002307 0.004740 -0.003300 -0.000337 -0.008520 -0.005997 -0.006997 0.002032 0.001248 0.004862 -0.002067 0.009544 0.008835 -0.000374 -0.001364 -0.005033 0.005518 -0.001237 -0.009756 0.000426 0.007497 0.002024 0.005078 0.002956 -0.013210 -0.006437 -0.011309 0.001326 -0.011652 -0.000870 0.006003 -0.007319 
datanode 0.001105 0.002228 -0.001637 -0.000101 -0.004393 -0.003060 -0.003648 0.001101 0.000747 0.002597 -0.001005 0.004896 0.004618 -0.000192 -0.000700 -0.002783 0.002803 -0.000723 -0.004868 0.000283 0.003847 0.000621 0.002704 0.001420 -0.006851 -0.003330 -0.005474 0.000069 -0.006039 -0.000322 0.002766 -0.003752 
s 0.004767 0.008970 -0.006286 -0.000256 -0.017247 -0.011977 -0.014165 0.004067 0.002952 0.010440 -0.004068 0.018736 0.017394 -0.000772 -0.002167 -0.010868 0.009679 -0.002694 -0.018489 0.001335 0.015185 0.003237 0.009633 0.005803 -0.026336 -0.012278 -0.021095 0.001414 -0.023125 -0.001946 0.010801 -0.014083 
