55 32
</s> 0.000000 0.000000 0.000000 0.000000 0.000000 0.000000 0.000000 0.000000 0.000000 0.000000 0.000000 0.000000 0.000000 0.000000 0.000000 0.000000 0.000000 0.000000 0.000000 0.000000 0.000000 0.000000 0.000000 0.000000 0.000000 0.000000 0.000000 0.000000 0.000000 0.000000 0.000000 0.000000 
dfs 0.137339 0.133395 -0.078889 -0.028044 -0.354602 -0.256331 -0.317761 0.048411 0.094859 0.300345 -0.123012 0.410779 0.427681 0.013690 -0.008924 -0.335771 0.287734 -0.098557 -0.346669 0.066175 0.317515 0.009608 0.181601 0.113832 -0.656040 -0.276531 -0.433803 -0.019969 -0.497443 0.019945 0.245692 -0.284634 
INFO 0.112014 0.121092 -0.072634 -0.022628 -0.307540 -0.224259 -0.269824 0.050691 0.082199 0.259539 -0.115746 0.362329 0.373823 0.010941 -0.006040 -0.284527 0.254668 -0.085014 -0.310487 0.044170 0.278390 0.020744 0.151215 0.097068 -0.576571 -0.237087 -0.389657 -0.000820 -0.432058 0.002594 0.215157 -0.251649 
block 0.106896 0.109409 -0.070999 -0.013783 -0.279812 -0.195755 -0.248050 0.038228 0.069070 0.228141 -0.098236 0.320942 0.328829 0.009963 -0.009317 -0.254296 0.218452 -0.073367 -0.280362 0.045124 0.247643 0.015147 0.139261 0.089145 -0.507553 -0.212652 -0.336804 -0.011182 -0.386616 0.009403 0.182848 -0.224046 
to 0.102430 0.106689 -0.064010 -0.028332 -0.298020 -0.215946 -0.262709 0.044469 0.076160 0.248719 -0.110228 0.345668 0.356066 0.006233 -0.007918 -0.267802 0.242136 -0.081016 -0.294791 0.034602 0.269045 0.029373 0.142934 0.097147 -0.554071 -0.227056 -0.373170 0.009628 -0.413655 0.012672 0.208534 -0.242682 
FSNamesystem 0.077599 0.082051 -0.045997 -0.016728 -0.229218 -0.158516 -0.197333 0.038324 0.040828 0.174018 -0.079934 0.259687 0.259621 0.006690 -0.002981 -0.195606 0.174772 -0.057478 -0.220454 0.022888 0.198450 0.025533 0.107040 0.078809 -0.402411 -0.166449 -0.275647 0.012631 -0.311031 0.009287 0.151964 -0.177668 
NameSystem 0.088362 0.096345 -0.057826 -0.023504 -0.259912 -0.176767 -0.221410 0.041114 0.058107 0.212424 -0.097016 0.296578 0.299350 0.011043 -0.000214 -0.223054 0.202341 -0.072497 -0.248782 0.029609 0.230558 0.031141 0.122218 0.085574 -0.465082 -0.190636 -0.319176 0.013021 -0.356765 0.012274 0.177308 -0.204747 
size 0.091065 0.092366 -0.055803 -0.019569 -0.246478 -0.175534 -0.215854 0.038041 0.058503 0.199403 -0.086363 0.280701 0.290444 0.009494 -0.005391 -0.218707 0.193883 -0.065018 -0.242818 0.034796 0.219459 0.022152 0.117927 0.080468 -0.442002 -0.182154 -0.302827 0.003428 -0.338823 0.009533 0.167239 -0.197652 
is 0.092490 0.102033 -0.059289 -0.017442 -0.276861 -0.187500 -0.238656 0.040254 0.059799 0.222586 -0.099459 0.315020 0.320980 0.003434 -0.005667 -0.241082 0.215315 -0.073669 -0.268652 0.029347 0.247464 0.029960 0.135878 0.091755 -0.499923 -0.205207 -0.338527 0.011693 -0.380960 0.012591 0.190745 -0.219737 
added 0.072010 0.083819 -0.043589 -0.017018 -0.221114 -0.153528 -0.191906 0.035884 0.054619 0.178433 -0.083230 0.251587 0.259646 0.005179 -0.001358 -0.193386 0.173846 -0.060400 -0.213502 0.021088 0.196405 0.028980 0.109542 0.070151 -0.401473 -0.163608 -0.272413 0.009161 -0.310594 0.010964 0.153704 -0.175838 
of 0.077710 0.080378 -0.050119 -0.015609 -0.220891 -0.158780 -0.197741 0.031613 0.052644 0.177696 -0.077549 0.251829 0.259668 0.005604 -0.004333 -0.195861 0.179008 -0.055237 -0.219341 0.027283 0.194080 0.015005 0.106749 0.070556 -0.403947 -0.164935 -0.270559 0.002417 -0.307450 0.012550 0.151656 -0.178823 
for 0.087337 0.092235 -0.054971 -0.022419 -0.243975 -0.176648 -0.215685 0.038299 0.061062 0.202810 -0.086795 0.285179 0.294167 0.008616 -0.004148 -0.225071 0.199681 -0.065568 -0.243690 0.037003 0.222642 0.018484 0.118345 0.077929 -0.449095 -0.184871 -0.305141 -0.003518 -0.344152 0.007727 0.170209 -0.197560 
addStoredBlock 0.058294 0.062188 -0.030785 -0.008262 -0.161586 -0.112133 -0.142721 0.023810 0.045682 0.135055 -0.057331 0.191707 0.197678 0.000654 -0.003479 -0.149933 0.130580 -0.044070 -0.163318 0.012067 0.148922 0.018651 0.075679 0.047483 -0.302839 -0.121479 -0.204668 0.003500 -0.227850 0.001059 0.116679 -0.132635 
blockMap 0.054287 0.056189 -0.035990 -0.010057 -0.145821 -0.100168 -0.129776 0.024159 0.029438 0.119593 -0.046204 0.167408 0.163616 0.001868 -0.002846 -0.123703 0.108601 -0.040788 -0.139306 0.019341 0.131115 0.018789 0.070349 0.046001 -0.253044 -0.104722 -0.180335 0.011432 -0.200452 0.006204 0.103041 -0.113511 
updated 0.081203 0.085808 -0.047961 -0.013820 -0.225643 -0.155797 -0.194665 0.029383 0.057303 0.180565 -0.077261 0.260385 0.265874 0.007679 -0.007436 -0.200542 0.175546 -0.057920 -0.220349 0.026918 0.196151 0.022150 0.108996 0.074891 -0.410604 -0.168874 -0.273232 -0.000854 -0.308063 0.010022 0.155710 -0.182047 
PacketResponder 0.077341 0.080335 -0.051564 -0.016584 -0.211084 -0.151333 -0.187903 0.031107 0.055178 0.175043 -0.072720 0.247648 0.257220 0.008689 -0.007833 -0.197922 0.171211 -0.056385 -0.211255 0.033202 0.191157 0.014637 0.107656 0.067031 -0.391636 -0.163997 -0.263718 -0.009983 -0.297309 0.007807 0.146843 -0.171096 
terminating 0.065679 0.065419 -0.041846 -0.016130 -0.177850 -0.126977 -0.156169 0.028308 0.045146 0.148447 -0.062311 0.209259 0.211091 0.004712 -0.004266 -0.164287 0.147595 -0.047920 -0.179238 0.028235 0.159576 0.012697 0.093958 0.056696 -0.327011 -0.138901 -0.224657 -0.003250 -0.249596 0.007903 0.125315 -0.145733 
Received 0.047912 0.056462 -0.032299 -0.010363 -0.145538 -0.102493 -0.126996 0.023865 0.035002 0.113262 -0.051347 0.167197 0.169342 0.003798 -0.003696 -0.128227 0.114919 -0.034896 -0.140265 0.021990 0.127134 0.007894 0.071536 0.048487 -0.264445 -0.111749 -0.175166 -0.007064 -0.199603 0.004798 0.102033 -0.115116 
src 0.057059 0.066950 -0.035545 -0.010668 -0.169788 -0.118456 -0.142619 0.029187 0.035530 0.135083 -0.064200 0.194038 0.193882 0.003969 0.001841 -0.149407 0.132925 -0.045708 -0.164393 0.026087 0.146621 0.012663 0.090986 0.057438 -0.305830 -0.128804 -0.204533 -0.001742 -0.233289 0.005589 0.119924 -0.134389 
dest 0.057686 0.060980 -0.039027 -0.010150 -0.161678 -0.114795 -0.140429 0.029545 0.034996 0.129660 -0.054861 0.187904 0.188019 0.006899 0.000675 -0.148552 0.127993 -0.043015 -0.157405 0.030836 0.139964 0.005529 0.079019 0.050613 -0.291746 -0.121790 -0.199084 -0.003146 -0.221588 0.002599 0.108588 -0.130109 
from 0.070981 0.073467 -0.044538 -0.013276 -0.190453 -0.133495 -0.166850 0.029582 0.045826 0.151543 -0.064323 0.218313 0.221676 0.010445 -0.004914 -0.165186 0.147013 -0.051467 -0.184112 0.028103 0.168091 0.011062 0.092325 0.060614 -0.335093 -0.143108 -0.230505 -0.002791 -0.258851 0.008497 0.129784 -0.151519 
Receiving 0.081095 0.087532 -0.052055 -0.017005 -0.221606 -0.152095 -0.192038 0.034469 0.054404 0.181830 -0.080126 0.255773 0.257589 0.008788 -0.003846 -0.196276 0.177837 -0.060130 -0.214899 0.035728 0.191549 0.017542 0.113553 0.073785 -0.398667 -0.169994 -0.269604 -0.004251 -0.308094 0.011907 0.154857 -0.177060 
FSDataset 0.069494 0.060764 -0.038084 -0.007866 -0.168124 -0.127848 -0.153137 0.020237 0.050114 0.139991 -0.056620 0.198882 0.203634 0.007552 -0.008700 -0.159956 0.138528 -0.046692 -0.169924 0.026967 0.158002 0.003883 0.087739 0.051988 -0.319472 -0.135269 -0.209441 -0.015069 -0.243282 0.001824 0.111966 -0.139291 
Deleting 0.073705 0.060780 -0.035471 -0.011935 -0.166293 -0.138613 -0.152981 0.016915 0.049454 0.143086 -0.063361 0.191309 0.212369 0.006497 -0.004607 -0.169382 0.146540 -0.043315 -0.168870 0.035982 0.158363 0.001052 0.088951 0.053965 -0.325427 -0.137011 -0.210964 -0.014324 -0.241241 0.007125 0.112502 -0.135742 
file 0.053014 0.046845 -0.024237 -0.011577 -0.124462 -0.105570 -0.115119 0.011316 0.042533 0.114691 -0.048421 0.147714 0.164092 0.000819 -0.006736 -0.131445 0.113139 -0.035003 -0.124769 0.029374 0.118812 -0.001978 0.068724 0.039257 -0.251650 -0.109123 -0.162258 -0.011430 -0.181144 0.006753 0.085278 -0.108990 
mnt 0.064620 0.055927 -0.037073 -0.008546 -0.163090 -0.130305 -0.151057 0.018886 0.045042 0.134757 -0.054040 0.189254 0.198605 0.001812 -0.008504 -0.156037 0.136747 -0.040889 -0.162171 0.025311 0.153788 0.003636 0.084841 0.052484 -0.308357 -0.132019 -0.204045 -0.008103 -0.234172 0.005579 0.109251 -0.136709 
hadoop 0.069322 0.064265 -0.038784 -0.010496 -0.167741 -0.131273 -0.153133 0.015686 0.051053 0.143194 -0.058327 0.195365 0.207623 0.006124 -0.009129 -0.162837 0.139297 -0.045205 -0.170705 0.031001 0.156234 0.002723 0.089211 0.052304 -0.322077 -0.135068 -0.208580 -0.014553 -0.239365 0.004005 0.112258 -0.138973 
data 0.075703 0.066965 -0.041976 -0.011248 -0.178732 -0.145760 -0.165945 0.021067 0.050017 0.154941 -0.062514 0.209760 0.225888 0.003992 -0.007913 -0.176698 0.151155 -0.047855 -0.182128 0.033051 0.171877 0.003581 0.095614 0.055052 -0.344124 -0.144207 -0.224974 -0.011411 -0.259535 0.005435 0.120426 -0.148530 
current 0.049396 0.040510 -0.028128 -0.007131 -0.110419 -0.093088 -0.107558 0.010193 0.037090 0.101451 -0.038363 0.130465 0.141693 0.002284 -0.007108 -0.113575 0.095732 -0.028966 -0.112763 0.024723 0.111457 -0.002465 0.061224 0.033338 -0.220428 -0.093824 -0.143460 -0.011306 -0.168426 0.001361 0.072842 -0.091316 
delete 0.048376 0.050628 -0.029774 -0.010830 -0.150120 -0.109482 -0.131301 0.023413 0.033326 0.115943 -0.057944 0.167204 0.168497 0.003480 -0.001718 -0.125296 0.114225 -0.037633 -0.144913 0.011298 0.132220 0.017439 0.069471 0.049755 -0.269474 -0.109494 -0.181962 0.011274 -0.206989 0.005973 0.101636 -0.123109 
invalidSet 0.071365 0.071334 -0.043604 -0.017953 -0.207597 -0.154806 -0.184176 0.028527 0.049430 0.165702 -0.073663 0.239619 0.243187 0.006883 -0.005412 -0.180724 0.166164 -0.052770 -0.204335 0.019301 0.186532 0.023789 0.100503 0.070869 -0.381628 -0.155546 -0.258270 0.012976 -0.288387 0.010533 0.147992 -0.167727 
allocateBlock 0.035946 0.041938 -0.030122 -0.004394 -0.110054 -0.075616 -0.097905 0.018260 0.018562 0.092614 -0.036556 0.131700 0.129950 0.004580 0.003951 -0.099954 0.088631 -0.031658 -0.104008 0.019621 0.091603 0.009034 0.049575 0.035263 -0.196733 -0.079893 -0.129504 -0.006178 -0.152500 0.011696 0.069266 -0.083060 
user 0.021949 0.030265 -0.014037 -0.003535 -0.071561 -0.049038 -0.062124 0.015002 0.011276 0.053879 -0.027796 0.081715 0.084628 0.001672 0.000129 -0.060899 0.058597 -0.022092 -0.073549 0.005324 0.059405 0.004867 0.030093 0.016734 -0.124681 -0.050525 -0.087943 0.007133 -0.097858 -0.000179 0.043515 -0.058356 
root 0.033385 0.032623 -0.017791 -0.003796 -0.086070 -0.056113 -0.072901 0.015633 0.016004 0.069413 -0.031308 0.099639 0.100142 0.004182 0.001413 -0.074283 0.066678 -0.023729 -0.082278 0.012191 0.072133 0.008775 0.039338 0.027204 -0.150241 -0.062847 -0.102388 -0.001279 -0.118669 0.000519 0.055764 -0.066964 
part 0.024836 0.030864 -0.017788 -0.003769 -0.077737 -0.051580 -0.065640 0.011863 0.016302 0.062307 -0.028713 0.089189 0.092225 0.003361 -0.000936 -0.066590 0.060981 -0.024521 -0.078524 0.006761 0.067024 0.008277 0.033539 0.021204 -0.137888 -0.055453 -0.095272 0.002984 -0.105730 0.002064 0.048688 -0.065261 
Served 0.042431 0.044664 -0.027322 -0.008227 -0.120249 -0.087370 -0.104408 0.018489 0.026897 0.097025 -0.044420 0.139475 0.140809 0.003904 -0.000224 -0.108323 0.096557 -0.032012 -0.117731 0.015613 0.107574 0.011570 0.059029 0.039333 -0.219518 -0.092744 -0.149967 0.002429 -0.167419 0.003985 0.082406 -0.096866 
WARN 0.054793 0.056894 -0.033636 -0.012196 -0.150386 -0.107838 -0.133229 0.022964 0.038933 0.123899 -0.053299 0.172989 0.179360 0.004433 -0.003344 -0.137344 0.121608 -0.040201 -0.146374 0.023379 0.135244 0.009175 0.073197 0.048706 -0.274423 -0.115871 -0.184802 -0.002510 -0.208898 0.007230 0.103534 -0.121249 
Got 0.050613 0.051065 -0.032325 -0.010505 -0.138443 -0.099672 -0.123539 0.019186 0.034591 0.116462 -0.048890 0.161999 0.164421 0.003985 -0.003583 -0.126164 0.110994 -0.037421 -0.137729 0.018994 0.124920 0.010983 0.069583 0.044530 -0.255939 -0.105806 -0.171997 0.000511 -0.195627 0.006786 0.095758 -0.112177 
exception 0.058892 0.059392 -0.033778 -0.010656 -0.159548 -0.115568 -0.141868 0.021933 0.039604 0.131440 -0.057539 0.184377 0.189384 0.004066 -0.004545 -0.144965 0.126465 -0.044200 -0.157151 0.022262 0.140745 0.013258 0.080677 0.051823 -0.294291 -0.124083 -0.195565 -0.001112 -0.221625 0.007039 0.110343 -0.129253 
while 0.049206 0.049371 -0.029845 -0.010067 -0.132677 -0.096430 -0.117302 0.019983 0.033163 0.111017 -0.047672 0.154430 0.158804 0.003278 -0.003361 -0.122748 0.107845 -0.036878 -0.131536 0.019433 0.119984 0.009076 0.066106 0.041980 -0.245349 -0.102186 -0.164251 -0.001396 -0.185245 0.005371 0.089775 -0.107788 
serving 0.062665 0.063991 -0.039245 -0.011835 -0.169907 -0.121387 -0.150998 0.025578 0.041439 0.139480 -0.058083 0.195510 0.202203 0.006550 -0.002810 -0.153476 0.135416 -0.045844 -0.166332 0.025287 0.151214 0.012636 0.084810 0.053966 -0.308559 -0.127751 -0.208885 -0.000361 -0.237016 0.008757 0.115433 -0.134654 
DataBlockScanner 0.026365 0.027999 -0.016979 -0.004685 -0.074781 -0.052986 -0.065907 0.011395 0.019023 0.060254 -0.025191 0.086534 0.088188 0.002037 -0.001673 -0.067223 0.059675 -0.020180 -0.071134 0.011468 0.065349 0.004959 0.036520 0.024598 -0.134779 -0.057145 -0.090179 -0.001773 -0.102101 0.003441 0.051380 -0.059050 
Verification 0.014140 0.016066 -0.010343 -0.002363 -0.041010 -0.028692 -0.035445 0.007703 0.009207 0.032092 -0.013678 0.045527 0.047367 0.000478 -0.000932 -0.036027 0.032068 -0.011577 -0.038422 0.006318 0.035461 0.003006 0.018895 0.012752 -0.073030 -0.030672 -0.047644 -0.001686 -0.053658 0.001783 0.026678 -0.031365 
succeeded 0.018567 0.018682 -0.012577 -0.003901 -0.052399 -0.037491 -0.046483 0.008837 0.012082 0.041745 -0.017207 0.061207 0.059903 0.001552 -0.001371 -0.046642 0.041599 -0.014639 -0.049845 0.006115 0.046053 0.004714 0.025666 0.017755 -0.092313 -0.039870 -0.063508 -0.000257 -0.071681 0.001648 0.035830 -0.040527 
rand 0.023550 0.025071 -0.015086 -0.005186 -0.066193 -0.046419 -0.058232 0.009149 0.016752 0.054870 -0.023604 0.075591 0.078832 0.002126 -0.001145 -0.061536 0.052497 -0.017651 -0.064593 0.010362 0.058787 0.004797 0.032572 0.020786 -0.121138 -0.049711 -0.080416 -0.001412 -0.092260 0.003372 0.043284 -0.052368 
randtxt 0.027363 0.026990 -0.016674 -0.004790 -0.074820 -0.053532 -0.067476 0.011089 0.019223 0.062305 -0.026476 0.087059 0.089881 0.001740 -0.002813 -0.067117 0.059821 -0.020273 -0.074306 0.009795 0.068233 0.005837 0.036391 0.023737 -0.137703 -0.057280 -0.092622 -0.001187 -0.105410 0.002603 0.051136 -0.061683 
sortrand 0.006407 0.006922 -0.004724 -0.001096 -0.019145 -0.013005 -0.016404 0.003292 0.004118 0.014606 -0.005911 0.021858 0.021413 0.000561 -0.000439 -0.016478 0.014550 -0.004557 -0.018774 0.002723 0.016282 0.001624 0.009646 0.006760 -0.034159 -0.013885 -0.022496 -0.000292 -0.026306 0.000869 0.012671 -0.014905 
ask 0.009144 0.009985 -0.005974 -0.002340 -0.027029 -0.018567 -0.023428 0.004212 0.005849 0.022141 -0.009696 0.031203 0.032112 0.000411 -0.000963 -0.023609 0.021318 -0.007246 -0.026705 0.003681 0.023459 0.002844 0.013635 0.008433 -0.049445 -0.020303 -0.033501 0.000864 -0.037264 0.001394 0.018696 -0.021625 
DataNode 0.002863 0.002282 -0.001664 -0.000680 -0.006795 -0.005318 -0.006375 0.000917 0.001864 0.005855 -0.002454 0.007803 0.008495 0.000261 -0.000615 -0.006079 0.005543 -0.001714 -0.007084 0.001020 0.006537 0.000222 0.003278 0.002165 -0.013123 -0.005452 -0.008667 -0.000285 -0.009903 -0.000066 0.004507 -0.005631 
Starting -0.000144 -0.000022 -0.000117 -0.000216 -0.000244 0.000120 -0.000167 -0.000056 0.000036 0.000111 -0.000049 0.000133 -0.000173 0.000068 0.000060 0.000006 -0.000152 0.000095 0.000048 0.000094 -0.000037 0.000214 0.000093 0.000145 -0.000093 -0.000118 -0.000236 0.000170 -0.000271 0.000093 0.000045 -0.000065 
thread 0.000000 0.000000 0.000000 0.000000 0.000000 0.000000 0.000000 0.000000 0.000000 0.000000 0.000000 0.000000 0.000000 0.000000 0.000000 0.000000 0.000000 0.000000 0.000000 0.000000 0.000000 0.000000 0.000000 0.000000 0.000000 0.000000 0.000000 0.000000 0.000000 0.000000 0.000000 0.000000 
transfer 0.004160 0.004467 -0.002772 -0.000788 -0.011861 -0.008350 -0.010178 0.001424 0.002800 0.009522 -0.004338 0.013681 0.013170 0.000342 -0.000044 -0.010505 0.008964 -0.003096 -0.011399 0.001398 0.010355 0.001446 0.006122 0.003795 -0.021662 -0.009288 -0.014486 0.000154 -0.016560 0.000285 0.007786 -0.009516 
replicate 0.000000 0.000000 0.000000 0.000000 0.000000 0.000000 0.000000 0.000000 0.000000 0.000000 0.000000 0.000000 0.000000 0.000000 0.000000 0.000000 0.000000 0.000000 0.000000 0.000000 0.000000 0.000000 0.000000 0.000000 0.000000 0.000000 0.000000 0.000000 0.000000 0.000000 0.000000 0.000000 
datanode 0.001625 0.001760 -0.000745 -0.000338 -0.004338 -0.003364 -0.003785 0.000769 0.001132 0.003668 -0.001726 0.004968 0.005222 -0.000023 -0.000149 -0.004135 0.003345 -0.001325 -0.004439 0.000629 0.004117 0.000376 0.002356 0.001477 -0.008092 -0.003358 -0.005336 -0.000025 -0.006281 0.000006 0.003006 -0.003474 
s 0.008137 0.008385 -0.004846 -0.001307 -0.022348 -0.016504 -0.019622 0.003501 0.005301 0.018210 -0.008140 0.025846 0.026739 0.000603 -0.000358 -0.020543 0.017785 -0.006240 -0.021976 0.003253 0.020210 0.001748 0.011281 0.007197 -0.041154 -0.017343 -0.027552 -0.000393 -0.031311 0.000422 0.015167 -0.018282 
