55 32
</s> 0.012508 0.013811 -0.011970 -0.010244 0.004271 0.009441 0.002940 0.000660 -0.011261 0.006933 -0.013614 0.003905 -0.002348 -0.002991 -0.010362 -0.005882 0.008060 0.009454 0.009278 0.004992 0.004827 -0.011883 -0.012799 0.015530 0.011879 0.009656 -0.001887 0.012549 -0.001547 0.002296 -0.000466 -0.009323 
dfs -0.147137 -0.300270 0.215574 0.023032 0.595227 0.393579 0.475671 -0.130602 -0.096105 -0.353979 0.147961 -0.639220 -0.580069 0.013729 0.063087 0.353821 -0.340754 0.090438 0.618402 -0.035761 -0.517487 -0.128274 -0.322661 -0.209564 0.897888 0.418090 0.732901 -0.064768 0.804807 0.055630 -0.375864 0.488205 
INFO -0.150149 -0.283236 0.228141 -0.005762 0.563255 0.409992 0.485494 -0.117615 -0.092486 -0.343930 0.132016 -0.621042 -0.578473 0.036323 0.078944 0.337012 -0.343120 0.079638 0.640203 -0.012859 -0.515925 -0.114057 -0.307808 -0.182720 0.897433 0.401981 0.709514 -0.073075 0.776164 0.065860 -0.351124 0.480683 
block -0.140634 -0.239206 0.205300 0.012376 0.505862 0.327978 0.431067 -0.108663 -0.085190 -0.307756 0.115090 -0.559587 -0.511338 0.007716 0.082468 0.294777 -0.308303 0.086668 0.533468 -0.000980 -0.453879 -0.127843 -0.273438 -0.169763 0.752553 0.367033 0.635882 -0.057908 0.692549 0.036279 -0.309742 0.426552 
to -0.100968 -0.164725 0.130594 -0.001126 0.319717 0.213444 0.275675 -0.073260 -0.055892 -0.213591 0.061348 -0.379109 -0.342838 0.008236 0.049138 0.207611 -0.205346 0.067862 0.352324 -0.023752 -0.299029 -0.049421 -0.200865 -0.104142 0.503364 0.251959 0.415002 -0.011666 0.445016 0.027294 -0.218079 0.265536 
FSNamesystem -0.126316 -0.226103 0.174815 0.000477 0.436124 0.312475 0.357517 -0.087446 -0.060351 -0.245044 0.087443 -0.480296 -0.436520 0.013787 0.067752 0.251059 -0.263915 0.050733 0.478579 -0.035306 -0.383427 -0.080869 -0.257928 -0.159485 0.661969 0.318867 0.549036 -0.031828 0.594339 0.040309 -0.280770 0.370375 
NameSystem -0.137376 -0.230024 0.185564 0.013919 0.465921 0.324502 0.385692 -0.108479 -0.091274 -0.292061 0.118680 -0.513447 -0.474595 0.011230 0.071876 0.273892 -0.284313 0.087230 0.523885 -0.036607 -0.416297 -0.103883 -0.268564 -0.149070 0.735581 0.347554 0.600660 -0.032163 0.640853 0.064432 -0.288000 0.407960 
size -0.119788 -0.190940 0.179455 0.004592 0.406676 0.314190 0.354196 -0.101453 -0.073550 -0.257162 0.085917 -0.471818 -0.420356 -0.003620 0.045225 0.251591 -0.256084 0.073327 0.464103 -0.019603 -0.372802 -0.085782 -0.243043 -0.130793 0.650743 0.304633 0.536933 -0.054697 0.575369 0.048813 -0.252896 0.355145 
is -0.099242 -0.187955 0.150779 -0.000385 0.358185 0.240036 0.290554 -0.079796 -0.047949 -0.210927 0.092681 -0.390486 -0.346079 0.009115 0.035341 0.228830 -0.208358 0.045500 0.392925 -0.034186 -0.325244 -0.056091 -0.211492 -0.122901 0.551289 0.265841 0.441858 -0.011745 0.493727 0.051920 -0.212302 0.281263 
added -0.094337 -0.192413 0.134236 0.006913 0.353013 0.247430 0.305328 -0.092112 -0.064768 -0.215831 0.073778 -0.378814 -0.369932 0.022441 0.053877 0.229269 -0.200016 0.054261 0.391502 -0.036886 -0.317837 -0.054744 -0.210976 -0.100912 0.544148 0.246616 0.434766 -0.009387 0.494642 0.027654 -0.204770 0.283714 
of -0.097092 -0.141855 0.114461 -0.002674 0.297109 0.204205 0.257783 -0.053068 -0.036306 -0.194526 0.062085 -0.331868 -0.300333 0.024593 0.047235 0.199165 -0.188495 0.051831 0.341964 -0.018623 -0.262749 -0.060451 -0.188240 -0.086686 0.480021 0.210313 0.379660 -0.035948 0.423460 0.021238 -0.178966 0.249729 
for -0.087151 -0.163641 0.109920 -0.002959 0.316809 0.238142 0.255674 -0.084027 -0.044934 -0.189941 0.086421 -0.352702 -0.303005 0.022587 0.036514 0.190061 -0.186899 0.054917 0.360140 0.002726 -0.296384 -0.082825 -0.189549 -0.117044 0.499018 0.219247 0.398725 -0.056255 0.448704 0.047149 -0.206911 0.254383 
addStoredBlock -0.079740 -0.157789 0.120443 0.002239 0.321510 0.231625 0.267297 -0.072811 -0.062897 -0.183393 0.086679 -0.349911 -0.331122 0.012836 0.047005 0.190671 -0.210215 0.045335 0.353304 -0.009152 -0.283023 -0.057446 -0.198525 -0.097960 0.502391 0.248347 0.414222 -0.012554 0.456527 0.037338 -0.213035 0.290676 
blockMap -0.101293 -0.163542 0.154272 0.022693 0.349848 0.256422 0.308140 -0.085956 -0.043745 -0.228229 0.083812 -0.392045 -0.335575 -0.002174 0.041736 0.207513 -0.209719 0.069331 0.379304 -0.032366 -0.320441 -0.059499 -0.200226 -0.108902 0.533714 0.253730 0.447955 -0.042210 0.498747 0.023360 -0.213809 0.290797 
updated -0.071771 -0.138848 0.110215 0.016355 0.302925 0.229600 0.239078 -0.070569 -0.040440 -0.165131 0.077521 -0.336559 -0.302077 0.008534 0.047308 0.193822 -0.196362 0.039600 0.344819 -0.014774 -0.254359 -0.041692 -0.171451 -0.118095 0.484017 0.228685 0.365837 -0.015491 0.397598 0.025972 -0.175323 0.266679 
PacketResponder -0.075946 -0.136562 0.099061 -0.007981 0.285077 0.205923 0.241932 -0.054445 -0.038859 -0.161595 0.066263 -0.301685 -0.284870 0.011675 0.038373 0.167605 -0.157616 0.047546 0.290619 -0.015672 -0.241892 -0.051335 -0.170742 -0.090263 0.438800 0.212825 0.338555 -0.022222 0.374119 0.024164 -0.170361 0.239848 
terminating -0.107506 -0.185468 0.141681 0.008444 0.374165 0.256181 0.289173 -0.080856 -0.051198 -0.223060 0.095029 -0.403602 -0.339668 0.018065 0.033334 0.216471 -0.214880 0.059328 0.400688 -0.011610 -0.323390 -0.079550 -0.214817 -0.122998 0.563240 0.270455 0.459635 -0.060936 0.493813 0.028213 -0.215343 0.315545 
Received -0.052525 -0.114767 0.097012 -0.000168 0.231151 0.158881 0.184101 -0.052413 -0.034620 -0.140169 0.062773 -0.276998 -0.227456 0.003271 0.016966 0.158098 -0.150915 0.036634 0.246442 0.004713 -0.220154 -0.068215 -0.124264 -0.075730 0.378999 0.176744 0.312881 -0.022669 0.341496 0.037730 -0.143688 0.198138 
src -0.075027 -0.134587 0.106244 0.003604 0.308763 0.223020 0.253499 -0.054993 -0.039006 -0.169181 0.062802 -0.339154 -0.293398 0.028812 0.043634 0.186988 -0.196860 0.032357 0.344959 -0.002401 -0.287722 -0.072823 -0.187766 -0.116071 0.486941 0.212307 0.389177 -0.040682 0.413195 0.031271 -0.204682 0.247645 
dest -0.081413 -0.134553 0.110183 0.018573 0.287788 0.226348 0.252222 -0.064204 -0.038430 -0.170057 0.062246 -0.320798 -0.293256 0.009279 0.049730 0.185744 -0.165992 0.046757 0.324604 -0.002563 -0.283704 -0.068546 -0.162387 -0.088517 0.455419 0.224334 0.395304 -0.031951 0.425423 0.040067 -0.174983 0.251083 
from -0.078862 -0.132526 0.094851 0.010237 0.288855 0.214017 0.224205 -0.063669 -0.029119 -0.168854 0.077520 -0.315142 -0.277861 0.014757 0.037236 0.184914 -0.159129 0.055415 0.307823 -0.018200 -0.271020 -0.069725 -0.174127 -0.111179 0.440246 0.220735 0.374877 -0.051281 0.392197 0.044130 -0.183815 0.254038 
Receiving -0.074621 -0.133880 0.095803 0.011697 0.258590 0.196553 0.217526 -0.051130 -0.048307 -0.167648 0.075464 -0.288418 -0.258997 0.017844 0.045677 0.161028 -0.147117 0.052864 0.306265 0.006414 -0.251972 -0.074405 -0.165367 -0.091164 0.418334 0.206394 0.331788 -0.024058 0.386131 0.038773 -0.168977 0.230698 
FSDataset -0.099887 -0.191274 0.143412 -0.010061 0.405806 0.260692 0.340378 -0.099883 -0.054335 -0.225487 0.093793 -0.447021 -0.375397 0.019720 0.053178 0.226064 -0.212577 0.066021 0.447005 0.003323 -0.349872 -0.088028 -0.218535 -0.141595 0.612171 0.283720 0.481902 -0.036802 0.541525 0.046904 -0.266922 0.334640 
Deleting -0.098861 -0.220954 0.159658 0.011522 0.407218 0.282470 0.322633 -0.105406 -0.040405 -0.219475 0.102842 -0.433590 -0.411021 0.007242 0.031699 0.240992 -0.248083 0.057441 0.445860 -0.018584 -0.351993 -0.114428 -0.221450 -0.147079 0.604739 0.276142 0.511848 -0.059097 0.545392 0.032337 -0.267347 0.319761 
file -0.091033 -0.204311 0.149510 0.012826 0.376808 0.246061 0.301891 -0.093619 -0.061675 -0.245633 0.094175 -0.446515 -0.384127 0.019197 0.061451 0.216575 -0.231396 0.076821 0.429875 0.003843 -0.328556 -0.101818 -0.223691 -0.125023 0.592303 0.282227 0.495071 -0.064764 0.513628 0.044103 -0.262661 0.330580 
mnt -0.089814 -0.227025 0.182094 -0.010549 0.440563 0.271235 0.345097 -0.119418 -0.045250 -0.236856 0.083594 -0.473590 -0.410571 0.032500 0.048799 0.232327 -0.243510 0.058562 0.463804 0.002600 -0.381802 -0.116588 -0.238860 -0.147580 0.632253 0.282585 0.530220 -0.069843 0.594615 0.053241 -0.274968 0.357283 
hadoop -0.122510 -0.251897 0.197643 0.010507 0.470987 0.295204 0.372323 -0.099329 -0.067218 -0.267241 0.090768 -0.520507 -0.434433 0.003851 0.057122 0.257636 -0.255247 0.068492 0.515519 -0.024727 -0.399715 -0.126680 -0.268995 -0.160043 0.707834 0.311002 0.581280 -0.061689 0.636803 0.056341 -0.303045 0.366071 
data -0.079621 -0.175095 0.138240 0.004674 0.346970 0.229717 0.289598 -0.099804 -0.028018 -0.211438 0.074029 -0.388857 -0.330721 0.030338 0.030829 0.200398 -0.202210 0.047473 0.376215 0.002450 -0.309283 -0.078766 -0.188328 -0.107190 0.503390 0.218067 0.420281 -0.060504 0.468192 0.038767 -0.213078 0.284566 
current -0.059716 -0.155397 0.137694 0.012791 0.332167 0.203140 0.277638 -0.081022 -0.037165 -0.192002 0.076664 -0.361248 -0.297077 0.021111 0.035370 0.185407 -0.176811 0.038865 0.342182 -0.000115 -0.277797 -0.094853 -0.183470 -0.115322 0.470659 0.233870 0.413855 -0.058358 0.447749 0.027249 -0.202514 0.273600 
delete -0.105607 -0.211944 0.152667 -0.005228 0.384107 0.274031 0.322154 -0.097557 -0.066147 -0.225828 0.072250 -0.440629 -0.383643 0.005958 0.036310 0.236853 -0.238314 0.067433 0.412915 -0.006822 -0.355164 -0.083710 -0.203395 -0.126341 0.564203 0.270374 0.485978 -0.037990 0.535019 0.047518 -0.250531 0.338190 
invalidSet -0.115040 -0.190050 0.144874 -0.008098 0.350428 0.249255 0.294296 -0.081203 -0.069540 -0.207720 0.073494 -0.392610 -0.358332 0.014483 0.049038 0.230759 -0.191668 0.041789 0.387421 -0.029223 -0.290939 -0.064443 -0.189599 -0.109250 0.537405 0.255867 0.416892 -0.002711 0.448966 0.052156 -0.219926 0.284429 
allocateBlock -0.095519 -0.175841 0.152961 0.002352 0.361078 0.271582 0.313337 -0.075743 -0.074974 -0.232731 0.078015 -0.421370 -0.362739 0.023235 0.048908 0.235152 -0.223414 0.050888 0.395249 -0.026985 -0.335182 -0.086803 -0.224259 -0.140377 0.588946 0.285765 0.468525 -0.024612 0.509216 0.023721 -0.256638 0.313673 
user -0.135132 -0.243609 0.174893 0.020180 0.477594 0.340416 0.416018 -0.110421 -0.096289 -0.278182 0.112908 -0.523719 -0.478530 0.030474 0.080326 0.301975 -0.299456 0.065873 0.539560 -0.021608 -0.442477 -0.088844 -0.284613 -0.148592 0.756047 0.363985 0.627806 -0.069171 0.668871 0.067043 -0.321891 0.414543 
root -0.131055 -0.201286 0.155769 0.014700 0.434147 0.288543 0.369060 -0.097135 -0.087731 -0.270391 0.097363 -0.470512 -0.431642 0.019056 0.074776 0.248757 -0.242457 0.054630 0.456688 -0.006624 -0.398980 -0.094475 -0.264099 -0.157559 0.674308 0.319078 0.533222 -0.041592 0.608136 0.049814 -0.292636 0.353335 
part -0.081970 -0.189623 0.145735 0.016563 0.373828 0.251313 0.288547 -0.069657 -0.070259 -0.216933 0.096455 -0.381326 -0.361253 0.004558 0.049565 0.223849 -0.204566 0.063294 0.405528 -0.008775 -0.336529 -0.070421 -0.214477 -0.117914 0.564389 0.250762 0.463274 -0.041416 0.486794 0.025022 -0.233552 0.316817 
Served 0.005352 -0.008421 0.010049 -0.008672 -0.004107 0.010402 -0.009465 0.000035 -0.009140 -0.004069 0.013776 -0.002824 -0.009260 0.001388 0.006042 0.008629 0.003834 -0.005942 -0.004836 0.005587 0.015005 0.011539 -0.014462 -0.001697 -0.014320 0.005491 -0.010631 0.004843 0.010096 -0.002114 -0.004571 -0.011413 
WARN 0.002804 -0.012740 0.000299 0.014475 0.011168 0.011211 0.008372 -0.000988 -0.003387 -0.009852 0.000607 -0.008485 -0.009123 0.008544 -0.002976 -0.013389 0.002262 0.002435 -0.005797 -0.013258 -0.015619 0.009418 -0.003461 0.002163 -0.007591 0.012403 -0.015010 -0.011560 -0.004416 0.002113 0.010825 0.002701 
Got 0.002209 0.008333 0.008126 -0.015111 -0.002855 0.006160 0.012538 0.007756 0.004318 0.009756 0.005017 -0.004381 -0.007032 0.009841 0.005584 0.005608 0.002644 0.004953 0.010819 0.008914 -0.013041 0.001438 -0.006131 -0.015460 0.001091 0.013456 -0.001811 0.013052 0.014277 0.000480 0.012549 -0.004669 
exception 0.003567 -0.007704 0.002282 -0.003683 -0.014925 -0.004750 0.003032 -0.004985 0.013977 -0.007746 -0.004245 0.009490 -0.002989 0.005279 0.000472 0.003121 0.004978 0.001611 0.013764 0.009600 -0.008509 -0.012402 0.008777 0.007931 0.011726 0.008649 -0.002284 -0.015069 0.003672 -0.007012 0.000602 -0.002273 
while 0.006878 0.001649 0.014016 -0.013738 0.006208 0.009731 0.011104 -0.007961 -0.005661 0.000143 0.004071 0.001875 0.003008 -0.005143 0.012938 0.010399 0.009266 -0.007590 0.003037 -0.011198 -0.002024 -0.000851 0.010013 0.009839 -0.006935 -0.002017 0.014821 -0.002176 -0.004980 0.010887 0.006232 0.009888 
serving 0.012142 0.005144 0.012078 -0.014028 -0.001955 -0.012898 0.005504 -0.001171 0.007904 0.002172 -0.001285 0.004027 0.010958 0.009826 0.011733 -0.003807 0.015507 0.008600 0.009889 0.009020 0.006414 0.004840 -0.002423 -0.009738 0.007607 0.012708 -0.012996 -0.010767 -0.011679 -0.008324 -0.001809 0.000565 
DataBlockScanner -0.043519 -0.057600 0.043281 -0.002108 0.111399 0.071751 0.085013 -0.011333 -0.026620 -0.073305 0.039030 -0.146492 -0.128340 -0.007595 0.012383 0.063269 -0.077562 0.005800 0.133550 0.002567 -0.120694 -0.021632 -0.065495 -0.028486 0.176285 0.076067 0.158028 -0.022982 0.178577 0.010047 -0.068032 0.100784 
Verification -0.034709 -0.066585 0.046004 0.016456 0.107925 0.069446 0.084290 -0.016685 -0.009527 -0.083087 0.036948 -0.125893 -0.117788 -0.004384 0.015158 0.069245 -0.068342 0.009950 0.145228 -0.020757 -0.108786 -0.026917 -0.074563 -0.028660 0.195967 0.079416 0.165862 -0.010780 0.176328 0.010616 -0.072805 0.111405 
succeeded -0.020626 -0.042402 0.028683 0.014407 0.091811 0.082077 0.088670 -0.008670 -0.019972 -0.059699 0.019005 -0.110818 -0.090887 -0.007949 0.002948 0.076554 -0.048152 0.006843 0.127514 -0.002310 -0.082746 -0.035563 -0.057875 -0.045558 0.164483 0.067448 0.142956 -0.019217 0.157108 0.004114 -0.082104 0.089067 
rand -0.009769 -0.008223 -0.007392 -0.011281 -0.015078 -0.005757 0.002635 -0.001354 -0.012054 0.014196 -0.003177 -0.014711 -0.000212 0.011108 -0.004807 0.005776 -0.002499 0.014764 -0.005675 0.000048 -0.002802 0.000263 -0.001386 0.009610 -0.008446 0.013013 -0.010982 -0.009973 0.012308 0.012489 -0.014443 -0.001571 
randtxt 0.005260 -0.002776 -0.015189 0.006007 -0.013475 0.004817 -0.008824 -0.008235 0.011276 -0.013072 -0.014392 0.005019 -0.013746 -0.003220 -0.011872 0.009148 0.013508 0.001657 -0.004683 0.006594 0.015402 0.007907 0.011569 0.007611 -0.015388 -0.001559 -0.013408 -0.000986 0.015375 -0.004769 0.002906 0.006684 
sortrand -0.009007 -0.003188 -0.005408 0.001811 -0.009920 0.009532 -0.002706 -0.005352 0.005310 -0.014948 -0.008029 0.003264 0.005922 0.007843 -0.001359 -0.008964 0.000217 0.013940 0.013886 -0.008344 0.004309 0.009693 0.010852 0.015378 0.010872 0.009260 0.001744 -0.013483 -0.010855 0.003364 0.006583 -0.006546 
ask -0.004861 -0.041410 0.014992 0.007389 0.057353 0.049789 0.039938 -0.008152 -0.006575 -0.026437 -0.002202 -0.056608 -0.064018 0.016674 0.002646 0.050011 -0.047276 -0.002876 0.054647 -0.014974 -0.058343 -0.008813 -0.037883 -0.019841 0.100049 0.056163 0.078800 0.007054 0.078242 0.012006 -0.042902 0.040152 
DataNode -0.000431 0.009660 0.004388 -0.008535 0.003050 0.001384 -0.000234 -0.001537 -0.000763 -0.005030 -0.005069 -0.002199 -0.011381 0.012390 0.009902 0.015358 0.010746 -0.010321 0.010011 -0.008924 -0.012018 -0.004315 -0.000348 -0.002292 0.006752 0.013319 -0.008967 -0.009180 0.005045 0.002052 0.004172 -0.003707 
Starting -0.008839 -0.008330 0.004403 -0.014684 0.012465 -0.011479 -0.003881 -0.000606 -0.000870 0.006765 -0.008471 -0.005907 0.014147 0.005874 0.010650 -0.004707 0.003315 -0.015616 -0.012435 0.005435 0.013998 0.011142 -0.010831 0.003521 0.007622 0.006559 -0.003581 0.007620 -0.015326 -0.007393 -0.001916 0.012360 
thread -0.023119 -0.002430 -0.009048 -0.010946 -0.034775 -0.005391 0.012425 0.007095 0.001498 0.022323 0.000480 -0.000893 -0.001796 -0.006245 -0.007347 -0.029106 -0.011519 -0.004086 0.016873 -0.002824 0.011678 -0.019647 -0.006264 0.005011 0.025615 0.002605 -0.002458 0.005987 -0.002060 0.009492 0.017317 0.008027 
transfer 0.011456 0.000612 -0.005332 0.002314 0.005903 0.007717 0.010310 -0.000698 0.004776 0.012777 0.006207 -0.015275 0.008562 0.006515 0.002379 -0.015541 -0.005688 -0.012534 -0.004592 0.000948 0.009390 -0.006772 -0.010312 0.013196 0.015221 0.006711 -0.002574 0.008017 0.012293 -0.012612 0.007392 0.011292 
replicate 0.008907 -0.003706 -0.015082 -0.005788 -0.010073 0.008525 -0.003102 -0.001720 0.010529 0.006994 -0.006961 0.010314 0.008699 0.013671 -0.006639 -0.006309 -0.007259 -0.004157 -0.005553 0.013354 0.010015 -0.008893 0.000690 -0.014194 -0.009300 0.013624 -0.006953 -0.008386 -0.002218 -0.008385 -0.008462 -0.005844 
datanode 0.008312 -0.013884 -0.007255 -0.004125 0.007154 0.003475 0.001063 0.007023 -0.013016 -0.004649 -0.002551 0.014418 0.010790 0.014968 0.001922 0.012688 -0.006878 -0.001639 0.011064 0.004275 0.012594 0.014377 -0.001981 -0.000568 -0.000618 0.014677 0.006246 -0.015024 -0.014776 -0.010018 -0.006738 -0.013214 
s 0.009670 0.001329 -0.013099 0.007304 -0.004915 -0.007435 -0.008443 -0.005718 -0.003357 0.009099 -0.011813 -0.002962 0.014833 0.010406 -0.003190 0.010201 -0.004543 -0.004981 0.014009 0.004961 -0.014124 0.000537 0.012927 -0.008426 0.010017 0.009870 0.005773 -0.011896 0.005869 0.013740 0.012565 -0.010818 
