55 32
</s> 0.012508 0.013811 -0.011970 -0.010244 0.004271 0.009441 0.002940 0.000660 -0.011261 0.006933 -0.013614 0.003905 -0.002348 -0.002991 -0.010362 -0.005882 0.008060 0.009454 0.009278 0.004992 0.004827 -0.011883 -0.012799 0.015530 0.011879 0.009656 -0.001887 0.012549 -0.001547 0.002296 -0.000466 -0.009323 
dfs -0.146107 -0.298718 0.217331 0.022825 0.594814 0.394943 0.474005 -0.127277 -0.097866 -0.354070 0.147309 -0.638562 -0.579812 0.013647 0.062502 0.352710 -0.339101 0.089890 0.617268 -0.031596 -0.518811 -0.124567 -0.324594 -0.213421 0.895256 0.421289 0.735924 -0.061804 0.804861 0.058936 -0.376263 0.489365 
INFO -0.147334 -0.279011 0.233272 -0.006391 0.562436 0.414059 0.481091 -0.108282 -0.097589 -0.344367 0.130187 -0.619498 -0.578063 0.036138 0.077418 0.334021 -0.338646 0.078094 0.637352 -0.000995 -0.519961 -0.103569 -0.313509 -0.193790 0.890495 0.411203 0.718522 -0.064744 0.776765 0.075373 -0.352479 0.484243 
block -0.139745 -0.237872 0.206856 0.012194 0.505544 0.329201 0.429647 -0.105767 -0.086736 -0.307862 0.114529 -0.559063 -0.511159 0.007647 0.081962 0.293830 -0.306885 0.086194 0.532527 0.002660 -0.455077 -0.124611 -0.275153 -0.173149 0.750322 0.369860 0.638580 -0.055323 0.692657 0.039175 -0.310119 0.427602 
to -0.100356 -0.163802 0.131600 -0.001249 0.319434 0.214204 0.274671 -0.071320 -0.056908 -0.213618 0.060959 -0.378680 -0.342648 0.008186 0.048791 0.206938 -0.204360 0.067537 0.351617 -0.021330 -0.299759 -0.047259 -0.201961 -0.106367 0.501767 0.253784 0.416703 -0.009940 0.444988 0.029210 -0.218282 0.266174 
FSNamesystem -0.125497 -0.224865 0.176156 0.000311 0.435735 0.313488 0.356168 -0.084849 -0.061710 -0.245073 0.086916 -0.479708 -0.436259 0.013723 0.067290 0.250152 -0.262591 0.050294 0.477625 -0.032064 -0.384396 -0.077968 -0.259391 -0.162458 0.659816 0.321301 0.551298 -0.029515 0.594287 0.042873 -0.281036 0.371221 
NameSystem -0.136538 -0.228760 0.187004 0.013746 0.465588 0.325624 0.384340 -0.105763 -0.092718 -0.292140 0.118145 -0.512917 -0.474398 0.011166 0.071400 0.272990 -0.282970 0.086780 0.522968 -0.033206 -0.417387 -0.100849 -0.270149 -0.152220 0.733444 0.350173 0.603138 -0.029737 0.640907 0.067134 -0.288330 0.408914 
size -0.119027 -0.189796 0.180803 0.004433 0.406416 0.315255 0.352986 -0.098960 -0.074887 -0.257263 0.085437 -0.471380 -0.420218 -0.003680 0.044792 0.250783 -0.254868 0.072921 0.463308 -0.016468 -0.373845 -0.082995 -0.244530 -0.133715 0.648840 0.307083 0.539274 -0.052462 0.575480 0.051311 -0.253226 0.356063 
is -0.098555 -0.186913 0.151871 -0.000525 0.357821 0.240841 0.289406 -0.077639 -0.049067 -0.210928 0.092236 -0.389956 -0.345820 0.009062 0.034954 0.228058 -0.207239 0.045130 0.392091 -0.031508 -0.326007 -0.053688 -0.212676 -0.125339 0.549450 0.267821 0.443673 -0.009830 0.493627 0.054034 -0.212497 0.281924 
added -0.093629 -0.191340 0.135309 0.006772 0.352592 0.248197 0.304127 -0.089939 -0.065876 -0.215793 0.073318 -0.378219 -0.369614 0.022384 0.053479 0.228455 -0.198861 0.053882 0.390603 -0.034194 -0.318550 -0.052322 -0.212128 -0.103343 0.542209 0.248558 0.436515 -0.007462 0.494462 0.029769 -0.204930 0.284330 
of -0.096485 -0.140940 0.115477 -0.002800 0.296844 0.204982 0.256795 -0.051129 -0.037327 -0.194564 0.061697 -0.331457 -0.300161 0.024547 0.046893 0.198500 -0.187519 0.051509 0.341281 -0.016193 -0.263501 -0.058287 -0.189351 -0.088919 0.478452 0.212154 0.381389 -0.034223 0.423459 0.023164 -0.179181 0.250384 
for -0.086492 -0.162628 0.110906 -0.003089 0.316394 0.238847 0.254541 -0.082000 -0.045963 -0.189896 0.085991 -0.352123 -0.302689 0.022535 0.036145 0.189296 -0.185813 0.054561 0.359281 0.005225 -0.297029 -0.080566 -0.190611 -0.119294 0.497190 0.221040 0.400323 -0.054462 0.448507 0.049112 -0.207042 0.254939 
addStoredBlock -0.079130 -0.156876 0.121520 0.002111 0.321301 0.232473 0.266331 -0.070821 -0.063965 -0.183473 0.086293 -0.349561 -0.331010 0.012790 0.046660 0.190024 -0.209245 0.045011 0.352668 -0.006646 -0.283856 -0.055220 -0.199712 -0.100292 0.500870 0.250299 0.416092 -0.010774 0.456617 0.039333 -0.213300 0.291409 
blockMap -0.100671 -0.162608 0.155387 0.022563 0.349649 0.257311 0.307159 -0.083908 -0.044847 -0.228322 0.083420 -0.391702 -0.335478 -0.002222 0.041382 0.206858 -0.208731 0.069000 0.378666 -0.029786 -0.321315 -0.057211 -0.201458 -0.111310 0.532172 0.255755 0.449902 -0.040377 0.498861 0.025415 -0.214092 0.291566 
updated -0.071197 -0.137990 0.111213 0.016236 0.302716 0.230377 0.238161 -0.068707 -0.041433 -0.165196 0.077157 -0.336215 -0.301955 0.008490 0.046982 0.193207 -0.195444 0.039295 0.344206 -0.012432 -0.255124 -0.039615 -0.172549 -0.120268 0.482570 0.230494 0.367562 -0.013829 0.397660 0.027834 -0.175562 0.267348 
PacketResponder -0.075395 -0.135717 0.099881 -0.008092 0.284725 0.206506 0.240983 -0.052752 -0.039719 -0.161554 0.065902 -0.301196 -0.284602 0.011634 0.038065 0.166965 -0.156707 0.047248 0.289898 -0.013587 -0.242424 -0.049451 -0.171626 -0.092135 0.437269 0.214315 0.339880 -0.020727 0.373947 0.025799 -0.170468 0.240307 
terminating -0.106853 -0.184483 0.142803 0.008309 0.373907 0.257057 0.288120 -0.078739 -0.052323 -0.223123 0.094614 -0.403191 -0.339514 0.018018 0.032965 0.215768 -0.213832 0.058980 0.399978 -0.008956 -0.324242 -0.077191 -0.216054 -0.125452 0.561581 0.272496 0.461569 -0.059050 0.493860 0.030321 -0.215600 0.316291 
Received -0.052041 -0.114033 0.097769 -0.000265 0.230887 0.159432 0.183291 -0.050910 -0.035396 -0.140161 0.062459 -0.276616 -0.227262 0.003234 0.016695 0.157549 -0.150128 0.036375 0.245847 0.006585 -0.220673 -0.066538 -0.125083 -0.077427 0.377694 0.178114 0.314131 -0.021336 0.341409 0.039202 -0.143815 0.198591 
src -0.074463 -0.133734 0.107154 0.003491 0.308484 0.223705 0.252565 -0.053214 -0.039930 -0.169192 0.062441 -0.338738 -0.293204 0.028769 0.043315 0.186360 -0.195948 0.032056 0.344293 -0.000186 -0.288373 -0.070842 -0.188760 -0.118100 0.485452 0.213962 0.390708 -0.039103 0.413142 0.033020 -0.204857 0.248212 
dest -0.080886 -0.133773 0.111161 0.018462 0.287663 0.227139 0.251412 -0.062452 -0.039385 -0.170163 0.061919 -0.320553 -0.293213 0.009240 0.049428 0.185204 -0.165163 0.046478 0.324101 -0.000340 -0.284496 -0.066588 -0.163473 -0.090608 0.454155 0.226110 0.397037 -0.030378 0.425584 0.041843 -0.175256 0.251783 
from -0.078289 -0.131648 0.095733 0.010125 0.288518 0.214654 0.223231 -0.061888 -0.030033 -0.168832 0.077148 -0.314663 -0.277612 0.014709 0.036914 0.184255 -0.158190 0.055108 0.307095 -0.015998 -0.271612 -0.067742 -0.175080 -0.113171 0.438677 0.222338 0.376324 -0.049704 0.392064 0.045860 -0.183949 0.254552 
Receiving -0.074141 -0.133161 0.096631 0.011596 0.258408 0.197198 0.216755 -0.049577 -0.049134 -0.167695 0.075158 -0.288123 -0.258889 0.017811 0.045405 0.160514 -0.146349 0.052607 0.305747 0.008366 -0.252602 -0.072671 -0.166281 -0.092972 0.417117 0.207900 0.333216 -0.022671 0.386171 0.040324 -0.169172 0.231250 
FSDataset -0.099148 -0.190151 0.144611 -0.010211 0.405438 0.261594 0.339153 -0.097542 -0.055555 -0.225505 0.093318 -0.446477 -0.375145 0.019662 0.052762 0.225241 -0.211381 0.065624 0.446132 0.006235 -0.350730 -0.085421 -0.219842 -0.144260 0.610219 0.285899 0.483917 -0.034725 0.541457 0.049206 -0.267152 0.335387 
Deleting -0.098136 -0.219865 0.160921 0.011373 0.406952 0.283460 0.321475 -0.103049 -0.041660 -0.219554 0.102383 -0.433153 -0.410868 0.007188 0.031288 0.240218 -0.246927 0.057052 0.445087 -0.015624 -0.352962 -0.111801 -0.222840 -0.149829 0.602914 0.278435 0.514033 -0.056997 0.545469 0.034691 -0.267648 0.320608 
file -0.090330 -0.203261 0.150769 0.012679 0.376587 0.247063 0.300784 -0.091309 -0.062920 -0.245738 0.093733 -0.446131 -0.384018 0.019146 0.061052 0.215837 -0.230281 0.076445 0.429160 0.006756 -0.329545 -0.099238 -0.225084 -0.127743 0.590571 0.284514 0.497273 -0.062699 0.513762 0.046426 -0.262986 0.331450 
mnt -0.089064 -0.225889 0.183350 -0.010700 0.440230 0.272201 0.343871 -0.117014 -0.046515 -0.236901 0.083116 -0.473080 -0.410357 0.032442 0.048375 0.231505 -0.242304 0.058161 0.462956 0.005606 -0.382730 -0.113910 -0.240235 -0.150346 0.630310 0.284867 0.532359 -0.067708 0.594609 0.055620 -0.275235 0.358093 
hadoop -0.121677 -0.250634 0.199010 0.010338 0.470590 0.296242 0.370949 -0.096678 -0.068604 -0.267271 0.090233 -0.519912 -0.434168 0.003787 0.056652 0.256716 -0.253901 0.068044 0.514550 -0.021423 -0.400706 -0.123727 -0.270489 -0.163074 0.705650 0.313489 0.583591 -0.059334 0.636753 0.058954 -0.303322 0.366934 
data -0.079019 -0.174193 0.139325 0.004547 0.346783 0.230587 0.288650 -0.097815 -0.029091 -0.211530 0.073650 -0.388530 -0.330634 0.030296 0.030489 0.199767 -0.201256 0.047149 0.375608 0.004956 -0.310139 -0.076545 -0.189530 -0.109532 0.501910 0.220040 0.422182 -0.058727 0.468312 0.040768 -0.213360 0.285320 
current -0.059116 -0.154487 0.138690 0.012670 0.331894 0.203902 0.276654 -0.079102 -0.038171 -0.192032 0.076281 -0.360831 -0.296895 0.021067 0.035033 0.184748 -0.175843 0.038541 0.341498 0.002278 -0.278529 -0.092716 -0.184563 -0.117523 0.469100 0.235683 0.415548 -0.056654 0.447732 0.029145 -0.202721 0.274237 
delete -0.102886 -0.207934 0.158031 -0.005882 0.383753 0.278451 0.318111 -0.088269 -0.071353 -0.226540 0.070504 -0.439584 -0.383697 0.005812 0.034833 0.234112 -0.234083 0.065939 0.410573 0.005114 -0.359651 -0.073242 -0.209380 -0.137633 0.557937 0.279976 0.495615 -0.029662 0.536260 0.057156 -0.252182 0.342169 
invalidSet -0.114388 -0.189075 0.145987 -0.008233 0.350170 0.250115 0.293246 -0.079103 -0.070654 -0.207777 0.073080 -0.392194 -0.358174 0.014434 0.048669 0.230055 -0.190622 0.041440 0.386709 -0.026589 -0.291779 -0.062101 -0.190820 -0.111686 0.535742 0.257884 0.418802 -0.000838 0.449004 0.054248 -0.220179 0.285163 
allocateBlock -0.094817 -0.174779 0.154110 0.002209 0.360743 0.272453 0.312180 -0.073515 -0.076140 -0.232756 0.077565 -0.420867 -0.362513 0.023181 0.048512 0.234376 -0.222278 0.050513 0.394432 -0.024205 -0.336014 -0.084317 -0.225514 -0.142925 0.587103 0.287854 0.470465 -0.022629 0.509173 0.025920 -0.256866 0.314398 
user -0.134198 -0.242193 0.176428 0.019988 0.477149 0.341581 0.414480 -0.107450 -0.097844 -0.278216 0.112306 -0.523052 -0.478232 0.030404 0.079801 0.300941 -0.297946 0.065371 0.538478 -0.017899 -0.443589 -0.085528 -0.286289 -0.151989 0.753596 0.366772 0.630395 -0.066529 0.668817 0.069978 -0.322198 0.415512 
root -0.130251 -0.200069 0.157142 0.014538 0.433818 0.289607 0.367756 -0.094534 -0.089111 -0.270462 0.096851 -0.469995 -0.431440 0.018993 0.074321 0.247885 -0.241164 0.054201 0.455798 -0.003367 -0.400014 -0.091573 -0.265608 -0.160570 0.672248 0.321578 0.535581 -0.039273 0.608174 0.052399 -0.292945 0.354240 
part -0.081340 -0.188680 0.146861 0.016432 0.373628 0.252207 0.287553 -0.067587 -0.071373 -0.217025 0.096060 -0.380980 -0.361153 0.004510 0.049207 0.223188 -0.203566 0.062958 0.404883 -0.006167 -0.337412 -0.068110 -0.215723 -0.120350 0.562831 0.252810 0.465243 -0.039564 0.486910 0.027101 -0.233840 0.317594 
Served 0.005352 -0.008421 0.010049 -0.008672 -0.004107 0.010402 -0.009465 0.000035 -0.009140 -0.004069 0.013776 -0.002824 -0.009260 0.001388 0.006042 0.008629 0.003834 -0.005942 -0.004836 0.005587 0.015005 0.011539 -0.014462 -0.001697 -0.014320 0.005491 -0.010631 0.004843 0.010096 -0.002114 -0.004571 -0.011413 
WARN 0.002804 -0.012740 0.000299 0.014475 0.011168 0.011211 0.008372 -0.000988 -0.003387 -0.009852 0.000607 -0.008485 -0.009123 0.008544 -0.002976 -0.013389 0.002262 0.002435 -0.005797 -0.013258 -0.015619 0.009418 -0.003461 0.002163 -0.007591 0.012403 -0.015010 -0.011560 -0.004416 0.002113 0.010825 0.002701 
Got 0.002209 0.008333 0.008126 -0.015111 -0.002855 0.006160 0.012538 0.007756 0.004318 0.009756 0.005017 -0.004381 -0.007032 0.009841 0.005584 0.005608 0.002644 0.004953 0.010819 0.008914 -0.013041 0.001438 -0.006131 -0.015460 0.001091 0.013456 -0.001811 0.013052 0.014277 0.000480 0.012549 -0.004669 
exception 0.003567 -0.007704 0.002282 -0.003683 -0.014925 -0.004750 0.003032 -0.004985 0.013977 -0.007746 -0.004245 0.009490 -0.002989 0.005279 0.000472 0.003121 0.004978 0.001611 0.013764 0.009600 -0.008509 -0.012402 0.008777 0.007931 0.011726 0.008649 -0.002284 -0.015069 0.003672 -0.007012 0.000602 -0.002273 
while 0.006878 0.001649 0.014016 -0.013738 0.006208 0.009731 0.011104 -0.007961 -0.005661 0.000143 0.004071 0.001875 0.003008 -0.005143 0.012938 0.010399 0.009266 -0.007590 0.003037 -0.011198 -0.002024 -0.000851 0.010013 0.009839 -0.006935 -0.002017 0.014821 -0.002176 -0.004980 0.010887 0.006232 0.009888 
serving 0.012142 0.005144 0.012078 -0.014028 -0.001955 -0.012898 0.005504 -0.001171 0.007904 0.002172 -0.001285 0.004027 0.010958 0.009826 0.011733 -0.003807 0.015507 0.008600 0.009889 0.009020 0.006414 0.004840 -0.002423 -0.009738 0.007607 0.012708 -0.012996 -0.010767 -0.011679 -0.008324 -0.001809 0.000565 
DataBlockScanner -0.043276 -0.057230 0.043645 -0.002157 0.111248 0.072012 0.084599 -0.010589 -0.026998 -0.073289 0.038872 -0.146282 -0.128227 -0.007613 0.012247 0.062989 -0.077165 0.005669 0.133238 0.003486 -0.120933 -0.020803 -0.065887 -0.029313 0.175617 0.076726 0.158619 -0.022325 0.178508 0.010768 -0.068083 0.100990 
Verification -0.034487 -0.066254 0.046410 0.016409 0.107863 0.069773 0.083943 -0.015948 -0.009927 -0.083126 0.036809 -0.125780 -0.117762 -0.004400 0.015032 0.069014 -0.067990 0.009832 0.145009 -0.019826 -0.109111 -0.026093 -0.075013 -0.029533 0.195426 0.080153 0.166578 -0.010120 0.176384 0.011360 -0.072914 0.111691 
succeeded -0.020432 -0.042114 0.029039 0.014366 0.091759 0.082365 0.088369 -0.008026 -0.020321 -0.059734 0.018884 -0.110721 -0.090866 -0.007963 0.002838 0.076354 -0.047846 0.006740 0.127325 -0.001495 -0.083032 -0.034843 -0.058271 -0.046322 0.164013 0.068095 0.143585 -0.018640 0.157160 0.004765 -0.082201 0.089319 
rand -0.009769 -0.008223 -0.007392 -0.011281 -0.015078 -0.005757 0.002635 -0.001354 -0.012054 0.014196 -0.003177 -0.014711 -0.000212 0.011108 -0.004807 0.005776 -0.002499 0.014764 -0.005675 0.000048 -0.002802 0.000263 -0.001386 0.009610 -0.008446 0.013013 -0.010982 -0.009973 0.012308 0.012489 -0.014443 -0.001571 
randtxt 0.005260 -0.002776 -0.015189 0.006007 -0.013475 0.004817 -0.008824 -0.008235 0.011276 -0.013072 -0.014392 0.005019 -0.013746 -0.003220 -0.011872 0.009148 0.013508 0.001657 -0.004683 0.006594 0.015402 0.007907 0.011569 0.007611 -0.015388 -0.001559 -0.013408 -0.000986 0.015375 -0.004769 0.002906 0.006684 
sortrand -0.009007 -0.003188 -0.005408 0.001811 -0.009920 0.009532 -0.002706 -0.005352 0.005310 -0.014948 -0.008029 0.003264 0.005922 0.007843 -0.001359 -0.008964 0.000217 0.013940 0.013886 -0.008344 0.004309 0.009693 0.010852 0.015378 0.010872 0.009260 0.001744 -0.013483 -0.010855 0.003364 0.006583 -0.006546 
ask -0.004747 -0.041239 0.015186 0.007365 0.057307 0.049938 0.039754 -0.007784 -0.006769 -0.026447 -0.002275 -0.056534 -0.063989 0.016666 0.002583 0.049887 -0.047093 -0.002937 0.054522 -0.014513 -0.058490 -0.008404 -0.038097 -0.020266 0.099758 0.056515 0.079133 0.007381 0.078248 0.012371 -0.042945 0.040280 
DataNode -0.000431 0.009660 0.004388 -0.008535 0.003050 0.001384 -0.000234 -0.001537 -0.000763 -0.005030 -0.005069 -0.002199 -0.011381 0.012390 0.009902 0.015358 0.010746 -0.010321 0.010011 -0.008924 -0.012018 -0.004315 -0.000348 -0.002292 0.006752 0.013319 -0.008967 -0.009180 0.005045 0.002052 0.004172 -0.003707 
Starting -0.008839 -0.008330 0.004403 -0.014684 0.012465 -0.011479 -0.003881 -0.000606 -0.000870 0.006765 -0.008471 -0.005907 0.014147 0.005874 0.010650 -0.004707 0.003315 -0.015616 -0.012435 0.005435 0.013998 0.011142 -0.010831 0.003521 0.007622 0.006559 -0.003581 0.007620 -0.015326 -0.007393 -0.001916 0.012360 
thread -0.021988 -0.000843 -0.006534 -0.011268 -0.034601 -0.003206 0.010931 0.011098 -0.000826 0.021811 -0.000214 -0.000812 -0.002175 -0.006258 -0.007971 -0.030130 -0.009860 -0.004698 0.016244 0.002421 0.009375 -0.015127 -0.009040 -0.000033 0.023393 0.007060 0.002168 0.009585 -0.001049 0.013756 0.016390 0.010078 
transfer 0.011456 0.000612 -0.005332 0.002314 0.005903 0.007717 0.010310 -0.000698 0.004776 0.012777 0.006207 -0.015275 0.008562 0.006515 0.002379 -0.015541 -0.005688 -0.012534 -0.004592 0.000948 0.009390 -0.006772 -0.010312 0.013196 0.015221 0.006711 -0.002574 0.008017 0.012293 -0.012612 0.007392 0.011292 
replicate 0.008907 -0.003706 -0.015082 -0.005788 -0.010073 0.008525 -0.003102 -0.001720 0.010529 0.006994 -0.006961 0.010314 0.008699 0.013671 -0.006639 -0.006309 -0.007259 -0.004157 -0.005553 0.013354 0.010015 -0.008893 0.000690 -0.014194 -0.009300 0.013624 -0.006953 -0.008386 -0.002218 -0.008385 -0.008462 -0.005844 
datanode 0.008312 -0.013884 -0.007255 -0.004125 0.007154 0.003475 0.001063 0.007023 -0.013016 -0.004649 -0.002551 0.014418 0.010790 0.014968 0.001922 0.012688 -0.006878 -0.001639 0.011064 0.004275 0.012594 0.014377 -0.001981 -0.000568 -0.000618 0.014677 0.006246 -0.015024 -0.014776 -0.010018 -0.006738 -0.013214 
s 0.009670 0.001329 -0.013099 0.007304 -0.004915 -0.007435 -0.008443 -0.005718 -0.003357 0.009099 -0.011813 -0.002962 0.014833 0.010406 -0.003190 0.010201 -0.004543 -0.004981 0.014009 0.004961 -0.014124 0.000537 0.012927 -0.008426 0.010017 0.009870 0.005773 -0.011896 0.005869 0.013740 0.012565 -0.010818 
