55 32
</s> 0.012508 0.013811 -0.011970 -0.010244 0.004271 0.009441 0.002940 0.000660 -0.011261 0.006933 -0.013614 0.003905 -0.002348 -0.002991 -0.010362 -0.005882 0.008060 0.009454 0.009278 0.004992 0.004827 -0.011883 -0.012799 0.015530 0.011879 0.009656 -0.001887 0.012549 -0.001547 0.002296 -0.000466 -0.009323 
dfs -0.168627 -0.186149 0.093499 0.050999 0.491116 0.337398 0.418203 -0.068002 -0.129897 -0.403817 0.182912 -0.549995 -0.576773 -0.024294 -0.001099 0.440165 -0.385368 0.131623 0.449342 -0.081287 -0.426385 -0.035283 -0.227390 -0.167186 0.882611 0.366745 0.593136 0.000176 0.672218 -0.028044 -0.337910 0.388436 
INFO -0.152801 -0.161620 0.106336 0.009156 0.419290 0.326676 0.394653 -0.049969 -0.113444 -0.362848 0.152705 -0.494111 -0.539365 0.007305 0.008443 0.388655 -0.356206 0.105451 0.447277 -0.054189 -0.400845 -0.023861 -0.177189 -0.117035 0.818973 0.319361 0.515602 -0.009403 0.592667 -0.015184 -0.283958 0.354102 
block -0.149894 -0.145895 0.101930 0.028498 0.409322 0.264093 0.367565 -0.058111 -0.101801 -0.331378 0.137848 -0.470695 -0.487668 -0.022817 0.025421 0.346876 -0.326860 0.114676 0.385760 -0.029557 -0.363166 -0.056091 -0.183136 -0.130870 0.709319 0.301227 0.496385 -0.010315 0.561879 -0.030138 -0.268638 0.327492 
to -0.123787 -0.112679 0.068543 0.012895 0.284633 0.199411 0.261187 -0.039365 -0.079255 -0.258207 0.086941 -0.356562 -0.369184 -0.013251 0.012276 0.283844 -0.251849 0.094542 0.282848 -0.058002 -0.269399 0.005647 -0.161280 -0.089775 0.540526 0.240696 0.363263 0.032513 0.403519 -0.017852 -0.213188 0.225215 
FSNamesystem -0.159985 -0.160503 0.099855 0.020445 0.407355 0.302588 0.359656 -0.048308 -0.092248 -0.320874 0.127313 -0.472553 -0.487274 -0.011491 0.023934 0.360550 -0.330821 0.091327 0.405546 -0.074441 -0.361146 -0.016996 -0.215021 -0.142357 0.739022 0.316833 0.504467 0.015331 0.567389 -0.021772 -0.282294 0.332399 
NameSystem -0.164869 -0.148853 0.096760 0.033313 0.395429 0.293869 0.350875 -0.057378 -0.122906 -0.347050 0.150719 -0.461355 -0.492641 -0.019535 0.019607 0.369028 -0.335339 0.121020 0.407749 -0.084707 -0.360252 -0.021020 -0.202808 -0.117140 0.756833 0.319011 0.508335 0.033557 0.561756 0.002153 -0.263070 0.337912 
size -0.123820 -0.102423 0.084547 0.018767 0.300619 0.252478 0.285193 -0.050984 -0.089295 -0.264240 0.098772 -0.371354 -0.383725 -0.027734 -0.002926 0.290097 -0.263814 0.089160 0.314341 -0.049293 -0.278076 -0.013070 -0.156784 -0.090992 0.582634 0.240726 0.392497 -0.002190 0.435483 -0.008564 -0.204134 0.254188 
is -0.138874 -0.151816 0.097983 0.019627 0.371654 0.257818 0.320863 -0.048563 -0.084589 -0.300939 0.140568 -0.421723 -0.430070 -0.014260 -0.000883 0.353366 -0.292803 0.086624 0.366632 -0.076127 -0.340460 -0.004379 -0.193745 -0.124246 0.680199 0.292856 0.449937 0.032642 0.524505 0.000739 -0.239482 0.280406 
added -0.157056 -0.178700 0.093969 0.032872 0.428588 0.307721 0.388732 -0.071106 -0.122633 -0.361849 0.145845 -0.487364 -0.531637 -0.008045 0.014749 0.414179 -0.340534 0.115985 0.422350 -0.088778 -0.387882 -0.005298 -0.222401 -0.122699 0.791021 0.323633 0.518420 0.042050 0.611105 -0.027070 -0.275961 0.332742 
of -0.157854 -0.135669 0.084104 0.018001 0.376804 0.267091 0.344113 -0.039682 -0.089358 -0.329659 0.126335 -0.438077 -0.461630 -0.001847 0.014224 0.371017 -0.320364 0.106708 0.384227 -0.068676 -0.331437 -0.013030 -0.202221 -0.108201 0.716092 0.284816 0.465989 0.011347 0.537984 -0.027272 -0.247732 0.302513 
for -0.100914 -0.108886 0.047030 0.008979 0.270645 0.212149 0.233838 -0.055091 -0.064480 -0.220822 0.108784 -0.313477 -0.311661 0.002384 0.001363 0.240415 -0.215413 0.075609 0.280534 -0.021834 -0.252532 -0.030645 -0.137830 -0.096937 0.505055 0.192469 0.329888 -0.021485 0.387055 0.005855 -0.193622 0.205638 
addStoredBlock -0.083462 -0.090933 0.046400 0.016980 0.249842 0.189531 0.218700 -0.035647 -0.078460 -0.198962 0.104441 -0.286450 -0.312299 -0.007205 0.007499 0.228940 -0.226374 0.063709 0.245500 -0.028214 -0.220946 -0.010254 -0.136402 -0.071994 0.472837 0.208251 0.321562 0.020479 0.365700 -0.004750 -0.185157 0.223351 
blockMap -0.135656 -0.117228 0.095661 0.040343 0.338920 0.261459 0.318599 -0.054660 -0.072003 -0.298760 0.119837 -0.396372 -0.393527 -0.025221 0.002620 0.311905 -0.277760 0.105508 0.327622 -0.076231 -0.310461 -0.002636 -0.168987 -0.103164 0.616130 0.261828 0.422653 0.004470 0.488643 -0.030100 -0.223852 0.267804 
updated -0.094456 -0.096211 0.057987 0.031722 0.284810 0.223314 0.240568 -0.042235 -0.064947 -0.218778 0.108356 -0.329671 -0.338102 -0.012128 0.012714 0.271389 -0.243002 0.068714 0.291510 -0.044744 -0.238542 0.000420 -0.138214 -0.108043 0.538012 0.226217 0.334127 0.021483 0.381118 -0.018238 -0.179187 0.240011 
PacketResponder -0.113292 -0.112289 0.058146 0.005439 0.313409 0.235277 0.283077 -0.034069 -0.068760 -0.241909 0.109116 -0.344579 -0.369535 -0.005173 0.010539 0.275900 -0.235170 0.082428 0.287331 -0.049386 -0.266461 -0.009638 -0.164716 -0.097182 0.570607 0.244867 0.360777 0.010983 0.418225 -0.017755 -0.203059 0.252623 
terminating -0.121165 -0.118916 0.069218 0.023239 0.314322 0.223716 0.256201 -0.042493 -0.071881 -0.253675 0.119319 -0.353490 -0.341262 -0.007150 -0.007243 0.271620 -0.243439 0.082673 0.302987 -0.040041 -0.270724 -0.024782 -0.157560 -0.099456 0.562133 0.240188 0.378428 -0.018127 0.420361 -0.020810 -0.194900 0.254770 
Received -0.076599 -0.090218 0.057567 0.012211 0.240851 0.172359 0.205214 -0.037589 -0.060099 -0.199655 0.096381 -0.299091 -0.288159 -0.009677 -0.008899 0.238015 -0.209607 0.063387 0.231360 -0.017614 -0.228944 -0.036686 -0.110263 -0.075739 0.469085 0.191400 0.319135 -0.000984 0.356748 0.006729 -0.166495 0.196677 
src -0.079269 -0.070918 0.038844 0.017710 0.233939 0.175088 0.206110 -0.020849 -0.052894 -0.178825 0.071228 -0.270005 -0.268837 0.007911 0.010210 0.210633 -0.199537 0.047560 0.236612 -0.023668 -0.218107 -0.025594 -0.125975 -0.086403 0.435565 0.166852 0.288389 -0.005232 0.315985 -0.014149 -0.173062 0.177398 
dest -0.108595 -0.094448 0.058095 0.033248 0.283646 0.232122 0.267983 -0.041316 -0.068711 -0.235029 0.095035 -0.333833 -0.353218 -0.010561 0.017769 0.273534 -0.228375 0.079135 0.286431 -0.028593 -0.280117 -0.024680 -0.132512 -0.081239 0.537825 0.230436 0.381458 0.000513 0.423812 -0.003200 -0.190047 0.237381 
from -0.104936 -0.093797 0.046358 0.023630 0.273249 0.213104 0.229869 -0.040630 -0.056611 -0.222412 0.104664 -0.311819 -0.323747 -0.003901 0.007558 0.262760 -0.209705 0.081579 0.264127 -0.049009 -0.257700 -0.023198 -0.144646 -0.099765 0.497699 0.219685 0.347946 -0.012603 0.375637 0.004134 -0.188611 0.231241 
Receiving -0.111258 -0.109457 0.057395 0.024191 0.274660 0.217259 0.248398 -0.030591 -0.083901 -0.245336 0.113319 -0.324752 -0.338475 -0.002724 0.016949 0.263824 -0.221198 0.087707 0.294576 -0.029846 -0.266309 -0.030460 -0.155444 -0.091546 0.534523 0.233120 0.344304 0.015947 0.414517 -0.001007 -0.196831 0.235007 
FSDataset -0.177796 -0.180487 0.101659 0.022397 0.520199 0.344407 0.455855 -0.087564 -0.113720 -0.402936 0.185775 -0.596095 -0.584850 -0.019297 0.006951 0.443703 -0.385774 0.145605 0.508464 -0.052079 -0.446825 -0.043740 -0.237731 -0.173967 0.926137 0.384931 0.612634 0.003880 0.701444 -0.018609 -0.360365 0.412315 
Deleting -0.150302 -0.177160 0.096366 0.040024 0.437729 0.313161 0.371231 -0.080313 -0.084939 -0.338658 0.169846 -0.487242 -0.527653 -0.025748 -0.013100 0.388603 -0.356433 0.116545 0.427719 -0.065516 -0.379113 -0.056798 -0.203738 -0.148561 0.778594 0.318981 0.541442 -0.014102 0.595627 -0.029910 -0.306631 0.333258 
file -0.148173 -0.185003 0.100789 0.044161 0.460985 0.308439 0.392063 -0.083908 -0.110633 -0.397184 0.177128 -0.559424 -0.557108 -0.009493 0.016786 0.399047 -0.377765 0.145299 0.467067 -0.039328 -0.398025 -0.059909 -0.228673 -0.145684 0.851723 0.356748 0.589212 -0.034156 0.630775 -0.018137 -0.341265 0.385001 
mnt -0.096748 -0.130683 0.085222 0.008858 0.342484 0.212553 0.281516 -0.070228 -0.060935 -0.249113 0.102408 -0.378393 -0.375320 0.002907 0.001991 0.269005 -0.252072 0.082694 0.317290 -0.028248 -0.293630 -0.042040 -0.156156 -0.110751 0.575204 0.229206 0.398201 -0.022215 0.460481 -0.008436 -0.229425 0.267475 
hadoop -0.152563 -0.173925 0.107396 0.034049 0.428625 0.276820 0.359414 -0.057076 -0.099615 -0.333829 0.134884 -0.494203 -0.473872 -0.028451 0.007728 0.357996 -0.315682 0.111551 0.421330 -0.062697 -0.361482 -0.054840 -0.208823 -0.139142 0.763741 0.301179 0.517625 -0.008949 0.583476 -0.008177 -0.295825 0.321911 
data -0.159158 -0.176681 0.109651 0.037018 0.475271 0.332436 0.419042 -0.094601 -0.090904 -0.392023 0.167472 -0.550190 -0.550193 -0.001965 -0.005458 0.417924 -0.375785 0.124091 0.463949 -0.052823 -0.422640 -0.038375 -0.222899 -0.143237 0.836333 0.333129 0.572180 -0.021388 0.650350 -0.016771 -0.315378 0.380014 
current -0.104667 -0.123607 0.090323 0.035741 0.365090 0.238750 0.324763 -0.062566 -0.072925 -0.289349 0.130081 -0.412336 -0.400699 -0.005989 0.000114 0.309228 -0.271896 0.085617 0.338154 -0.038955 -0.308743 -0.050701 -0.175237 -0.121543 0.624825 0.273167 0.448910 -0.024831 0.500837 -0.024048 -0.240261 0.289191 
delete -0.100790 -0.118149 0.066241 0.004198 0.271554 0.201741 0.242145 -0.047815 -0.068913 -0.218625 0.081280 -0.327083 -0.322691 -0.013955 -0.007447 0.248169 -0.226671 0.080749 0.260339 -0.031559 -0.254699 -0.019321 -0.113824 -0.082099 0.468774 0.201268 0.330255 0.003634 0.386290 -0.006227 -0.186501 0.237152 
invalidSet -0.119166 -0.112494 0.071475 0.008347 0.273061 0.203650 0.242836 -0.040130 -0.080707 -0.219657 0.088330 -0.321371 -0.329654 -0.008950 0.009826 0.265999 -0.207103 0.059974 0.270000 -0.053531 -0.225598 -0.009525 -0.126430 -0.082802 0.496033 0.214077 0.317046 0.033938 0.354719 0.004141 -0.183704 0.214228 
allocateBlock -0.147531 -0.140721 0.098763 0.026428 0.392500 0.308100 0.363632 -0.046575 -0.121270 -0.348587 0.135507 -0.478387 -0.480072 -0.003251 0.010002 0.384090 -0.333427 0.102118 0.387056 -0.071911 -0.366985 -0.033289 -0.210553 -0.146141 0.766094 0.326263 0.498819 0.021725 0.563774 -0.032011 -0.298806 0.326836 
user -0.130006 -0.124323 0.062045 0.035822 0.325166 0.245568 0.307574 -0.049117 -0.103957 -0.263544 0.118355 -0.374384 -0.395544 -0.001532 0.024966 0.312650 -0.280668 0.083258 0.338426 -0.049157 -0.307457 -0.008157 -0.169959 -0.092909 0.619435 0.267938 0.427056 -0.009963 0.466920 0.002305 -0.240420 0.276519 
root -0.138609 -0.111520 0.063745 0.031204 0.336138 0.232292 0.303882 -0.048739 -0.102775 -0.286671 0.116040 -0.379693 -0.401697 -0.010553 0.022419 0.293117 -0.256867 0.079509 0.313682 -0.037810 -0.313292 -0.024749 -0.180968 -0.120404 0.621442 0.260787 0.401177 0.007913 0.479586 -0.008874 -0.247181 0.258981 
part -0.116044 -0.140585 0.086428 0.034985 0.358572 0.250688 0.295544 -0.039347 -0.103938 -0.289987 0.134417 -0.386829 -0.417995 -0.022617 0.011251 0.322435 -0.269879 0.102817 0.354086 -0.043354 -0.326520 -0.017557 -0.178195 -0.106360 0.644263 0.255071 0.438992 0.000391 0.475756 -0.023079 -0.241325 0.295829 
Served 0.005352 -0.008421 0.010049 -0.008672 -0.004107 0.010402 -0.009465 0.000035 -0.009140 -0.004069 0.013776 -0.002824 -0.009260 0.001388 0.006042 0.008629 0.003834 -0.005942 -0.004836 0.005587 0.015005 0.011539 -0.014462 -0.001697 -0.014320 0.005491 -0.010631 0.004843 0.010096 -0.002114 -0.004571 -0.011413 
WARN 0.002804 -0.012740 0.000299 0.014475 0.011168 0.011211 0.008372 -0.000988 -0.003387 -0.009852 0.000607 -0.008485 -0.009123 0.008544 -0.002976 -0.013389 0.002262 0.002435 -0.005797 -0.013258 -0.015619 0.009418 -0.003461 0.002163 -0.007591 0.012403 -0.015010 -0.011560 -0.004416 0.002113 0.010825 0.002701 
Got 0.002209 0.008333 0.008126 -0.015111 -0.002855 0.006160 0.012538 0.007756 0.004318 0.009756 0.005017 -0.004381 -0.007032 0.009841 0.005584 0.005608 0.002644 0.004953 0.010819 0.008914 -0.013041 0.001438 -0.006131 -0.015460 0.001091 0.013456 -0.001811 0.013052 0.014277 0.000480 0.012549 -0.004669 
exception 0.003567 -0.007704 0.002282 -0.003683 -0.014925 -0.004750 0.003032 -0.004985 0.013977 -0.007746 -0.004245 0.009490 -0.002989 0.005279 0.000472 0.003121 0.004978 0.001611 0.013764 0.009600 -0.008509 -0.012402 0.008777 0.007931 0.011726 0.008649 -0.002284 -0.015069 0.003672 -0.007012 0.000602 -0.002273 
while 0.006878 0.001649 0.014016 -0.013738 0.006208 0.009731 0.011104 -0.007961 -0.005661 0.000143 0.004071 0.001875 0.003008 -0.005143 0.012938 0.010399 0.009266 -0.007590 0.003037 -0.011198 -0.002024 -0.000851 0.010013 0.009839 -0.006935 -0.002017 0.014821 -0.002176 -0.004980 0.010887 0.006232 0.009888 
serving 0.012142 0.005144 0.012078 -0.014028 -0.001955 -0.012898 0.005504 -0.001171 0.007904 0.002172 -0.001285 0.004027 0.010958 0.009826 0.011733 -0.003807 0.015507 0.008600 0.009889 0.009020 0.006414 0.004840 -0.002423 -0.009738 0.007607 0.012708 -0.012996 -0.010767 -0.011679 -0.008324 -0.001809 0.000565 
DataBlockScanner -0.041927 -0.028869 0.015017 0.001330 0.075485 0.048318 0.059554 0.002830 -0.028281 -0.069885 0.040365 -0.111593 -0.109083 -0.014996 -0.001362 0.066649 -0.073644 0.010287 0.084469 -0.003386 -0.088704 -0.002226 -0.037701 -0.015162 0.144324 0.053366 0.110437 -0.009210 0.130686 -0.005401 -0.049789 0.068119 
Verification -0.027786 -0.032376 0.013856 0.019715 0.058637 0.037069 0.046476 -0.000497 -0.007377 -0.068736 0.034850 -0.075110 -0.082327 -0.011186 0.000882 0.060371 -0.053636 0.010746 0.083476 -0.024112 -0.065274 -0.007591 -0.040479 -0.011502 0.140291 0.046272 0.102391 0.001029 0.110791 -0.003930 -0.045150 0.068064 
succeeded -0.020297 -0.018068 0.004774 0.017870 0.064093 0.064183 0.069738 0.003830 -0.021201 -0.059741 0.021751 -0.084168 -0.077604 -0.014153 -0.009536 0.083446 -0.047646 0.011697 0.087928 -0.008018 -0.057881 -0.019075 -0.035573 -0.035086 0.143158 0.050374 0.105428 -0.007905 0.120711 -0.010663 -0.067905 0.063020 
rand -0.009769 -0.008223 -0.007392 -0.011281 -0.015078 -0.005757 0.002635 -0.001354 -0.012054 0.014196 -0.003177 -0.014711 -0.000212 0.011108 -0.004807 0.005776 -0.002499 0.014764 -0.005675 0.000048 -0.002802 0.000263 -0.001386 0.009610 -0.008446 0.013013 -0.010982 -0.009973 0.012308 0.012489 -0.014443 -0.001571 
randtxt 0.005260 -0.002776 -0.015189 0.006007 -0.013475 0.004817 -0.008824 -0.008235 0.011276 -0.013072 -0.014392 0.005019 -0.013746 -0.003220 -0.011872 0.009148 0.013508 0.001657 -0.004683 0.006594 0.015402 0.007907 0.011569 0.007611 -0.015388 -0.001559 -0.013408 -0.000986 0.015375 -0.004769 0.002906 0.006684 
sortrand -0.009007 -0.003188 -0.005408 0.001811 -0.009920 0.009532 -0.002706 -0.005352 0.005310 -0.014948 -0.008029 0.003264 0.005922 0.007843 -0.001359 -0.008964 0.000217 0.013940 0.013886 -0.008344 0.004309 0.009693 0.010852 0.015378 0.010872 0.009260 0.001744 -0.013483 -0.010855 0.003364 0.006583 -0.006546 
ask -0.003277 -0.023769 -0.000657 0.010245 0.032634 0.034071 0.021870 0.001274 -0.007267 -0.021899 -0.002996 -0.032180 -0.046902 0.012154 -0.003934 0.047837 -0.040646 -0.000783 0.023633 -0.019300 -0.037780 0.003360 -0.022095 -0.010377 0.074226 0.042426 0.048541 0.015547 0.047064 0.004394 -0.028666 0.019752 
DataNode -0.000431 0.009660 0.004388 -0.008535 0.003050 0.001384 -0.000234 -0.001537 -0.000763 -0.005030 -0.005069 -0.002199 -0.011381 0.012390 0.009902 0.015358 0.010746 -0.010321 0.010011 -0.008924 -0.012018 -0.004315 -0.000348 -0.002292 0.006752 0.013319 -0.008967 -0.009180 0.005045 0.002052 0.004172 -0.003707 
Starting -0.008839 -0.008330 0.004403 -0.014684 0.012465 -0.011479 -0.003881 -0.000606 -0.000870 0.006765 -0.008471 -0.005907 0.014147 0.005874 0.010650 -0.004707 0.003315 -0.015616 -0.012435 0.005435 0.013998 0.011142 -0.010831 0.003521 0.007622 0.006559 -0.003581 0.007620 -0.015326 -0.007393 -0.001916 0.012360 
thread -0.017455 -0.001607 -0.009011 -0.011092 -0.013046 0.000244 0.011498 0.009275 0.000926 0.014066 0.004894 -0.001277 0.006087 -0.006348 -0.003661 -0.017377 -0.005310 0.002743 0.015674 -0.002212 0.009977 -0.012762 -0.004483 -0.008138 0.016092 -0.003253 -0.008678 0.003635 -0.001056 0.008508 0.010818 0.008022 
transfer 0.011456 0.000612 -0.005332 0.002314 0.005903 0.007717 0.010310 -0.000698 0.004776 0.012777 0.006207 -0.015275 0.008562 0.006515 0.002379 -0.015541 -0.005688 -0.012534 -0.004592 0.000948 0.009390 -0.006772 -0.010312 0.013196 0.015221 0.006711 -0.002574 0.008017 0.012293 -0.012612 0.007392 0.011292 
replicate 0.008907 -0.003706 -0.015082 -0.005788 -0.010073 0.008525 -0.003102 -0.001720 0.010529 0.006994 -0.006961 0.010314 0.008699 0.013671 -0.006639 -0.006309 -0.007259 -0.004157 -0.005553 0.013354 0.010015 -0.008893 0.000690 -0.014194 -0.009300 0.013624 -0.006953 -0.008386 -0.002218 -0.008385 -0.008462 -0.005844 
datanode 0.008312 -0.013884 -0.007255 -0.004125 0.007154 0.003475 0.001063 0.007023 -0.013016 -0.004649 -0.002551 0.014418 0.010790 0.014968 0.001922 0.012688 -0.006878 -0.001639 0.011064 0.004275 0.012594 0.014377 -0.001981 -0.000568 -0.000618 0.014677 0.006246 -0.015024 -0.014776 -0.010018 -0.006738 -0.013214 
s 0.009670 0.001329 -0.013099 0.007304 -0.004915 -0.007435 -0.008443 -0.005718 -0.003357 0.009099 -0.011813 -0.002962 0.014833 0.010406 -0.003190 0.010201 -0.004543 -0.004981 0.014009 0.004961 -0.014124 0.000537 0.012927 -0.008426 0.010017 0.009870 0.005773 -0.011896 0.005869 0.013740 0.012565 -0.010818 
