55 32
</s> 0.000000 0.000000 0.000000 0.000000 0.000000 0.000000 0.000000 0.000000 0.000000 0.000000 0.000000 0.000000 0.000000 0.000000 0.000000 0.000000 0.000000 0.000000 0.000000 0.000000 0.000000 0.000000 0.000000 0.000000 0.000000 0.000000 0.000000 0.000000 0.000000 0.000000 0.000000 0.000000 
dfs 0.097133 0.177917 -0.143122 -0.012264 -0.360415 -0.247565 -0.295746 0.079373 0.061188 0.218555 -0.086502 0.397180 0.358985 -0.005686 -0.047689 -0.214072 0.211817 -0.057123 -0.388207 0.019378 0.320949 0.072982 0.206468 0.125826 -0.551316 -0.266720 -0.457157 0.030779 -0.496507 -0.037826 0.229433 -0.305331 
INFO 0.091799 0.171003 -0.135319 -0.002252 -0.335046 -0.239882 -0.280452 0.074104 0.056451 0.194965 -0.072937 0.365446 0.336089 -0.013900 -0.044332 -0.200619 0.201300 -0.043321 -0.370558 0.018229 0.297925 0.061182 0.193379 0.114869 -0.514611 -0.241676 -0.421047 0.028013 -0.457217 -0.036405 0.215411 -0.282342 
block 0.085548 0.159595 -0.127475 -0.002085 -0.309980 -0.207336 -0.261808 0.071894 0.056541 0.189925 -0.069548 0.345713 0.314578 -0.010307 -0.042424 -0.190109 0.183230 -0.047311 -0.337467 0.015557 0.272803 0.058328 0.175583 0.100105 -0.474289 -0.227002 -0.387699 0.020205 -0.423681 -0.035814 0.194801 -0.260067 
to 0.077560 0.149072 -0.120552 -0.009769 -0.310607 -0.212104 -0.253633 0.064764 0.046861 0.187847 -0.075064 0.344200 0.301065 -0.012928 -0.040429 -0.184352 0.183552 -0.050200 -0.337846 0.005465 0.280797 0.073625 0.181272 0.109999 -0.479992 -0.228128 -0.398330 0.043371 -0.428572 -0.031544 0.199470 -0.263299 
FSNamesystem 0.055597 0.125776 -0.093692 -0.004599 -0.246596 -0.166031 -0.191259 0.055646 0.027770 0.134756 -0.058796 0.267132 0.235149 -0.008125 -0.025877 -0.138863 0.141468 -0.034977 -0.268017 -0.000365 0.214390 0.060896 0.134934 0.091006 -0.367304 -0.168675 -0.304336 0.034546 -0.330327 -0.030342 0.156113 -0.202317 
NameSystem 0.076135 0.143761 -0.115635 -0.004419 -0.292180 -0.198276 -0.236869 0.067926 0.039906 0.173924 -0.068042 0.321508 0.282596 -0.011337 -0.035859 -0.167826 0.168871 -0.049971 -0.318627 0.004799 0.261407 0.071100 0.167476 0.101074 -0.441870 -0.207538 -0.366472 0.039130 -0.399455 -0.034492 0.181248 -0.243804 
size 0.052405 0.103960 -0.080398 -0.001050 -0.200755 -0.132033 -0.164312 0.045490 0.032698 0.114817 -0.044440 0.215297 0.194568 -0.006696 -0.026058 -0.113491 0.108595 -0.028267 -0.217504 0.006476 0.172725 0.048075 0.113082 0.068326 -0.298691 -0.139525 -0.245601 0.018059 -0.266505 -0.023057 0.128579 -0.162103 
is 0.072792 0.138440 -0.113447 -0.004668 -0.285395 -0.193768 -0.235015 0.064000 0.039952 0.169986 -0.064089 0.315376 0.275709 -0.013994 -0.035811 -0.163209 0.168227 -0.043350 -0.310017 0.000344 0.259714 0.068598 0.163639 0.100834 -0.431227 -0.203865 -0.362399 0.042225 -0.390215 -0.033791 0.183582 -0.239014 
added 0.059626 0.123496 -0.093053 -0.003277 -0.244017 -0.168457 -0.200973 0.053278 0.038616 0.143500 -0.055696 0.265151 0.238936 -0.016023 -0.032924 -0.142603 0.138642 -0.035471 -0.268221 0.000795 0.222196 0.062172 0.140423 0.082515 -0.377250 -0.171889 -0.311277 0.036983 -0.341879 -0.030242 0.156142 -0.203782 
of 0.054872 0.109121 -0.085366 -0.004276 -0.219139 -0.152622 -0.183709 0.047532 0.033102 0.130046 -0.052483 0.238423 0.212909 -0.013543 -0.030848 -0.128111 0.126353 -0.031454 -0.244736 0.003236 0.197355 0.043523 0.127882 0.072729 -0.337830 -0.156327 -0.274035 0.025969 -0.303833 -0.023546 0.138426 -0.183240 
for 0.057170 0.108615 -0.087147 -0.002438 -0.214477 -0.152209 -0.180022 0.048109 0.036330 0.124979 -0.044236 0.240644 0.213540 -0.008695 -0.030525 -0.131749 0.127186 -0.028752 -0.239974 0.010795 0.194565 0.046737 0.127408 0.076251 -0.333606 -0.156626 -0.275211 0.015255 -0.299830 -0.029896 0.144575 -0.179402 
addStoredBlock 0.052308 0.102236 -0.075453 -0.001657 -0.200836 -0.138181 -0.168306 0.042537 0.030646 0.120005 -0.043343 0.221323 0.197083 -0.014085 -0.026893 -0.122466 0.112988 -0.029540 -0.220116 0.000946 0.183181 0.047871 0.117784 0.068040 -0.305909 -0.143087 -0.254589 0.025075 -0.279029 -0.022461 0.133498 -0.167782 
blockMap 0.061142 0.118065 -0.090938 -0.002889 -0.229475 -0.155752 -0.188563 0.051472 0.034270 0.140051 -0.052151 0.255156 0.221079 -0.009432 -0.023909 -0.139190 0.130574 -0.037406 -0.244854 0.005180 0.208182 0.055166 0.130376 0.076929 -0.346199 -0.162584 -0.291252 0.029547 -0.317963 -0.025591 0.149234 -0.188004 
updated 0.028634 0.061415 -0.040565 -0.002728 -0.117663 -0.077152 -0.090183 0.025453 0.015376 0.063987 -0.027780 0.125687 0.114477 -0.007873 -0.013859 -0.071177 0.066534 -0.013214 -0.126184 -0.000370 0.098665 0.031660 0.061137 0.045048 -0.174496 -0.080590 -0.142462 0.017350 -0.151711 -0.012505 0.074359 -0.096485 
PacketResponder 0.047674 0.097103 -0.077576 -0.001926 -0.186869 -0.124759 -0.153005 0.043547 0.030935 0.109879 -0.039931 0.208734 0.186482 -0.002355 -0.022440 -0.111961 0.109999 -0.027812 -0.201093 0.009364 0.163604 0.039688 0.108043 0.065325 -0.283867 -0.135341 -0.235239 0.013195 -0.256326 -0.019588 0.123517 -0.155143 
terminating 0.036574 0.074100 -0.059419 -0.005581 -0.145579 -0.094817 -0.120545 0.034639 0.022628 0.087163 -0.029856 0.161284 0.143595 -0.005319 -0.018446 -0.089270 0.085323 -0.020258 -0.160289 0.008640 0.129265 0.026885 0.085304 0.046307 -0.220987 -0.103325 -0.183277 0.008438 -0.201481 -0.015964 0.091652 -0.120279 
Received 0.044248 0.093197 -0.070556 -0.003183 -0.178982 -0.122278 -0.147006 0.041739 0.029943 0.104163 -0.040182 0.195696 0.177081 -0.006813 -0.024004 -0.104690 0.104273 -0.025002 -0.195188 0.006377 0.155478 0.033914 0.102294 0.061596 -0.271201 -0.127974 -0.220478 0.011059 -0.240986 -0.017008 0.115737 -0.149082 
src 0.045962 0.099543 -0.076888 -0.000241 -0.194543 -0.129476 -0.155349 0.046593 0.028106 0.111069 -0.042772 0.213957 0.186226 -0.008821 -0.019660 -0.112762 0.113473 -0.024799 -0.210283 0.008872 0.168505 0.039404 0.112564 0.068113 -0.294494 -0.133827 -0.242001 0.024815 -0.259571 -0.023242 0.127033 -0.158078 
dest 0.045200 0.088728 -0.069399 -0.001509 -0.172608 -0.120102 -0.142117 0.043154 0.024404 0.102120 -0.037177 0.192531 0.168787 -0.008396 -0.021092 -0.105018 0.096854 -0.025361 -0.190995 0.007110 0.153695 0.033993 0.101231 0.057765 -0.263842 -0.124501 -0.217529 0.018280 -0.236180 -0.023480 0.109585 -0.142675 
from 0.052431 0.099341 -0.071137 -0.002089 -0.192911 -0.131012 -0.156756 0.042589 0.029412 0.112881 -0.043996 0.210477 0.188024 -0.010536 -0.025636 -0.115386 0.108873 -0.027659 -0.209495 0.007696 0.168932 0.037515 0.111200 0.067374 -0.289121 -0.138708 -0.237037 0.016151 -0.256628 -0.022236 0.124186 -0.159779 
Receiving 0.052796 0.099335 -0.077888 -0.001266 -0.186630 -0.127508 -0.154046 0.043747 0.031160 0.116461 -0.042701 0.209210 0.186590 -0.005213 -0.023371 -0.109761 0.107387 -0.031579 -0.207782 0.008999 0.162028 0.040000 0.109933 0.061010 -0.285174 -0.135135 -0.235451 0.018881 -0.258994 -0.021541 0.118553 -0.158984 
FSDataset 0.045172 0.065846 -0.055655 -0.000997 -0.140527 -0.104808 -0.122649 0.027012 0.030790 0.091693 -0.032930 0.158929 0.142924 -0.004856 -0.024482 -0.088220 0.083494 -0.023835 -0.159943 0.006518 0.130112 0.021183 0.086347 0.045298 -0.229010 -0.109305 -0.179979 0.006492 -0.198390 -0.018916 0.087716 -0.124572 
Deleting 0.066102 0.109258 -0.085990 -0.005219 -0.218877 -0.166731 -0.181723 0.041678 0.039501 0.131212 -0.051236 0.239300 0.226894 -0.004325 -0.029328 -0.140446 0.138824 -0.033088 -0.243728 0.013236 0.203340 0.041481 0.131627 0.075529 -0.348108 -0.163612 -0.283509 0.017161 -0.305595 -0.023263 0.135357 -0.184490 
file 0.055851 0.093697 -0.072128 -0.003327 -0.191262 -0.141263 -0.160617 0.038797 0.038349 0.122261 -0.046860 0.217723 0.195784 -0.010236 -0.029640 -0.125504 0.117661 -0.031474 -0.214115 0.008876 0.176834 0.033045 0.116935 0.066325 -0.309629 -0.150980 -0.248053 0.013410 -0.266137 -0.024589 0.123105 -0.167942 
mnt 0.043885 0.068097 -0.054280 -0.000834 -0.150692 -0.119303 -0.132125 0.030884 0.029046 0.089756 -0.036936 0.162940 0.157532 -0.010639 -0.025028 -0.102035 0.095262 -0.020528 -0.166622 0.005084 0.145157 0.019261 0.092038 0.051252 -0.242389 -0.121567 -0.193772 0.004972 -0.215718 -0.016936 0.091076 -0.134765 
hadoop 0.059426 0.089844 -0.069434 -0.005506 -0.184861 -0.144747 -0.157663 0.032850 0.038968 0.114815 -0.048643 0.203052 0.193618 -0.002172 -0.029119 -0.121351 0.114785 -0.030809 -0.210043 0.017079 0.172160 0.026706 0.113220 0.063925 -0.302639 -0.147785 -0.241502 0.005321 -0.259165 -0.022646 0.115131 -0.160819 
data 0.055644 0.086860 -0.067633 -0.003786 -0.178271 -0.135913 -0.150695 0.036909 0.031293 0.110322 -0.041006 0.199674 0.183815 -0.007323 -0.027422 -0.116447 0.111148 -0.027416 -0.197709 0.010677 0.166671 0.026331 0.108703 0.060142 -0.283306 -0.137608 -0.229462 0.012131 -0.247910 -0.022227 0.111810 -0.155256 
current 0.058166 0.091050 -0.079380 -0.004977 -0.190877 -0.141755 -0.163535 0.037860 0.038031 0.122311 -0.043628 0.216843 0.197857 -0.003945 -0.030443 -0.122752 0.120212 -0.032278 -0.210738 0.008775 0.178564 0.037850 0.114831 0.064590 -0.303947 -0.149890 -0.251830 0.013712 -0.270391 -0.022306 0.117454 -0.166264 
delete 0.042969 0.083385 -0.069982 -0.007169 -0.182511 -0.129233 -0.151354 0.040134 0.022671 0.106886 -0.045175 0.200612 0.173015 -0.007555 -0.023463 -0.100791 0.111211 -0.028330 -0.200476 -0.002907 0.168766 0.044347 0.106942 0.066589 -0.280351 -0.130484 -0.237395 0.035544 -0.259396 -0.018049 0.117868 -0.157408 
invalidSet 0.037840 0.075516 -0.063530 -0.004939 -0.167306 -0.114210 -0.135936 0.036003 0.021986 0.096688 -0.043728 0.180513 0.159122 -0.009679 -0.022602 -0.093276 0.095377 -0.022970 -0.183262 -0.002047 0.147079 0.042661 0.096916 0.059405 -0.260859 -0.119456 -0.208747 0.028911 -0.227322 -0.016453 0.106795 -0.138025 
allocateBlock 0.036506 0.077749 -0.066294 0.002075 -0.155670 -0.108681 -0.127827 0.035866 0.018881 0.094450 -0.034817 0.174786 0.155027 -0.004917 -0.015389 -0.093414 0.090795 -0.025556 -0.169343 0.002510 0.138579 0.034459 0.085489 0.053382 -0.235011 -0.107442 -0.192857 0.010182 -0.214338 -0.016204 0.092922 -0.127504 
user 0.017282 0.037380 -0.026827 0.001136 -0.065101 -0.043706 -0.054284 0.017852 0.004536 0.034960 -0.014798 0.071128 0.064274 -0.002024 -0.006316 -0.038754 0.038759 -0.011190 -0.075451 0.001952 0.055223 0.010677 0.033624 0.016620 -0.093660 -0.042663 -0.080922 0.008309 -0.088193 -0.011756 0.035472 -0.051784 
root 0.023972 0.043801 -0.035978 0.002033 -0.086591 -0.056912 -0.069704 0.023594 0.006824 0.051615 -0.016678 0.099695 0.082870 -0.001711 -0.006897 -0.049128 0.049554 -0.014148 -0.090508 0.002974 0.073199 0.021875 0.046342 0.031127 -0.124672 -0.058750 -0.104486 0.007060 -0.120007 -0.010345 0.049637 -0.067622 
part 0.026044 0.062052 -0.049055 0.000193 -0.120547 -0.085276 -0.093212 0.027723 0.012444 0.068119 -0.028932 0.134973 0.114571 -0.003958 -0.009547 -0.072738 0.071923 -0.021029 -0.132796 0.005044 0.104984 0.026315 0.067880 0.041115 -0.181666 -0.085581 -0.153875 0.013676 -0.162855 -0.013540 0.072708 -0.103211 
Served 0.039842 0.074850 -0.059503 -0.002271 -0.150077 -0.105601 -0.123708 0.031512 0.024408 0.089537 -0.034469 0.166853 0.147942 -0.005505 -0.020552 -0.089807 0.088108 -0.022539 -0.165300 0.003648 0.135180 0.031462 0.086702 0.052410 -0.230916 -0.109986 -0.190971 0.015602 -0.206722 -0.017746 0.095378 -0.127705 
WARN 0.035620 0.062563 -0.049105 -0.001739 -0.126897 -0.087924 -0.105862 0.026279 0.019927 0.076865 -0.028533 0.140825 0.125505 -0.006497 -0.018181 -0.077670 0.075940 -0.019913 -0.140125 0.002867 0.115530 0.026870 0.075656 0.043358 -0.196694 -0.092873 -0.161175 0.014055 -0.175211 -0.014236 0.081515 -0.105638 
Got 0.042312 0.081661 -0.062778 -0.001575 -0.160146 -0.110819 -0.132663 0.035515 0.025807 0.096470 -0.036964 0.176068 0.159742 -0.007065 -0.020146 -0.095901 0.093069 -0.024141 -0.175894 0.005228 0.142812 0.033639 0.091931 0.054932 -0.246295 -0.114147 -0.200138 0.016728 -0.220396 -0.017845 0.101468 -0.132487 
exception 0.045497 0.084481 -0.067979 -0.001910 -0.171005 -0.118139 -0.140173 0.036773 0.027623 0.102074 -0.038606 0.189648 0.168610 -0.006564 -0.022585 -0.101918 0.101798 -0.025421 -0.185458 0.005960 0.153052 0.035382 0.098474 0.059950 -0.262648 -0.124272 -0.215146 0.015991 -0.232564 -0.019726 0.108513 -0.143595 
while 0.049375 0.088700 -0.070357 -0.003206 -0.179658 -0.125907 -0.150109 0.039313 0.031032 0.108795 -0.041289 0.198501 0.179399 -0.006717 -0.024933 -0.108610 0.105837 -0.027416 -0.196559 0.006883 0.162128 0.037266 0.104025 0.062354 -0.277134 -0.131317 -0.227549 0.016792 -0.247463 -0.020044 0.113916 -0.150959 
serving 0.048005 0.088818 -0.069510 -0.002803 -0.179622 -0.123609 -0.148158 0.040013 0.027997 0.107684 -0.042681 0.197451 0.176398 -0.006687 -0.022728 -0.106208 0.103148 -0.028029 -0.194538 0.005521 0.159926 0.037965 0.101733 0.062843 -0.272839 -0.129937 -0.224234 0.019224 -0.244894 -0.020722 0.113984 -0.150250 
DataBlockScanner 0.020271 0.039429 -0.032524 -0.001312 -0.080317 -0.054321 -0.065566 0.020023 0.012290 0.046790 -0.018573 0.088659 0.077971 -0.003254 -0.010724 -0.047171 0.047312 -0.013299 -0.086392 0.002098 0.069937 0.016939 0.045506 0.027773 -0.119867 -0.058628 -0.099435 0.008096 -0.108089 -0.008945 0.048746 -0.066125 
Verification 0.021138 0.042052 -0.033882 0.000210 -0.084539 -0.057055 -0.069970 0.019951 0.012244 0.049058 -0.017728 0.090820 0.082805 -0.005359 -0.012101 -0.048856 0.049028 -0.013321 -0.089134 0.002550 0.073799 0.016874 0.047936 0.028665 -0.127197 -0.061276 -0.102777 0.006949 -0.111709 -0.009861 0.052115 -0.069713 
succeeded 0.015619 0.031469 -0.024432 -0.000624 -0.063721 -0.047178 -0.051935 0.015770 0.009852 0.035356 -0.014230 0.070334 0.062511 -0.002776 -0.007638 -0.037897 0.037706 -0.010043 -0.069462 0.000692 0.055267 0.013592 0.035846 0.022800 -0.097121 -0.046651 -0.078783 0.006562 -0.084470 -0.007773 0.040493 -0.053044 
rand 0.011771 0.022606 -0.017624 -0.000415 -0.044787 -0.030595 -0.037185 0.010930 0.007659 0.026611 -0.010369 0.049626 0.044924 -0.001737 -0.005508 -0.027626 0.026719 -0.006760 -0.048755 0.001560 0.040422 0.008989 0.025972 0.014750 -0.068655 -0.032769 -0.056736 0.003593 -0.062083 -0.005494 0.028225 -0.037390 
randtxt 0.018639 0.035463 -0.028384 -0.000809 -0.071775 -0.049102 -0.058948 0.015577 0.010987 0.042305 -0.015867 0.079475 0.071286 -0.003031 -0.009981 -0.041797 0.042478 -0.010676 -0.079553 0.000967 0.064144 0.015779 0.041026 0.025015 -0.109499 -0.050734 -0.090152 0.008399 -0.097627 -0.007739 0.045714 -0.060483 
sortrand 0.004507 0.007989 -0.005149 -0.000382 -0.015690 -0.011529 -0.013174 0.003603 0.002452 0.007952 -0.003959 0.016861 0.015347 -0.000776 -0.002526 -0.009544 0.009081 -0.001941 -0.018090 0.000715 0.013748 0.002819 0.008850 0.005873 -0.024293 -0.011961 -0.019631 0.001646 -0.020910 -0.002271 0.010914 -0.013442 
ask -0.001290 -0.003480 0.002454 -0.000031 0.006675 0.004518 0.004521 -0.001714 -0.000694 -0.002901 0.001647 -0.007314 -0.005612 -0.000728 -0.000284 0.002832 -0.003955 0.001080 0.006598 0.000519 -0.005363 -0.002024 -0.002357 -0.003339 0.008526 0.004233 0.008282 -0.001883 0.008079 0.001150 -0.004936 0.006113 
DataNode 0.001564 0.003382 -0.002614 -0.000205 -0.006773 -0.004666 -0.005433 0.001372 0.001337 0.004039 -0.001714 0.007269 0.006687 -0.000203 -0.000812 -0.004078 0.003976 -0.001011 -0.007173 0.000298 0.005996 0.001366 0.003954 0.002377 -0.010392 -0.004951 -0.008524 0.000529 -0.009198 -0.000552 0.004489 -0.005822 
Starting 0.001970 0.003971 -0.003312 -0.000270 -0.008377 -0.005718 -0.006436 0.001943 0.000934 0.004632 -0.001915 0.009082 0.007502 -0.000433 -0.000885 -0.004752 0.004793 -0.001050 -0.009058 0.000163 0.007011 0.001640 0.004743 0.002992 -0.012476 -0.005872 -0.010056 0.001145 -0.010945 -0.000759 0.004752 -0.007063 
thread 0.000000 0.000000 0.000000 0.000000 0.000000 0.000000 0.000000 0.000000 0.000000 0.000000 0.000000 0.000000 0.000000 0.000000 0.000000 0.000000 0.000000 0.000000 0.000000 0.000000 0.000000 0.000000 0.000000 0.000000 0.000000 0.000000 0.000000 0.000000 0.000000 0.000000 0.000000 0.000000 
transfer 0.004544 0.008903 -0.007273 -0.000086 -0.017907 -0.012811 -0.015490 0.004081 0.002918 0.011060 -0.004022 0.019915 0.017976 -0.001367 -0.002381 -0.010931 0.010720 -0.002423 -0.019920 0.000382 0.016398 0.003419 0.010337 0.006087 -0.027765 -0.012986 -0.022755 0.002140 -0.024750 -0.002095 0.011400 -0.015118 
replicate 0.002293 0.004719 -0.003327 -0.000334 -0.008518 -0.006020 -0.006976 0.001985 0.001274 0.004866 -0.002059 0.009539 0.008835 -0.000373 -0.001356 -0.005020 0.005497 -0.001230 -0.009744 0.000367 0.007520 0.001972 0.005108 0.003012 -0.013178 -0.006486 -0.011357 0.001283 -0.011659 -0.000918 0.006011 -0.007339 
datanode 0.001098 0.002218 -0.001651 -0.000099 -0.004392 -0.003072 -0.003639 0.001078 0.000760 0.002599 -0.001000 0.004894 0.004619 -0.000191 -0.000696 -0.002777 0.002793 -0.000719 -0.004863 0.000253 0.003860 0.000594 0.002720 0.001449 -0.006836 -0.003355 -0.005499 0.000048 -0.006044 -0.000347 0.002771 -0.003763 
s 0.004732 0.008917 -0.006350 -0.000249 -0.017237 -0.012028 -0.014109 0.003951 0.003015 0.010445 -0.004045 0.018717 0.017389 -0.000770 -0.002147 -0.010831 0.009623 -0.002675 -0.018453 0.001188 0.015235 0.003107 0.009703 0.005940 -0.026249 -0.012393 -0.021206 0.001310 -0.023133 -0.002064 0.010817 -0.014127 
