2000 32
1 -0.1344488337635994 -0.13895916814605394 0.07935983253022035 0.02105166669934988 0.36968399584293365 0.26655150204896927 0.32558950036764145 -0.05128916725516319 -0.09171050041913986 -0.3024081736803055 0.13511400173107782 -0.4210578352212906 -0.4377106676499049 -0.008290833483139673 0.006237333155392359 0.32727183898289997 -0.293742669125398 0.09874333317081134 0.3588718424240748 -0.0460489991431435 -0.3300188332796097 -0.030049999865392845 -0.17463683833678564 -0.11811100070675214 0.6747830013434092 0.27747616668542224 0.445702667037646 -0.008028500160435215 0.5087341666221619 -0.0176793336092184 -0.24701450020074844 0.297176830470562
2 -0.1344488337635994 -0.13895916814605394 0.07935983253022035 0.02105166669934988 0.36968399584293365 0.26655150204896927 0.32558950036764145 -0.05128916725516319 -0.09171050041913986 -0.3024081736803055 0.13511400173107782 -0.4210578352212906 -0.4377106676499049 -0.008290833483139673 0.006237333155392359 0.32727183898289997 -0.293742669125398 0.09874333317081134 0.3588718424240748 -0.0460489991431435 -0.3300188332796097 -0.030049999865392845 -0.17463683833678564 -0.11811100070675214 0.6747830013434092 0.27747616668542224 0.445702667037646 -0.008028500160435215 0.5087341666221619 -0.0176793336092184 -0.24701450020074844 0.297176830470562
3 -0.13667209107767453 -0.13701045513153076 0.08559454503384503 0.02610172729261897 0.36111418361013586 0.26838754388419067 0.32338445024056867 -0.05147427286614071 -0.09542518176815727 -0.30330218374729156 0.12894627316431564 -0.42068272829055786 -0.44132700020616705 -0.014168999919837172 0.008812181799757209 0.3374652713537216 -0.30035181749950757 0.09760572625832124 0.3600651838562705 -0.06509209051728249 -0.32676308805292303 -0.011520909182515672 -0.1818382740020752 -0.11405736614357341 0.6744361817836761 0.2832869982177561 0.4476362710649317 0.017373454677660695 0.5094639171253551 -0.01533472733254629 -0.24438117986375635 0.29423327202146704
4 -0.1344488337635994 -0.13895916814605394 0.07935983253022035 0.02105166669934988 0.36968399584293365 0.26655150204896927 0.32558950036764145 -0.05128916725516319 -0.09171050041913986 -0.3024081736803055 0.13511400173107782 -0.4210578352212906 -0.4377106676499049 -0.008290833483139673 0.006237333155392359 0.32727183898289997 -0.293742669125398 0.09874333317081134 0.3588718424240748 -0.0460489991431435 -0.3300188332796097 -0.030049999865392845 -0.17463683833678564 -0.11811100070675214 0.6747830013434092 0.27747616668542224 0.445702667037646 -0.008028500160435215 0.5087341666221619 -0.0176793336092184 -0.24701450020074844 0.297176830470562
5 -0.1344488337635994 -0.13895916814605394 0.07935983253022035 0.02105166669934988 0.36968399584293365 0.26655150204896927 0.32558950036764145 -0.05128916725516319 -0.09171050041913986 -0.3024081736803055 0.13511400173107782 -0.4210578352212906 -0.4377106676499049 -0.008290833483139673 0.006237333155392359 0.32727183898289997 -0.293742669125398 0.09874333317081134 0.3588718424240748 -0.0460489991431435 -0.3300188332796097 -0.030049999865392845 -0.17463683833678564 -0.11811100070675214 0.6747830013434092 0.27747616668542224 0.445702667037646 -0.008028500160435215 0.5087341666221619 -0.0176793336092184 -0.24701450020074844 0.297176830470562
6 -0.13667209107767453 -0.13701045513153076 0.08559454503384503 0.02610172729261897 0.36111418361013586 0.26838754388419067 0.32338445024056867 -0.05147427286614071 -0.09542518176815727 -0.30330218374729156 0.12894627316431564 -0.42068272829055786 -0.44132700020616705 -0.014168999919837172 0.008812181799757209 0.3374652713537216 -0.30035181749950757 0.09760572625832124 0.3600651838562705 -0.06509209051728249 -0.32676308805292303 -0.011520909182515672 -0.1818382740020752 -0.11405736614357341 0.6744361817836761 0.2832869982177561 0.4476362710649317 0.017373454677660695 0.5094639171253551 -0.01533472733254629 -0.24438117986375635 0.29423327202146704
7 -0.13667209107767453 -0.13701045513153076 0.08559454503384503 0.02610172729261897 0.36111418361013586 0.26838754388419067 0.32338445024056867 -0.05147427286614071 -0.09542518176815727 -0.30330218374729156 0.12894627316431564 -0.42068272829055786 -0.44132700020616705 -0.014168999919837172 0.008812181799757209 0.3374652713537216 -0.30035181749950757 0.09760572625832124 0.3600651838562705 -0.06509209051728249 -0.32676308805292303 -0.011520909182515672 -0.1818382740020752 -0.11405736614357341 0.6744361817836761 0.2832869982177561 0.4476362710649317 0.017373454677660695 0.5094639171253551 -0.01533472733254629 -0.24438117986375635 0.29423327202146704
8 -0.13667209107767453 -0.13701045513153076 0.08559454503384503 0.02610172729261897 0.36111418361013586 0.26838754388419067 0.32338445024056867 -0.05147427286614071 -0.09542518176815727 -0.30330218374729156 0.12894627316431564 -0.42068272829055786 -0.44132700020616705 -0.014168999919837172 0.008812181799757209 0.3374652713537216 -0.30035181749950757 0.09760572625832124 0.3600651838562705 -0.06509209051728249 -0.32676308805292303 -0.011520909182515672 -0.1818382740020752 -0.11405736614357341 0.6744361817836761 0.2832869982177561 0.4476362710649317 0.017373454677660695 0.5094639171253551 -0.01533472733254629 -0.24438117986375635 0.29423327202146704
9 -0.1344488337635994 -0.13895916814605394 0.07935983253022035 0.02105166669934988 0.36968399584293365 0.26655150204896927 0.32558950036764145 -0.05128916725516319 -0.09171050041913986 -0.3024081736803055 0.13511400173107782 -0.4210578352212906 -0.4377106676499049 -0.008290833483139673 0.006237333155392359 0.32727183898289997 -0.293742669125398 0.09874333317081134 0.3588718424240748 -0.0460489991431435 -0.3300188332796097 -0.030049999865392845 -0.17463683833678564 -0.11811100070675214 0.6747830013434092 0.27747616668542224 0.445702667037646 -0.008028500160435215 0.5087341666221619 -0.0176793336092184 -0.24701450020074844 0.297176830470562
10 -0.13350443009819304 -0.13082442858389445 0.08204871362873487 0.023037428435470377 0.35875014109270914 0.2618855748857771 0.32068713860852377 -0.04928100002663476 -0.09150071442127228 -0.3020012868302209 0.128516714487757 -0.41930600149290903 -0.43729528359004427 -0.01185214304963925 0.006103142796616469 0.3339407188551767 -0.29598914299692425 0.09894057150397982 0.353776291012764 -0.049946428409644535 -0.3266504236630031 -0.02874557115137577 -0.17166128861052649 -0.1128268593123981 0.6680589914321899 0.2748514286109379 0.44724142977169584 -0.0034245714196003973 0.5046594313212803 -0.014048428939921516 -0.24249685662133352 0.2935212829283306
11 -0.13350443009819304 -0.13082442858389445 0.08204871362873487 0.023037428435470377 0.35875014109270914 0.2618855748857771 0.32068713860852377 -0.04928100002663476 -0.09150071442127228 -0.3020012868302209 0.128516714487757 -0.41930600149290903 -0.43729528359004427 -0.01185214304963925 0.006103142796616469 0.3339407188551767 -0.29598914299692425 0.09894057150397982 0.353776291012764 -0.049946428409644535 -0.3266504236630031 -0.02874557115137577 -0.17166128861052649 -0.1128268593123981 0.6680589914321899 0.2748514286109379 0.44724142977169584 -0.0034245714196003973 0.5046594313212803 -0.014048428939921516 -0.24249685662133352 0.2935212829283306
12 -0.1284073330461979 -0.12808116897940636 0.07601649935046832 0.02730033329377572 0.35199549545844394 0.25877267122268677 0.317151998480161 -0.044806333258748055 -0.09177466668188572 -0.29287217060724896 0.12550783529877663 -0.4072318325440089 -0.427389328678449 -0.00753000002199163 0.012948833056725562 0.3206144993503888 -0.2862573315699895 0.09435866648952167 0.34999967366456985 -0.04118999963005384 -0.32582149654626846 -0.032661499766012035 -0.16694100201129913 -0.11237983405590057 0.6531359950701395 0.2696234981218974 0.4365456700325012 -0.001385666721034795 0.49684632817904156 -0.015287000181463858 -0.2417409991224607 0.28663599491119385
13 -0.1284073330461979 -0.12808116897940636 0.07601649935046832 0.02730033329377572 0.35199549545844394 0.25877267122268677 0.317151998480161 -0.044806333258748055 -0.09177466668188572 -0.29287217060724896 0.12550783529877663 -0.4072318325440089 -0.427389328678449 -0.00753000002199163 0.012948833056725562 0.3206144993503888 -0.2862573315699895 0.09435866648952167 0.34999967366456985 -0.04118999963005384 -0.32582149654626846 -0.032661499766012035 -0.16694100201129913 -0.11237983405590057 0.6531359950701395 0.2696234981218974 0.4365456700325012 -0.001385666721034795 0.49684632817904156 -0.015287000181463858 -0.2417409991224607 0.28663599491119385
14 -0.13667209107767453 -0.13701045513153076 0.08559454503384503 0.02610172729261897 0.36111418361013586 0.26838754388419067 0.32338445024056867 -0.05147427286614071 -0.09542518176815727 -0.30330218374729156 0.12894627316431564 -0.42068272829055786 -0.44132700020616705 -0.014168999919837172 0.008812181799757209 0.3374652713537216 -0.30035181749950757 0.09760572625832124 0.3600651838562705 -0.06509209051728249 -0.32676308805292303 -0.011520909182515672 -0.1818382740020752 -0.11405736614357341 0.6744361817836761 0.2832869982177561 0.4476362710649317 0.017373454677660695 0.5094639171253551 -0.01533472733254629 -0.24438117986375635 0.29423327202146704
15 -0.1284073330461979 -0.12808116897940636 0.07601649935046832 0.02730033329377572 0.35199549545844394 0.25877267122268677 0.317151998480161 -0.044806333258748055 -0.09177466668188572 -0.29287217060724896 0.12550783529877663 -0.4072318325440089 -0.427389328678449 -0.00753000002199163 0.012948833056725562 0.3206144993503888 -0.2862573315699895 0.09435866648952167 0.34999967366456985 -0.04118999963005384 -0.32582149654626846 -0.032661499766012035 -0.16694100201129913 -0.11237983405590057 0.6531359950701395 0.2696234981218974 0.4365456700325012 -0.001385666721034795 0.49684632817904156 -0.015287000181463858 -0.2417409991224607 0.28663599491119385
16 -0.13202677915493646 -0.13138855693654883 0.07778210984542966 0.025674555243717298 0.345609778434866 0.25460243933937615 0.3107393315424108 -0.045420999987982213 -0.10027655503816074 -0.28990911537160474 0.12386566754947934 -0.40133533295657897 -0.42128588603453765 -0.008317777602415945 0.012746222084388137 0.3196073320383827 -0.28345266820138526 0.09243188839819697 0.3441654463402099 -0.05520088891919133 -0.31840932871111566 -0.02007211122933465 -0.17371877842944944 -0.11110244577543603 0.6489141228505306 0.2716691123528613 0.4307335556174318 0.0055282225237331456 0.4880415563368135 -0.01244633311095337 -0.24548966572102573 0.28549366192116093
17 -0.1344488337635994 -0.13895916814605394 0.07935983253022035 0.02105166669934988 0.36968399584293365 0.26655150204896927 0.32558950036764145 -0.05128916725516319 -0.09171050041913986 -0.3024081736803055 0.13511400173107782 -0.4210578352212906 -0.4377106676499049 -0.008290833483139673 0.006237333155392359 0.32727183898289997 -0.293742669125398 0.09874333317081134 0.3588718424240748 -0.0460489991431435 -0.3300188332796097 -0.030049999865392845 -0.17463683833678564 -0.11811100070675214 0.6747830013434092 0.27747616668542224 0.445702667037646 -0.008028500160435215 0.5087341666221619 -0.0176793336092184 -0.24701450020074844 0.297176830470562
18 -0.13350443009819304 -0.13082442858389445 0.08204871362873487 0.023037428435470377 0.35875014109270914 0.2618855748857771 0.32068713860852377 -0.04928100002663476 -0.09150071442127228 -0.3020012868302209 0.128516714487757 -0.41930600149290903 -0.43729528359004427 -0.01185214304963925 0.006103142796616469 0.3339407188551767 -0.29598914299692425 0.09894057150397982 0.353776291012764 -0.049946428409644535 -0.3266504236630031 -0.02874557115137577 -0.17166128861052649 -0.1128268593123981 0.6680589914321899 0.2748514286109379 0.44724142977169584 -0.0034245714196003973 0.5046594313212803 -0.014048428939921516 -0.24249685662133352 0.2935212829283306
19 -0.13202677915493646 -0.13138855693654883 0.07778210984542966 0.025674555243717298 0.345609778434866 0.25460243933937615 0.3107393315424108 -0.045420999987982213 -0.10027655503816074 -0.28990911537160474 0.12386566754947934 -0.40133533295657897 -0.42128588603453765 -0.008317777602415945 0.012746222084388137 0.3196073320383827 -0.28345266820138526 0.09243188839819697 0.3441654463402099 -0.05520088891919133 -0.31840932871111566 -0.02007211122933465 -0.17371877842944944 -0.11110244577543603 0.6489141228505306 0.2716691123528613 0.4307335556174318 0.0055282225237331456 0.4880415563368135 -0.01244633311095337 -0.24548966572102573 0.28549366192116093
20 -0.13667209107767453 -0.13701045513153076 0.08559454503384503 0.02610172729261897 0.36111418361013586 0.26838754388419067 0.32338445024056867 -0.05147427286614071 -0.09542518176815727 -0.30330218374729156 0.12894627316431564 -0.42068272829055786 -0.44132700020616705 -0.014168999919837172 0.008812181799757209 0.3374652713537216 -0.30035181749950757 0.09760572625832124 0.3600651838562705 -0.06509209051728249 -0.32676308805292303 -0.011520909182515672 -0.1818382740020752 -0.11405736614357341 0.6744361817836761 0.2832869982177561 0.4476362710649317 0.017373454677660695 0.5094639171253551 -0.01533472733254629 -0.24438117986375635 0.29423327202146704
21 -0.13350443009819304 -0.13082442858389445 0.08204871362873487 0.023037428435470377 0.35875014109270914 0.2618855748857771 0.32068713860852377 -0.04928100002663476 -0.09150071442127228 -0.3020012868302209 0.128516714487757 -0.41930600149290903 -0.43729528359004427 -0.01185214304963925 0.006103142796616469 0.3339407188551767 -0.29598914299692425 0.09894057150397982 0.353776291012764 -0.049946428409644535 -0.3266504236630031 -0.02874557115137577 -0.17166128861052649 -0.1128268593123981 0.6680589914321899 0.2748514286109379 0.44724142977169584 -0.0034245714196003973 0.5046594313212803 -0.014048428939921516 -0.24249685662133352 0.2935212829283306
22 -0.13667209107767453 -0.13701045513153076 0.08559454503384503 0.02610172729261897 0.36111418361013586 0.26838754388419067 0.32338445024056867 -0.05147427286614071 -0.09542518176815727 -0.30330218374729156 0.12894627316431564 -0.42068272829055786 -0.44132700020616705 -0.014168999919837172 0.008812181799757209 0.3374652713537216 -0.30035181749950757 0.09760572625832124 0.3600651838562705 -0.06509209051728249 -0.32676308805292303 -0.011520909182515672 -0.1818382740020752 -0.11405736614357341 0.6744361817836761 0.2832869982177561 0.4476362710649317 0.017373454677660695 0.5094639171253551 -0.01533472733254629 -0.24438117986375635 0.29423327202146704
23 -0.13667209107767453 -0.13701045513153076 0.08559454503384503 0.02610172729261897 0.36111418361013586 0.26838754388419067 0.32338445024056867 -0.05147427286614071 -0.09542518176815727 -0.30330218374729156 0.12894627316431564 -0.42068272829055786 -0.44132700020616705 -0.014168999919837172 0.008812181799757209 0.3374652713537216 -0.30035181749950757 0.09760572625832124 0.3600651838562705 -0.06509209051728249 -0.32676308805292303 -0.011520909182515672 -0.1818382740020752 -0.11405736614357341 0.6744361817836761 0.2832869982177561 0.4476362710649317 0.017373454677660695 0.5094639171253551 -0.01533472733254629 -0.24438117986375635 0.29423327202146704
24 -0.13350443009819304 -0.13082442858389445 0.08204871362873487 0.023037428435470377 0.35875014109270914 0.2618855748857771 0.32068713860852377 -0.04928100002663476 -0.09150071442127228 -0.3020012868302209 0.128516714487757 -0.41930600149290903 -0.43729528359004427 -0.01185214304963925 0.006103142796616469 0.3339407188551767 -0.29598914299692425 0.09894057150397982 0.353776291012764 -0.049946428409644535 -0.3266504236630031 -0.02874557115137577 -0.17166128861052649 -0.1128268593123981 0.6680589914321899 0.2748514286109379 0.44724142977169584 -0.0034245714196003973 0.5046594313212803 -0.014048428939921516 -0.24249685662133352 0.2935212829283306
25 -0.13667209107767453 -0.13701045513153076 0.08559454503384503 0.02610172729261897 0.36111418361013586 0.26838754388419067 0.32338445024056867 -0.05147427286614071 -0.09542518176815727 -0.30330218374729156 0.12894627316431564 -0.42068272829055786 -0.44132700020616705 -0.014168999919837172 0.008812181799757209 0.3374652713537216 -0.30035181749950757 0.09760572625832124 0.3600651838562705 -0.06509209051728249 -0.32676308805292303 -0.011520909182515672 -0.1818382740020752 -0.11405736614357341 0.6744361817836761 0.2832869982177561 0.4476362710649317 0.017373454677660695 0.5094639171253551 -0.01533472733254629 -0.24438117986375635 0.29423327202146704
26 -0.1284073330461979 -0.12808116897940636 0.07601649935046832 0.02730033329377572 0.35199549545844394 0.25877267122268677 0.317151998480161 -0.044806333258748055 -0.09177466668188572 -0.29287217060724896 0.12550783529877663 -0.4072318325440089 -0.427389328678449 -0.00753000002199163 0.012948833056725562 0.3206144993503888 -0.2862573315699895 0.09435866648952167 0.34999967366456985 -0.04118999963005384 -0.32582149654626846 -0.032661499766012035 -0.16694100201129913 -0.11237983405590057 0.6531359950701395 0.2696234981218974 0.4365456700325012 -0.001385666721034795 0.49684632817904156 -0.015287000181463858 -0.2417409991224607 0.28663599491119385
27 -0.13350443009819304 -0.13082442858389445 0.08204871362873487 0.023037428435470377 0.35875014109270914 0.2618855748857771 0.32068713860852377 -0.04928100002663476 -0.09150071442127228 -0.3020012868302209 0.128516714487757 -0.41930600149290903 -0.43729528359004427 -0.01185214304963925 0.006103142796616469 0.3339407188551767 -0.29598914299692425 0.09894057150397982 0.353776291012764 -0.049946428409644535 -0.3266504236630031 -0.02874557115137577 -0.17166128861052649 -0.1128268593123981 0.6680589914321899 0.2748514286109379 0.44724142977169584 -0.0034245714196003973 0.5046594313212803 -0.014048428939921516 -0.24249685662133352 0.2935212829283306
28 -0.13202677915493646 -0.13138855693654883 0.07778210984542966 0.025674555243717298 0.345609778434866 0.25460243933937615 0.3107393315424108 -0.045420999987982213 -0.10027655503816074 -0.28990911537160474 0.12386566754947934 -0.40133533295657897 -0.42128588603453765 -0.008317777602415945 0.012746222084388137 0.3196073320383827 -0.28345266820138526 0.09243188839819697 0.3441654463402099 -0.05520088891919133 -0.31840932871111566 -0.02007211122933465 -0.17371877842944944 -0.11110244577543603 0.6489141228505306 0.2716691123528613 0.4307335556174318 0.0055282225237331456 0.4880415563368135 -0.01244633311095337 -0.24548966572102573 0.28549366192116093
29 -0.08539200015366077 -0.08932800156374772 0.04675199890819689 0.018008166710690904 0.2298776643971602 0.17096549893418947 0.20374366578956446 -0.027816500078188255 -0.06077999955353638 -0.19764150368670622 0.09022783394902945 -0.2714090036849181 -0.28280216455459595 -0.00915666661846141 -0.00021816668837952116 0.21328350466986498 -0.1886521652340889 0.057568833542366825 0.23883766929308572 -0.0321376658588027 -0.2152701634913683 -0.019780166641188163 -0.10936033601562183 -0.07381800127526124 0.43906866759061813 0.1714311664303144 0.2928136649231116 -0.007799666695063934 0.3356880024075508 -0.009561166710530719 -0.16305566330750784 0.19122982894380888
30 -0.13350443009819304 -0.13082442858389445 0.08204871362873487 0.023037428435470377 0.35875014109270914 0.2618855748857771 0.32068713860852377 -0.04928100002663476 -0.09150071442127228 -0.3020012868302209 0.128516714487757 -0.41930600149290903 -0.43729528359004427 -0.01185214304963925 0.006103142796616469 0.3339407188551767 -0.29598914299692425 0.09894057150397982 0.353776291012764 -0.049946428409644535 -0.3266504236630031 -0.02874557115137577 -0.17166128861052649 -0.1128268593123981 0.6680589914321899 0.2748514286109379 0.44724142977169584 -0.0034245714196003973 0.5046594313212803 -0.014048428939921516 -0.24249685662133352 0.2935212829283306
31 -0.1284073330461979 -0.12808116897940636 0.07601649935046832 0.02730033329377572 0.35199549545844394 0.25877267122268677 0.317151998480161 -0.044806333258748055 -0.09177466668188572 -0.29287217060724896 0.12550783529877663 -0.4072318325440089 -0.427389328678449 -0.00753000002199163 0.012948833056725562 0.3206144993503888 -0.2862573315699895 0.09435866648952167 0.34999967366456985 -0.04118999963005384 -0.32582149654626846 -0.032661499766012035 -0.16694100201129913 -0.11237983405590057 0.6531359950701395 0.2696234981218974 0.4365456700325012 -0.001385666721034795 0.49684632817904156 -0.015287000181463858 -0.2417409991224607 0.28663599491119385
32 -0.13350443009819304 -0.13082442858389445 0.08204871362873487 0.023037428435470377 0.35875014109270914 0.2618855748857771 0.32068713860852377 -0.04928100002663476 -0.09150071442127228 -0.3020012868302209 0.128516714487757 -0.41930600149290903 -0.43729528359004427 -0.01185214304963925 0.006103142796616469 0.3339407188551767 -0.29598914299692425 0.09894057150397982 0.353776291012764 -0.049946428409644535 -0.3266504236630031 -0.02874557115137577 -0.17166128861052649 -0.1128268593123981 0.6680589914321899 0.2748514286109379 0.44724142977169584 -0.0034245714196003973 0.5046594313212803 -0.014048428939921516 -0.24249685662133352 0.2935212829283306
33 -0.13667209107767453 -0.13701045513153076 0.08559454503384503 0.02610172729261897 0.36111418361013586 0.26838754388419067 0.32338445024056867 -0.05147427286614071 -0.09542518176815727 -0.30330218374729156 0.12894627316431564 -0.42068272829055786 -0.44132700020616705 -0.014168999919837172 0.008812181799757209 0.3374652713537216 -0.30035181749950757 0.09760572625832124 0.3600651838562705 -0.06509209051728249 -0.32676308805292303 -0.011520909182515672 -0.1818382740020752 -0.11405736614357341 0.6744361817836761 0.2832869982177561 0.4476362710649317 0.017373454677660695 0.5094639171253551 -0.01533472733254629 -0.24438117986375635 0.29423327202146704
34 -0.1284073330461979 -0.12808116897940636 0.07601649935046832 0.02730033329377572 0.35199549545844394 0.25877267122268677 0.317151998480161 -0.044806333258748055 -0.09177466668188572 -0.29287217060724896 0.12550783529877663 -0.4072318325440089 -0.427389328678449 -0.00753000002199163 0.012948833056725562 0.3206144993503888 -0.2862573315699895 0.09435866648952167 0.34999967366456985 -0.04118999963005384 -0.32582149654626846 -0.032661499766012035 -0.16694100201129913 -0.11237983405590057 0.6531359950701395 0.2696234981218974 0.4365456700325012 -0.001385666721034795 0.49684632817904156 -0.015287000181463858 -0.2417409991224607 0.28663599491119385
35 -0.13667209107767453 -0.13701045513153076 0.08559454503384503 0.02610172729261897 0.36111418361013586 0.26838754388419067 0.32338445024056867 -0.05147427286614071 -0.09542518176815727 -0.30330218374729156 0.12894627316431564 -0.42068272829055786 -0.44132700020616705 -0.014168999919837172 0.008812181799757209 0.3374652713537216 -0.30035181749950757 0.09760572625832124 0.3600651838562705 -0.06509209051728249 -0.32676308805292303 -0.011520909182515672 -0.1818382740020752 -0.11405736614357341 0.6744361817836761 0.2832869982177561 0.4476362710649317 0.017373454677660695 0.5094639171253551 -0.01533472733254629 -0.24438117986375635 0.29423327202146704
36 -0.13350443009819304 -0.13082442858389445 0.08204871362873487 0.023037428435470377 0.35875014109270914 0.2618855748857771 0.32068713860852377 -0.04928100002663476 -0.09150071442127228 -0.3020012868302209 0.128516714487757 -0.41930600149290903 -0.43729528359004427 -0.01185214304963925 0.006103142796616469 0.3339407188551767 -0.29598914299692425 0.09894057150397982 0.353776291012764 -0.049946428409644535 -0.3266504236630031 -0.02874557115137577 -0.17166128861052649 -0.1128268593123981 0.6680589914321899 0.2748514286109379 0.44724142977169584 -0.0034245714196003973 0.5046594313212803 -0.014048428939921516 -0.24249685662133352 0.2935212829283306
37 -0.13350443009819304 -0.13082442858389445 0.08204871362873487 0.023037428435470377 0.35875014109270914 0.2618855748857771 0.32068713860852377 -0.04928100002663476 -0.09150071442127228 -0.3020012868302209 0.128516714487757 -0.41930600149290903 -0.43729528359004427 -0.01185214304963925 0.006103142796616469 0.3339407188551767 -0.29598914299692425 0.09894057150397982 0.353776291012764 -0.049946428409644535 -0.3266504236630031 -0.02874557115137577 -0.17166128861052649 -0.1128268593123981 0.6680589914321899 0.2748514286109379 0.44724142977169584 -0.0034245714196003973 0.5046594313212803 -0.014048428939921516 -0.24249685662133352 0.2935212829283306
38 -0.13350443009819304 -0.13082442858389445 0.08204871362873487 0.023037428435470377 0.35875014109270914 0.2618855748857771 0.32068713860852377 -0.04928100002663476 -0.09150071442127228 -0.3020012868302209 0.128516714487757 -0.41930600149290903 -0.43729528359004427 -0.01185214304963925 0.006103142796616469 0.3339407188551767 -0.29598914299692425 0.09894057150397982 0.353776291012764 -0.049946428409644535 -0.3266504236630031 -0.02874557115137577 -0.17166128861052649 -0.1128268593123981 0.6680589914321899 0.2748514286109379 0.44724142977169584 -0.0034245714196003973 0.5046594313212803 -0.014048428939921516 -0.24249685662133352 0.2935212829283306
39 -0.13667209107767453 -0.13701045513153076 0.08559454503384503 0.02610172729261897 0.36111418361013586 0.26838754388419067 0.32338445024056867 -0.05147427286614071 -0.09542518176815727 -0.30330218374729156 0.12894627316431564 -0.42068272829055786 -0.44132700020616705 -0.014168999919837172 0.008812181799757209 0.3374652713537216 -0.30035181749950757 0.09760572625832124 0.3600651838562705 -0.06509209051728249 -0.32676308805292303 -0.011520909182515672 -0.1818382740020752 -0.11405736614357341 0.6744361817836761 0.2832869982177561 0.4476362710649317 0.017373454677660695 0.5094639171253551 -0.01533472733254629 -0.24438117986375635 0.29423327202146704
40 -0.1284073330461979 -0.12808116897940636 0.07601649935046832 0.02730033329377572 0.35199549545844394 0.25877267122268677 0.317151998480161 -0.044806333258748055 -0.09177466668188572 -0.29287217060724896 0.12550783529877663 -0.4072318325440089 -0.427389328678449 -0.00753000002199163 0.012948833056725562 0.3206144993503888 -0.2862573315699895 0.09435866648952167 0.34999967366456985 -0.04118999963005384 -0.32582149654626846 -0.032661499766012035 -0.16694100201129913 -0.11237983405590057 0.6531359950701395 0.2696234981218974 0.4365456700325012 -0.001385666721034795 0.49684632817904156 -0.015287000181463858 -0.2417409991224607 0.28663599491119385
41 -0.13350443009819304 -0.13082442858389445 0.08204871362873487 0.023037428435470377 0.35875014109270914 0.2618855748857771 0.32068713860852377 -0.04928100002663476 -0.09150071442127228 -0.3020012868302209 0.128516714487757 -0.41930600149290903 -0.43729528359004427 -0.01185214304963925 0.006103142796616469 0.3339407188551767 -0.29598914299692425 0.09894057150397982 0.353776291012764 -0.049946428409644535 -0.3266504236630031 -0.02874557115137577 -0.17166128861052649 -0.1128268593123981 0.6680589914321899 0.2748514286109379 0.44724142977169584 -0.0034245714196003973 0.5046594313212803 -0.014048428939921516 -0.24249685662133352 0.2935212829283306
42 -0.13350443009819304 -0.13082442858389445 0.08204871362873487 0.023037428435470377 0.35875014109270914 0.2618855748857771 0.32068713860852377 -0.04928100002663476 -0.09150071442127228 -0.3020012868302209 0.128516714487757 -0.41930600149290903 -0.43729528359004427 -0.01185214304963925 0.006103142796616469 0.3339407188551767 -0.29598914299692425 0.09894057150397982 0.353776291012764 -0.049946428409644535 -0.3266504236630031 -0.02874557115137577 -0.17166128861052649 -0.1128268593123981 0.6680589914321899 0.2748514286109379 0.44724142977169584 -0.0034245714196003973 0.5046594313212803 -0.014048428939921516 -0.24249685662133352 0.2935212829283306
43 -0.1284073330461979 -0.12808116897940636 0.07601649935046832 0.02730033329377572 0.35199549545844394 0.25877267122268677 0.317151998480161 -0.044806333258748055 -0.09177466668188572 -0.29287217060724896 0.12550783529877663 -0.4072318325440089 -0.427389328678449 -0.00753000002199163 0.012948833056725562 0.3206144993503888 -0.2862573315699895 0.09435866648952167 0.34999967366456985 -0.04118999963005384 -0.32582149654626846 -0.032661499766012035 -0.16694100201129913 -0.11237983405590057 0.6531359950701395 0.2696234981218974 0.4365456700325012 -0.001385666721034795 0.49684632817904156 -0.015287000181463858 -0.2417409991224607 0.28663599491119385
44 -0.13350443009819304 -0.13082442858389445 0.08204871362873487 0.023037428435470377 0.35875014109270914 0.2618855748857771 0.32068713860852377 -0.04928100002663476 -0.09150071442127228 -0.3020012868302209 0.128516714487757 -0.41930600149290903 -0.43729528359004427 -0.01185214304963925 0.006103142796616469 0.3339407188551767 -0.29598914299692425 0.09894057150397982 0.353776291012764 -0.049946428409644535 -0.3266504236630031 -0.02874557115137577 -0.17166128861052649 -0.1128268593123981 0.6680589914321899 0.2748514286109379 0.44724142977169584 -0.0034245714196003973 0.5046594313212803 -0.014048428939921516 -0.24249685662133352 0.2935212829283306
45 -0.13667209107767453 -0.13701045513153076 0.08559454503384503 0.02610172729261897 0.36111418361013586 0.26838754388419067 0.32338445024056867 -0.05147427286614071 -0.09542518176815727 -0.30330218374729156 0.12894627316431564 -0.42068272829055786 -0.44132700020616705 -0.014168999919837172 0.008812181799757209 0.3374652713537216 -0.30035181749950757 0.09760572625832124 0.3600651838562705 -0.06509209051728249 -0.32676308805292303 -0.011520909182515672 -0.1818382740020752 -0.11405736614357341 0.6744361817836761 0.2832869982177561 0.4476362710649317 0.017373454677660695 0.5094639171253551 -0.01533472733254629 -0.24438117986375635 0.29423327202146704
46 -0.1344488337635994 -0.13895916814605394 0.07935983253022035 0.02105166669934988 0.36968399584293365 0.26655150204896927 0.32558950036764145 -0.05128916725516319 -0.09171050041913986 -0.3024081736803055 0.13511400173107782 -0.4210578352212906 -0.4377106676499049 -0.008290833483139673 0.006237333155392359 0.32727183898289997 -0.293742669125398 0.09874333317081134 0.3588718424240748 -0.0460489991431435 -0.3300188332796097 -0.030049999865392845 -0.17463683833678564 -0.11811100070675214 0.6747830013434092 0.27747616668542224 0.445702667037646 -0.008028500160435215 0.5087341666221619 -0.0176793336092184 -0.24701450020074844 0.297176830470562
47 -0.13350443009819304 -0.13082442858389445 0.08204871362873487 0.023037428435470377 0.35875014109270914 0.2618855748857771 0.32068713860852377 -0.04928100002663476 -0.09150071442127228 -0.3020012868302209 0.128516714487757 -0.41930600149290903 -0.43729528359004427 -0.01185214304963925 0.006103142796616469 0.3339407188551767 -0.29598914299692425 0.09894057150397982 0.353776291012764 -0.049946428409644535 -0.3266504236630031 -0.02874557115137577 -0.17166128861052649 -0.1128268593123981 0.6680589914321899 0.2748514286109379 0.44724142977169584 -0.0034245714196003973 0.5046594313212803 -0.014048428939921516 -0.24249685662133352 0.2935212829283306
48 -0.13667209107767453 -0.13701045513153076 0.08559454503384503 0.02610172729261897 0.36111418361013586 0.26838754388419067 0.32338445024056867 -0.05147427286614071 -0.09542518176815727 -0.30330218374729156 0.12894627316431564 -0.42068272829055786 -0.44132700020616705 -0.014168999919837172 0.008812181799757209 0.3374652713537216 -0.30035181749950757 0.09760572625832124 0.3600651838562705 -0.06509209051728249 -0.32676308805292303 -0.011520909182515672 -0.1818382740020752 -0.11405736614357341 0.6744361817836761 0.2832869982177561 0.4476362710649317 0.017373454677660695 0.5094639171253551 -0.01533472733254629 -0.24438117986375635 0.29423327202146704
49 -0.1344488337635994 -0.13895916814605394 0.07935983253022035 0.02105166669934988 0.36968399584293365 0.26655150204896927 0.32558950036764145 -0.05128916725516319 -0.09171050041913986 -0.3024081736803055 0.13511400173107782 -0.4210578352212906 -0.4377106676499049 -0.008290833483139673 0.006237333155392359 0.32727183898289997 -0.293742669125398 0.09874333317081134 0.3588718424240748 -0.0460489991431435 -0.3300188332796097 -0.030049999865392845 -0.17463683833678564 -0.11811100070675214 0.6747830013434092 0.27747616668542224 0.445702667037646 -0.008028500160435215 0.5087341666221619 -0.0176793336092184 -0.24701450020074844 0.297176830470562
50 -0.13667209107767453 -0.13701045513153076 0.08559454503384503 0.02610172729261897 0.36111418361013586 0.26838754388419067 0.32338445024056867 -0.05147427286614071 -0.09542518176815727 -0.30330218374729156 0.12894627316431564 -0.42068272829055786 -0.44132700020616705 -0.014168999919837172 0.008812181799757209 0.3374652713537216 -0.30035181749950757 0.09760572625832124 0.3600651838562705 -0.06509209051728249 -0.32676308805292303 -0.011520909182515672 -0.1818382740020752 -0.11405736614357341 0.6744361817836761 0.2832869982177561 0.4476362710649317 0.017373454677660695 0.5094639171253551 -0.01533472733254629 -0.24438117986375635 0.29423327202146704
51 -0.13350443009819304 -0.13082442858389445 0.08204871362873487 0.023037428435470377 0.35875014109270914 0.2618855748857771 0.32068713860852377 -0.04928100002663476 -0.09150071442127228 -0.3020012868302209 0.128516714487757 -0.41930600149290903 -0.43729528359004427 -0.01185214304963925 0.006103142796616469 0.3339407188551767 -0.29598914299692425 0.09894057150397982 0.353776291012764 -0.049946428409644535 -0.3266504236630031 -0.02874557115137577 -0.17166128861052649 -0.1128268593123981 0.6680589914321899 0.2748514286109379 0.44724142977169584 -0.0034245714196003973 0.5046594313212803 -0.014048428939921516 -0.24249685662133352 0.2935212829283306
52 -0.13667209107767453 -0.13701045513153076 0.08559454503384503 0.02610172729261897 0.36111418361013586 0.26838754388419067 0.32338445024056867 -0.05147427286614071 -0.09542518176815727 -0.30330218374729156 0.12894627316431564 -0.42068272829055786 -0.44132700020616705 -0.014168999919837172 0.008812181799757209 0.3374652713537216 -0.30035181749950757 0.09760572625832124 0.3600651838562705 -0.06509209051728249 -0.32676308805292303 -0.011520909182515672 -0.1818382740020752 -0.11405736614357341 0.6744361817836761 0.2832869982177561 0.4476362710649317 0.017373454677660695 0.5094639171253551 -0.01533472733254629 -0.24438117986375635 0.29423327202146704
53 -0.1344488337635994 -0.13895916814605394 0.07935983253022035 0.02105166669934988 0.36968399584293365 0.26655150204896927 0.32558950036764145 -0.05128916725516319 -0.09171050041913986 -0.3024081736803055 0.13511400173107782 -0.4210578352212906 -0.4377106676499049 -0.008290833483139673 0.006237333155392359 0.32727183898289997 -0.293742669125398 0.09874333317081134 0.3588718424240748 -0.0460489991431435 -0.3300188332796097 -0.030049999865392845 -0.17463683833678564 -0.11811100070675214 0.6747830013434092 0.27747616668542224 0.445702667037646 -0.008028500160435215 0.5087341666221619 -0.0176793336092184 -0.24701450020074844 0.297176830470562
54 -0.1344488337635994 -0.13895916814605394 0.07935983253022035 0.02105166669934988 0.36968399584293365 0.26655150204896927 0.32558950036764145 -0.05128916725516319 -0.09171050041913986 -0.3024081736803055 0.13511400173107782 -0.4210578352212906 -0.4377106676499049 -0.008290833483139673 0.006237333155392359 0.32727183898289997 -0.293742669125398 0.09874333317081134 0.3588718424240748 -0.0460489991431435 -0.3300188332796097 -0.030049999865392845 -0.17463683833678564 -0.11811100070675214 0.6747830013434092 0.27747616668542224 0.445702667037646 -0.008028500160435215 0.5087341666221619 -0.0176793336092184 -0.24701450020074844 0.297176830470562
55 -0.13350443009819304 -0.13082442858389445 0.08204871362873487 0.023037428435470377 0.35875014109270914 0.2618855748857771 0.32068713860852377 -0.04928100002663476 -0.09150071442127228 -0.3020012868302209 0.128516714487757 -0.41930600149290903 -0.43729528359004427 -0.01185214304963925 0.006103142796616469 0.3339407188551767 -0.29598914299692425 0.09894057150397982 0.353776291012764 -0.049946428409644535 -0.3266504236630031 -0.02874557115137577 -0.17166128861052649 -0.1128268593123981 0.6680589914321899 0.2748514286109379 0.44724142977169584 -0.0034245714196003973 0.5046594313212803 -0.014048428939921516 -0.24249685662133352 0.2935212829283306
56 -0.1344488337635994 -0.13895916814605394 0.07935983253022035 0.02105166669934988 0.36968399584293365 0.26655150204896927 0.32558950036764145 -0.05128916725516319 -0.09171050041913986 -0.3024081736803055 0.13511400173107782 -0.4210578352212906 -0.4377106676499049 -0.008290833483139673 0.006237333155392359 0.32727183898289997 -0.293742669125398 0.09874333317081134 0.3588718424240748 -0.0460489991431435 -0.3300188332796097 -0.030049999865392845 -0.17463683833678564 -0.11811100070675214 0.6747830013434092 0.27747616668542224 0.445702667037646 -0.008028500160435215 0.5087341666221619 -0.0176793336092184 -0.24701450020074844 0.297176830470562
57 -0.1284073330461979 -0.12808116897940636 0.07601649935046832 0.02730033329377572 0.35199549545844394 0.25877267122268677 0.317151998480161 -0.044806333258748055 -0.09177466668188572 -0.29287217060724896 0.12550783529877663 -0.4072318325440089 -0.427389328678449 -0.00753000002199163 0.012948833056725562 0.3206144993503888 -0.2862573315699895 0.09435866648952167 0.34999967366456985 -0.04118999963005384 -0.32582149654626846 -0.032661499766012035 -0.16694100201129913 -0.11237983405590057 0.6531359950701395 0.2696234981218974 0.4365456700325012 -0.001385666721034795 0.49684632817904156 -0.015287000181463858 -0.2417409991224607 0.28663599491119385
58 -0.13202677915493646 -0.13138855693654883 0.07778210984542966 0.025674555243717298 0.345609778434866 0.25460243933937615 0.3107393315424108 -0.045420999987982213 -0.10027655503816074 -0.28990911537160474 0.12386566754947934 -0.40133533295657897 -0.42128588603453765 -0.008317777602415945 0.012746222084388137 0.3196073320383827 -0.28345266820138526 0.09243188839819697 0.3441654463402099 -0.05520088891919133 -0.31840932871111566 -0.02007211122933465 -0.17371877842944944 -0.11110244577543603 0.6489141228505306 0.2716691123528613 0.4307335556174318 0.0055282225237331456 0.4880415563368135 -0.01244633311095337 -0.24548966572102573 0.28549366192116093
59 -0.13202677915493646 -0.13138855693654883 0.07778210984542966 0.025674555243717298 0.345609778434866 0.25460243933937615 0.3107393315424108 -0.045420999987982213 -0.10027655503816074 -0.28990911537160474 0.12386566754947934 -0.40133533295657897 -0.42128588603453765 -0.008317777602415945 0.012746222084388137 0.3196073320383827 -0.28345266820138526 0.09243188839819697 0.3441654463402099 -0.05520088891919133 -0.31840932871111566 -0.02007211122933465 -0.17371877842944944 -0.11110244577543603 0.6489141228505306 0.2716691123528613 0.4307335556174318 0.0055282225237331456 0.4880415563368135 -0.01244633311095337 -0.24548966572102573 0.28549366192116093
60 -0.13350443009819304 -0.13082442858389445 0.08204871362873487 0.023037428435470377 0.35875014109270914 0.2618855748857771 0.32068713860852377 -0.04928100002663476 -0.09150071442127228 -0.3020012868302209 0.128516714487757 -0.41930600149290903 -0.43729528359004427 -0.01185214304963925 0.006103142796616469 0.3339407188551767 -0.29598914299692425 0.09894057150397982 0.353776291012764 -0.049946428409644535 -0.3266504236630031 -0.02874557115137577 -0.17166128861052649 -0.1128268593123981 0.6680589914321899 0.2748514286109379 0.44724142977169584 -0.0034245714196003973 0.5046594313212803 -0.014048428939921516 -0.24249685662133352 0.2935212829283306
61 -0.13667209107767453 -0.13701045513153076 0.08559454503384503 0.02610172729261897 0.36111418361013586 0.26838754388419067 0.32338445024056867 -0.05147427286614071 -0.09542518176815727 -0.30330218374729156 0.12894627316431564 -0.42068272829055786 -0.44132700020616705 -0.014168999919837172 0.008812181799757209 0.3374652713537216 -0.30035181749950757 0.09760572625832124 0.3600651838562705 -0.06509209051728249 -0.32676308805292303 -0.011520909182515672 -0.1818382740020752 -0.11405736614357341 0.6744361817836761 0.2832869982177561 0.4476362710649317 0.017373454677660695 0.5094639171253551 -0.01533472733254629 -0.24438117986375635 0.29423327202146704
62 -0.13667209107767453 -0.13701045513153076 0.08559454503384503 0.02610172729261897 0.36111418361013586 0.26838754388419067 0.32338445024056867 -0.05147427286614071 -0.09542518176815727 -0.30330218374729156 0.12894627316431564 -0.42068272829055786 -0.44132700020616705 -0.014168999919837172 0.008812181799757209 0.3374652713537216 -0.30035181749950757 0.09760572625832124 0.3600651838562705 -0.06509209051728249 -0.32676308805292303 -0.011520909182515672 -0.1818382740020752 -0.11405736614357341 0.6744361817836761 0.2832869982177561 0.4476362710649317 0.017373454677660695 0.5094639171253551 -0.01533472733254629 -0.24438117986375635 0.29423327202146704
63 -0.13350443009819304 -0.13082442858389445 0.08204871362873487 0.023037428435470377 0.35875014109270914 0.2618855748857771 0.32068713860852377 -0.04928100002663476 -0.09150071442127228 -0.3020012868302209 0.128516714487757 -0.41930600149290903 -0.43729528359004427 -0.01185214304963925 0.006103142796616469 0.3339407188551767 -0.29598914299692425 0.09894057150397982 0.353776291012764 -0.049946428409644535 -0.3266504236630031 -0.02874557115137577 -0.17166128861052649 -0.1128268593123981 0.6680589914321899 0.2748514286109379 0.44724142977169584 -0.0034245714196003973 0.5046594313212803 -0.014048428939921516 -0.24249685662133352 0.2935212829283306
64 -0.13350443009819304 -0.13082442858389445 0.08204871362873487 0.023037428435470377 0.35875014109270914 0.2618855748857771 0.32068713860852377 -0.04928100002663476 -0.09150071442127228 -0.3020012868302209 0.128516714487757 -0.41930600149290903 -0.43729528359004427 -0.01185214304963925 0.006103142796616469 0.3339407188551767 -0.29598914299692425 0.09894057150397982 0.353776291012764 -0.049946428409644535 -0.3266504236630031 -0.02874557115137577 -0.17166128861052649 -0.1128268593123981 0.6680589914321899 0.2748514286109379 0.44724142977169584 -0.0034245714196003973 0.5046594313212803 -0.014048428939921516 -0.24249685662133352 0.2935212829283306
65 -0.13350443009819304 -0.13082442858389445 0.08204871362873487 0.023037428435470377 0.35875014109270914 0.2618855748857771 0.32068713860852377 -0.04928100002663476 -0.09150071442127228 -0.3020012868302209 0.128516714487757 -0.41930600149290903 -0.43729528359004427 -0.01185214304963925 0.006103142796616469 0.3339407188551767 -0.29598914299692425 0.09894057150397982 0.353776291012764 -0.049946428409644535 -0.3266504236630031 -0.02874557115137577 -0.17166128861052649 -0.1128268593123981 0.6680589914321899 0.2748514286109379 0.44724142977169584 -0.0034245714196003973 0.5046594313212803 -0.014048428939921516 -0.24249685662133352 0.2935212829283306
66 -0.13350443009819304 -0.13082442858389445 0.08204871362873487 0.023037428435470377 0.35875014109270914 0.2618855748857771 0.32068713860852377 -0.04928100002663476 -0.09150071442127228 -0.3020012868302209 0.128516714487757 -0.41930600149290903 -0.43729528359004427 -0.01185214304963925 0.006103142796616469 0.3339407188551767 -0.29598914299692425 0.09894057150397982 0.353776291012764 -0.049946428409644535 -0.3266504236630031 -0.02874557115137577 -0.17166128861052649 -0.1128268593123981 0.6680589914321899 0.2748514286109379 0.44724142977169584 -0.0034245714196003973 0.5046594313212803 -0.014048428939921516 -0.24249685662133352 0.2935212829283306
67 -0.13350443009819304 -0.13082442858389445 0.08204871362873487 0.023037428435470377 0.35875014109270914 0.2618855748857771 0.32068713860852377 -0.04928100002663476 -0.09150071442127228 -0.3020012868302209 0.128516714487757 -0.41930600149290903 -0.43729528359004427 -0.01185214304963925 0.006103142796616469 0.3339407188551767 -0.29598914299692425 0.09894057150397982 0.353776291012764 -0.049946428409644535 -0.3266504236630031 -0.02874557115137577 -0.17166128861052649 -0.1128268593123981 0.6680589914321899 0.2748514286109379 0.44724142977169584 -0.0034245714196003973 0.5046594313212803 -0.014048428939921516 -0.24249685662133352 0.2935212829283306
68 -0.1344488337635994 -0.13895916814605394 0.07935983253022035 0.02105166669934988 0.36968399584293365 0.26655150204896927 0.32558950036764145 -0.05128916725516319 -0.09171050041913986 -0.3024081736803055 0.13511400173107782 -0.4210578352212906 -0.4377106676499049 -0.008290833483139673 0.006237333155392359 0.32727183898289997 -0.293742669125398 0.09874333317081134 0.3588718424240748 -0.0460489991431435 -0.3300188332796097 -0.030049999865392845 -0.17463683833678564 -0.11811100070675214 0.6747830013434092 0.27747616668542224 0.445702667037646 -0.008028500160435215 0.5087341666221619 -0.0176793336092184 -0.24701450020074844 0.297176830470562
69 -0.13350443009819304 -0.13082442858389445 0.08204871362873487 0.023037428435470377 0.35875014109270914 0.2618855748857771 0.32068713860852377 -0.04928100002663476 -0.09150071442127228 -0.3020012868302209 0.128516714487757 -0.41930600149290903 -0.43729528359004427 -0.01185214304963925 0.006103142796616469 0.3339407188551767 -0.29598914299692425 0.09894057150397982 0.353776291012764 -0.049946428409644535 -0.3266504236630031 -0.02874557115137577 -0.17166128861052649 -0.1128268593123981 0.6680589914321899 0.2748514286109379 0.44724142977169584 -0.0034245714196003973 0.5046594313212803 -0.014048428939921516 -0.24249685662133352 0.2935212829283306
70 -0.08539200015366077 -0.08932800156374772 0.04675199890819689 0.018008166710690904 0.2298776643971602 0.17096549893418947 0.20374366578956446 -0.027816500078188255 -0.06077999955353638 -0.19764150368670622 0.09022783394902945 -0.2714090036849181 -0.28280216455459595 -0.00915666661846141 -0.00021816668837952116 0.21328350466986498 -0.1886521652340889 0.057568833542366825 0.23883766929308572 -0.0321376658588027 -0.2152701634913683 -0.019780166641188163 -0.10936033601562183 -0.07381800127526124 0.43906866759061813 0.1714311664303144 0.2928136649231116 -0.007799666695063934 0.3356880024075508 -0.009561166710530719 -0.16305566330750784 0.19122982894380888
71 -0.1284073330461979 -0.12808116897940636 0.07601649935046832 0.02730033329377572 0.35199549545844394 0.25877267122268677 0.317151998480161 -0.044806333258748055 -0.09177466668188572 -0.29287217060724896 0.12550783529877663 -0.4072318325440089 -0.427389328678449 -0.00753000002199163 0.012948833056725562 0.3206144993503888 -0.2862573315699895 0.09435866648952167 0.34999967366456985 -0.04118999963005384 -0.32582149654626846 -0.032661499766012035 -0.16694100201129913 -0.11237983405590057 0.6531359950701395 0.2696234981218974 0.4365456700325012 -0.001385666721034795 0.49684632817904156 -0.015287000181463858 -0.2417409991224607 0.28663599491119385
72 -0.1344488337635994 -0.13895916814605394 0.07935983253022035 0.02105166669934988 0.36968399584293365 0.26655150204896927 0.32558950036764145 -0.05128916725516319 -0.09171050041913986 -0.3024081736803055 0.13511400173107782 -0.4210578352212906 -0.4377106676499049 -0.008290833483139673 0.006237333155392359 0.32727183898289997 -0.293742669125398 0.09874333317081134 0.3588718424240748 -0.0460489991431435 -0.3300188332796097 -0.030049999865392845 -0.17463683833678564 -0.11811100070675214 0.6747830013434092 0.27747616668542224 0.445702667037646 -0.008028500160435215 0.5087341666221619 -0.0176793336092184 -0.24701450020074844 0.297176830470562
73 -0.14812327379530127 -0.16612354665994644 0.09878818148916418 0.032900000414387745 0.4401115422899073 0.29928463291038165 0.382046179337935 -0.07093999941240657 -0.10079181837764653 -0.35499563813209534 0.156724637882276 -0.5038799074563113 -0.513661268082532 -0.013830545464191924 0.00424345443620537 0.3819424537095157 -0.3444735434922305 0.11770681833679025 0.4250630926002156 -0.05326963622461666 -0.38429445028305054 -0.045174636454744774 -0.20439654724164444 -0.14228745685382324 0.7863700877536427 0.32285627180879767 0.5344057218594984 -0.01282972712281414 0.6019974513487383 -0.020499818450347942 -0.30159690976142883 0.34978463703935797
74 -0.11795140020549297 -0.12295280173420906 0.07607139945030213 0.01857520006597042 0.3200507995672524 0.22759600393474103 0.28642859645187857 -0.04308240023165126 -0.08670739978551864 -0.27206380357965826 0.11483640130609274 -0.3748373968526721 -0.39644999522715807 -0.010333800199441611 0.01021659984253347 0.29363380186259747 -0.2632897991221398 0.08806999959051609 0.3120782063342631 -0.043489599321037534 -0.2889579936861992 -0.019609799794852733 -0.15269140414893628 -0.10131260228808969 0.5874217899516225 0.24670399958267808 0.39155100490897893 0.00356280003907159 0.4480757983401418 -0.018666400434449316 -0.22165299840271474 0.25676639545708896
75 -0.11795140020549297 -0.12295280173420906 0.07607139945030213 0.01857520006597042 0.3200507995672524 0.22759600393474103 0.28642859645187857 -0.04308240023165126 -0.08670739978551864 -0.27206380357965826 0.11483640130609274 -0.3748373968526721 -0.39644999522715807 -0.010333800199441611 0.01021659984253347 0.29363380186259747 -0.2632897991221398 0.08806999959051609 0.3120782063342631 -0.043489599321037534 -0.2889579936861992 -0.019609799794852733 -0.15269140414893628 -0.10131260228808969 0.5874217899516225 0.24670399958267808 0.39155100490897893 0.00356280003907159 0.4480757983401418 -0.018666400434449316 -0.22165299840271474 0.25676639545708896
76 -0.11795140020549297 -0.12295280173420906 0.07607139945030213 0.01857520006597042 0.3200507995672524 0.22759600393474103 0.28642859645187857 -0.04308240023165126 -0.08670739978551864 -0.27206380357965826 0.11483640130609274 -0.3748373968526721 -0.39644999522715807 -0.010333800199441611 0.01021659984253347 0.29363380186259747 -0.2632897991221398 0.08806999959051609 0.3120782063342631 -0.043489599321037534 -0.2889579936861992 -0.019609799794852733 -0.15269140414893628 -0.10131260228808969 0.5874217899516225 0.24670399958267808 0.39155100490897893 0.00356280003907159 0.4480757983401418 -0.018666400434449316 -0.22165299840271474 0.25676639545708896
77 -0.11795140020549297 -0.12295280173420906 0.07607139945030213 0.01857520006597042 0.3200507995672524 0.22759600393474103 0.28642859645187857 -0.04308240023165126 -0.08670739978551864 -0.27206380357965826 0.11483640130609274 -0.3748373968526721 -0.39644999522715807 -0.010333800199441611 0.01021659984253347 0.29363380186259747 -0.2632897991221398 0.08806999959051609 0.3120782063342631 -0.043489599321037534 -0.2889579936861992 -0.019609799794852733 -0.15269140414893628 -0.10131260228808969 0.5874217899516225 0.24670399958267808 0.39155100490897893 0.00356280003907159 0.4480757983401418 -0.018666400434449316 -0.22165299840271474 0.25676639545708896
78 -0.037830570679424066 -0.043449428298377564 0.028406142731130655 0.0045441429995532545 0.11048428537989301 0.0780375711619854 0.10284856909752957 -0.016388000255184516 -0.027428714159343923 -0.09536442728338963 0.03914542902826464 -0.12914728474736745 -0.13587642504301453 -0.0013140000935111726 0.0055611429810856604 0.10370585817976721 -0.08607999787532858 0.03373914243586894 0.10912885896063276 -0.019458713542137827 -0.10408042471057602 -0.0038847142381460537 -0.05455643031746149 -0.03746085873405848 0.2041478500136041 0.09323428474765803 0.13415986050053366 0.0008812857143181775 0.1532301469705999 -0.006821714466371175 -0.07467128422078011 0.08855185606184282
79 -0.037830570679424066 -0.043449428298377564 0.028406142731130655 0.0045441429995532545 0.11048428537989301 0.0780375711619854 0.10284856909752957 -0.016388000255184516 -0.027428714159343923 -0.09536442728338963 0.03914542902826464 -0.12914728474736745 -0.13587642504301453 -0.0013140000935111726 0.0055611429810856604 0.10370585817976721 -0.08607999787532858 0.03373914243586894 0.10912885896063276 -0.019458713542137827 -0.10408042471057602 -0.0038847142381460537 -0.05455643031746149 -0.03746085873405848 0.2041478500136041 0.09323428474765803 0.13415986050053366 0.0008812857143181775 0.1532301469705999 -0.006821714466371175 -0.07467128422078011 0.08855185606184282
80 -0.11795140020549297 -0.12295280173420906 0.07607139945030213 0.01857520006597042 0.3200507995672524 0.22759600393474103 0.28642859645187857 -0.04308240023165126 -0.08670739978551864 -0.27206380357965826 0.11483640130609274 -0.3748373968526721 -0.39644999522715807 -0.010333800199441611 0.01021659984253347 0.29363380186259747 -0.2632897991221398 0.08806999959051609 0.3120782063342631 -0.043489599321037534 -0.2889579936861992 -0.019609799794852733 -0.15269140414893628 -0.10131260228808969 0.5874217899516225 0.24670399958267808 0.39155100490897893 0.00356280003907159 0.4480757983401418 -0.018666400434449316 -0.22165299840271474 0.25676639545708896
81 -0.037830570679424066 -0.043449428298377564 0.028406142731130655 0.0045441429995532545 0.11048428537989301 0.0780375711619854 0.10284856909752957 -0.016388000255184516 -0.027428714159343923 -0.09536442728338963 0.03914542902826464 -0.12914728474736745 -0.13587642504301453 -0.0013140000935111726 0.0055611429810856604 0.10370585817976721 -0.08607999787532858 0.03373914243586894 0.10912885896063276 -0.019458713542137827 -0.10408042471057602 -0.0038847142381460537 -0.05455643031746149 -0.03746085873405848 0.2041478500136041 0.09323428474765803 0.13415986050053366 0.0008812857143181775 0.1532301469705999 -0.006821714466371175 -0.07467128422078011 0.08855185606184282
82 -0.037830570679424066 -0.043449428298377564 0.028406142731130655 0.0045441429995532545 0.11048428537989301 0.0780375711619854 0.10284856909752957 -0.016388000255184516 -0.027428714159343923 -0.09536442728338963 0.03914542902826464 -0.12914728474736745 -0.13587642504301453 -0.0013140000935111726 0.0055611429810856604 0.10370585817976721 -0.08607999787532858 0.03373914243586894 0.10912885896063276 -0.019458713542137827 -0.10408042471057602 -0.0038847142381460537 -0.05455643031746149 -0.03746085873405848 0.2041478500136041 0.09323428474765803 0.13415986050053366 0.0008812857143181775 0.1532301469705999 -0.006821714466371175 -0.07467128422078011 0.08855185606184282
83 -0.11795140020549297 -0.12295280173420906 0.07607139945030213 0.01857520006597042 0.3200507995672524 0.22759600393474103 0.28642859645187857 -0.04308240023165126 -0.08670739978551864 -0.27206380357965826 0.11483640130609274 -0.3748373968526721 -0.39644999522715807 -0.010333800199441611 0.01021659984253347 0.29363380186259747 -0.2632897991221398 0.08806999959051609 0.3120782063342631 -0.043489599321037534 -0.2889579936861992 -0.019609799794852733 -0.15269140414893628 -0.10131260228808969 0.5874217899516225 0.24670399958267808 0.39155100490897893 0.00356280003907159 0.4480757983401418 -0.018666400434449316 -0.22165299840271474 0.25676639545708896
84 -0.037830570679424066 -0.043449428298377564 0.028406142731130655 0.0045441429995532545 0.11048428537989301 0.0780375711619854 0.10284856909752957 -0.016388000255184516 -0.027428714159343923 -0.09536442728338963 0.03914542902826464 -0.12914728474736745 -0.13587642504301453 -0.0013140000935111726 0.0055611429810856604 0.10370585817976721 -0.08607999787532858 0.03373914243586894 0.10912885896063276 -0.019458713542137827 -0.10408042471057602 -0.0038847142381460537 -0.05455643031746149 -0.03746085873405848 0.2041478500136041 0.09323428474765803 0.13415986050053366 0.0008812857143181775 0.1532301469705999 -0.006821714466371175 -0.07467128422078011 0.08855185606184282
85 -0.037830570679424066 -0.043449428298377564 0.028406142731130655 0.0045441429995532545 0.11048428537989301 0.0780375711619854 0.10284856909752957 -0.016388000255184516 -0.027428714159343923 -0.09536442728338963 0.03914542902826464 -0.12914728474736745 -0.13587642504301453 -0.0013140000935111726 0.0055611429810856604 0.10370585817976721 -0.08607999787532858 0.03373914243586894 0.10912885896063276 -0.019458713542137827 -0.10408042471057602 -0.0038847142381460537 -0.05455643031746149 -0.03746085873405848 0.2041478500136041 0.09323428474765803 0.13415986050053366 0.0008812857143181775 0.1532301469705999 -0.006821714466371175 -0.07467128422078011 0.08855185606184282
86 -0.037830570679424066 -0.043449428298377564 0.028406142731130655 0.0045441429995532545 0.11048428537989301 0.0780375711619854 0.10284856909752957 -0.016388000255184516 -0.027428714159343923 -0.09536442728338963 0.03914542902826464 -0.12914728474736745 -0.13587642504301453 -0.0013140000935111726 0.0055611429810856604 0.10370585817976721 -0.08607999787532858 0.03373914243586894 0.10912885896063276 -0.019458713542137827 -0.10408042471057602 -0.0038847142381460537 -0.05455643031746149 -0.03746085873405848 0.2041478500136041 0.09323428474765803 0.13415986050053366 0.0008812857143181775 0.1532301469705999 -0.006821714466371175 -0.07467128422078011 0.08855185606184282
87 -0.11795140020549297 -0.12295280173420906 0.07607139945030213 0.01857520006597042 0.3200507995672524 0.22759600393474103 0.28642859645187857 -0.04308240023165126 -0.08670739978551864 -0.27206380357965826 0.11483640130609274 -0.3748373968526721 -0.39644999522715807 -0.010333800199441611 0.01021659984253347 0.29363380186259747 -0.2632897991221398 0.08806999959051609 0.3120782063342631 -0.043489599321037534 -0.2889579936861992 -0.019609799794852733 -0.15269140414893628 -0.10131260228808969 0.5874217899516225 0.24670399958267808 0.39155100490897893 0.00356280003907159 0.4480757983401418 -0.018666400434449316 -0.22165299840271474 0.25676639545708896
88 -0.037830570679424066 -0.043449428298377564 0.028406142731130655 0.0045441429995532545 0.11048428537989301 0.0780375711619854 0.10284856909752957 -0.016388000255184516 -0.027428714159343923 -0.09536442728338963 0.03914542902826464 -0.12914728474736745 -0.13587642504301453 -0.0013140000935111726 0.0055611429810856604 0.10370585817976721 -0.08607999787532858 0.03373914243586894 0.10912885896063276 -0.019458713542137827 -0.10408042471057602 -0.0038847142381460537 -0.05455643031746149 -0.03746085873405848 0.2041478500136041 0.09323428474765803 0.13415986050053366 0.0008812857143181775 0.1532301469705999 -0.006821714466371175 -0.07467128422078011 0.08855185606184282
89 -0.037830570679424066 -0.043449428298377564 0.028406142731130655 0.0045441429995532545 0.11048428537989301 0.0780375711619854 0.10284856909752957 -0.016388000255184516 -0.027428714159343923 -0.09536442728338963 0.03914542902826464 -0.12914728474736745 -0.13587642504301453 -0.0013140000935111726 0.0055611429810856604 0.10370585817976721 -0.08607999787532858 0.03373914243586894 0.10912885896063276 -0.019458713542137827 -0.10408042471057602 -0.0038847142381460537 -0.05455643031746149 -0.03746085873405848 0.2041478500136041 0.09323428474765803 0.13415986050053366 0.0008812857143181775 0.1532301469705999 -0.006821714466371175 -0.07467128422078011 0.08855185606184282
90 -0.11795140020549297 -0.12295280173420906 0.07607139945030213 0.01857520006597042 0.3200507995672524 0.22759600393474103 0.28642859645187857 -0.04308240023165126 -0.08670739978551864 -0.27206380357965826 0.11483640130609274 -0.3748373968526721 -0.39644999522715807 -0.010333800199441611 0.01021659984253347 0.29363380186259747 -0.2632897991221398 0.08806999959051609 0.3120782063342631 -0.043489599321037534 -0.2889579936861992 -0.019609799794852733 -0.15269140414893628 -0.10131260228808969 0.5874217899516225 0.24670399958267808 0.39155100490897893 0.00356280003907159 0.4480757983401418 -0.018666400434449316 -0.22165299840271474 0.25676639545708896
91 -0.037830570679424066 -0.043449428298377564 0.028406142731130655 0.0045441429995532545 0.11048428537989301 0.0780375711619854 0.10284856909752957 -0.016388000255184516 -0.027428714159343923 -0.09536442728338963 0.03914542902826464 -0.12914728474736745 -0.13587642504301453 -0.0013140000935111726 0.0055611429810856604 0.10370585817976721 -0.08607999787532858 0.03373914243586894 0.10912885896063276 -0.019458713542137827 -0.10408042471057602 -0.0038847142381460537 -0.05455643031746149 -0.03746085873405848 0.2041478500136041 0.09323428474765803 0.13415986050053366 0.0008812857143181775 0.1532301469705999 -0.006821714466371175 -0.07467128422078011 0.08855185606184282
92 -0.037830570679424066 -0.043449428298377564 0.028406142731130655 0.0045441429995532545 0.11048428537989301 0.0780375711619854 0.10284856909752957 -0.016388000255184516 -0.027428714159343923 -0.09536442728338963 0.03914542902826464 -0.12914728474736745 -0.13587642504301453 -0.0013140000935111726 0.0055611429810856604 0.10370585817976721 -0.08607999787532858 0.03373914243586894 0.10912885896063276 -0.019458713542137827 -0.10408042471057602 -0.0038847142381460537 -0.05455643031746149 -0.03746085873405848 0.2041478500136041 0.09323428474765803 0.13415986050053366 0.0008812857143181775 0.1532301469705999 -0.006821714466371175 -0.07467128422078011 0.08855185606184282
93 -0.037830570679424066 -0.043449428298377564 0.028406142731130655 0.0045441429995532545 0.11048428537989301 0.0780375711619854 0.10284856909752957 -0.016388000255184516 -0.027428714159343923 -0.09536442728338963 0.03914542902826464 -0.12914728474736745 -0.13587642504301453 -0.0013140000935111726 0.0055611429810856604 0.10370585817976721 -0.08607999787532858 0.03373914243586894 0.10912885896063276 -0.019458713542137827 -0.10408042471057602 -0.0038847142381460537 -0.05455643031746149 -0.03746085873405848 0.2041478500136041 0.09323428474765803 0.13415986050053366 0.0008812857143181775 0.1532301469705999 -0.006821714466371175 -0.07467128422078011 0.08855185606184282
94 -0.037830570679424066 -0.043449428298377564 0.028406142731130655 0.0045441429995532545 0.11048428537989301 0.0780375711619854 0.10284856909752957 -0.016388000255184516 -0.027428714159343923 -0.09536442728338963 0.03914542902826464 -0.12914728474736745 -0.13587642504301453 -0.0013140000935111726 0.0055611429810856604 0.10370585817976721 -0.08607999787532858 0.03373914243586894 0.10912885896063276 -0.019458713542137827 -0.10408042471057602 -0.0038847142381460537 -0.05455643031746149 -0.03746085873405848 0.2041478500136041 0.09323428474765803 0.13415986050053366 0.0008812857143181775 0.1532301469705999 -0.006821714466371175 -0.07467128422078011 0.08855185606184282
95 -0.037830570679424066 -0.043449428298377564 0.028406142731130655 0.0045441429995532545 0.11048428537989301 0.0780375711619854 0.10284856909752957 -0.016388000255184516 -0.027428714159343923 -0.09536442728338963 0.03914542902826464 -0.12914728474736745 -0.13587642504301453 -0.0013140000935111726 0.0055611429810856604 0.10370585817976721 -0.08607999787532858 0.03373914243586894 0.10912885896063276 -0.019458713542137827 -0.10408042471057602 -0.0038847142381460537 -0.05455643031746149 -0.03746085873405848 0.2041478500136041 0.09323428474765803 0.13415986050053366 0.0008812857143181775 0.1532301469705999 -0.006821714466371175 -0.07467128422078011 0.08855185606184282
96 -0.037830570679424066 -0.043449428298377564 0.028406142731130655 0.0045441429995532545 0.11048428537989301 0.0780375711619854 0.10284856909752957 -0.016388000255184516 -0.027428714159343923 -0.09536442728338963 0.03914542902826464 -0.12914728474736745 -0.13587642504301453 -0.0013140000935111726 0.0055611429810856604 0.10370585817976721 -0.08607999787532858 0.03373914243586894 0.10912885896063276 -0.019458713542137827 -0.10408042471057602 -0.0038847142381460537 -0.05455643031746149 -0.03746085873405848 0.2041478500136041 0.09323428474765803 0.13415986050053366 0.0008812857143181775 0.1532301469705999 -0.006821714466371175 -0.07467128422078011 0.08855185606184282
97 -0.11795140020549297 -0.12295280173420906 0.07607139945030213 0.01857520006597042 0.3200507995672524 0.22759600393474103 0.28642859645187857 -0.04308240023165126 -0.08670739978551864 -0.27206380357965826 0.11483640130609274 -0.3748373968526721 -0.39644999522715807 -0.010333800199441611 0.01021659984253347 0.29363380186259747 -0.2632897991221398 0.08806999959051609 0.3120782063342631 -0.043489599321037534 -0.2889579936861992 -0.019609799794852733 -0.15269140414893628 -0.10131260228808969 0.5874217899516225 0.24670399958267808 0.39155100490897893 0.00356280003907159 0.4480757983401418 -0.018666400434449316 -0.22165299840271474 0.25676639545708896
98 -0.037830570679424066 -0.043449428298377564 0.028406142731130655 0.0045441429995532545 0.11048428537989301 0.0780375711619854 0.10284856909752957 -0.016388000255184516 -0.027428714159343923 -0.09536442728338963 0.03914542902826464 -0.12914728474736745 -0.13587642504301453 -0.0013140000935111726 0.0055611429810856604 0.10370585817976721 -0.08607999787532858 0.03373914243586894 0.10912885896063276 -0.019458713542137827 -0.10408042471057602 -0.0038847142381460537 -0.05455643031746149 -0.03746085873405848 0.2041478500136041 0.09323428474765803 0.13415986050053366 0.0008812857143181775 0.1532301469705999 -0.006821714466371175 -0.07467128422078011 0.08855185606184282
99 -0.037830570679424066 -0.043449428298377564 0.028406142731130655 0.0045441429995532545 0.11048428537989301 0.0780375711619854 0.10284856909752957 -0.016388000255184516 -0.027428714159343923 -0.09536442728338963 0.03914542902826464 -0.12914728474736745 -0.13587642504301453 -0.0013140000935111726 0.0055611429810856604 0.10370585817976721 -0.08607999787532858 0.03373914243586894 0.10912885896063276 -0.019458713542137827 -0.10408042471057602 -0.0038847142381460537 -0.05455643031746149 -0.03746085873405848 0.2041478500136041 0.09323428474765803 0.13415986050053366 0.0008812857143181775 0.1532301469705999 -0.006821714466371175 -0.07467128422078011 0.08855185606184282
100 -0.037830570679424066 -0.043449428298377564 0.028406142731130655 0.0045441429995532545 0.11048428537989301 0.0780375711619854 0.10284856909752957 -0.016388000255184516 -0.027428714159343923 -0.09536442728338963 0.03914542902826464 -0.12914728474736745 -0.13587642504301453 -0.0013140000935111726 0.0055611429810856604 0.10370585817976721 -0.08607999787532858 0.03373914243586894 0.10912885896063276 -0.019458713542137827 -0.10408042471057602 -0.0038847142381460537 -0.05455643031746149 -0.03746085873405848 0.2041478500136041 0.09323428474765803 0.13415986050053366 0.0008812857143181775 0.1532301469705999 -0.006821714466371175 -0.07467128422078011 0.08855185606184282
101 -0.037830570679424066 -0.043449428298377564 0.028406142731130655 0.0045441429995532545 0.11048428537989301 0.0780375711619854 0.10284856909752957 -0.016388000255184516 -0.027428714159343923 -0.09536442728338963 0.03914542902826464 -0.12914728474736745 -0.13587642504301453 -0.0013140000935111726 0.0055611429810856604 0.10370585817976721 -0.08607999787532858 0.03373914243586894 0.10912885896063276 -0.019458713542137827 -0.10408042471057602 -0.0038847142381460537 -0.05455643031746149 -0.03746085873405848 0.2041478500136041 0.09323428474765803 0.13415986050053366 0.0008812857143181775 0.1532301469705999 -0.006821714466371175 -0.07467128422078011 0.08855185606184282
102 -0.037830570679424066 -0.043449428298377564 0.028406142731130655 0.0045441429995532545 0.11048428537989301 0.0780375711619854 0.10284856909752957 -0.016388000255184516 -0.027428714159343923 -0.09536442728338963 0.03914542902826464 -0.12914728474736745 -0.13587642504301453 -0.0013140000935111726 0.0055611429810856604 0.10370585817976721 -0.08607999787532858 0.03373914243586894 0.10912885896063276 -0.019458713542137827 -0.10408042471057602 -0.0038847142381460537 -0.05455643031746149 -0.03746085873405848 0.2041478500136041 0.09323428474765803 0.13415986050053366 0.0008812857143181775 0.1532301469705999 -0.006821714466371175 -0.07467128422078011 0.08855185606184282
103 -0.037830570679424066 -0.043449428298377564 0.028406142731130655 0.0045441429995532545 0.11048428537989301 0.0780375711619854 0.10284856909752957 -0.016388000255184516 -0.027428714159343923 -0.09536442728338963 0.03914542902826464 -0.12914728474736745 -0.13587642504301453 -0.0013140000935111726 0.0055611429810856604 0.10370585817976721 -0.08607999787532858 0.03373914243586894 0.10912885896063276 -0.019458713542137827 -0.10408042471057602 -0.0038847142381460537 -0.05455643031746149 -0.03746085873405848 0.2041478500136041 0.09323428474765803 0.13415986050053366 0.0008812857143181775 0.1532301469705999 -0.006821714466371175 -0.07467128422078011 0.08855185606184282
104 -0.13350443009819304 -0.13082442858389445 0.08204871362873487 0.023037428435470377 0.35875014109270914 0.2618855748857771 0.32068713860852377 -0.04928100002663476 -0.09150071442127228 -0.3020012868302209 0.128516714487757 -0.41930600149290903 -0.43729528359004427 -0.01185214304963925 0.006103142796616469 0.3339407188551767 -0.29598914299692425 0.09894057150397982 0.353776291012764 -0.049946428409644535 -0.3266504236630031 -0.02874557115137577 -0.17166128861052649 -0.1128268593123981 0.6680589914321899 0.2748514286109379 0.44724142977169584 -0.0034245714196003973 0.5046594313212803 -0.014048428939921516 -0.24249685662133352 0.2935212829283306
105 -0.13667209107767453 -0.13701045513153076 0.08559454503384503 0.02610172729261897 0.36111418361013586 0.26838754388419067 0.32338445024056867 -0.05147427286614071 -0.09542518176815727 -0.30330218374729156 0.12894627316431564 -0.42068272829055786 -0.44132700020616705 -0.014168999919837172 0.008812181799757209 0.3374652713537216 -0.30035181749950757 0.09760572625832124 0.3600651838562705 -0.06509209051728249 -0.32676308805292303 -0.011520909182515672 -0.1818382740020752 -0.11405736614357341 0.6744361817836761 0.2832869982177561 0.4476362710649317 0.017373454677660695 0.5094639171253551 -0.01533472733254629 -0.24438117986375635 0.29423327202146704
106 -0.1284073330461979 -0.12808116897940636 0.07601649935046832 0.02730033329377572 0.35199549545844394 0.25877267122268677 0.317151998480161 -0.044806333258748055 -0.09177466668188572 -0.29287217060724896 0.12550783529877663 -0.4072318325440089 -0.427389328678449 -0.00753000002199163 0.012948833056725562 0.3206144993503888 -0.2862573315699895 0.09435866648952167 0.34999967366456985 -0.04118999963005384 -0.32582149654626846 -0.032661499766012035 -0.16694100201129913 -0.11237983405590057 0.6531359950701395 0.2696234981218974 0.4365456700325012 -0.001385666721034795 0.49684632817904156 -0.015287000181463858 -0.2417409991224607 0.28663599491119385
107 -0.1344488337635994 -0.13895916814605394 0.07935983253022035 0.02105166669934988 0.36968399584293365 0.26655150204896927 0.32558950036764145 -0.05128916725516319 -0.09171050041913986 -0.3024081736803055 0.13511400173107782 -0.4210578352212906 -0.4377106676499049 -0.008290833483139673 0.006237333155392359 0.32727183898289997 -0.293742669125398 0.09874333317081134 0.3588718424240748 -0.0460489991431435 -0.3300188332796097 -0.030049999865392845 -0.17463683833678564 -0.11811100070675214 0.6747830013434092 0.27747616668542224 0.445702667037646 -0.008028500160435215 0.5087341666221619 -0.0176793336092184 -0.24701450020074844 0.297176830470562
108 -0.13350443009819304 -0.13082442858389445 0.08204871362873487 0.023037428435470377 0.35875014109270914 0.2618855748857771 0.32068713860852377 -0.04928100002663476 -0.09150071442127228 -0.3020012868302209 0.128516714487757 -0.41930600149290903 -0.43729528359004427 -0.01185214304963925 0.006103142796616469 0.3339407188551767 -0.29598914299692425 0.09894057150397982 0.353776291012764 -0.049946428409644535 -0.3266504236630031 -0.02874557115137577 -0.17166128861052649 -0.1128268593123981 0.6680589914321899 0.2748514286109379 0.44724142977169584 -0.0034245714196003973 0.5046594313212803 -0.014048428939921516 -0.24249685662133352 0.2935212829283306
109 -0.13667209107767453 -0.13701045513153076 0.08559454503384503 0.02610172729261897 0.36111418361013586 0.26838754388419067 0.32338445024056867 -0.05147427286614071 -0.09542518176815727 -0.30330218374729156 0.12894627316431564 -0.42068272829055786 -0.44132700020616705 -0.014168999919837172 0.008812181799757209 0.3374652713537216 -0.30035181749950757 0.09760572625832124 0.3600651838562705 -0.06509209051728249 -0.32676308805292303 -0.011520909182515672 -0.1818382740020752 -0.11405736614357341 0.6744361817836761 0.2832869982177561 0.4476362710649317 0.017373454677660695 0.5094639171253551 -0.01533472733254629 -0.24438117986375635 0.29423327202146704
110 -0.13667209107767453 -0.13701045513153076 0.08559454503384503 0.02610172729261897 0.36111418361013586 0.26838754388419067 0.32338445024056867 -0.05147427286614071 -0.09542518176815727 -0.30330218374729156 0.12894627316431564 -0.42068272829055786 -0.44132700020616705 -0.014168999919837172 0.008812181799757209 0.3374652713537216 -0.30035181749950757 0.09760572625832124 0.3600651838562705 -0.06509209051728249 -0.32676308805292303 -0.011520909182515672 -0.1818382740020752 -0.11405736614357341 0.6744361817836761 0.2832869982177561 0.4476362710649317 0.017373454677660695 0.5094639171253551 -0.01533472733254629 -0.24438117986375635 0.29423327202146704
111 -0.13350443009819304 -0.13082442858389445 0.08204871362873487 0.023037428435470377 0.35875014109270914 0.2618855748857771 0.32068713860852377 -0.04928100002663476 -0.09150071442127228 -0.3020012868302209 0.128516714487757 -0.41930600149290903 -0.43729528359004427 -0.01185214304963925 0.006103142796616469 0.3339407188551767 -0.29598914299692425 0.09894057150397982 0.353776291012764 -0.049946428409644535 -0.3266504236630031 -0.02874557115137577 -0.17166128861052649 -0.1128268593123981 0.6680589914321899 0.2748514286109379 0.44724142977169584 -0.0034245714196003973 0.5046594313212803 -0.014048428939921516 -0.24249685662133352 0.2935212829283306
112 -0.1284073330461979 -0.12808116897940636 0.07601649935046832 0.02730033329377572 0.35199549545844394 0.25877267122268677 0.317151998480161 -0.044806333258748055 -0.09177466668188572 -0.29287217060724896 0.12550783529877663 -0.4072318325440089 -0.427389328678449 -0.00753000002199163 0.012948833056725562 0.3206144993503888 -0.2862573315699895 0.09435866648952167 0.34999967366456985 -0.04118999963005384 -0.32582149654626846 -0.032661499766012035 -0.16694100201129913 -0.11237983405590057 0.6531359950701395 0.2696234981218974 0.4365456700325012 -0.001385666721034795 0.49684632817904156 -0.015287000181463858 -0.2417409991224607 0.28663599491119385
113 -0.1344488337635994 -0.13895916814605394 0.07935983253022035 0.02105166669934988 0.36968399584293365 0.26655150204896927 0.32558950036764145 -0.05128916725516319 -0.09171050041913986 -0.3024081736803055 0.13511400173107782 -0.4210578352212906 -0.4377106676499049 -0.008290833483139673 0.006237333155392359 0.32727183898289997 -0.293742669125398 0.09874333317081134 0.3588718424240748 -0.0460489991431435 -0.3300188332796097 -0.030049999865392845 -0.17463683833678564 -0.11811100070675214 0.6747830013434092 0.27747616668542224 0.445702667037646 -0.008028500160435215 0.5087341666221619 -0.0176793336092184 -0.24701450020074844 0.297176830470562
114 -0.1284073330461979 -0.12808116897940636 0.07601649935046832 0.02730033329377572 0.35199549545844394 0.25877267122268677 0.317151998480161 -0.044806333258748055 -0.09177466668188572 -0.29287217060724896 0.12550783529877663 -0.4072318325440089 -0.427389328678449 -0.00753000002199163 0.012948833056725562 0.3206144993503888 -0.2862573315699895 0.09435866648952167 0.34999967366456985 -0.04118999963005384 -0.32582149654626846 -0.032661499766012035 -0.16694100201129913 -0.11237983405590057 0.6531359950701395 0.2696234981218974 0.4365456700325012 -0.001385666721034795 0.49684632817904156 -0.015287000181463858 -0.2417409991224607 0.28663599491119385
115 -0.1284073330461979 -0.12808116897940636 0.07601649935046832 0.02730033329377572 0.35199549545844394 0.25877267122268677 0.317151998480161 -0.044806333258748055 -0.09177466668188572 -0.29287217060724896 0.12550783529877663 -0.4072318325440089 -0.427389328678449 -0.00753000002199163 0.012948833056725562 0.3206144993503888 -0.2862573315699895 0.09435866648952167 0.34999967366456985 -0.04118999963005384 -0.32582149654626846 -0.032661499766012035 -0.16694100201129913 -0.11237983405590057 0.6531359950701395 0.2696234981218974 0.4365456700325012 -0.001385666721034795 0.49684632817904156 -0.015287000181463858 -0.2417409991224607 0.28663599491119385
116 -0.1284073330461979 -0.12808116897940636 0.07601649935046832 0.02730033329377572 0.35199549545844394 0.25877267122268677 0.317151998480161 -0.044806333258748055 -0.09177466668188572 -0.29287217060724896 0.12550783529877663 -0.4072318325440089 -0.427389328678449 -0.00753000002199163 0.012948833056725562 0.3206144993503888 -0.2862573315699895 0.09435866648952167 0.34999967366456985 -0.04118999963005384 -0.32582149654626846 -0.032661499766012035 -0.16694100201129913 -0.11237983405590057 0.6531359950701395 0.2696234981218974 0.4365456700325012 -0.001385666721034795 0.49684632817904156 -0.015287000181463858 -0.2417409991224607 0.28663599491119385
117 -0.1284073330461979 -0.12808116897940636 0.07601649935046832 0.02730033329377572 0.35199549545844394 0.25877267122268677 0.317151998480161 -0.044806333258748055 -0.09177466668188572 -0.29287217060724896 0.12550783529877663 -0.4072318325440089 -0.427389328678449 -0.00753000002199163 0.012948833056725562 0.3206144993503888 -0.2862573315699895 0.09435866648952167 0.34999967366456985 -0.04118999963005384 -0.32582149654626846 -0.032661499766012035 -0.16694100201129913 -0.11237983405590057 0.6531359950701395 0.2696234981218974 0.4365456700325012 -0.001385666721034795 0.49684632817904156 -0.015287000181463858 -0.2417409991224607 0.28663599491119385
118 -0.13350443009819304 -0.13082442858389445 0.08204871362873487 0.023037428435470377 0.35875014109270914 0.2618855748857771 0.32068713860852377 -0.04928100002663476 -0.09150071442127228 -0.3020012868302209 0.128516714487757 -0.41930600149290903 -0.43729528359004427 -0.01185214304963925 0.006103142796616469 0.3339407188551767 -0.29598914299692425 0.09894057150397982 0.353776291012764 -0.049946428409644535 -0.3266504236630031 -0.02874557115137577 -0.17166128861052649 -0.1128268593123981 0.6680589914321899 0.2748514286109379 0.44724142977169584 -0.0034245714196003973 0.5046594313212803 -0.014048428939921516 -0.24249685662133352 0.2935212829283306
119 -0.13667209107767453 -0.13701045513153076 0.08559454503384503 0.02610172729261897 0.36111418361013586 0.26838754388419067 0.32338445024056867 -0.05147427286614071 -0.09542518176815727 -0.30330218374729156 0.12894627316431564 -0.42068272829055786 -0.44132700020616705 -0.014168999919837172 0.008812181799757209 0.3374652713537216 -0.30035181749950757 0.09760572625832124 0.3600651838562705 -0.06509209051728249 -0.32676308805292303 -0.011520909182515672 -0.1818382740020752 -0.11405736614357341 0.6744361817836761 0.2832869982177561 0.4476362710649317 0.017373454677660695 0.5094639171253551 -0.01533472733254629 -0.24438117986375635 0.29423327202146704
120 -0.1284073330461979 -0.12808116897940636 0.07601649935046832 0.02730033329377572 0.35199549545844394 0.25877267122268677 0.317151998480161 -0.044806333258748055 -0.09177466668188572 -0.29287217060724896 0.12550783529877663 -0.4072318325440089 -0.427389328678449 -0.00753000002199163 0.012948833056725562 0.3206144993503888 -0.2862573315699895 0.09435866648952167 0.34999967366456985 -0.04118999963005384 -0.32582149654626846 -0.032661499766012035 -0.16694100201129913 -0.11237983405590057 0.6531359950701395 0.2696234981218974 0.4365456700325012 -0.001385666721034795 0.49684632817904156 -0.015287000181463858 -0.2417409991224607 0.28663599491119385
121 -0.1319421125161979 -0.13082911250078016 0.07800255426102215 0.027129221966283187 0.3461828895120157 0.2563012170915802 0.31014588708058 -0.0458652221908172 -0.09834722170813216 -0.29314733762294054 0.12332655644665162 -0.3993381107381235 -0.4206043304875493 -0.008680555374465056 0.013129333202313218 0.3179695542073912 -0.28315089043139274 0.09234033286985424 0.34633889080335695 -0.056133333386646375 -0.3176192176114354 -0.019024333399203088 -0.1723590006844865 -0.11046155687007639 0.6510605672374368 0.27125211235963637 0.43214755564824575 0.0051382225032688845 0.48546788976010347 -0.013460222036681242 -0.2431534435082641 0.28494088413814705
122 -0.1344488337635994 -0.13895916814605394 0.07935983253022035 0.02105166669934988 0.36968399584293365 0.26655150204896927 0.32558950036764145 -0.05128916725516319 -0.09171050041913986 -0.3024081736803055 0.13511400173107782 -0.4210578352212906 -0.4377106676499049 -0.008290833483139673 0.006237333155392359 0.32727183898289997 -0.293742669125398 0.09874333317081134 0.3588718424240748 -0.0460489991431435 -0.3300188332796097 -0.030049999865392845 -0.17463683833678564 -0.11811100070675214 0.6747830013434092 0.27747616668542224 0.445702667037646 -0.008028500160435215 0.5087341666221619 -0.0176793336092184 -0.24701450020074844 0.297176830470562
123 -0.1284073330461979 -0.12808116897940636 0.07601649935046832 0.02730033329377572 0.35199549545844394 0.25877267122268677 0.317151998480161 -0.044806333258748055 -0.09177466668188572 -0.29287217060724896 0.12550783529877663 -0.4072318325440089 -0.427389328678449 -0.00753000002199163 0.012948833056725562 0.3206144993503888 -0.2862573315699895 0.09435866648952167 0.34999967366456985 -0.04118999963005384 -0.32582149654626846 -0.032661499766012035 -0.16694100201129913 -0.11237983405590057 0.6531359950701395 0.2696234981218974 0.4365456700325012 -0.001385666721034795 0.49684632817904156 -0.015287000181463858 -0.2417409991224607 0.28663599491119385
124 -0.1344488337635994 -0.13895916814605394 0.07935983253022035 0.02105166669934988 0.36968399584293365 0.26655150204896927 0.32558950036764145 -0.05128916725516319 -0.09171050041913986 -0.3024081736803055 0.13511400173107782 -0.4210578352212906 -0.4377106676499049 -0.008290833483139673 0.006237333155392359 0.32727183898289997 -0.293742669125398 0.09874333317081134 0.3588718424240748 -0.0460489991431435 -0.3300188332796097 -0.030049999865392845 -0.17463683833678564 -0.11811100070675214 0.6747830013434092 0.27747616668542224 0.445702667037646 -0.008028500160435215 0.5087341666221619 -0.0176793336092184 -0.24701450020074844 0.297176830470562
125 -0.1344488337635994 -0.13895916814605394 0.07935983253022035 0.02105166669934988 0.36968399584293365 0.26655150204896927 0.32558950036764145 -0.05128916725516319 -0.09171050041913986 -0.3024081736803055 0.13511400173107782 -0.4210578352212906 -0.4377106676499049 -0.008290833483139673 0.006237333155392359 0.32727183898289997 -0.293742669125398 0.09874333317081134 0.3588718424240748 -0.0460489991431435 -0.3300188332796097 -0.030049999865392845 -0.17463683833678564 -0.11811100070675214 0.6747830013434092 0.27747616668542224 0.445702667037646 -0.008028500160435215 0.5087341666221619 -0.0176793336092184 -0.24701450020074844 0.297176830470562
126 -0.1284073330461979 -0.12808116897940636 0.07601649935046832 0.02730033329377572 0.35199549545844394 0.25877267122268677 0.317151998480161 -0.044806333258748055 -0.09177466668188572 -0.29287217060724896 0.12550783529877663 -0.4072318325440089 -0.427389328678449 -0.00753000002199163 0.012948833056725562 0.3206144993503888 -0.2862573315699895 0.09435866648952167 0.34999967366456985 -0.04118999963005384 -0.32582149654626846 -0.032661499766012035 -0.16694100201129913 -0.11237983405590057 0.6531359950701395 0.2696234981218974 0.4365456700325012 -0.001385666721034795 0.49684632817904156 -0.015287000181463858 -0.2417409991224607 0.28663599491119385
127 -0.1344488337635994 -0.13895916814605394 0.07935983253022035 0.02105166669934988 0.36968399584293365 0.26655150204896927 0.32558950036764145 -0.05128916725516319 -0.09171050041913986 -0.3024081736803055 0.13511400173107782 -0.4210578352212906 -0.4377106676499049 -0.008290833483139673 0.006237333155392359 0.32727183898289997 -0.293742669125398 0.09874333317081134 0.3588718424240748 -0.0460489991431435 -0.3300188332796097 -0.030049999865392845 -0.17463683833678564 -0.11811100070675214 0.6747830013434092 0.27747616668542224 0.445702667037646 -0.008028500160435215 0.5087341666221619 -0.0176793336092184 -0.24701450020074844 0.297176830470562
128 -0.13667209107767453 -0.13701045513153076 0.08559454503384503 0.02610172729261897 0.36111418361013586 0.26838754388419067 0.32338445024056867 -0.05147427286614071 -0.09542518176815727 -0.30330218374729156 0.12894627316431564 -0.42068272829055786 -0.44132700020616705 -0.014168999919837172 0.008812181799757209 0.3374652713537216 -0.30035181749950757 0.09760572625832124 0.3600651838562705 -0.06509209051728249 -0.32676308805292303 -0.011520909182515672 -0.1818382740020752 -0.11405736614357341 0.6744361817836761 0.2832869982177561 0.4476362710649317 0.017373454677660695 0.5094639171253551 -0.01533472733254629 -0.24438117986375635 0.29423327202146704
129 -0.13350443009819304 -0.13082442858389445 0.08204871362873487 0.023037428435470377 0.35875014109270914 0.2618855748857771 0.32068713860852377 -0.04928100002663476 -0.09150071442127228 -0.3020012868302209 0.128516714487757 -0.41930600149290903 -0.43729528359004427 -0.01185214304963925 0.006103142796616469 0.3339407188551767 -0.29598914299692425 0.09894057150397982 0.353776291012764 -0.049946428409644535 -0.3266504236630031 -0.02874557115137577 -0.17166128861052649 -0.1128268593123981 0.6680589914321899 0.2748514286109379 0.44724142977169584 -0.0034245714196003973 0.5046594313212803 -0.014048428939921516 -0.24249685662133352 0.2935212829283306
130 -0.13667209107767453 -0.13701045513153076 0.08559454503384503 0.02610172729261897 0.36111418361013586 0.26838754388419067 0.32338445024056867 -0.05147427286614071 -0.09542518176815727 -0.30330218374729156 0.12894627316431564 -0.42068272829055786 -0.44132700020616705 -0.014168999919837172 0.008812181799757209 0.3374652713537216 -0.30035181749950757 0.09760572625832124 0.3600651838562705 -0.06509209051728249 -0.32676308805292303 -0.011520909182515672 -0.1818382740020752 -0.11405736614357341 0.6744361817836761 0.2832869982177561 0.4476362710649317 0.017373454677660695 0.5094639171253551 -0.01533472733254629 -0.24438117986375635 0.29423327202146704
131 -0.1344488337635994 -0.13895916814605394 0.07935983253022035 0.02105166669934988 0.36968399584293365 0.26655150204896927 0.32558950036764145 -0.05128916725516319 -0.09171050041913986 -0.3024081736803055 0.13511400173107782 -0.4210578352212906 -0.4377106676499049 -0.008290833483139673 0.006237333155392359 0.32727183898289997 -0.293742669125398 0.09874333317081134 0.3588718424240748 -0.0460489991431435 -0.3300188332796097 -0.030049999865392845 -0.17463683833678564 -0.11811100070675214 0.6747830013434092 0.27747616668542224 0.445702667037646 -0.008028500160435215 0.5087341666221619 -0.0176793336092184 -0.24701450020074844 0.297176830470562
132 -0.13667209107767453 -0.13701045513153076 0.08559454503384503 0.02610172729261897 0.36111418361013586 0.26838754388419067 0.32338445024056867 -0.05147427286614071 -0.09542518176815727 -0.30330218374729156 0.12894627316431564 -0.42068272829055786 -0.44132700020616705 -0.014168999919837172 0.008812181799757209 0.3374652713537216 -0.30035181749950757 0.09760572625832124 0.3600651838562705 -0.06509209051728249 -0.32676308805292303 -0.011520909182515672 -0.1818382740020752 -0.11405736614357341 0.6744361817836761 0.2832869982177561 0.4476362710649317 0.017373454677660695 0.5094639171253551 -0.01533472733254629 -0.24438117986375635 0.29423327202146704
133 -0.1344488337635994 -0.13895916814605394 0.07935983253022035 0.02105166669934988 0.36968399584293365 0.26655150204896927 0.32558950036764145 -0.05128916725516319 -0.09171050041913986 -0.3024081736803055 0.13511400173107782 -0.4210578352212906 -0.4377106676499049 -0.008290833483139673 0.006237333155392359 0.32727183898289997 -0.293742669125398 0.09874333317081134 0.3588718424240748 -0.0460489991431435 -0.3300188332796097 -0.030049999865392845 -0.17463683833678564 -0.11811100070675214 0.6747830013434092 0.27747616668542224 0.445702667037646 -0.008028500160435215 0.5087341666221619 -0.0176793336092184 -0.24701450020074844 0.297176830470562
134 -0.1284073330461979 -0.12808116897940636 0.07601649935046832 0.02730033329377572 0.35199549545844394 0.25877267122268677 0.317151998480161 -0.044806333258748055 -0.09177466668188572 -0.29287217060724896 0.12550783529877663 -0.4072318325440089 -0.427389328678449 -0.00753000002199163 0.012948833056725562 0.3206144993503888 -0.2862573315699895 0.09435866648952167 0.34999967366456985 -0.04118999963005384 -0.32582149654626846 -0.032661499766012035 -0.16694100201129913 -0.11237983405590057 0.6531359950701395 0.2696234981218974 0.4365456700325012 -0.001385666721034795 0.49684632817904156 -0.015287000181463858 -0.2417409991224607 0.28663599491119385
135 -0.13350443009819304 -0.13082442858389445 0.08204871362873487 0.023037428435470377 0.35875014109270914 0.2618855748857771 0.32068713860852377 -0.04928100002663476 -0.09150071442127228 -0.3020012868302209 0.128516714487757 -0.41930600149290903 -0.43729528359004427 -0.01185214304963925 0.006103142796616469 0.3339407188551767 -0.29598914299692425 0.09894057150397982 0.353776291012764 -0.049946428409644535 -0.3266504236630031 -0.02874557115137577 -0.17166128861052649 -0.1128268593123981 0.6680589914321899 0.2748514286109379 0.44724142977169584 -0.0034245714196003973 0.5046594313212803 -0.014048428939921516 -0.24249685662133352 0.2935212829283306
136 -0.13667209107767453 -0.13701045513153076 0.08559454503384503 0.02610172729261897 0.36111418361013586 0.26838754388419067 0.32338445024056867 -0.05147427286614071 -0.09542518176815727 -0.30330218374729156 0.12894627316431564 -0.42068272829055786 -0.44132700020616705 -0.014168999919837172 0.008812181799757209 0.3374652713537216 -0.30035181749950757 0.09760572625832124 0.3600651838562705 -0.06509209051728249 -0.32676308805292303 -0.011520909182515672 -0.1818382740020752 -0.11405736614357341 0.6744361817836761 0.2832869982177561 0.4476362710649317 0.017373454677660695 0.5094639171253551 -0.01533472733254629 -0.24438117986375635 0.29423327202146704
137 -0.1344488337635994 -0.13895916814605394 0.07935983253022035 0.02105166669934988 0.36968399584293365 0.26655150204896927 0.32558950036764145 -0.05128916725516319 -0.09171050041913986 -0.3024081736803055 0.13511400173107782 -0.4210578352212906 -0.4377106676499049 -0.008290833483139673 0.006237333155392359 0.32727183898289997 -0.293742669125398 0.09874333317081134 0.3588718424240748 -0.0460489991431435 -0.3300188332796097 -0.030049999865392845 -0.17463683833678564 -0.11811100070675214 0.6747830013434092 0.27747616668542224 0.445702667037646 -0.008028500160435215 0.5087341666221619 -0.0176793336092184 -0.24701450020074844 0.297176830470562
138 -0.1319421125161979 -0.13082911250078016 0.07800255426102215 0.027129221966283187 0.3461828895120157 0.2563012170915802 0.31014588708058 -0.0458652221908172 -0.09834722170813216 -0.29314733762294054 0.12332655644665162 -0.3993381107381235 -0.4206043304875493 -0.008680555374465056 0.013129333202313218 0.3179695542073912 -0.28315089043139274 0.09234033286985424 0.34633889080335695 -0.056133333386646375 -0.3176192176114354 -0.019024333399203088 -0.1723590006844865 -0.11046155687007639 0.6510605672374368 0.27125211235963637 0.43214755564824575 0.0051382225032688845 0.48546788976010347 -0.013460222036681242 -0.2431534435082641 0.28494088413814705
139 -0.1344488337635994 -0.13895916814605394 0.07935983253022035 0.02105166669934988 0.36968399584293365 0.26655150204896927 0.32558950036764145 -0.05128916725516319 -0.09171050041913986 -0.3024081736803055 0.13511400173107782 -0.4210578352212906 -0.4377106676499049 -0.008290833483139673 0.006237333155392359 0.32727183898289997 -0.293742669125398 0.09874333317081134 0.3588718424240748 -0.0460489991431435 -0.3300188332796097 -0.030049999865392845 -0.17463683833678564 -0.11811100070675214 0.6747830013434092 0.27747616668542224 0.445702667037646 -0.008028500160435215 0.5087341666221619 -0.0176793336092184 -0.24701450020074844 0.297176830470562
140 -0.1319421125161979 -0.13082911250078016 0.07800255426102215 0.027129221966283187 0.3461828895120157 0.2563012170915802 0.31014588708058 -0.0458652221908172 -0.09834722170813216 -0.29314733762294054 0.12332655644665162 -0.3993381107381235 -0.4206043304875493 -0.008680555374465056 0.013129333202313218 0.3179695542073912 -0.28315089043139274 0.09234033286985424 0.34633889080335695 -0.056133333386646375 -0.3176192176114354 -0.019024333399203088 -0.1723590006844865 -0.11046155687007639 0.6510605672374368 0.27125211235963637 0.43214755564824575 0.0051382225032688845 0.48546788976010347 -0.013460222036681242 -0.2431534435082641 0.28494088413814705
141 -0.1284073330461979 -0.12808116897940636 0.07601649935046832 0.02730033329377572 0.35199549545844394 0.25877267122268677 0.317151998480161 -0.044806333258748055 -0.09177466668188572 -0.29287217060724896 0.12550783529877663 -0.4072318325440089 -0.427389328678449 -0.00753000002199163 0.012948833056725562 0.3206144993503888 -0.2862573315699895 0.09435866648952167 0.34999967366456985 -0.04118999963005384 -0.32582149654626846 -0.032661499766012035 -0.16694100201129913 -0.11237983405590057 0.6531359950701395 0.2696234981218974 0.4365456700325012 -0.001385666721034795 0.49684632817904156 -0.015287000181463858 -0.2417409991224607 0.28663599491119385
142 -0.1344488337635994 -0.13895916814605394 0.07935983253022035 0.02105166669934988 0.36968399584293365 0.26655150204896927 0.32558950036764145 -0.05128916725516319 -0.09171050041913986 -0.3024081736803055 0.13511400173107782 -0.4210578352212906 -0.4377106676499049 -0.008290833483139673 0.006237333155392359 0.32727183898289997 -0.293742669125398 0.09874333317081134 0.3588718424240748 -0.0460489991431435 -0.3300188332796097 -0.030049999865392845 -0.17463683833678564 -0.11811100070675214 0.6747830013434092 0.27747616668542224 0.445702667037646 -0.008028500160435215 0.5087341666221619 -0.0176793336092184 -0.24701450020074844 0.297176830470562
143 -0.13350443009819304 -0.13082442858389445 0.08204871362873487 0.023037428435470377 0.35875014109270914 0.2618855748857771 0.32068713860852377 -0.04928100002663476 -0.09150071442127228 -0.3020012868302209 0.128516714487757 -0.41930600149290903 -0.43729528359004427 -0.01185214304963925 0.006103142796616469 0.3339407188551767 -0.29598914299692425 0.09894057150397982 0.353776291012764 -0.049946428409644535 -0.3266504236630031 -0.02874557115137577 -0.17166128861052649 -0.1128268593123981 0.6680589914321899 0.2748514286109379 0.44724142977169584 -0.0034245714196003973 0.5046594313212803 -0.014048428939921516 -0.24249685662133352 0.2935212829283306
144 -0.1344488337635994 -0.13895916814605394 0.07935983253022035 0.02105166669934988 0.36968399584293365 0.26655150204896927 0.32558950036764145 -0.05128916725516319 -0.09171050041913986 -0.3024081736803055 0.13511400173107782 -0.4210578352212906 -0.4377106676499049 -0.008290833483139673 0.006237333155392359 0.32727183898289997 -0.293742669125398 0.09874333317081134 0.3588718424240748 -0.0460489991431435 -0.3300188332796097 -0.030049999865392845 -0.17463683833678564 -0.11811100070675214 0.6747830013434092 0.27747616668542224 0.445702667037646 -0.008028500160435215 0.5087341666221619 -0.0176793336092184 -0.24701450020074844 0.297176830470562
145 -0.1284073330461979 -0.12808116897940636 0.07601649935046832 0.02730033329377572 0.35199549545844394 0.25877267122268677 0.317151998480161 -0.044806333258748055 -0.09177466668188572 -0.29287217060724896 0.12550783529877663 -0.4072318325440089 -0.427389328678449 -0.00753000002199163 0.012948833056725562 0.3206144993503888 -0.2862573315699895 0.09435866648952167 0.34999967366456985 -0.04118999963005384 -0.32582149654626846 -0.032661499766012035 -0.16694100201129913 -0.11237983405590057 0.6531359950701395 0.2696234981218974 0.4365456700325012 -0.001385666721034795 0.49684632817904156 -0.015287000181463858 -0.2417409991224607 0.28663599491119385
146 -0.13667209107767453 -0.13701045513153076 0.08559454503384503 0.02610172729261897 0.36111418361013586 0.26838754388419067 0.32338445024056867 -0.05147427286614071 -0.09542518176815727 -0.30330218374729156 0.12894627316431564 -0.42068272829055786 -0.44132700020616705 -0.014168999919837172 0.008812181799757209 0.3374652713537216 -0.30035181749950757 0.09760572625832124 0.3600651838562705 -0.06509209051728249 -0.32676308805292303 -0.011520909182515672 -0.1818382740020752 -0.11405736614357341 0.6744361817836761 0.2832869982177561 0.4476362710649317 0.017373454677660695 0.5094639171253551 -0.01533472733254629 -0.24438117986375635 0.29423327202146704
147 -0.13350443009819304 -0.13082442858389445 0.08204871362873487 0.023037428435470377 0.35875014109270914 0.2618855748857771 0.32068713860852377 -0.04928100002663476 -0.09150071442127228 -0.3020012868302209 0.128516714487757 -0.41930600149290903 -0.43729528359004427 -0.01185214304963925 0.006103142796616469 0.3339407188551767 -0.29598914299692425 0.09894057150397982 0.353776291012764 -0.049946428409644535 -0.3266504236630031 -0.02874557115137577 -0.17166128861052649 -0.1128268593123981 0.6680589914321899 0.2748514286109379 0.44724142977169584 -0.0034245714196003973 0.5046594313212803 -0.014048428939921516 -0.24249685662133352 0.2935212829283306
148 -0.1284073330461979 -0.12808116897940636 0.07601649935046832 0.02730033329377572 0.35199549545844394 0.25877267122268677 0.317151998480161 -0.044806333258748055 -0.09177466668188572 -0.29287217060724896 0.12550783529877663 -0.4072318325440089 -0.427389328678449 -0.00753000002199163 0.012948833056725562 0.3206144993503888 -0.2862573315699895 0.09435866648952167 0.34999967366456985 -0.04118999963005384 -0.32582149654626846 -0.032661499766012035 -0.16694100201129913 -0.11237983405590057 0.6531359950701395 0.2696234981218974 0.4365456700325012 -0.001385666721034795 0.49684632817904156 -0.015287000181463858 -0.2417409991224607 0.28663599491119385
149 -0.13667209107767453 -0.13701045513153076 0.08559454503384503 0.02610172729261897 0.36111418361013586 0.26838754388419067 0.32338445024056867 -0.05147427286614071 -0.09542518176815727 -0.30330218374729156 0.12894627316431564 -0.42068272829055786 -0.44132700020616705 -0.014168999919837172 0.008812181799757209 0.3374652713537216 -0.30035181749950757 0.09760572625832124 0.3600651838562705 -0.06509209051728249 -0.32676308805292303 -0.011520909182515672 -0.1818382740020752 -0.11405736614357341 0.6744361817836761 0.2832869982177561 0.4476362710649317 0.017373454677660695 0.5094639171253551 -0.01533472733254629 -0.24438117986375635 0.29423327202146704
150 -0.1284073330461979 -0.12808116897940636 0.07601649935046832 0.02730033329377572 0.35199549545844394 0.25877267122268677 0.317151998480161 -0.044806333258748055 -0.09177466668188572 -0.29287217060724896 0.12550783529877663 -0.4072318325440089 -0.427389328678449 -0.00753000002199163 0.012948833056725562 0.3206144993503888 -0.2862573315699895 0.09435866648952167 0.34999967366456985 -0.04118999963005384 -0.32582149654626846 -0.032661499766012035 -0.16694100201129913 -0.11237983405590057 0.6531359950701395 0.2696234981218974 0.4365456700325012 -0.001385666721034795 0.49684632817904156 -0.015287000181463858 -0.2417409991224607 0.28663599491119385
151 -0.1319421125161979 -0.13082911250078016 0.07800255426102215 0.027129221966283187 0.3461828895120157 0.2563012170915802 0.31014588708058 -0.0458652221908172 -0.09834722170813216 -0.29314733762294054 0.12332655644665162 -0.3993381107381235 -0.4206043304875493 -0.008680555374465056 0.013129333202313218 0.3179695542073912 -0.28315089043139274 0.09234033286985424 0.34633889080335695 -0.056133333386646375 -0.3176192176114354 -0.019024333399203088 -0.1723590006844865 -0.11046155687007639 0.6510605672374368 0.27125211235963637 0.43214755564824575 0.0051382225032688845 0.48546788976010347 -0.013460222036681242 -0.2431534435082641 0.28494088413814705
152 -0.13667209107767453 -0.13701045513153076 0.08559454503384503 0.02610172729261897 0.36111418361013586 0.26838754388419067 0.32338445024056867 -0.05147427286614071 -0.09542518176815727 -0.30330218374729156 0.12894627316431564 -0.42068272829055786 -0.44132700020616705 -0.014168999919837172 0.008812181799757209 0.3374652713537216 -0.30035181749950757 0.09760572625832124 0.3600651838562705 -0.06509209051728249 -0.32676308805292303 -0.011520909182515672 -0.1818382740020752 -0.11405736614357341 0.6744361817836761 0.2832869982177561 0.4476362710649317 0.017373454677660695 0.5094639171253551 -0.01533472733254629 -0.24438117986375635 0.29423327202146704
