2000 32
1 -0.13896300146977106 -0.13812150061130524 0.07705100004871686 0.02632550010457635 0.36278649667898816 0.2629261687397957 0.32443033903837204 -0.05198183407386144 -0.09589650109410286 -0.2991866668065389 0.13157733405629793 -0.4184869974851608 -0.43680167694886524 -0.013002666470129043 0.009069500161179652 0.3255646626154582 -0.29549166808525723 0.09605333457390468 0.3519178380568822 -0.04398599949975809 -0.3257799992958705 -0.02846350008621812 -0.18243916581074396 -0.11918599903583527 0.6727111637592316 0.27957067141930264 0.45475433270136517 -0.003779333356457452 0.5072761724392573 -0.012755333601186672 -0.2473705013593038 0.29422349979480106
2 -0.13896300146977106 -0.13812150061130524 0.07705100004871686 0.02632550010457635 0.36278649667898816 0.2629261687397957 0.32443033903837204 -0.05198183407386144 -0.09589650109410286 -0.2991866668065389 0.13157733405629793 -0.4184869974851608 -0.43680167694886524 -0.013002666470129043 0.009069500161179652 0.3255646626154582 -0.29549166808525723 0.09605333457390468 0.3519178380568822 -0.04398599949975809 -0.3257799992958705 -0.02846350008621812 -0.18243916581074396 -0.11918599903583527 0.6727111637592316 0.27957067141930264 0.45475433270136517 -0.003779333356457452 0.5072761724392573 -0.012755333601186672 -0.2473705013593038 0.29422349979480106
3 -0.14064245400103656 -0.1364743628285148 0.08378018167885867 0.030538090928034348 0.35508300228552386 0.2654638168486682 0.3227029077031396 -0.05220072750340809 -0.09901418265971271 -0.30070763419974933 0.12593027407472784 -0.4189083630388433 -0.44126237251541833 -0.01807090915231542 0.01106254539494826 0.3360784568569877 -0.30227927457202564 0.09523127261887897 0.3545351868326014 -0.06337581744248216 -0.3235439942641692 -0.010352000234309922 -0.1884508187120611 -0.11461554535410622 0.6735047210346569 0.28543836826627905 0.45581081780520355 0.020947000056780365 0.5086700103499673 -0.0112282727337019 -0.24476509473540567 0.2920300919901241
4 -0.13896300146977106 -0.13812150061130524 0.07705100004871686 0.02632550010457635 0.36278649667898816 0.2629261687397957 0.32443033903837204 -0.05198183407386144 -0.09589650109410286 -0.2991866668065389 0.13157733405629793 -0.4184869974851608 -0.43680167694886524 -0.013002666470129043 0.009069500161179652 0.3255646626154582 -0.29549166808525723 0.09605333457390468 0.3519178380568822 -0.04398599949975809 -0.3257799992958705 -0.02846350008621812 -0.18243916581074396 -0.11918599903583527 0.6727111637592316 0.27957067141930264 0.45475433270136517 -0.003779333356457452 0.5072761724392573 -0.012755333601186672 -0.2473705013593038 0.29422349979480106
5 -0.13896300146977106 -0.13812150061130524 0.07705100004871686 0.02632550010457635 0.36278649667898816 0.2629261687397957 0.32443033903837204 -0.05198183407386144 -0.09589650109410286 -0.2991866668065389 0.13157733405629793 -0.4184869974851608 -0.43680167694886524 -0.013002666470129043 0.009069500161179652 0.3255646626154582 -0.29549166808525723 0.09605333457390468 0.3519178380568822 -0.04398599949975809 -0.3257799992958705 -0.02846350008621812 -0.18243916581074396 -0.11918599903583527 0.6727111637592316 0.27957067141930264 0.45475433270136517 -0.003779333356457452 0.5072761724392573 -0.012755333601186672 -0.2473705013593038 0.29422349979480106
6 -0.14064245400103656 -0.1364743628285148 0.08378018167885867 0.030538090928034348 0.35508300228552386 0.2654638168486682 0.3227029077031396 -0.05220072750340809 -0.09901418265971271 -0.30070763419974933 0.12593027407472784 -0.4189083630388433 -0.44126237251541833 -0.01807090915231542 0.01106254539494826 0.3360784568569877 -0.30227927457202564 0.09523127261887897 0.3545351868326014 -0.06337581744248216 -0.3235439942641692 -0.010352000234309922 -0.1884508187120611 -0.11461554535410622 0.6735047210346569 0.28543836826627905 0.45581081780520355 0.020947000056780365 0.5086700103499673 -0.0112282727337019 -0.24476509473540567 0.2920300919901241
7 -0.14064245400103656 -0.1364743628285148 0.08378018167885867 0.030538090928034348 0.35508300228552386 0.2654638168486682 0.3227029077031396 -0.05220072750340809 -0.09901418265971271 -0.30070763419974933 0.12593027407472784 -0.4189083630388433 -0.44126237251541833 -0.01807090915231542 0.01106254539494826 0.3360784568569877 -0.30227927457202564 0.09523127261887897 0.3545351868326014 -0.06337581744248216 -0.3235439942641692 -0.010352000234309922 -0.1884508187120611 -0.11461554535410622 0.6735047210346569 0.28543836826627905 0.45581081780520355 0.020947000056780365 0.5086700103499673 -0.0112282727337019 -0.24476509473540567 0.2920300919901241
8 -0.14064245400103656 -0.1364743628285148 0.08378018167885867 0.030538090928034348 0.35508300228552386 0.2654638168486682 0.3227029077031396 -0.05220072750340809 -0.09901418265971271 -0.30070763419974933 0.12593027407472784 -0.4189083630388433 -0.44126237251541833 -0.01807090915231542 0.01106254539494826 0.3360784568569877 -0.30227927457202564 0.09523127261887897 0.3545351868326014 -0.06337581744248216 -0.3235439942641692 -0.010352000234309922 -0.1884508187120611 -0.11461554535410622 0.6735047210346569 0.28543836826627905 0.45581081780520355 0.020947000056780365 0.5086700103499673 -0.0112282727337019 -0.24476509473540567 0.2920300919901241
9 -0.13896300146977106 -0.13812150061130524 0.07705100004871686 0.02632550010457635 0.36278649667898816 0.2629261687397957 0.32443033903837204 -0.05198183407386144 -0.09589650109410286 -0.2991866668065389 0.13157733405629793 -0.4184869974851608 -0.43680167694886524 -0.013002666470129043 0.009069500161179652 0.3255646626154582 -0.29549166808525723 0.09605333457390468 0.3519178380568822 -0.04398599949975809 -0.3257799992958705 -0.02846350008621812 -0.18243916581074396 -0.11918599903583527 0.6727111637592316 0.27957067141930264 0.45475433270136517 -0.003779333356457452 0.5072761724392573 -0.012755333601186672 -0.2473705013593038 0.29422349979480106
10 -0.1378317145364625 -0.1300701435123171 0.07989157257335526 0.02804014299597059 0.3520727115018027 0.2584534244877951 0.3196458603654589 -0.049982714865888865 -0.09548442917210716 -0.29894314067704336 0.1251272867832865 -0.4169451424053737 -0.4366198607853481 -0.016301714216492007 0.008743285983135658 0.33229128803525654 -0.29776971680777414 0.0963345712849072 0.34723914308207376 -0.04798742862684386 -0.3227048580135618 -0.027294428886047432 -0.17905928300959723 -0.11370828534875597 0.6662855659212384 0.2769384320293154 0.45596957206726074 0.0006069999695422926 0.5033588537148067 -0.009386285740349973 -0.24283071500914438 0.29077714681625366
11 -0.1378317145364625 -0.1300701435123171 0.07989157257335526 0.02804014299597059 0.3520727115018027 0.2584534244877951 0.3196458603654589 -0.049982714865888865 -0.09548442917210716 -0.29894314067704336 0.1251272867832865 -0.4169451424053737 -0.4366198607853481 -0.016301714216492007 0.008743285983135658 0.33229128803525654 -0.29776971680777414 0.0963345712849072 0.34723914308207376 -0.04798742862684386 -0.3227048580135618 -0.027294428886047432 -0.17905928300959723 -0.11370828534875597 0.6662855659212384 0.2769384320293154 0.45596957206726074 0.0006069999695422926 0.5033588537148067 -0.009386285740349973 -0.24283071500914438 0.29077714681625366
12 -0.13288433477282524 -0.1272263340651989 0.07370133387545745 0.03255316708236933 0.34511516739924747 0.2551344980796178 0.3159551719824473 -0.04548366709301869 -0.09593450153867404 -0.2896343320608139 0.12197883427143097 -0.40461699664592743 -0.42640700936317444 -0.012229166536902389 0.01577883374799664 0.3188873305916786 -0.2879488343993823 0.09167983445028464 0.3430258383353551 -0.03912933294971784 -0.3215521623690923 -0.03106883354485035 -0.17469983299573263 -0.11346716557939847 0.6509724954764048 0.27166517327229184 0.4454963306585948 0.0028473332058638334 0.4953303386767705 -0.01037766687416782 -0.24207366754611334 0.28365516910950345
13 -0.13288433477282524 -0.1272263340651989 0.07370133387545745 0.03255316708236933 0.34511516739924747 0.2551344980796178 0.3159551719824473 -0.04548366709301869 -0.09593450153867404 -0.2896343320608139 0.12197883427143097 -0.40461699664592743 -0.42640700936317444 -0.012229166536902389 0.01577883374799664 0.3188873305916786 -0.2879488343993823 0.09167983445028464 0.3430258383353551 -0.03912933294971784 -0.3215521623690923 -0.03106883354485035 -0.17469983299573263 -0.11346716557939847 0.6509724954764048 0.27166517327229184 0.4454963306585948 0.0028473332058638334 0.4953303386767705 -0.01037766687416782 -0.24207366754611334 0.28365516910950345
14 -0.14064245400103656 -0.1364743628285148 0.08378018167885867 0.030538090928034348 0.35508300228552386 0.2654638168486682 0.3227029077031396 -0.05220072750340809 -0.09901418265971271 -0.30070763419974933 0.12593027407472784 -0.4189083630388433 -0.44126237251541833 -0.01807090915231542 0.01106254539494826 0.3360784568569877 -0.30227927457202564 0.09523127261887897 0.3545351868326014 -0.06337581744248216 -0.3235439942641692 -0.010352000234309922 -0.1884508187120611 -0.11461554535410622 0.6735047210346569 0.28543836826627905 0.45581081780520355 0.020947000056780365 0.5086700103499673 -0.0112282727337019 -0.24476509473540567 0.2920300919901241
15 -0.13288433477282524 -0.1272263340651989 0.07370133387545745 0.03255316708236933 0.34511516739924747 0.2551344980796178 0.3159551719824473 -0.04548366709301869 -0.09593450153867404 -0.2896343320608139 0.12197883427143097 -0.40461699664592743 -0.42640700936317444 -0.012229166536902389 0.01577883374799664 0.3188873305916786 -0.2879488343993823 0.09167983445028464 0.3430258383353551 -0.03912933294971784 -0.3215521623690923 -0.03106883354485035 -0.17469983299573263 -0.11346716557939847 0.6509724954764048 0.27166517327229184 0.4454963306585948 0.0028473332058638334 0.4953303386767705 -0.01037766687416782 -0.24207366754611334 0.28365516910950345
16 -0.1360285555322965 -0.1307654425294863 0.07587111084204581 0.030220110797219805 0.339391666257547 0.2515104467359682 0.3098939952906221 -0.046119333387145564 -0.10392177725831668 -0.28714966535982156 0.12074888934795228 -0.3993239973982175 -0.4209491164801875 -0.012334666577064328 0.01508522244532489 0.31809544366680914 -0.28525222514549065 0.09000033347143067 0.3383293370198872 -0.05342277764349193 -0.31494699423718786 -0.01882477802185652 -0.18044988626045072 -0.11173033352113432 0.6476054432698422 0.27371800546016956 0.43888144433084464 0.009196555759343836 0.4870046673135625 -0.008221777725136943 -0.24580533688680994 0.28309655516770565
17 -0.13896300146977106 -0.13812150061130524 0.07705100004871686 0.02632550010457635 0.36278649667898816 0.2629261687397957 0.32443033903837204 -0.05198183407386144 -0.09589650109410286 -0.2991866668065389 0.13157733405629793 -0.4184869974851608 -0.43680167694886524 -0.013002666470129043 0.009069500161179652 0.3255646626154582 -0.29549166808525723 0.09605333457390468 0.3519178380568822 -0.04398599949975809 -0.3257799992958705 -0.02846350008621812 -0.18243916581074396 -0.11918599903583527 0.6727111637592316 0.27957067141930264 0.45475433270136517 -0.003779333356457452 0.5072761724392573 -0.012755333601186672 -0.2473705013593038 0.29422349979480106
18 -0.1378317145364625 -0.1300701435123171 0.07989157257335526 0.02804014299597059 0.3520727115018027 0.2584534244877951 0.3196458603654589 -0.049982714865888865 -0.09548442917210716 -0.29894314067704336 0.1251272867832865 -0.4169451424053737 -0.4366198607853481 -0.016301714216492007 0.008743285983135658 0.33229128803525654 -0.29776971680777414 0.0963345712849072 0.34723914308207376 -0.04798742862684386 -0.3227048580135618 -0.027294428886047432 -0.17905928300959723 -0.11370828534875597 0.6662855659212384 0.2769384320293154 0.45596957206726074 0.0006069999695422926 0.5033588537148067 -0.009386285740349973 -0.24283071500914438 0.29077714681625366
19 -0.1360285555322965 -0.1307654425294863 0.07587111084204581 0.030220110797219805 0.339391666257547 0.2515104467359682 0.3098939952906221 -0.046119333387145564 -0.10392177725831668 -0.28714966535982156 0.12074888934795228 -0.3993239973982175 -0.4209491164801875 -0.012334666577064328 0.01508522244532489 0.31809544366680914 -0.28525222514549065 0.09000033347143067 0.3383293370198872 -0.05342277764349193 -0.31494699423718786 -0.01882477802185652 -0.18044988626045072 -0.11173033352113432 0.6476054432698422 0.27371800546016956 0.43888144433084464 0.009196555759343836 0.4870046673135625 -0.008221777725136943 -0.24580533688680994 0.28309655516770565
20 -0.14064245400103656 -0.1364743628285148 0.08378018167885867 0.030538090928034348 0.35508300228552386 0.2654638168486682 0.3227029077031396 -0.05220072750340809 -0.09901418265971271 -0.30070763419974933 0.12593027407472784 -0.4189083630388433 -0.44126237251541833 -0.01807090915231542 0.01106254539494826 0.3360784568569877 -0.30227927457202564 0.09523127261887897 0.3545351868326014 -0.06337581744248216 -0.3235439942641692 -0.010352000234309922 -0.1884508187120611 -0.11461554535410622 0.6735047210346569 0.28543836826627905 0.45581081780520355 0.020947000056780365 0.5086700103499673 -0.0112282727337019 -0.24476509473540567 0.2920300919901241
21 -0.1378317145364625 -0.1300701435123171 0.07989157257335526 0.02804014299597059 0.3520727115018027 0.2584534244877951 0.3196458603654589 -0.049982714865888865 -0.09548442917210716 -0.29894314067704336 0.1251272867832865 -0.4169451424053737 -0.4366198607853481 -0.016301714216492007 0.008743285983135658 0.33229128803525654 -0.29776971680777414 0.0963345712849072 0.34723914308207376 -0.04798742862684386 -0.3227048580135618 -0.027294428886047432 -0.17905928300959723 -0.11370828534875597 0.6662855659212384 0.2769384320293154 0.45596957206726074 0.0006069999695422926 0.5033588537148067 -0.009386285740349973 -0.24283071500914438 0.29077714681625366
22 -0.14064245400103656 -0.1364743628285148 0.08378018167885867 0.030538090928034348 0.35508300228552386 0.2654638168486682 0.3227029077031396 -0.05220072750340809 -0.09901418265971271 -0.30070763419974933 0.12593027407472784 -0.4189083630388433 -0.44126237251541833 -0.01807090915231542 0.01106254539494826 0.3360784568569877 -0.30227927457202564 0.09523127261887897 0.3545351868326014 -0.06337581744248216 -0.3235439942641692 -0.010352000234309922 -0.1884508187120611 -0.11461554535410622 0.6735047210346569 0.28543836826627905 0.45581081780520355 0.020947000056780365 0.5086700103499673 -0.0112282727337019 -0.24476509473540567 0.2920300919901241
23 -0.14064245400103656 -0.1364743628285148 0.08378018167885867 0.030538090928034348 0.35508300228552386 0.2654638168486682 0.3227029077031396 -0.05220072750340809 -0.09901418265971271 -0.30070763419974933 0.12593027407472784 -0.4189083630388433 -0.44126237251541833 -0.01807090915231542 0.01106254539494826 0.3360784568569877 -0.30227927457202564 0.09523127261887897 0.3545351868326014 -0.06337581744248216 -0.3235439942641692 -0.010352000234309922 -0.1884508187120611 -0.11461554535410622 0.6735047210346569 0.28543836826627905 0.45581081780520355 0.020947000056780365 0.5086700103499673 -0.0112282727337019 -0.24476509473540567 0.2920300919901241
24 -0.1378317145364625 -0.1300701435123171 0.07989157257335526 0.02804014299597059 0.3520727115018027 0.2584534244877951 0.3196458603654589 -0.049982714865888865 -0.09548442917210716 -0.29894314067704336 0.1251272867832865 -0.4169451424053737 -0.4366198607853481 -0.016301714216492007 0.008743285983135658 0.33229128803525654 -0.29776971680777414 0.0963345712849072 0.34723914308207376 -0.04798742862684386 -0.3227048580135618 -0.027294428886047432 -0.17905928300959723 -0.11370828534875597 0.6662855659212384 0.2769384320293154 0.45596957206726074 0.0006069999695422926 0.5033588537148067 -0.009386285740349973 -0.24283071500914438 0.29077714681625366
25 -0.14064245400103656 -0.1364743628285148 0.08378018167885867 0.030538090928034348 0.35508300228552386 0.2654638168486682 0.3227029077031396 -0.05220072750340809 -0.09901418265971271 -0.30070763419974933 0.12593027407472784 -0.4189083630388433 -0.44126237251541833 -0.01807090915231542 0.01106254539494826 0.3360784568569877 -0.30227927457202564 0.09523127261887897 0.3545351868326014 -0.06337581744248216 -0.3235439942641692 -0.010352000234309922 -0.1884508187120611 -0.11461554535410622 0.6735047210346569 0.28543836826627905 0.45581081780520355 0.020947000056780365 0.5086700103499673 -0.0112282727337019 -0.24476509473540567 0.2920300919901241
26 -0.13288433477282524 -0.1272263340651989 0.07370133387545745 0.03255316708236933 0.34511516739924747 0.2551344980796178 0.3159551719824473 -0.04548366709301869 -0.09593450153867404 -0.2896343320608139 0.12197883427143097 -0.40461699664592743 -0.42640700936317444 -0.012229166536902389 0.01577883374799664 0.3188873305916786 -0.2879488343993823 0.09167983445028464 0.3430258383353551 -0.03912933294971784 -0.3215521623690923 -0.03106883354485035 -0.17469983299573263 -0.11346716557939847 0.6509724954764048 0.27166517327229184 0.4454963306585948 0.0028473332058638334 0.4953303386767705 -0.01037766687416782 -0.24207366754611334 0.28365516910950345
27 -0.1378317145364625 -0.1300701435123171 0.07989157257335526 0.02804014299597059 0.3520727115018027 0.2584534244877951 0.3196458603654589 -0.049982714865888865 -0.09548442917210716 -0.29894314067704336 0.1251272867832865 -0.4169451424053737 -0.4366198607853481 -0.016301714216492007 0.008743285983135658 0.33229128803525654 -0.29776971680777414 0.0963345712849072 0.34723914308207376 -0.04798742862684386 -0.3227048580135618 -0.027294428886047432 -0.17905928300959723 -0.11370828534875597 0.6662855659212384 0.2769384320293154 0.45596957206726074 0.0006069999695422926 0.5033588537148067 -0.009386285740349973 -0.24283071500914438 0.29077714681625366
28 -0.1360285555322965 -0.1307654425294863 0.07587111084204581 0.030220110797219805 0.339391666257547 0.2515104467359682 0.3098939952906221 -0.046119333387145564 -0.10392177725831668 -0.28714966535982156 0.12074888934795228 -0.3993239973982175 -0.4209491164801875 -0.012334666577064328 0.01508522244532489 0.31809544366680914 -0.28525222514549065 0.09000033347143067 0.3383293370198872 -0.05342277764349193 -0.31494699423718786 -0.01882477802185652 -0.18044988626045072 -0.11173033352113432 0.6476054432698422 0.27371800546016956 0.43888144433084464 0.009196555759343836 0.4870046673135625 -0.008221777725136943 -0.24580533688680994 0.28309655516770565
29 -0.08877133422841628 -0.08856449959178765 0.04488783314203223 0.02207833342254162 0.22447300081451735 0.16801133565604687 0.202612167224288 -0.02828150039810377 -0.06395900032172601 -0.19498883249859014 0.0874504999568065 -0.26911533003052074 -0.2816770076751709 -0.012821833428461105 0.0020166667527519166 0.21181249680618444 -0.18972716915110746 0.05548900101954738 0.23319699863592783 -0.030511999929634232 -0.2117398288100958 -0.01848000055179 -0.11530833318829536 -0.07472216555227836 0.43690649420022964 0.17280383656422296 0.2994396649301052 -0.004510000037650268 0.33420449992020923 -0.005734666716307402 -0.16320167109370232 0.18872733414173126
30 -0.1378317145364625 -0.1300701435123171 0.07989157257335526 0.02804014299597059 0.3520727115018027 0.2584534244877951 0.3196458603654589 -0.049982714865888865 -0.09548442917210716 -0.29894314067704336 0.1251272867832865 -0.4169451424053737 -0.4366198607853481 -0.016301714216492007 0.008743285983135658 0.33229128803525654 -0.29776971680777414 0.0963345712849072 0.34723914308207376 -0.04798742862684386 -0.3227048580135618 -0.027294428886047432 -0.17905928300959723 -0.11370828534875597 0.6662855659212384 0.2769384320293154 0.45596957206726074 0.0006069999695422926 0.5033588537148067 -0.009386285740349973 -0.24283071500914438 0.29077714681625366
31 -0.13288433477282524 -0.1272263340651989 0.07370133387545745 0.03255316708236933 0.34511516739924747 0.2551344980796178 0.3159551719824473 -0.04548366709301869 -0.09593450153867404 -0.2896343320608139 0.12197883427143097 -0.40461699664592743 -0.42640700936317444 -0.012229166536902389 0.01577883374799664 0.3188873305916786 -0.2879488343993823 0.09167983445028464 0.3430258383353551 -0.03912933294971784 -0.3215521623690923 -0.03106883354485035 -0.17469983299573263 -0.11346716557939847 0.6509724954764048 0.27166517327229184 0.4454963306585948 0.0028473332058638334 0.4953303386767705 -0.01037766687416782 -0.24207366754611334 0.28365516910950345
32 -0.1378317145364625 -0.1300701435123171 0.07989157257335526 0.02804014299597059 0.3520727115018027 0.2584534244877951 0.3196458603654589 -0.049982714865888865 -0.09548442917210716 -0.29894314067704336 0.1251272867832865 -0.4169451424053737 -0.4366198607853481 -0.016301714216492007 0.008743285983135658 0.33229128803525654 -0.29776971680777414 0.0963345712849072 0.34723914308207376 -0.04798742862684386 -0.3227048580135618 -0.027294428886047432 -0.17905928300959723 -0.11370828534875597 0.6662855659212384 0.2769384320293154 0.45596957206726074 0.0006069999695422926 0.5033588537148067 -0.009386285740349973 -0.24283071500914438 0.29077714681625366
33 -0.14064245400103656 -0.1364743628285148 0.08378018167885867 0.030538090928034348 0.35508300228552386 0.2654638168486682 0.3227029077031396 -0.05220072750340809 -0.09901418265971271 -0.30070763419974933 0.12593027407472784 -0.4189083630388433 -0.44126237251541833 -0.01807090915231542 0.01106254539494826 0.3360784568569877 -0.30227927457202564 0.09523127261887897 0.3545351868326014 -0.06337581744248216 -0.3235439942641692 -0.010352000234309922 -0.1884508187120611 -0.11461554535410622 0.6735047210346569 0.28543836826627905 0.45581081780520355 0.020947000056780365 0.5086700103499673 -0.0112282727337019 -0.24476509473540567 0.2920300919901241
34 -0.13288433477282524 -0.1272263340651989 0.07370133387545745 0.03255316708236933 0.34511516739924747 0.2551344980796178 0.3159551719824473 -0.04548366709301869 -0.09593450153867404 -0.2896343320608139 0.12197883427143097 -0.40461699664592743 -0.42640700936317444 -0.012229166536902389 0.01577883374799664 0.3188873305916786 -0.2879488343993823 0.09167983445028464 0.3430258383353551 -0.03912933294971784 -0.3215521623690923 -0.03106883354485035 -0.17469983299573263 -0.11346716557939847 0.6509724954764048 0.27166517327229184 0.4454963306585948 0.0028473332058638334 0.4953303386767705 -0.01037766687416782 -0.24207366754611334 0.28365516910950345
35 -0.14064245400103656 -0.1364743628285148 0.08378018167885867 0.030538090928034348 0.35508300228552386 0.2654638168486682 0.3227029077031396 -0.05220072750340809 -0.09901418265971271 -0.30070763419974933 0.12593027407472784 -0.4189083630388433 -0.44126237251541833 -0.01807090915231542 0.01106254539494826 0.3360784568569877 -0.30227927457202564 0.09523127261887897 0.3545351868326014 -0.06337581744248216 -0.3235439942641692 -0.010352000234309922 -0.1884508187120611 -0.11461554535410622 0.6735047210346569 0.28543836826627905 0.45581081780520355 0.020947000056780365 0.5086700103499673 -0.0112282727337019 -0.24476509473540567 0.2920300919901241
36 -0.1378317145364625 -0.1300701435123171 0.07989157257335526 0.02804014299597059 0.3520727115018027 0.2584534244877951 0.3196458603654589 -0.049982714865888865 -0.09548442917210716 -0.29894314067704336 0.1251272867832865 -0.4169451424053737 -0.4366198607853481 -0.016301714216492007 0.008743285983135658 0.33229128803525654 -0.29776971680777414 0.0963345712849072 0.34723914308207376 -0.04798742862684386 -0.3227048580135618 -0.027294428886047432 -0.17905928300959723 -0.11370828534875597 0.6662855659212384 0.2769384320293154 0.45596957206726074 0.0006069999695422926 0.5033588537148067 -0.009386285740349973 -0.24283071500914438 0.29077714681625366
37 -0.1378317145364625 -0.1300701435123171 0.07989157257335526 0.02804014299597059 0.3520727115018027 0.2584534244877951 0.3196458603654589 -0.049982714865888865 -0.09548442917210716 -0.29894314067704336 0.1251272867832865 -0.4169451424053737 -0.4366198607853481 -0.016301714216492007 0.008743285983135658 0.33229128803525654 -0.29776971680777414 0.0963345712849072 0.34723914308207376 -0.04798742862684386 -0.3227048580135618 -0.027294428886047432 -0.17905928300959723 -0.11370828534875597 0.6662855659212384 0.2769384320293154 0.45596957206726074 0.0006069999695422926 0.5033588537148067 -0.009386285740349973 -0.24283071500914438 0.29077714681625366
38 -0.1378317145364625 -0.1300701435123171 0.07989157257335526 0.02804014299597059 0.3520727115018027 0.2584534244877951 0.3196458603654589 -0.049982714865888865 -0.09548442917210716 -0.29894314067704336 0.1251272867832865 -0.4169451424053737 -0.4366198607853481 -0.016301714216492007 0.008743285983135658 0.33229128803525654 -0.29776971680777414 0.0963345712849072 0.34723914308207376 -0.04798742862684386 -0.3227048580135618 -0.027294428886047432 -0.17905928300959723 -0.11370828534875597 0.6662855659212384 0.2769384320293154 0.45596957206726074 0.0006069999695422926 0.5033588537148067 -0.009386285740349973 -0.24283071500914438 0.29077714681625366
39 -0.14064245400103656 -0.1364743628285148 0.08378018167885867 0.030538090928034348 0.35508300228552386 0.2654638168486682 0.3227029077031396 -0.05220072750340809 -0.09901418265971271 -0.30070763419974933 0.12593027407472784 -0.4189083630388433 -0.44126237251541833 -0.01807090915231542 0.01106254539494826 0.3360784568569877 -0.30227927457202564 0.09523127261887897 0.3545351868326014 -0.06337581744248216 -0.3235439942641692 -0.010352000234309922 -0.1884508187120611 -0.11461554535410622 0.6735047210346569 0.28543836826627905 0.45581081780520355 0.020947000056780365 0.5086700103499673 -0.0112282727337019 -0.24476509473540567 0.2920300919901241
40 -0.13288433477282524 -0.1272263340651989 0.07370133387545745 0.03255316708236933 0.34511516739924747 0.2551344980796178 0.3159551719824473 -0.04548366709301869 -0.09593450153867404 -0.2896343320608139 0.12197883427143097 -0.40461699664592743 -0.42640700936317444 -0.012229166536902389 0.01577883374799664 0.3188873305916786 -0.2879488343993823 0.09167983445028464 0.3430258383353551 -0.03912933294971784 -0.3215521623690923 -0.03106883354485035 -0.17469983299573263 -0.11346716557939847 0.6509724954764048 0.27166517327229184 0.4454963306585948 0.0028473332058638334 0.4953303386767705 -0.01037766687416782 -0.24207366754611334 0.28365516910950345
41 -0.1378317145364625 -0.1300701435123171 0.07989157257335526 0.02804014299597059 0.3520727115018027 0.2584534244877951 0.3196458603654589 -0.049982714865888865 -0.09548442917210716 -0.29894314067704336 0.1251272867832865 -0.4169451424053737 -0.4366198607853481 -0.016301714216492007 0.008743285983135658 0.33229128803525654 -0.29776971680777414 0.0963345712849072 0.34723914308207376 -0.04798742862684386 -0.3227048580135618 -0.027294428886047432 -0.17905928300959723 -0.11370828534875597 0.6662855659212384 0.2769384320293154 0.45596957206726074 0.0006069999695422926 0.5033588537148067 -0.009386285740349973 -0.24283071500914438 0.29077714681625366
42 -0.1378317145364625 -0.1300701435123171 0.07989157257335526 0.02804014299597059 0.3520727115018027 0.2584534244877951 0.3196458603654589 -0.049982714865888865 -0.09548442917210716 -0.29894314067704336 0.1251272867832865 -0.4169451424053737 -0.4366198607853481 -0.016301714216492007 0.008743285983135658 0.33229128803525654 -0.29776971680777414 0.0963345712849072 0.34723914308207376 -0.04798742862684386 -0.3227048580135618 -0.027294428886047432 -0.17905928300959723 -0.11370828534875597 0.6662855659212384 0.2769384320293154 0.45596957206726074 0.0006069999695422926 0.5033588537148067 -0.009386285740349973 -0.24283071500914438 0.29077714681625366
43 -0.13288433477282524 -0.1272263340651989 0.07370133387545745 0.03255316708236933 0.34511516739924747 0.2551344980796178 0.3159551719824473 -0.04548366709301869 -0.09593450153867404 -0.2896343320608139 0.12197883427143097 -0.40461699664592743 -0.42640700936317444 -0.012229166536902389 0.01577883374799664 0.3188873305916786 -0.2879488343993823 0.09167983445028464 0.3430258383353551 -0.03912933294971784 -0.3215521623690923 -0.03106883354485035 -0.17469983299573263 -0.11346716557939847 0.6509724954764048 0.27166517327229184 0.4454963306585948 0.0028473332058638334 0.4953303386767705 -0.01037766687416782 -0.24207366754611334 0.28365516910950345
44 -0.1378317145364625 -0.1300701435123171 0.07989157257335526 0.02804014299597059 0.3520727115018027 0.2584534244877951 0.3196458603654589 -0.049982714865888865 -0.09548442917210716 -0.29894314067704336 0.1251272867832865 -0.4169451424053737 -0.4366198607853481 -0.016301714216492007 0.008743285983135658 0.33229128803525654 -0.29776971680777414 0.0963345712849072 0.34723914308207376 -0.04798742862684386 -0.3227048580135618 -0.027294428886047432 -0.17905928300959723 -0.11370828534875597 0.6662855659212384 0.2769384320293154 0.45596957206726074 0.0006069999695422926 0.5033588537148067 -0.009386285740349973 -0.24283071500914438 0.29077714681625366
45 -0.14064245400103656 -0.1364743628285148 0.08378018167885867 0.030538090928034348 0.35508300228552386 0.2654638168486682 0.3227029077031396 -0.05220072750340809 -0.09901418265971271 -0.30070763419974933 0.12593027407472784 -0.4189083630388433 -0.44126237251541833 -0.01807090915231542 0.01106254539494826 0.3360784568569877 -0.30227927457202564 0.09523127261887897 0.3545351868326014 -0.06337581744248216 -0.3235439942641692 -0.010352000234309922 -0.1884508187120611 -0.11461554535410622 0.6735047210346569 0.28543836826627905 0.45581081780520355 0.020947000056780365 0.5086700103499673 -0.0112282727337019 -0.24476509473540567 0.2920300919901241
46 -0.13896300146977106 -0.13812150061130524 0.07705100004871686 0.02632550010457635 0.36278649667898816 0.2629261687397957 0.32443033903837204 -0.05198183407386144 -0.09589650109410286 -0.2991866668065389 0.13157733405629793 -0.4184869974851608 -0.43680167694886524 -0.013002666470129043 0.009069500161179652 0.3255646626154582 -0.29549166808525723 0.09605333457390468 0.3519178380568822 -0.04398599949975809 -0.3257799992958705 -0.02846350008621812 -0.18243916581074396 -0.11918599903583527 0.6727111637592316 0.27957067141930264 0.45475433270136517 -0.003779333356457452 0.5072761724392573 -0.012755333601186672 -0.2473705013593038 0.29422349979480106
47 -0.1378317145364625 -0.1300701435123171 0.07989157257335526 0.02804014299597059 0.3520727115018027 0.2584534244877951 0.3196458603654589 -0.049982714865888865 -0.09548442917210716 -0.29894314067704336 0.1251272867832865 -0.4169451424053737 -0.4366198607853481 -0.016301714216492007 0.008743285983135658 0.33229128803525654 -0.29776971680777414 0.0963345712849072 0.34723914308207376 -0.04798742862684386 -0.3227048580135618 -0.027294428886047432 -0.17905928300959723 -0.11370828534875597 0.6662855659212384 0.2769384320293154 0.45596957206726074 0.0006069999695422926 0.5033588537148067 -0.009386285740349973 -0.24283071500914438 0.29077714681625366
48 -0.14064245400103656 -0.1364743628285148 0.08378018167885867 0.030538090928034348 0.35508300228552386 0.2654638168486682 0.3227029077031396 -0.05220072750340809 -0.09901418265971271 -0.30070763419974933 0.12593027407472784 -0.4189083630388433 -0.44126237251541833 -0.01807090915231542 0.01106254539494826 0.3360784568569877 -0.30227927457202564 0.09523127261887897 0.3545351868326014 -0.06337581744248216 -0.3235439942641692 -0.010352000234309922 -0.1884508187120611 -0.11461554535410622 0.6735047210346569 0.28543836826627905 0.45581081780520355 0.020947000056780365 0.5086700103499673 -0.0112282727337019 -0.24476509473540567 0.2920300919901241
49 -0.13896300146977106 -0.13812150061130524 0.07705100004871686 0.02632550010457635 0.36278649667898816 0.2629261687397957 0.32443033903837204 -0.05198183407386144 -0.09589650109410286 -0.2991866668065389 0.13157733405629793 -0.4184869974851608 -0.43680167694886524 -0.013002666470129043 0.009069500161179652 0.3255646626154582 -0.29549166808525723 0.09605333457390468 0.3519178380568822 -0.04398599949975809 -0.3257799992958705 -0.02846350008621812 -0.18243916581074396 -0.11918599903583527 0.6727111637592316 0.27957067141930264 0.45475433270136517 -0.003779333356457452 0.5072761724392573 -0.012755333601186672 -0.2473705013593038 0.29422349979480106
50 -0.14064245400103656 -0.1364743628285148 0.08378018167885867 0.030538090928034348 0.35508300228552386 0.2654638168486682 0.3227029077031396 -0.05220072750340809 -0.09901418265971271 -0.30070763419974933 0.12593027407472784 -0.4189083630388433 -0.44126237251541833 -0.01807090915231542 0.01106254539494826 0.3360784568569877 -0.30227927457202564 0.09523127261887897 0.3545351868326014 -0.06337581744248216 -0.3235439942641692 -0.010352000234309922 -0.1884508187120611 -0.11461554535410622 0.6735047210346569 0.28543836826627905 0.45581081780520355 0.020947000056780365 0.5086700103499673 -0.0112282727337019 -0.24476509473540567 0.2920300919901241
51 -0.1378317145364625 -0.1300701435123171 0.07989157257335526 0.02804014299597059 0.3520727115018027 0.2584534244877951 0.3196458603654589 -0.049982714865888865 -0.09548442917210716 -0.29894314067704336 0.1251272867832865 -0.4169451424053737 -0.4366198607853481 -0.016301714216492007 0.008743285983135658 0.33229128803525654 -0.29776971680777414 0.0963345712849072 0.34723914308207376 -0.04798742862684386 -0.3227048580135618 -0.027294428886047432 -0.17905928300959723 -0.11370828534875597 0.6662855659212384 0.2769384320293154 0.45596957206726074 0.0006069999695422926 0.5033588537148067 -0.009386285740349973 -0.24283071500914438 0.29077714681625366
52 -0.14064245400103656 -0.1364743628285148 0.08378018167885867 0.030538090928034348 0.35508300228552386 0.2654638168486682 0.3227029077031396 -0.05220072750340809 -0.09901418265971271 -0.30070763419974933 0.12593027407472784 -0.4189083630388433 -0.44126237251541833 -0.01807090915231542 0.01106254539494826 0.3360784568569877 -0.30227927457202564 0.09523127261887897 0.3545351868326014 -0.06337581744248216 -0.3235439942641692 -0.010352000234309922 -0.1884508187120611 -0.11461554535410622 0.6735047210346569 0.28543836826627905 0.45581081780520355 0.020947000056780365 0.5086700103499673 -0.0112282727337019 -0.24476509473540567 0.2920300919901241
53 -0.13896300146977106 -0.13812150061130524 0.07705100004871686 0.02632550010457635 0.36278649667898816 0.2629261687397957 0.32443033903837204 -0.05198183407386144 -0.09589650109410286 -0.2991866668065389 0.13157733405629793 -0.4184869974851608 -0.43680167694886524 -0.013002666470129043 0.009069500161179652 0.3255646626154582 -0.29549166808525723 0.09605333457390468 0.3519178380568822 -0.04398599949975809 -0.3257799992958705 -0.02846350008621812 -0.18243916581074396 -0.11918599903583527 0.6727111637592316 0.27957067141930264 0.45475433270136517 -0.003779333356457452 0.5072761724392573 -0.012755333601186672 -0.2473705013593038 0.29422349979480106
54 -0.13896300146977106 -0.13812150061130524 0.07705100004871686 0.02632550010457635 0.36278649667898816 0.2629261687397957 0.32443033903837204 -0.05198183407386144 -0.09589650109410286 -0.2991866668065389 0.13157733405629793 -0.4184869974851608 -0.43680167694886524 -0.013002666470129043 0.009069500161179652 0.3255646626154582 -0.29549166808525723 0.09605333457390468 0.3519178380568822 -0.04398599949975809 -0.3257799992958705 -0.02846350008621812 -0.18243916581074396 -0.11918599903583527 0.6727111637592316 0.27957067141930264 0.45475433270136517 -0.003779333356457452 0.5072761724392573 -0.012755333601186672 -0.2473705013593038 0.29422349979480106
55 -0.1378317145364625 -0.1300701435123171 0.07989157257335526 0.02804014299597059 0.3520727115018027 0.2584534244877951 0.3196458603654589 -0.049982714865888865 -0.09548442917210716 -0.29894314067704336 0.1251272867832865 -0.4169451424053737 -0.4366198607853481 -0.016301714216492007 0.008743285983135658 0.33229128803525654 -0.29776971680777414 0.0963345712849072 0.34723914308207376 -0.04798742862684386 -0.3227048580135618 -0.027294428886047432 -0.17905928300959723 -0.11370828534875597 0.6662855659212384 0.2769384320293154 0.45596957206726074 0.0006069999695422926 0.5033588537148067 -0.009386285740349973 -0.24283071500914438 0.29077714681625366
56 -0.13896300146977106 -0.13812150061130524 0.07705100004871686 0.02632550010457635 0.36278649667898816 0.2629261687397957 0.32443033903837204 -0.05198183407386144 -0.09589650109410286 -0.2991866668065389 0.13157733405629793 -0.4184869974851608 -0.43680167694886524 -0.013002666470129043 0.009069500161179652 0.3255646626154582 -0.29549166808525723 0.09605333457390468 0.3519178380568822 -0.04398599949975809 -0.3257799992958705 -0.02846350008621812 -0.18243916581074396 -0.11918599903583527 0.6727111637592316 0.27957067141930264 0.45475433270136517 -0.003779333356457452 0.5072761724392573 -0.012755333601186672 -0.2473705013593038 0.29422349979480106
57 -0.13288433477282524 -0.1272263340651989 0.07370133387545745 0.03255316708236933 0.34511516739924747 0.2551344980796178 0.3159551719824473 -0.04548366709301869 -0.09593450153867404 -0.2896343320608139 0.12197883427143097 -0.40461699664592743 -0.42640700936317444 -0.012229166536902389 0.01577883374799664 0.3188873305916786 -0.2879488343993823 0.09167983445028464 0.3430258383353551 -0.03912933294971784 -0.3215521623690923 -0.03106883354485035 -0.17469983299573263 -0.11346716557939847 0.6509724954764048 0.27166517327229184 0.4454963306585948 0.0028473332058638334 0.4953303386767705 -0.01037766687416782 -0.24207366754611334 0.28365516910950345
58 -0.1360285555322965 -0.1307654425294863 0.07587111084204581 0.030220110797219805 0.339391666257547 0.2515104467359682 0.3098939952906221 -0.046119333387145564 -0.10392177725831668 -0.28714966535982156 0.12074888934795228 -0.3993239973982175 -0.4209491164801875 -0.012334666577064328 0.01508522244532489 0.31809544366680914 -0.28525222514549065 0.09000033347143067 0.3383293370198872 -0.05342277764349193 -0.31494699423718786 -0.01882477802185652 -0.18044988626045072 -0.11173033352113432 0.6476054432698422 0.27371800546016956 0.43888144433084464 0.009196555759343836 0.4870046673135625 -0.008221777725136943 -0.24580533688680994 0.28309655516770565
59 -0.1360285555322965 -0.1307654425294863 0.07587111084204581 0.030220110797219805 0.339391666257547 0.2515104467359682 0.3098939952906221 -0.046119333387145564 -0.10392177725831668 -0.28714966535982156 0.12074888934795228 -0.3993239973982175 -0.4209491164801875 -0.012334666577064328 0.01508522244532489 0.31809544366680914 -0.28525222514549065 0.09000033347143067 0.3383293370198872 -0.05342277764349193 -0.31494699423718786 -0.01882477802185652 -0.18044988626045072 -0.11173033352113432 0.6476054432698422 0.27371800546016956 0.43888144433084464 0.009196555759343836 0.4870046673135625 -0.008221777725136943 -0.24580533688680994 0.28309655516770565
60 -0.1378317145364625 -0.1300701435123171 0.07989157257335526 0.02804014299597059 0.3520727115018027 0.2584534244877951 0.3196458603654589 -0.049982714865888865 -0.09548442917210716 -0.29894314067704336 0.1251272867832865 -0.4169451424053737 -0.4366198607853481 -0.016301714216492007 0.008743285983135658 0.33229128803525654 -0.29776971680777414 0.0963345712849072 0.34723914308207376 -0.04798742862684386 -0.3227048580135618 -0.027294428886047432 -0.17905928300959723 -0.11370828534875597 0.6662855659212384 0.2769384320293154 0.45596957206726074 0.0006069999695422926 0.5033588537148067 -0.009386285740349973 -0.24283071500914438 0.29077714681625366
61 -0.14064245400103656 -0.1364743628285148 0.08378018167885867 0.030538090928034348 0.35508300228552386 0.2654638168486682 0.3227029077031396 -0.05220072750340809 -0.09901418265971271 -0.30070763419974933 0.12593027407472784 -0.4189083630388433 -0.44126237251541833 -0.01807090915231542 0.01106254539494826 0.3360784568569877 -0.30227927457202564 0.09523127261887897 0.3545351868326014 -0.06337581744248216 -0.3235439942641692 -0.010352000234309922 -0.1884508187120611 -0.11461554535410622 0.6735047210346569 0.28543836826627905 0.45581081780520355 0.020947000056780365 0.5086700103499673 -0.0112282727337019 -0.24476509473540567 0.2920300919901241
62 -0.14064245400103656 -0.1364743628285148 0.08378018167885867 0.030538090928034348 0.35508300228552386 0.2654638168486682 0.3227029077031396 -0.05220072750340809 -0.09901418265971271 -0.30070763419974933 0.12593027407472784 -0.4189083630388433 -0.44126237251541833 -0.01807090915231542 0.01106254539494826 0.3360784568569877 -0.30227927457202564 0.09523127261887897 0.3545351868326014 -0.06337581744248216 -0.3235439942641692 -0.010352000234309922 -0.1884508187120611 -0.11461554535410622 0.6735047210346569 0.28543836826627905 0.45581081780520355 0.020947000056780365 0.5086700103499673 -0.0112282727337019 -0.24476509473540567 0.2920300919901241
63 -0.1378317145364625 -0.1300701435123171 0.07989157257335526 0.02804014299597059 0.3520727115018027 0.2584534244877951 0.3196458603654589 -0.049982714865888865 -0.09548442917210716 -0.29894314067704336 0.1251272867832865 -0.4169451424053737 -0.4366198607853481 -0.016301714216492007 0.008743285983135658 0.33229128803525654 -0.29776971680777414 0.0963345712849072 0.34723914308207376 -0.04798742862684386 -0.3227048580135618 -0.027294428886047432 -0.17905928300959723 -0.11370828534875597 0.6662855659212384 0.2769384320293154 0.45596957206726074 0.0006069999695422926 0.5033588537148067 -0.009386285740349973 -0.24283071500914438 0.29077714681625366
64 -0.1378317145364625 -0.1300701435123171 0.07989157257335526 0.02804014299597059 0.3520727115018027 0.2584534244877951 0.3196458603654589 -0.049982714865888865 -0.09548442917210716 -0.29894314067704336 0.1251272867832865 -0.4169451424053737 -0.4366198607853481 -0.016301714216492007 0.008743285983135658 0.33229128803525654 -0.29776971680777414 0.0963345712849072 0.34723914308207376 -0.04798742862684386 -0.3227048580135618 -0.027294428886047432 -0.17905928300959723 -0.11370828534875597 0.6662855659212384 0.2769384320293154 0.45596957206726074 0.0006069999695422926 0.5033588537148067 -0.009386285740349973 -0.24283071500914438 0.29077714681625366
65 -0.1378317145364625 -0.1300701435123171 0.07989157257335526 0.02804014299597059 0.3520727115018027 0.2584534244877951 0.3196458603654589 -0.049982714865888865 -0.09548442917210716 -0.29894314067704336 0.1251272867832865 -0.4169451424053737 -0.4366198607853481 -0.016301714216492007 0.008743285983135658 0.33229128803525654 -0.29776971680777414 0.0963345712849072 0.34723914308207376 -0.04798742862684386 -0.3227048580135618 -0.027294428886047432 -0.17905928300959723 -0.11370828534875597 0.6662855659212384 0.2769384320293154 0.45596957206726074 0.0006069999695422926 0.5033588537148067 -0.009386285740349973 -0.24283071500914438 0.29077714681625366
66 -0.1378317145364625 -0.1300701435123171 0.07989157257335526 0.02804014299597059 0.3520727115018027 0.2584534244877951 0.3196458603654589 -0.049982714865888865 -0.09548442917210716 -0.29894314067704336 0.1251272867832865 -0.4169451424053737 -0.4366198607853481 -0.016301714216492007 0.008743285983135658 0.33229128803525654 -0.29776971680777414 0.0963345712849072 0.34723914308207376 -0.04798742862684386 -0.3227048580135618 -0.027294428886047432 -0.17905928300959723 -0.11370828534875597 0.6662855659212384 0.2769384320293154 0.45596957206726074 0.0006069999695422926 0.5033588537148067 -0.009386285740349973 -0.24283071500914438 0.29077714681625366
67 -0.1378317145364625 -0.1300701435123171 0.07989157257335526 0.02804014299597059 0.3520727115018027 0.2584534244877951 0.3196458603654589 -0.049982714865888865 -0.09548442917210716 -0.29894314067704336 0.1251272867832865 -0.4169451424053737 -0.4366198607853481 -0.016301714216492007 0.008743285983135658 0.33229128803525654 -0.29776971680777414 0.0963345712849072 0.34723914308207376 -0.04798742862684386 -0.3227048580135618 -0.027294428886047432 -0.17905928300959723 -0.11370828534875597 0.6662855659212384 0.2769384320293154 0.45596957206726074 0.0006069999695422926 0.5033588537148067 -0.009386285740349973 -0.24283071500914438 0.29077714681625366
68 -0.13896300146977106 -0.13812150061130524 0.07705100004871686 0.02632550010457635 0.36278649667898816 0.2629261687397957 0.32443033903837204 -0.05198183407386144 -0.09589650109410286 -0.2991866668065389 0.13157733405629793 -0.4184869974851608 -0.43680167694886524 -0.013002666470129043 0.009069500161179652 0.3255646626154582 -0.29549166808525723 0.09605333457390468 0.3519178380568822 -0.04398599949975809 -0.3257799992958705 -0.02846350008621812 -0.18243916581074396 -0.11918599903583527 0.6727111637592316 0.27957067141930264 0.45475433270136517 -0.003779333356457452 0.5072761724392573 -0.012755333601186672 -0.2473705013593038 0.29422349979480106
69 -0.1378317145364625 -0.1300701435123171 0.07989157257335526 0.02804014299597059 0.3520727115018027 0.2584534244877951 0.3196458603654589 -0.049982714865888865 -0.09548442917210716 -0.29894314067704336 0.1251272867832865 -0.4169451424053737 -0.4366198607853481 -0.016301714216492007 0.008743285983135658 0.33229128803525654 -0.29776971680777414 0.0963345712849072 0.34723914308207376 -0.04798742862684386 -0.3227048580135618 -0.027294428886047432 -0.17905928300959723 -0.11370828534875597 0.6662855659212384 0.2769384320293154 0.45596957206726074 0.0006069999695422926 0.5033588537148067 -0.009386285740349973 -0.24283071500914438 0.29077714681625366
70 -0.08877133422841628 -0.08856449959178765 0.04488783314203223 0.02207833342254162 0.22447300081451735 0.16801133565604687 0.202612167224288 -0.02828150039810377 -0.06395900032172601 -0.19498883249859014 0.0874504999568065 -0.26911533003052074 -0.2816770076751709 -0.012821833428461105 0.0020166667527519166 0.21181249680618444 -0.18972716915110746 0.05548900101954738 0.23319699863592783 -0.030511999929634232 -0.2117398288100958 -0.01848000055179 -0.11530833318829536 -0.07472216555227836 0.43690649420022964 0.17280383656422296 0.2994396649301052 -0.004510000037650268 0.33420449992020923 -0.005734666716307402 -0.16320167109370232 0.18872733414173126
71 -0.13288433477282524 -0.1272263340651989 0.07370133387545745 0.03255316708236933 0.34511516739924747 0.2551344980796178 0.3159551719824473 -0.04548366709301869 -0.09593450153867404 -0.2896343320608139 0.12197883427143097 -0.40461699664592743 -0.42640700936317444 -0.012229166536902389 0.01577883374799664 0.3188873305916786 -0.2879488343993823 0.09167983445028464 0.3430258383353551 -0.03912933294971784 -0.3215521623690923 -0.03106883354485035 -0.17469983299573263 -0.11346716557939847 0.6509724954764048 0.27166517327229184 0.4454963306585948 0.0028473332058638334 0.4953303386767705 -0.01037766687416782 -0.24207366754611334 0.28365516910950345
72 -0.13896300146977106 -0.13812150061130524 0.07705100004871686 0.02632550010457635 0.36278649667898816 0.2629261687397957 0.32443033903837204 -0.05198183407386144 -0.09589650109410286 -0.2991866668065389 0.13157733405629793 -0.4184869974851608 -0.43680167694886524 -0.013002666470129043 0.009069500161179652 0.3255646626154582 -0.29549166808525723 0.09605333457390468 0.3519178380568822 -0.04398599949975809 -0.3257799992958705 -0.02846350008621812 -0.18243916581074396 -0.11918599903583527 0.6727111637592316 0.27957067141930264 0.45475433270136517 -0.003779333356457452 0.5072761724392573 -0.012755333601186672 -0.2473705013593038 0.29422349979480106
73 -0.15254090997305783 -0.16553981873122128 0.09677727317268198 0.03783218232406811 0.4335141805085269 0.29607781767845154 0.38132809779860755 -0.07174427367069504 -0.10478936474431645 -0.3521642712029544 0.15340945395556363 -0.5019583620808341 -0.5136101029135964 -0.01817036353432658 0.00675754557067359 0.3804645402864976 -0.3466298227960413 0.11509982022372159 0.41896782138130884 -0.05137145400724628 -0.3807501765814694 -0.04386999999934977 -0.21177245541052384 -0.142968088388443 0.7853988138112155 0.3252637318589471 0.5435239970684052 -0.00886472727341408 0.6011779064481909 -0.015935545406219633 -0.3020683648911389 0.3473722717978738
74 -0.12234080247581006 -0.12199840024113655 0.07368880063295365 0.02382700014859438 0.31305899592116476 0.2238113980740309 0.28502500243484974 -0.04370600041656871 -0.09081960171461105 -0.26866799583658574 0.11125300135463476 -0.37195139955729245 -0.3951180102303624 -0.015052599622868002 0.013079800154082477 0.2917531978338957 -0.2647535997908562 0.08537360168993473 0.3048630044795573 -0.04139799969270826 -0.2844655975699425 -0.017961000092327595 -0.1603793989866972 -0.10243239921983331 0.5847783954814076 0.2485430055297911 0.40019860174506905 0.007804599916562438 0.4462450059130788 -0.013736800337210298 -0.22186260409653186 0.25359040070325134
75 -0.12234080247581006 -0.12199840024113655 0.07368880063295365 0.02382700014859438 0.31305899592116476 0.2238113980740309 0.28502500243484974 -0.04370600041656871 -0.09081960171461105 -0.26866799583658574 0.11125300135463476 -0.37195139955729245 -0.3951180102303624 -0.015052599622868002 0.013079800154082477 0.2917531978338957 -0.2647535997908562 0.08537360168993473 0.3048630044795573 -0.04139799969270826 -0.2844655975699425 -0.017961000092327595 -0.1603793989866972 -0.10243239921983331 0.5847783954814076 0.2485430055297911 0.40019860174506905 0.007804599916562438 0.4462450059130788 -0.013736800337210298 -0.22186260409653186 0.25359040070325134
76 -0.12234080247581006 -0.12199840024113655 0.07368880063295365 0.02382700014859438 0.31305899592116476 0.2238113980740309 0.28502500243484974 -0.04370600041656871 -0.09081960171461105 -0.26866799583658574 0.11125300135463476 -0.37195139955729245 -0.3951180102303624 -0.015052599622868002 0.013079800154082477 0.2917531978338957 -0.2647535997908562 0.08537360168993473 0.3048630044795573 -0.04139799969270826 -0.2844655975699425 -0.017961000092327595 -0.1603793989866972 -0.10243239921983331 0.5847783954814076 0.2485430055297911 0.40019860174506905 0.007804599916562438 0.4462450059130788 -0.013736800337210298 -0.22186260409653186 0.25359040070325134
77 -0.12234080247581006 -0.12199840024113655 0.07368880063295365 0.02382700014859438 0.31305899592116476 0.2238113980740309 0.28502500243484974 -0.04370600041656871 -0.09081960171461105 -0.26866799583658574 0.11125300135463476 -0.37195139955729245 -0.3951180102303624 -0.015052599622868002 0.013079800154082477 0.2917531978338957 -0.2647535997908562 0.08537360168993473 0.3048630044795573 -0.04139799969270826 -0.2844655975699425 -0.017961000092327595 -0.1603793989866972 -0.10243239921983331 0.5847783954814076 0.2485430055297911 0.40019860174506905 0.007804599916562438 0.4462450059130788 -0.013736800337210298 -0.22186260409653186 0.25359040070325134
78 -0.03877142999720361 -0.04338585568724999 0.028039999913224683 0.005537285835349134 0.10914871133198696 0.07745228548135076 0.10280799962181066 -0.016587000473269393 -0.02825800103268453 -0.09485599966345555 0.03848614311677271 -0.12889614057660634 -0.1360748616778957 -0.002171428474996771 0.006037000071955845 0.10345842652688068 -0.08664957134585295 0.033200715585345666 0.10801885869087917 -0.01908871398440429 -0.10348328409184303 -0.003663714584295771 -0.05606814247689077 -0.03753257057230387 0.20421485414928092 0.09383714315481484 0.13616771533686137 0.0016771428220506226 0.15322014190522687 -0.005914143012237868 -0.07481300277868286 0.0881644279995401
79 -0.03877142999720361 -0.04338585568724999 0.028039999913224683 0.005537285835349134 0.10914871133198696 0.07745228548135076 0.10280799962181066 -0.016587000473269393 -0.02825800103268453 -0.09485599966345555 0.03848614311677271 -0.12889614057660634 -0.1360748616778957 -0.002171428474996771 0.006037000071955845 0.10345842652688068 -0.08664957134585295 0.033200715585345666 0.10801885869087917 -0.01908871398440429 -0.10348328409184303 -0.003663714584295771 -0.05606814247689077 -0.03753257057230387 0.20421485414928092 0.09383714315481484 0.13616771533686137 0.0016771428220506226 0.15322014190522687 -0.005914143012237868 -0.07481300277868286 0.0881644279995401
80 -0.12234080247581006 -0.12199840024113655 0.07368880063295365 0.02382700014859438 0.31305899592116476 0.2238113980740309 0.28502500243484974 -0.04370600041656871 -0.09081960171461105 -0.26866799583658574 0.11125300135463476 -0.37195139955729245 -0.3951180102303624 -0.015052599622868002 0.013079800154082477 0.2917531978338957 -0.2647535997908562 0.08537360168993473 0.3048630044795573 -0.04139799969270826 -0.2844655975699425 -0.017961000092327595 -0.1603793989866972 -0.10243239921983331 0.5847783954814076 0.2485430055297911 0.40019860174506905 0.007804599916562438 0.4462450059130788 -0.013736800337210298 -0.22186260409653186 0.25359040070325134
81 -0.03877142999720361 -0.04338585568724999 0.028039999913224683 0.005537285835349134 0.10914871133198696 0.07745228548135076 0.10280799962181066 -0.016587000473269393 -0.02825800103268453 -0.09485599966345555 0.03848614311677271 -0.12889614057660634 -0.1360748616778957 -0.002171428474996771 0.006037000071955845 0.10345842652688068 -0.08664957134585295 0.033200715585345666 0.10801885869087917 -0.01908871398440429 -0.10348328409184303 -0.003663714584295771 -0.05606814247689077 -0.03753257057230387 0.20421485414928092 0.09383714315481484 0.13616771533686137 0.0016771428220506226 0.15322014190522687 -0.005914143012237868 -0.07481300277868286 0.0881644279995401
82 -0.03877142999720361 -0.04338585568724999 0.028039999913224683 0.005537285835349134 0.10914871133198696 0.07745228548135076 0.10280799962181066 -0.016587000473269393 -0.02825800103268453 -0.09485599966345555 0.03848614311677271 -0.12889614057660634 -0.1360748616778957 -0.002171428474996771 0.006037000071955845 0.10345842652688068 -0.08664957134585295 0.033200715585345666 0.10801885869087917 -0.01908871398440429 -0.10348328409184303 -0.003663714584295771 -0.05606814247689077 -0.03753257057230387 0.20421485414928092 0.09383714315481484 0.13616771533686137 0.0016771428220506226 0.15322014190522687 -0.005914143012237868 -0.07481300277868286 0.0881644279995401
83 -0.12234080247581006 -0.12199840024113655 0.07368880063295365 0.02382700014859438 0.31305899592116476 0.2238113980740309 0.28502500243484974 -0.04370600041656871 -0.09081960171461105 -0.26866799583658574 0.11125300135463476 -0.37195139955729245 -0.3951180102303624 -0.015052599622868002 0.013079800154082477 0.2917531978338957 -0.2647535997908562 0.08537360168993473 0.3048630044795573 -0.04139799969270826 -0.2844655975699425 -0.017961000092327595 -0.1603793989866972 -0.10243239921983331 0.5847783954814076 0.2485430055297911 0.40019860174506905 0.007804599916562438 0.4462450059130788 -0.013736800337210298 -0.22186260409653186 0.25359040070325134
84 -0.03877142999720361 -0.04338585568724999 0.028039999913224683 0.005537285835349134 0.10914871133198696 0.07745228548135076 0.10280799962181066 -0.016587000473269393 -0.02825800103268453 -0.09485599966345555 0.03848614311677271 -0.12889614057660634 -0.1360748616778957 -0.002171428474996771 0.006037000071955845 0.10345842652688068 -0.08664957134585295 0.033200715585345666 0.10801885869087917 -0.01908871398440429 -0.10348328409184303 -0.003663714584295771 -0.05606814247689077 -0.03753257057230387 0.20421485414928092 0.09383714315481484 0.13616771533686137 0.0016771428220506226 0.15322014190522687 -0.005914143012237868 -0.07481300277868286 0.0881644279995401
85 -0.03877142999720361 -0.04338585568724999 0.028039999913224683 0.005537285835349134 0.10914871133198696 0.07745228548135076 0.10280799962181066 -0.016587000473269393 -0.02825800103268453 -0.09485599966345555 0.03848614311677271 -0.12889614057660634 -0.1360748616778957 -0.002171428474996771 0.006037000071955845 0.10345842652688068 -0.08664957134585295 0.033200715585345666 0.10801885869087917 -0.01908871398440429 -0.10348328409184303 -0.003663714584295771 -0.05606814247689077 -0.03753257057230387 0.20421485414928092 0.09383714315481484 0.13616771533686137 0.0016771428220506226 0.15322014190522687 -0.005914143012237868 -0.07481300277868286 0.0881644279995401
86 -0.03877142999720361 -0.04338585568724999 0.028039999913224683 0.005537285835349134 0.10914871133198696 0.07745228548135076 0.10280799962181066 -0.016587000473269393 -0.02825800103268453 -0.09485599966345555 0.03848614311677271 -0.12889614057660634 -0.1360748616778957 -0.002171428474996771 0.006037000071955845 0.10345842652688068 -0.08664957134585295 0.033200715585345666 0.10801885869087917 -0.01908871398440429 -0.10348328409184303 -0.003663714584295771 -0.05606814247689077 -0.03753257057230387 0.20421485414928092 0.09383714315481484 0.13616771533686137 0.0016771428220506226 0.15322014190522687 -0.005914143012237868 -0.07481300277868286 0.0881644279995401
87 -0.12234080247581006 -0.12199840024113655 0.07368880063295365 0.02382700014859438 0.31305899592116476 0.2238113980740309 0.28502500243484974 -0.04370600041656871 -0.09081960171461105 -0.26866799583658574 0.11125300135463476 -0.37195139955729245 -0.3951180102303624 -0.015052599622868002 0.013079800154082477 0.2917531978338957 -0.2647535997908562 0.08537360168993473 0.3048630044795573 -0.04139799969270826 -0.2844655975699425 -0.017961000092327595 -0.1603793989866972 -0.10243239921983331 0.5847783954814076 0.2485430055297911 0.40019860174506905 0.007804599916562438 0.4462450059130788 -0.013736800337210298 -0.22186260409653186 0.25359040070325134
88 -0.03877142999720361 -0.04338585568724999 0.028039999913224683 0.005537285835349134 0.10914871133198696 0.07745228548135076 0.10280799962181066 -0.016587000473269393 -0.02825800103268453 -0.09485599966345555 0.03848614311677271 -0.12889614057660634 -0.1360748616778957 -0.002171428474996771 0.006037000071955845 0.10345842652688068 -0.08664957134585295 0.033200715585345666 0.10801885869087917 -0.01908871398440429 -0.10348328409184303 -0.003663714584295771 -0.05606814247689077 -0.03753257057230387 0.20421485414928092 0.09383714315481484 0.13616771533686137 0.0016771428220506226 0.15322014190522687 -0.005914143012237868 -0.07481300277868286 0.0881644279995401
89 -0.03877142999720361 -0.04338585568724999 0.028039999913224683 0.005537285835349134 0.10914871133198696 0.07745228548135076 0.10280799962181066 -0.016587000473269393 -0.02825800103268453 -0.09485599966345555 0.03848614311677271 -0.12889614057660634 -0.1360748616778957 -0.002171428474996771 0.006037000071955845 0.10345842652688068 -0.08664957134585295 0.033200715585345666 0.10801885869087917 -0.01908871398440429 -0.10348328409184303 -0.003663714584295771 -0.05606814247689077 -0.03753257057230387 0.20421485414928092 0.09383714315481484 0.13616771533686137 0.0016771428220506226 0.15322014190522687 -0.005914143012237868 -0.07481300277868286 0.0881644279995401
90 -0.12234080247581006 -0.12199840024113655 0.07368880063295365 0.02382700014859438 0.31305899592116476 0.2238113980740309 0.28502500243484974 -0.04370600041656871 -0.09081960171461105 -0.26866799583658574 0.11125300135463476 -0.37195139955729245 -0.3951180102303624 -0.015052599622868002 0.013079800154082477 0.2917531978338957 -0.2647535997908562 0.08537360168993473 0.3048630044795573 -0.04139799969270826 -0.2844655975699425 -0.017961000092327595 -0.1603793989866972 -0.10243239921983331 0.5847783954814076 0.2485430055297911 0.40019860174506905 0.007804599916562438 0.4462450059130788 -0.013736800337210298 -0.22186260409653186 0.25359040070325134
91 -0.03877142999720361 -0.04338585568724999 0.028039999913224683 0.005537285835349134 0.10914871133198696 0.07745228548135076 0.10280799962181066 -0.016587000473269393 -0.02825800103268453 -0.09485599966345555 0.03848614311677271 -0.12889614057660634 -0.1360748616778957 -0.002171428474996771 0.006037000071955845 0.10345842652688068 -0.08664957134585295 0.033200715585345666 0.10801885869087917 -0.01908871398440429 -0.10348328409184303 -0.003663714584295771 -0.05606814247689077 -0.03753257057230387 0.20421485414928092 0.09383714315481484 0.13616771533686137 0.0016771428220506226 0.15322014190522687 -0.005914143012237868 -0.07481300277868286 0.0881644279995401
92 -0.03877142999720361 -0.04338585568724999 0.028039999913224683 0.005537285835349134 0.10914871133198696 0.07745228548135076 0.10280799962181066 -0.016587000473269393 -0.02825800103268453 -0.09485599966345555 0.03848614311677271 -0.12889614057660634 -0.1360748616778957 -0.002171428474996771 0.006037000071955845 0.10345842652688068 -0.08664957134585295 0.033200715585345666 0.10801885869087917 -0.01908871398440429 -0.10348328409184303 -0.003663714584295771 -0.05606814247689077 -0.03753257057230387 0.20421485414928092 0.09383714315481484 0.13616771533686137 0.0016771428220506226 0.15322014190522687 -0.005914143012237868 -0.07481300277868286 0.0881644279995401
93 -0.03877142999720361 -0.04338585568724999 0.028039999913224683 0.005537285835349134 0.10914871133198696 0.07745228548135076 0.10280799962181066 -0.016587000473269393 -0.02825800103268453 -0.09485599966345555 0.03848614311677271 -0.12889614057660634 -0.1360748616778957 -0.002171428474996771 0.006037000071955845 0.10345842652688068 -0.08664957134585295 0.033200715585345666 0.10801885869087917 -0.01908871398440429 -0.10348328409184303 -0.003663714584295771 -0.05606814247689077 -0.03753257057230387 0.20421485414928092 0.09383714315481484 0.13616771533686137 0.0016771428220506226 0.15322014190522687 -0.005914143012237868 -0.07481300277868286 0.0881644279995401
94 -0.03877142999720361 -0.04338585568724999 0.028039999913224683 0.005537285835349134 0.10914871133198696 0.07745228548135076 0.10280799962181066 -0.016587000473269393 -0.02825800103268453 -0.09485599966345555 0.03848614311677271 -0.12889614057660634 -0.1360748616778957 -0.002171428474996771 0.006037000071955845 0.10345842652688068 -0.08664957134585295 0.033200715585345666 0.10801885869087917 -0.01908871398440429 -0.10348328409184303 -0.003663714584295771 -0.05606814247689077 -0.03753257057230387 0.20421485414928092 0.09383714315481484 0.13616771533686137 0.0016771428220506226 0.15322014190522687 -0.005914143012237868 -0.07481300277868286 0.0881644279995401
95 -0.03877142999720361 -0.04338585568724999 0.028039999913224683 0.005537285835349134 0.10914871133198696 0.07745228548135076 0.10280799962181066 -0.016587000473269393 -0.02825800103268453 -0.09485599966345555 0.03848614311677271 -0.12889614057660634 -0.1360748616778957 -0.002171428474996771 0.006037000071955845 0.10345842652688068 -0.08664957134585295 0.033200715585345666 0.10801885869087917 -0.01908871398440429 -0.10348328409184303 -0.003663714584295771 -0.05606814247689077 -0.03753257057230387 0.20421485414928092 0.09383714315481484 0.13616771533686137 0.0016771428220506226 0.15322014190522687 -0.005914143012237868 -0.07481300277868286 0.0881644279995401
96 -0.03877142999720361 -0.04338585568724999 0.028039999913224683 0.005537285835349134 0.10914871133198696 0.07745228548135076 0.10280799962181066 -0.016587000473269393 -0.02825800103268453 -0.09485599966345555 0.03848614311677271 -0.12889614057660634 -0.1360748616778957 -0.002171428474996771 0.006037000071955845 0.10345842652688068 -0.08664957134585295 0.033200715585345666 0.10801885869087917 -0.01908871398440429 -0.10348328409184303 -0.003663714584295771 -0.05606814247689077 -0.03753257057230387 0.20421485414928092 0.09383714315481484 0.13616771533686137 0.0016771428220506226 0.15322014190522687 -0.005914143012237868 -0.07481300277868286 0.0881644279995401
97 -0.12234080247581006 -0.12199840024113655 0.07368880063295365 0.02382700014859438 0.31305899592116476 0.2238113980740309 0.28502500243484974 -0.04370600041656871 -0.09081960171461105 -0.26866799583658574 0.11125300135463476 -0.37195139955729245 -0.3951180102303624 -0.015052599622868002 0.013079800154082477 0.2917531978338957 -0.2647535997908562 0.08537360168993473 0.3048630044795573 -0.04139799969270826 -0.2844655975699425 -0.017961000092327595 -0.1603793989866972 -0.10243239921983331 0.5847783954814076 0.2485430055297911 0.40019860174506905 0.007804599916562438 0.4462450059130788 -0.013736800337210298 -0.22186260409653186 0.25359040070325134
98 -0.03877142999720361 -0.04338585568724999 0.028039999913224683 0.005537285835349134 0.10914871133198696 0.07745228548135076 0.10280799962181066 -0.016587000473269393 -0.02825800103268453 -0.09485599966345555 0.03848614311677271 -0.12889614057660634 -0.1360748616778957 -0.002171428474996771 0.006037000071955845 0.10345842652688068 -0.08664957134585295 0.033200715585345666 0.10801885869087917 -0.01908871398440429 -0.10348328409184303 -0.003663714584295771 -0.05606814247689077 -0.03753257057230387 0.20421485414928092 0.09383714315481484 0.13616771533686137 0.0016771428220506226 0.15322014190522687 -0.005914143012237868 -0.07481300277868286 0.0881644279995401
99 -0.03877142999720361 -0.04338585568724999 0.028039999913224683 0.005537285835349134 0.10914871133198696 0.07745228548135076 0.10280799962181066 -0.016587000473269393 -0.02825800103268453 -0.09485599966345555 0.03848614311677271 -0.12889614057660634 -0.1360748616778957 -0.002171428474996771 0.006037000071955845 0.10345842652688068 -0.08664957134585295 0.033200715585345666 0.10801885869087917 -0.01908871398440429 -0.10348328409184303 -0.003663714584295771 -0.05606814247689077 -0.03753257057230387 0.20421485414928092 0.09383714315481484 0.13616771533686137 0.0016771428220506226 0.15322014190522687 -0.005914143012237868 -0.07481300277868286 0.0881644279995401
100 -0.03877142999720361 -0.04338585568724999 0.028039999913224683 0.005537285835349134 0.10914871133198696 0.07745228548135076 0.10280799962181066 -0.016587000473269393 -0.02825800103268453 -0.09485599966345555 0.03848614311677271 -0.12889614057660634 -0.1360748616778957 -0.002171428474996771 0.006037000071955845 0.10345842652688068 -0.08664957134585295 0.033200715585345666 0.10801885869087917 -0.01908871398440429 -0.10348328409184303 -0.003663714584295771 -0.05606814247689077 -0.03753257057230387 0.20421485414928092 0.09383714315481484 0.13616771533686137 0.0016771428220506226 0.15322014190522687 -0.005914143012237868 -0.07481300277868286 0.0881644279995401
101 -0.03877142999720361 -0.04338585568724999 0.028039999913224683 0.005537285835349134 0.10914871133198696 0.07745228548135076 0.10280799962181066 -0.016587000473269393 -0.02825800103268453 -0.09485599966345555 0.03848614311677271 -0.12889614057660634 -0.1360748616778957 -0.002171428474996771 0.006037000071955845 0.10345842652688068 -0.08664957134585295 0.033200715585345666 0.10801885869087917 -0.01908871398440429 -0.10348328409184303 -0.003663714584295771 -0.05606814247689077 -0.03753257057230387 0.20421485414928092 0.09383714315481484 0.13616771533686137 0.0016771428220506226 0.15322014190522687 -0.005914143012237868 -0.07481300277868286 0.0881644279995401
102 -0.03877142999720361 -0.04338585568724999 0.028039999913224683 0.005537285835349134 0.10914871133198696 0.07745228548135076 0.10280799962181066 -0.016587000473269393 -0.02825800103268453 -0.09485599966345555 0.03848614311677271 -0.12889614057660634 -0.1360748616778957 -0.002171428474996771 0.006037000071955845 0.10345842652688068 -0.08664957134585295 0.033200715585345666 0.10801885869087917 -0.01908871398440429 -0.10348328409184303 -0.003663714584295771 -0.05606814247689077 -0.03753257057230387 0.20421485414928092 0.09383714315481484 0.13616771533686137 0.0016771428220506226 0.15322014190522687 -0.005914143012237868 -0.07481300277868286 0.0881644279995401
103 -0.03877142999720361 -0.04338585568724999 0.028039999913224683 0.005537285835349134 0.10914871133198696 0.07745228548135076 0.10280799962181066 -0.016587000473269393 -0.02825800103268453 -0.09485599966345555 0.03848614311677271 -0.12889614057660634 -0.1360748616778957 -0.002171428474996771 0.006037000071955845 0.10345842652688068 -0.08664957134585295 0.033200715585345666 0.10801885869087917 -0.01908871398440429 -0.10348328409184303 -0.003663714584295771 -0.05606814247689077 -0.03753257057230387 0.20421485414928092 0.09383714315481484 0.13616771533686137 0.0016771428220506226 0.15322014190522687 -0.005914143012237868 -0.07481300277868286 0.0881644279995401
104 -0.1378317145364625 -0.1300701435123171 0.07989157257335526 0.02804014299597059 0.3520727115018027 0.2584534244877951 0.3196458603654589 -0.049982714865888865 -0.09548442917210716 -0.29894314067704336 0.1251272867832865 -0.4169451424053737 -0.4366198607853481 -0.016301714216492007 0.008743285983135658 0.33229128803525654 -0.29776971680777414 0.0963345712849072 0.34723914308207376 -0.04798742862684386 -0.3227048580135618 -0.027294428886047432 -0.17905928300959723 -0.11370828534875597 0.6662855659212384 0.2769384320293154 0.45596957206726074 0.0006069999695422926 0.5033588537148067 -0.009386285740349973 -0.24283071500914438 0.29077714681625366
105 -0.14064245400103656 -0.1364743628285148 0.08378018167885867 0.030538090928034348 0.35508300228552386 0.2654638168486682 0.3227029077031396 -0.05220072750340809 -0.09901418265971271 -0.30070763419974933 0.12593027407472784 -0.4189083630388433 -0.44126237251541833 -0.01807090915231542 0.01106254539494826 0.3360784568569877 -0.30227927457202564 0.09523127261887897 0.3545351868326014 -0.06337581744248216 -0.3235439942641692 -0.010352000234309922 -0.1884508187120611 -0.11461554535410622 0.6735047210346569 0.28543836826627905 0.45581081780520355 0.020947000056780365 0.5086700103499673 -0.0112282727337019 -0.24476509473540567 0.2920300919901241
106 -0.13288433477282524 -0.1272263340651989 0.07370133387545745 0.03255316708236933 0.34511516739924747 0.2551344980796178 0.3159551719824473 -0.04548366709301869 -0.09593450153867404 -0.2896343320608139 0.12197883427143097 -0.40461699664592743 -0.42640700936317444 -0.012229166536902389 0.01577883374799664 0.3188873305916786 -0.2879488343993823 0.09167983445028464 0.3430258383353551 -0.03912933294971784 -0.3215521623690923 -0.03106883354485035 -0.17469983299573263 -0.11346716557939847 0.6509724954764048 0.27166517327229184 0.4454963306585948 0.0028473332058638334 0.4953303386767705 -0.01037766687416782 -0.24207366754611334 0.28365516910950345
107 -0.13896300146977106 -0.13812150061130524 0.07705100004871686 0.02632550010457635 0.36278649667898816 0.2629261687397957 0.32443033903837204 -0.05198183407386144 -0.09589650109410286 -0.2991866668065389 0.13157733405629793 -0.4184869974851608 -0.43680167694886524 -0.013002666470129043 0.009069500161179652 0.3255646626154582 -0.29549166808525723 0.09605333457390468 0.3519178380568822 -0.04398599949975809 -0.3257799992958705 -0.02846350008621812 -0.18243916581074396 -0.11918599903583527 0.6727111637592316 0.27957067141930264 0.45475433270136517 -0.003779333356457452 0.5072761724392573 -0.012755333601186672 -0.2473705013593038 0.29422349979480106
108 -0.1378317145364625 -0.1300701435123171 0.07989157257335526 0.02804014299597059 0.3520727115018027 0.2584534244877951 0.3196458603654589 -0.049982714865888865 -0.09548442917210716 -0.29894314067704336 0.1251272867832865 -0.4169451424053737 -0.4366198607853481 -0.016301714216492007 0.008743285983135658 0.33229128803525654 -0.29776971680777414 0.0963345712849072 0.34723914308207376 -0.04798742862684386 -0.3227048580135618 -0.027294428886047432 -0.17905928300959723 -0.11370828534875597 0.6662855659212384 0.2769384320293154 0.45596957206726074 0.0006069999695422926 0.5033588537148067 -0.009386285740349973 -0.24283071500914438 0.29077714681625366
109 -0.14064245400103656 -0.1364743628285148 0.08378018167885867 0.030538090928034348 0.35508300228552386 0.2654638168486682 0.3227029077031396 -0.05220072750340809 -0.09901418265971271 -0.30070763419974933 0.12593027407472784 -0.4189083630388433 -0.44126237251541833 -0.01807090915231542 0.01106254539494826 0.3360784568569877 -0.30227927457202564 0.09523127261887897 0.3545351868326014 -0.06337581744248216 -0.3235439942641692 -0.010352000234309922 -0.1884508187120611 -0.11461554535410622 0.6735047210346569 0.28543836826627905 0.45581081780520355 0.020947000056780365 0.5086700103499673 -0.0112282727337019 -0.24476509473540567 0.2920300919901241
110 -0.14064245400103656 -0.1364743628285148 0.08378018167885867 0.030538090928034348 0.35508300228552386 0.2654638168486682 0.3227029077031396 -0.05220072750340809 -0.09901418265971271 -0.30070763419974933 0.12593027407472784 -0.4189083630388433 -0.44126237251541833 -0.01807090915231542 0.01106254539494826 0.3360784568569877 -0.30227927457202564 0.09523127261887897 0.3545351868326014 -0.06337581744248216 -0.3235439942641692 -0.010352000234309922 -0.1884508187120611 -0.11461554535410622 0.6735047210346569 0.28543836826627905 0.45581081780520355 0.020947000056780365 0.5086700103499673 -0.0112282727337019 -0.24476509473540567 0.2920300919901241
111 -0.1378317145364625 -0.1300701435123171 0.07989157257335526 0.02804014299597059 0.3520727115018027 0.2584534244877951 0.3196458603654589 -0.049982714865888865 -0.09548442917210716 -0.29894314067704336 0.1251272867832865 -0.4169451424053737 -0.4366198607853481 -0.016301714216492007 0.008743285983135658 0.33229128803525654 -0.29776971680777414 0.0963345712849072 0.34723914308207376 -0.04798742862684386 -0.3227048580135618 -0.027294428886047432 -0.17905928300959723 -0.11370828534875597 0.6662855659212384 0.2769384320293154 0.45596957206726074 0.0006069999695422926 0.5033588537148067 -0.009386285740349973 -0.24283071500914438 0.29077714681625366
112 -0.13288433477282524 -0.1272263340651989 0.07370133387545745 0.03255316708236933 0.34511516739924747 0.2551344980796178 0.3159551719824473 -0.04548366709301869 -0.09593450153867404 -0.2896343320608139 0.12197883427143097 -0.40461699664592743 -0.42640700936317444 -0.012229166536902389 0.01577883374799664 0.3188873305916786 -0.2879488343993823 0.09167983445028464 0.3430258383353551 -0.03912933294971784 -0.3215521623690923 -0.03106883354485035 -0.17469983299573263 -0.11346716557939847 0.6509724954764048 0.27166517327229184 0.4454963306585948 0.0028473332058638334 0.4953303386767705 -0.01037766687416782 -0.24207366754611334 0.28365516910950345
113 -0.13896300146977106 -0.13812150061130524 0.07705100004871686 0.02632550010457635 0.36278649667898816 0.2629261687397957 0.32443033903837204 -0.05198183407386144 -0.09589650109410286 -0.2991866668065389 0.13157733405629793 -0.4184869974851608 -0.43680167694886524 -0.013002666470129043 0.009069500161179652 0.3255646626154582 -0.29549166808525723 0.09605333457390468 0.3519178380568822 -0.04398599949975809 -0.3257799992958705 -0.02846350008621812 -0.18243916581074396 -0.11918599903583527 0.6727111637592316 0.27957067141930264 0.45475433270136517 -0.003779333356457452 0.5072761724392573 -0.012755333601186672 -0.2473705013593038 0.29422349979480106
114 -0.13288433477282524 -0.1272263340651989 0.07370133387545745 0.03255316708236933 0.34511516739924747 0.2551344980796178 0.3159551719824473 -0.04548366709301869 -0.09593450153867404 -0.2896343320608139 0.12197883427143097 -0.40461699664592743 -0.42640700936317444 -0.012229166536902389 0.01577883374799664 0.3188873305916786 -0.2879488343993823 0.09167983445028464 0.3430258383353551 -0.03912933294971784 -0.3215521623690923 -0.03106883354485035 -0.17469983299573263 -0.11346716557939847 0.6509724954764048 0.27166517327229184 0.4454963306585948 0.0028473332058638334 0.4953303386767705 -0.01037766687416782 -0.24207366754611334 0.28365516910950345
115 -0.13288433477282524 -0.1272263340651989 0.07370133387545745 0.03255316708236933 0.34511516739924747 0.2551344980796178 0.3159551719824473 -0.04548366709301869 -0.09593450153867404 -0.2896343320608139 0.12197883427143097 -0.40461699664592743 -0.42640700936317444 -0.012229166536902389 0.01577883374799664 0.3188873305916786 -0.2879488343993823 0.09167983445028464 0.3430258383353551 -0.03912933294971784 -0.3215521623690923 -0.03106883354485035 -0.17469983299573263 -0.11346716557939847 0.6509724954764048 0.27166517327229184 0.4454963306585948 0.0028473332058638334 0.4953303386767705 -0.01037766687416782 -0.24207366754611334 0.28365516910950345
116 -0.13288433477282524 -0.1272263340651989 0.07370133387545745 0.03255316708236933 0.34511516739924747 0.2551344980796178 0.3159551719824473 -0.04548366709301869 -0.09593450153867404 -0.2896343320608139 0.12197883427143097 -0.40461699664592743 -0.42640700936317444 -0.012229166536902389 0.01577883374799664 0.3188873305916786 -0.2879488343993823 0.09167983445028464 0.3430258383353551 -0.03912933294971784 -0.3215521623690923 -0.03106883354485035 -0.17469983299573263 -0.11346716557939847 0.6509724954764048 0.27166517327229184 0.4454963306585948 0.0028473332058638334 0.4953303386767705 -0.01037766687416782 -0.24207366754611334 0.28365516910950345
117 -0.13288433477282524 -0.1272263340651989 0.07370133387545745 0.03255316708236933 0.34511516739924747 0.2551344980796178 0.3159551719824473 -0.04548366709301869 -0.09593450153867404 -0.2896343320608139 0.12197883427143097 -0.40461699664592743 -0.42640700936317444 -0.012229166536902389 0.01577883374799664 0.3188873305916786 -0.2879488343993823 0.09167983445028464 0.3430258383353551 -0.03912933294971784 -0.3215521623690923 -0.03106883354485035 -0.17469983299573263 -0.11346716557939847 0.6509724954764048 0.27166517327229184 0.4454963306585948 0.0028473332058638334 0.4953303386767705 -0.01037766687416782 -0.24207366754611334 0.28365516910950345
118 -0.1378317145364625 -0.1300701435123171 0.07989157257335526 0.02804014299597059 0.3520727115018027 0.2584534244877951 0.3196458603654589 -0.049982714865888865 -0.09548442917210716 -0.29894314067704336 0.1251272867832865 -0.4169451424053737 -0.4366198607853481 -0.016301714216492007 0.008743285983135658 0.33229128803525654 -0.29776971680777414 0.0963345712849072 0.34723914308207376 -0.04798742862684386 -0.3227048580135618 -0.027294428886047432 -0.17905928300959723 -0.11370828534875597 0.6662855659212384 0.2769384320293154 0.45596957206726074 0.0006069999695422926 0.5033588537148067 -0.009386285740349973 -0.24283071500914438 0.29077714681625366
119 -0.14064245400103656 -0.1364743628285148 0.08378018167885867 0.030538090928034348 0.35508300228552386 0.2654638168486682 0.3227029077031396 -0.05220072750340809 -0.09901418265971271 -0.30070763419974933 0.12593027407472784 -0.4189083630388433 -0.44126237251541833 -0.01807090915231542 0.01106254539494826 0.3360784568569877 -0.30227927457202564 0.09523127261887897 0.3545351868326014 -0.06337581744248216 -0.3235439942641692 -0.010352000234309922 -0.1884508187120611 -0.11461554535410622 0.6735047210346569 0.28543836826627905 0.45581081780520355 0.020947000056780365 0.5086700103499673 -0.0112282727337019 -0.24476509473540567 0.2920300919901241
120 -0.13288433477282524 -0.1272263340651989 0.07370133387545745 0.03255316708236933 0.34511516739924747 0.2551344980796178 0.3159551719824473 -0.04548366709301869 -0.09593450153867404 -0.2896343320608139 0.12197883427143097 -0.40461699664592743 -0.42640700936317444 -0.012229166536902389 0.01577883374799664 0.3188873305916786 -0.2879488343993823 0.09167983445028464 0.3430258383353551 -0.03912933294971784 -0.3215521623690923 -0.03106883354485035 -0.17469983299573263 -0.11346716557939847 0.6509724954764048 0.27166517327229184 0.4454963306585948 0.0028473332058638334 0.4953303386767705 -0.01037766687416782 -0.24207366754611334 0.28365516910950345
121 -0.1359438888935579 -0.13020599809371763 0.07609155525763829 0.031674777519785695 0.3399647773346967 0.2532092244881723 0.3093005508287913 -0.04656355558998055 -0.10199244392828809 -0.29038788761115736 0.12020977824512455 -0.397326775179762 -0.42026756093319917 -0.012697444349113438 0.015468333563249972 0.31645766583581764 -0.2849504473754981 0.08990877794308795 0.3405027814830343 -0.054355222110946975 -0.31415688313750756 -0.017777000191724963 -0.1790901085154878 -0.11108944461577469 0.6497518876567483 0.27330100546694464 0.44029544436165857 0.008806555738879574 0.48443100073685247 -0.009235666650864813 -0.2434691146740483 0.2825437773846918
122 -0.13896300146977106 -0.13812150061130524 0.07705100004871686 0.02632550010457635 0.36278649667898816 0.2629261687397957 0.32443033903837204 -0.05198183407386144 -0.09589650109410286 -0.2991866668065389 0.13157733405629793 -0.4184869974851608 -0.43680167694886524 -0.013002666470129043 0.009069500161179652 0.3255646626154582 -0.29549166808525723 0.09605333457390468 0.3519178380568822 -0.04398599949975809 -0.3257799992958705 -0.02846350008621812 -0.18243916581074396 -0.11918599903583527 0.6727111637592316 0.27957067141930264 0.45475433270136517 -0.003779333356457452 0.5072761724392573 -0.012755333601186672 -0.2473705013593038 0.29422349979480106
123 -0.13288433477282524 -0.1272263340651989 0.07370133387545745 0.03255316708236933 0.34511516739924747 0.2551344980796178 0.3159551719824473 -0.04548366709301869 -0.09593450153867404 -0.2896343320608139 0.12197883427143097 -0.40461699664592743 -0.42640700936317444 -0.012229166536902389 0.01577883374799664 0.3188873305916786 -0.2879488343993823 0.09167983445028464 0.3430258383353551 -0.03912933294971784 -0.3215521623690923 -0.03106883354485035 -0.17469983299573263 -0.11346716557939847 0.6509724954764048 0.27166517327229184 0.4454963306585948 0.0028473332058638334 0.4953303386767705 -0.01037766687416782 -0.24207366754611334 0.28365516910950345
124 -0.13896300146977106 -0.13812150061130524 0.07705100004871686 0.02632550010457635 0.36278649667898816 0.2629261687397957 0.32443033903837204 -0.05198183407386144 -0.09589650109410286 -0.2991866668065389 0.13157733405629793 -0.4184869974851608 -0.43680167694886524 -0.013002666470129043 0.009069500161179652 0.3255646626154582 -0.29549166808525723 0.09605333457390468 0.3519178380568822 -0.04398599949975809 -0.3257799992958705 -0.02846350008621812 -0.18243916581074396 -0.11918599903583527 0.6727111637592316 0.27957067141930264 0.45475433270136517 -0.003779333356457452 0.5072761724392573 -0.012755333601186672 -0.2473705013593038 0.29422349979480106
125 -0.13896300146977106 -0.13812150061130524 0.07705100004871686 0.02632550010457635 0.36278649667898816 0.2629261687397957 0.32443033903837204 -0.05198183407386144 -0.09589650109410286 -0.2991866668065389 0.13157733405629793 -0.4184869974851608 -0.43680167694886524 -0.013002666470129043 0.009069500161179652 0.3255646626154582 -0.29549166808525723 0.09605333457390468 0.3519178380568822 -0.04398599949975809 -0.3257799992958705 -0.02846350008621812 -0.18243916581074396 -0.11918599903583527 0.6727111637592316 0.27957067141930264 0.45475433270136517 -0.003779333356457452 0.5072761724392573 -0.012755333601186672 -0.2473705013593038 0.29422349979480106
126 -0.13288433477282524 -0.1272263340651989 0.07370133387545745 0.03255316708236933 0.34511516739924747 0.2551344980796178 0.3159551719824473 -0.04548366709301869 -0.09593450153867404 -0.2896343320608139 0.12197883427143097 -0.40461699664592743 -0.42640700936317444 -0.012229166536902389 0.01577883374799664 0.3188873305916786 -0.2879488343993823 0.09167983445028464 0.3430258383353551 -0.03912933294971784 -0.3215521623690923 -0.03106883354485035 -0.17469983299573263 -0.11346716557939847 0.6509724954764048 0.27166517327229184 0.4454963306585948 0.0028473332058638334 0.4953303386767705 -0.01037766687416782 -0.24207366754611334 0.28365516910950345
127 -0.13896300146977106 -0.13812150061130524 0.07705100004871686 0.02632550010457635 0.36278649667898816 0.2629261687397957 0.32443033903837204 -0.05198183407386144 -0.09589650109410286 -0.2991866668065389 0.13157733405629793 -0.4184869974851608 -0.43680167694886524 -0.013002666470129043 0.009069500161179652 0.3255646626154582 -0.29549166808525723 0.09605333457390468 0.3519178380568822 -0.04398599949975809 -0.3257799992958705 -0.02846350008621812 -0.18243916581074396 -0.11918599903583527 0.6727111637592316 0.27957067141930264 0.45475433270136517 -0.003779333356457452 0.5072761724392573 -0.012755333601186672 -0.2473705013593038 0.29422349979480106
128 -0.14064245400103656 -0.1364743628285148 0.08378018167885867 0.030538090928034348 0.35508300228552386 0.2654638168486682 0.3227029077031396 -0.05220072750340809 -0.09901418265971271 -0.30070763419974933 0.12593027407472784 -0.4189083630388433 -0.44126237251541833 -0.01807090915231542 0.01106254539494826 0.3360784568569877 -0.30227927457202564 0.09523127261887897 0.3545351868326014 -0.06337581744248216 -0.3235439942641692 -0.010352000234309922 -0.1884508187120611 -0.11461554535410622 0.6735047210346569 0.28543836826627905 0.45581081780520355 0.020947000056780365 0.5086700103499673 -0.0112282727337019 -0.24476509473540567 0.2920300919901241
129 -0.1378317145364625 -0.1300701435123171 0.07989157257335526 0.02804014299597059 0.3520727115018027 0.2584534244877951 0.3196458603654589 -0.049982714865888865 -0.09548442917210716 -0.29894314067704336 0.1251272867832865 -0.4169451424053737 -0.4366198607853481 -0.016301714216492007 0.008743285983135658 0.33229128803525654 -0.29776971680777414 0.0963345712849072 0.34723914308207376 -0.04798742862684386 -0.3227048580135618 -0.027294428886047432 -0.17905928300959723 -0.11370828534875597 0.6662855659212384 0.2769384320293154 0.45596957206726074 0.0006069999695422926 0.5033588537148067 -0.009386285740349973 -0.24283071500914438 0.29077714681625366
130 -0.14064245400103656 -0.1364743628285148 0.08378018167885867 0.030538090928034348 0.35508300228552386 0.2654638168486682 0.3227029077031396 -0.05220072750340809 -0.09901418265971271 -0.30070763419974933 0.12593027407472784 -0.4189083630388433 -0.44126237251541833 -0.01807090915231542 0.01106254539494826 0.3360784568569877 -0.30227927457202564 0.09523127261887897 0.3545351868326014 -0.06337581744248216 -0.3235439942641692 -0.010352000234309922 -0.1884508187120611 -0.11461554535410622 0.6735047210346569 0.28543836826627905 0.45581081780520355 0.020947000056780365 0.5086700103499673 -0.0112282727337019 -0.24476509473540567 0.2920300919901241
131 -0.13896300146977106 -0.13812150061130524 0.07705100004871686 0.02632550010457635 0.36278649667898816 0.2629261687397957 0.32443033903837204 -0.05198183407386144 -0.09589650109410286 -0.2991866668065389 0.13157733405629793 -0.4184869974851608 -0.43680167694886524 -0.013002666470129043 0.009069500161179652 0.3255646626154582 -0.29549166808525723 0.09605333457390468 0.3519178380568822 -0.04398599949975809 -0.3257799992958705 -0.02846350008621812 -0.18243916581074396 -0.11918599903583527 0.6727111637592316 0.27957067141930264 0.45475433270136517 -0.003779333356457452 0.5072761724392573 -0.012755333601186672 -0.2473705013593038 0.29422349979480106
132 -0.14064245400103656 -0.1364743628285148 0.08378018167885867 0.030538090928034348 0.35508300228552386 0.2654638168486682 0.3227029077031396 -0.05220072750340809 -0.09901418265971271 -0.30070763419974933 0.12593027407472784 -0.4189083630388433 -0.44126237251541833 -0.01807090915231542 0.01106254539494826 0.3360784568569877 -0.30227927457202564 0.09523127261887897 0.3545351868326014 -0.06337581744248216 -0.3235439942641692 -0.010352000234309922 -0.1884508187120611 -0.11461554535410622 0.6735047210346569 0.28543836826627905 0.45581081780520355 0.020947000056780365 0.5086700103499673 -0.0112282727337019 -0.24476509473540567 0.2920300919901241
133 -0.13896300146977106 -0.13812150061130524 0.07705100004871686 0.02632550010457635 0.36278649667898816 0.2629261687397957 0.32443033903837204 -0.05198183407386144 -0.09589650109410286 -0.2991866668065389 0.13157733405629793 -0.4184869974851608 -0.43680167694886524 -0.013002666470129043 0.009069500161179652 0.3255646626154582 -0.29549166808525723 0.09605333457390468 0.3519178380568822 -0.04398599949975809 -0.3257799992958705 -0.02846350008621812 -0.18243916581074396 -0.11918599903583527 0.6727111637592316 0.27957067141930264 0.45475433270136517 -0.003779333356457452 0.5072761724392573 -0.012755333601186672 -0.2473705013593038 0.29422349979480106
134 -0.13288433477282524 -0.1272263340651989 0.07370133387545745 0.03255316708236933 0.34511516739924747 0.2551344980796178 0.3159551719824473 -0.04548366709301869 -0.09593450153867404 -0.2896343320608139 0.12197883427143097 -0.40461699664592743 -0.42640700936317444 -0.012229166536902389 0.01577883374799664 0.3188873305916786 -0.2879488343993823 0.09167983445028464 0.3430258383353551 -0.03912933294971784 -0.3215521623690923 -0.03106883354485035 -0.17469983299573263 -0.11346716557939847 0.6509724954764048 0.27166517327229184 0.4454963306585948 0.0028473332058638334 0.4953303386767705 -0.01037766687416782 -0.24207366754611334 0.28365516910950345
135 -0.1378317145364625 -0.1300701435123171 0.07989157257335526 0.02804014299597059 0.3520727115018027 0.2584534244877951 0.3196458603654589 -0.049982714865888865 -0.09548442917210716 -0.29894314067704336 0.1251272867832865 -0.4169451424053737 -0.4366198607853481 -0.016301714216492007 0.008743285983135658 0.33229128803525654 -0.29776971680777414 0.0963345712849072 0.34723914308207376 -0.04798742862684386 -0.3227048580135618 -0.027294428886047432 -0.17905928300959723 -0.11370828534875597 0.6662855659212384 0.2769384320293154 0.45596957206726074 0.0006069999695422926 0.5033588537148067 -0.009386285740349973 -0.24283071500914438 0.29077714681625366
136 -0.14064245400103656 -0.1364743628285148 0.08378018167885867 0.030538090928034348 0.35508300228552386 0.2654638168486682 0.3227029077031396 -0.05220072750340809 -0.09901418265971271 -0.30070763419974933 0.12593027407472784 -0.4189083630388433 -0.44126237251541833 -0.01807090915231542 0.01106254539494826 0.3360784568569877 -0.30227927457202564 0.09523127261887897 0.3545351868326014 -0.06337581744248216 -0.3235439942641692 -0.010352000234309922 -0.1884508187120611 -0.11461554535410622 0.6735047210346569 0.28543836826627905 0.45581081780520355 0.020947000056780365 0.5086700103499673 -0.0112282727337019 -0.24476509473540567 0.2920300919901241
137 -0.13896300146977106 -0.13812150061130524 0.07705100004871686 0.02632550010457635 0.36278649667898816 0.2629261687397957 0.32443033903837204 -0.05198183407386144 -0.09589650109410286 -0.2991866668065389 0.13157733405629793 -0.4184869974851608 -0.43680167694886524 -0.013002666470129043 0.009069500161179652 0.3255646626154582 -0.29549166808525723 0.09605333457390468 0.3519178380568822 -0.04398599949975809 -0.3257799992958705 -0.02846350008621812 -0.18243916581074396 -0.11918599903583527 0.6727111637592316 0.27957067141930264 0.45475433270136517 -0.003779333356457452 0.5072761724392573 -0.012755333601186672 -0.2473705013593038 0.29422349979480106
138 -0.1359438888935579 -0.13020599809371763 0.07609155525763829 0.031674777519785695 0.3399647773346967 0.2532092244881723 0.3093005508287913 -0.04656355558998055 -0.10199244392828809 -0.29038788761115736 0.12020977824512455 -0.397326775179762 -0.42026756093319917 -0.012697444349113438 0.015468333563249972 0.31645766583581764 -0.2849504473754981 0.08990877794308795 0.3405027814830343 -0.054355222110946975 -0.31415688313750756 -0.017777000191724963 -0.1790901085154878 -0.11108944461577469 0.6497518876567483 0.27330100546694464 0.44029544436165857 0.008806555738879574 0.48443100073685247 -0.009235666650864813 -0.2434691146740483 0.2825437773846918
139 -0.13896300146977106 -0.13812150061130524 0.07705100004871686 0.02632550010457635 0.36278649667898816 0.2629261687397957 0.32443033903837204 -0.05198183407386144 -0.09589650109410286 -0.2991866668065389 0.13157733405629793 -0.4184869974851608 -0.43680167694886524 -0.013002666470129043 0.009069500161179652 0.3255646626154582 -0.29549166808525723 0.09605333457390468 0.3519178380568822 -0.04398599949975809 -0.3257799992958705 -0.02846350008621812 -0.18243916581074396 -0.11918599903583527 0.6727111637592316 0.27957067141930264 0.45475433270136517 -0.003779333356457452 0.5072761724392573 -0.012755333601186672 -0.2473705013593038 0.29422349979480106
140 -0.1359438888935579 -0.13020599809371763 0.07609155525763829 0.031674777519785695 0.3399647773346967 0.2532092244881723 0.3093005508287913 -0.04656355558998055 -0.10199244392828809 -0.29038788761115736 0.12020977824512455 -0.397326775179762 -0.42026756093319917 -0.012697444349113438 0.015468333563249972 0.31645766583581764 -0.2849504473754981 0.08990877794308795 0.3405027814830343 -0.054355222110946975 -0.31415688313750756 -0.017777000191724963 -0.1790901085154878 -0.11108944461577469 0.6497518876567483 0.27330100546694464 0.44029544436165857 0.008806555738879574 0.48443100073685247 -0.009235666650864813 -0.2434691146740483 0.2825437773846918
141 -0.13288433477282524 -0.1272263340651989 0.07370133387545745 0.03255316708236933 0.34511516739924747 0.2551344980796178 0.3159551719824473 -0.04548366709301869 -0.09593450153867404 -0.2896343320608139 0.12197883427143097 -0.40461699664592743 -0.42640700936317444 -0.012229166536902389 0.01577883374799664 0.3188873305916786 -0.2879488343993823 0.09167983445028464 0.3430258383353551 -0.03912933294971784 -0.3215521623690923 -0.03106883354485035 -0.17469983299573263 -0.11346716557939847 0.6509724954764048 0.27166517327229184 0.4454963306585948 0.0028473332058638334 0.4953303386767705 -0.01037766687416782 -0.24207366754611334 0.28365516910950345
142 -0.13896300146977106 -0.13812150061130524 0.07705100004871686 0.02632550010457635 0.36278649667898816 0.2629261687397957 0.32443033903837204 -0.05198183407386144 -0.09589650109410286 -0.2991866668065389 0.13157733405629793 -0.4184869974851608 -0.43680167694886524 -0.013002666470129043 0.009069500161179652 0.3255646626154582 -0.29549166808525723 0.09605333457390468 0.3519178380568822 -0.04398599949975809 -0.3257799992958705 -0.02846350008621812 -0.18243916581074396 -0.11918599903583527 0.6727111637592316 0.27957067141930264 0.45475433270136517 -0.003779333356457452 0.5072761724392573 -0.012755333601186672 -0.2473705013593038 0.29422349979480106
143 -0.1378317145364625 -0.1300701435123171 0.07989157257335526 0.02804014299597059 0.3520727115018027 0.2584534244877951 0.3196458603654589 -0.049982714865888865 -0.09548442917210716 -0.29894314067704336 0.1251272867832865 -0.4169451424053737 -0.4366198607853481 -0.016301714216492007 0.008743285983135658 0.33229128803525654 -0.29776971680777414 0.0963345712849072 0.34723914308207376 -0.04798742862684386 -0.3227048580135618 -0.027294428886047432 -0.17905928300959723 -0.11370828534875597 0.6662855659212384 0.2769384320293154 0.45596957206726074 0.0006069999695422926 0.5033588537148067 -0.009386285740349973 -0.24283071500914438 0.29077714681625366
144 -0.13896300146977106 -0.13812150061130524 0.07705100004871686 0.02632550010457635 0.36278649667898816 0.2629261687397957 0.32443033903837204 -0.05198183407386144 -0.09589650109410286 -0.2991866668065389 0.13157733405629793 -0.4184869974851608 -0.43680167694886524 -0.013002666470129043 0.009069500161179652 0.3255646626154582 -0.29549166808525723 0.09605333457390468 0.3519178380568822 -0.04398599949975809 -0.3257799992958705 -0.02846350008621812 -0.18243916581074396 -0.11918599903583527 0.6727111637592316 0.27957067141930264 0.45475433270136517 -0.003779333356457452 0.5072761724392573 -0.012755333601186672 -0.2473705013593038 0.29422349979480106
145 -0.13288433477282524 -0.1272263340651989 0.07370133387545745 0.03255316708236933 0.34511516739924747 0.2551344980796178 0.3159551719824473 -0.04548366709301869 -0.09593450153867404 -0.2896343320608139 0.12197883427143097 -0.40461699664592743 -0.42640700936317444 -0.012229166536902389 0.01577883374799664 0.3188873305916786 -0.2879488343993823 0.09167983445028464 0.3430258383353551 -0.03912933294971784 -0.3215521623690923 -0.03106883354485035 -0.17469983299573263 -0.11346716557939847 0.6509724954764048 0.27166517327229184 0.4454963306585948 0.0028473332058638334 0.4953303386767705 -0.01037766687416782 -0.24207366754611334 0.28365516910950345
146 -0.14064245400103656 -0.1364743628285148 0.08378018167885867 0.030538090928034348 0.35508300228552386 0.2654638168486682 0.3227029077031396 -0.05220072750340809 -0.09901418265971271 -0.30070763419974933 0.12593027407472784 -0.4189083630388433 -0.44126237251541833 -0.01807090915231542 0.01106254539494826 0.3360784568569877 -0.30227927457202564 0.09523127261887897 0.3545351868326014 -0.06337581744248216 -0.3235439942641692 -0.010352000234309922 -0.1884508187120611 -0.11461554535410622 0.6735047210346569 0.28543836826627905 0.45581081780520355 0.020947000056780365 0.5086700103499673 -0.0112282727337019 -0.24476509473540567 0.2920300919901241
147 -0.1378317145364625 -0.1300701435123171 0.07989157257335526 0.02804014299597059 0.3520727115018027 0.2584534244877951 0.3196458603654589 -0.049982714865888865 -0.09548442917210716 -0.29894314067704336 0.1251272867832865 -0.4169451424053737 -0.4366198607853481 -0.016301714216492007 0.008743285983135658 0.33229128803525654 -0.29776971680777414 0.0963345712849072 0.34723914308207376 -0.04798742862684386 -0.3227048580135618 -0.027294428886047432 -0.17905928300959723 -0.11370828534875597 0.6662855659212384 0.2769384320293154 0.45596957206726074 0.0006069999695422926 0.5033588537148067 -0.009386285740349973 -0.24283071500914438 0.29077714681625366
148 -0.13288433477282524 -0.1272263340651989 0.07370133387545745 0.03255316708236933 0.34511516739924747 0.2551344980796178 0.3159551719824473 -0.04548366709301869 -0.09593450153867404 -0.2896343320608139 0.12197883427143097 -0.40461699664592743 -0.42640700936317444 -0.012229166536902389 0.01577883374799664 0.3188873305916786 -0.2879488343993823 0.09167983445028464 0.3430258383353551 -0.03912933294971784 -0.3215521623690923 -0.03106883354485035 -0.17469983299573263 -0.11346716557939847 0.6509724954764048 0.27166517327229184 0.4454963306585948 0.0028473332058638334 0.4953303386767705 -0.01037766687416782 -0.24207366754611334 0.28365516910950345
149 -0.14064245400103656 -0.1364743628285148 0.08378018167885867 0.030538090928034348 0.35508300228552386 0.2654638168486682 0.3227029077031396 -0.05220072750340809 -0.09901418265971271 -0.30070763419974933 0.12593027407472784 -0.4189083630388433 -0.44126237251541833 -0.01807090915231542 0.01106254539494826 0.3360784568569877 -0.30227927457202564 0.09523127261887897 0.3545351868326014 -0.06337581744248216 -0.3235439942641692 -0.010352000234309922 -0.1884508187120611 -0.11461554535410622 0.6735047210346569 0.28543836826627905 0.45581081780520355 0.020947000056780365 0.5086700103499673 -0.0112282727337019 -0.24476509473540567 0.2920300919901241
150 -0.13288433477282524 -0.1272263340651989 0.07370133387545745 0.03255316708236933 0.34511516739924747 0.2551344980796178 0.3159551719824473 -0.04548366709301869 -0.09593450153867404 -0.2896343320608139 0.12197883427143097 -0.40461699664592743 -0.42640700936317444 -0.012229166536902389 0.01577883374799664 0.3188873305916786 -0.2879488343993823 0.09167983445028464 0.3430258383353551 -0.03912933294971784 -0.3215521623690923 -0.03106883354485035 -0.17469983299573263 -0.11346716557939847 0.6509724954764048 0.27166517327229184 0.4454963306585948 0.0028473332058638334 0.4953303386767705 -0.01037766687416782 -0.24207366754611334 0.28365516910950345
151 -0.1359438888935579 -0.13020599809371763 0.07609155525763829 0.031674777519785695 0.3399647773346967 0.2532092244881723 0.3093005508287913 -0.04656355558998055 -0.10199244392828809 -0.29038788761115736 0.12020977824512455 -0.397326775179762 -0.42026756093319917 -0.012697444349113438 0.015468333563249972 0.31645766583581764 -0.2849504473754981 0.08990877794308795 0.3405027814830343 -0.054355222110946975 -0.31415688313750756 -0.017777000191724963 -0.1790901085154878 -0.11108944461577469 0.6497518876567483 0.27330100546694464 0.44029544436165857 0.008806555738879574 0.48443100073685247 -0.009235666650864813 -0.2434691146740483 0.2825437773846918
152 -0.14064245400103656 -0.1364743628285148 0.08378018167885867 0.030538090928034348 0.35508300228552386 0.2654638168486682 0.3227029077031396 -0.05220072750340809 -0.09901418265971271 -0.30070763419974933 0.12593027407472784 -0.4189083630388433 -0.44126237251541833 -0.01807090915231542 0.01106254539494826 0.3360784568569877 -0.30227927457202564 0.09523127261887897 0.3545351868326014 -0.06337581744248216 -0.3235439942641692 -0.010352000234309922 -0.1884508187120611 -0.11461554535410622 0.6735047210346569 0.28543836826627905 0.45581081780520355 0.020947000056780365 0.5086700103499673 -0.0112282727337019 -0.24476509473540567 0.2920300919901241
