2000 32
1 -0.11698766673604648 -0.2164048378666242 0.16850816706816354 0.004292666834468643 0.43963666756947833 0.3067688395579656 0.3613978351155917 -0.09246950037777424 -0.07003266674776872 -0.26347866902748746 0.1064220021168391 -0.47893884281317395 -0.43263982733090717 0.018269833565379184 0.05484283280869325 0.25876500209172565 -0.25683066497246426 0.06916116674741109 0.4727173447608948 -0.00787483355573689 -0.3929239933689435 -0.0933258334795634 -0.24859116723140082 -0.15287350118160248 0.6720188309748968 0.3183671658237775 0.5491330077250799 -0.05268500093370676 0.5984328339497248 0.04645266694327196 -0.2719951669375102 0.3687911679347356
2 -0.11698766673604648 -0.2164048378666242 0.16850816706816354 0.004292666834468643 0.43963666756947833 0.3067688395579656 0.3613978351155917 -0.09246950037777424 -0.07003266674776872 -0.26347866902748746 0.1064220021168391 -0.47893884281317395 -0.43263982733090717 0.018269833565379184 0.05484283280869325 0.25876500209172565 -0.25683066497246426 0.06916116674741109 0.4727173447608948 -0.00787483355573689 -0.3929239933689435 -0.0933258334795634 -0.24859116723140082 -0.15287350118160248 0.6720188309748968 0.3183671658237775 0.5491330077250799 -0.05268500093370676 0.5984328339497248 0.04645266694327196 -0.2719951669375102 0.3687911679347356
3 -0.11073100025003607 -0.20187991044738077 0.16376963664184918 0.007348363607889041 0.40622745047916065 0.2897065444426103 0.3389495448632674 -0.08976954492655667 -0.06789690899578008 -0.24638572877103632 0.09467063607140021 -0.44967254454439337 -0.4104795483025638 0.011789454634047368 0.054149999875913964 0.2467450892383402 -0.2456414536996321 0.0634394542060115 0.4480338232083754 -0.02274772720623084 -0.36536463553255255 -0.07229663702574643 -0.23751427097754044 -0.13841118257154117 0.6306262720714916 0.3016145486723293 0.5162366411902688 -0.03004309107464823 0.5616831806573 0.04556563632054762 -0.2536360892382535 0.344777911901474
4 -0.11698766673604648 -0.2164048378666242 0.16850816706816354 0.004292666834468643 0.43963666756947833 0.3067688395579656 0.3613978351155917 -0.09246950037777424 -0.07003266674776872 -0.26347866902748746 0.1064220021168391 -0.47893884281317395 -0.43263982733090717 0.018269833565379184 0.05484283280869325 0.25876500209172565 -0.25683066497246426 0.06916116674741109 0.4727173447608948 -0.00787483355573689 -0.3929239933689435 -0.0933258334795634 -0.24859116723140082 -0.15287350118160248 0.6720188309748968 0.3183671658237775 0.5491330077250799 -0.05268500093370676 0.5984328339497248 0.04645266694327196 -0.2719951669375102 0.3687911679347356
5 -0.11698766673604648 -0.2164048378666242 0.16850816706816354 0.004292666834468643 0.43963666756947833 0.3067688395579656 0.3613978351155917 -0.09246950037777424 -0.07003266674776872 -0.26347866902748746 0.1064220021168391 -0.47893884281317395 -0.43263982733090717 0.018269833565379184 0.05484283280869325 0.25876500209172565 -0.25683066497246426 0.06916116674741109 0.4727173447608948 -0.00787483355573689 -0.3929239933689435 -0.0933258334795634 -0.24859116723140082 -0.15287350118160248 0.6720188309748968 0.3183671658237775 0.5491330077250799 -0.05268500093370676 0.5984328339497248 0.04645266694327196 -0.2719951669375102 0.3687911679347356
6 -0.11073100025003607 -0.20187991044738077 0.16376963664184918 0.007348363607889041 0.40622745047916065 0.2897065444426103 0.3389495448632674 -0.08976954492655667 -0.06789690899578008 -0.24638572877103632 0.09467063607140021 -0.44967254454439337 -0.4104795483025638 0.011789454634047368 0.054149999875913964 0.2467450892383402 -0.2456414536996321 0.0634394542060115 0.4480338232083754 -0.02274772720623084 -0.36536463553255255 -0.07229663702574643 -0.23751427097754044 -0.13841118257154117 0.6306262720714916 0.3016145486723293 0.5162366411902688 -0.03004309107464823 0.5616831806573 0.04556563632054762 -0.2536360892382535 0.344777911901474
7 -0.11073100025003607 -0.20187991044738077 0.16376963664184918 0.007348363607889041 0.40622745047916065 0.2897065444426103 0.3389495448632674 -0.08976954492655667 -0.06789690899578008 -0.24638572877103632 0.09467063607140021 -0.44967254454439337 -0.4104795483025638 0.011789454634047368 0.054149999875913964 0.2467450892383402 -0.2456414536996321 0.0634394542060115 0.4480338232083754 -0.02274772720623084 -0.36536463553255255 -0.07229663702574643 -0.23751427097754044 -0.13841118257154117 0.6306262720714916 0.3016145486723293 0.5162366411902688 -0.03004309107464823 0.5616831806573 0.04556563632054762 -0.2536360892382535 0.344777911901474
8 -0.11073100025003607 -0.20187991044738077 0.16376963664184918 0.007348363607889041 0.40622745047916065 0.2897065444426103 0.3389495448632674 -0.08976954492655667 -0.06789690899578008 -0.24638572877103632 0.09467063607140021 -0.44967254454439337 -0.4104795483025638 0.011789454634047368 0.054149999875913964 0.2467450892383402 -0.2456414536996321 0.0634394542060115 0.4480338232083754 -0.02274772720623084 -0.36536463553255255 -0.07229663702574643 -0.23751427097754044 -0.13841118257154117 0.6306262720714916 0.3016145486723293 0.5162366411902688 -0.03004309107464823 0.5616831806573 0.04556563632054762 -0.2536360892382535 0.344777911901474
9 -0.11698766673604648 -0.2164048378666242 0.16850816706816354 0.004292666834468643 0.43963666756947833 0.3067688395579656 0.3613978351155917 -0.09246950037777424 -0.07003266674776872 -0.26347866902748746 0.1064220021168391 -0.47893884281317395 -0.43263982733090717 0.018269833565379184 0.05484283280869325 0.25876500209172565 -0.25683066497246426 0.06916116674741109 0.4727173447608948 -0.00787483355573689 -0.3929239933689435 -0.0933258334795634 -0.24859116723140082 -0.15287350118160248 0.6720188309748968 0.3183671658237775 0.5491330077250799 -0.05268500093370676 0.5984328339497248 0.04645266694327196 -0.2719951669375102 0.3687911679347356
10 -0.11128971406391688 -0.1988597171647208 0.16389157303742 0.005731571586303679 0.41220842940466745 0.2903608573334558 0.3430065725530897 -0.08631614223122597 -0.06569057117615427 -0.2524455743176596 0.09696657210588455 -0.45874843427113127 -0.41346957215241026 0.013748857259218181 0.052453713225466866 0.25309257422174725 -0.24790528416633606 0.06715585770351547 0.4492397201912744 -0.010286428815951305 -0.374782851764134 -0.08975842754755702 -0.23532857213701522 -0.14194171556404658 0.6399622857570648 0.30314871455941883 0.5291634287152972 -0.04851371528846877 0.5723849960735866 0.047574429107563834 -0.2570045718124935 0.3515428602695465
11 -0.11128971406391688 -0.1988597171647208 0.16389157303742 0.005731571586303679 0.41220842940466745 0.2903608573334558 0.3430065725530897 -0.08631614223122597 -0.06569057117615427 -0.2524455743176596 0.09696657210588455 -0.45874843427113127 -0.41346957215241026 0.013748857259218181 0.052453713225466866 0.25309257422174725 -0.24790528416633606 0.06715585770351547 0.4492397201912744 -0.010286428815951305 -0.374782851764134 -0.08975842754755702 -0.23532857213701522 -0.14194171556404658 0.6399622857570648 0.30314871455941883 0.5291634287152972 -0.04851371528846877 0.5723849960735866 0.047574429107563834 -0.2570045718124935 0.3515428602695465
12 -0.11044599985082944 -0.20271150271097818 0.16206750025351843 0.01036283354430149 0.41955816745758057 0.2977075030406316 0.3509125014146169 -0.0844281663497289 -0.06844000021616618 -0.25222483774026233 0.09859050127367179 -0.46075617770353955 -0.4190566688776016 0.01887533355814715 0.060004999240239464 0.2521065026521683 -0.24868199725945792 0.06421983366211255 0.46021467447280884 -0.003681833557493519 -0.3865533322095871 -0.09380800028642018 -0.23862833033005396 -0.1470066693921884 0.6487994939088821 0.3083873316645622 0.5356645087401072 -0.045670500956475735 0.5831966648499171 0.04811183363199234 -0.2646910026669502 0.3554091701904933
13 -0.11044599985082944 -0.20271150271097818 0.16206750025351843 0.01036283354430149 0.41955816745758057 0.2977075030406316 0.3509125014146169 -0.0844281663497289 -0.06844000021616618 -0.25222483774026233 0.09859050127367179 -0.46075617770353955 -0.4190566688776016 0.01887533355814715 0.060004999240239464 0.2521065026521683 -0.24868199725945792 0.06421983366211255 0.46021467447280884 -0.003681833557493519 -0.3865533322095871 -0.09380800028642018 -0.23862833033005396 -0.1470066693921884 0.6487994939088821 0.3083873316645622 0.5356645087401072 -0.045670500956475735 0.5831966648499171 0.04811183363199234 -0.2646910026669502 0.3554091701904933
14 -0.11073100025003607 -0.20187991044738077 0.16376963664184918 0.007348363607889041 0.40622745047916065 0.2897065444426103 0.3389495448632674 -0.08976954492655667 -0.06789690899578008 -0.24638572877103632 0.09467063607140021 -0.44967254454439337 -0.4104795483025638 0.011789454634047368 0.054149999875913964 0.2467450892383402 -0.2456414536996321 0.0634394542060115 0.4480338232083754 -0.02274772720623084 -0.36536463553255255 -0.07229663702574643 -0.23751427097754044 -0.13841118257154117 0.6306262720714916 0.3016145486723293 0.5162366411902688 -0.03004309107464823 0.5616831806573 0.04556563632054762 -0.2536360892382535 0.344777911901474
15 -0.11044599985082944 -0.20271150271097818 0.16206750025351843 0.01036283354430149 0.41955816745758057 0.2977075030406316 0.3509125014146169 -0.0844281663497289 -0.06844000021616618 -0.25222483774026233 0.09859050127367179 -0.46075617770353955 -0.4190566688776016 0.01887533355814715 0.060004999240239464 0.2521065026521683 -0.24868199725945792 0.06421983366211255 0.46021467447280884 -0.003681833557493519 -0.3865533322095871 -0.09380800028642018 -0.23862833033005396 -0.1470066693921884 0.6487994939088821 0.3083873316645622 0.5356645087401072 -0.045670500956475735 0.5831966648499171 0.04811183363199234 -0.2646910026669502 0.3554091701904933
16 -0.11176122145520316 -0.2050331122138434 0.16010133471960822 0.008041889041325904 0.4098703307617042 0.2886894449281196 0.3422453368030902 -0.08562344544204986 -0.07737833302881983 -0.24665700323465797 0.09579577816960712 -0.4511433318257332 -0.4113424438223269 0.01809666683483455 0.05840488885425859 0.24689322016719314 -0.24341788895738622 0.06142944428655836 0.44923656050943667 -0.016605666555632424 -0.3733762221721311 -0.08180200038542454 -0.24024033195908284 -0.14312366613497338 0.6384825550226702 0.30511033141778576 0.5221760081541207 -0.040418666787445545 0.5669113263073895 0.048022555394305125 -0.268711110473507 0.3504351112189599
17 -0.11698766673604648 -0.2164048378666242 0.16850816706816354 0.004292666834468643 0.43963666756947833 0.3067688395579656 0.3613978351155917 -0.09246950037777424 -0.07003266674776872 -0.26347866902748746 0.1064220021168391 -0.47893884281317395 -0.43263982733090717 0.018269833565379184 0.05484283280869325 0.25876500209172565 -0.25683066497246426 0.06916116674741109 0.4727173447608948 -0.00787483355573689 -0.3929239933689435 -0.0933258334795634 -0.24859116723140082 -0.15287350118160248 0.6720188309748968 0.3183671658237775 0.5491330077250799 -0.05268500093370676 0.5984328339497248 0.04645266694327196 -0.2719951669375102 0.3687911679347356
18 -0.11128971406391688 -0.1988597171647208 0.16389157303742 0.005731571586303679 0.41220842940466745 0.2903608573334558 0.3430065725530897 -0.08631614223122597 -0.06569057117615427 -0.2524455743176596 0.09696657210588455 -0.45874843427113127 -0.41346957215241026 0.013748857259218181 0.052453713225466866 0.25309257422174725 -0.24790528416633606 0.06715585770351547 0.4492397201912744 -0.010286428815951305 -0.374782851764134 -0.08975842754755702 -0.23532857213701522 -0.14194171556404658 0.6399622857570648 0.30314871455941883 0.5291634287152972 -0.04851371528846877 0.5723849960735866 0.047574429107563834 -0.2570045718124935 0.3515428602695465
19 -0.11176122145520316 -0.2050331122138434 0.16010133471960822 0.008041889041325904 0.4098703307617042 0.2886894449281196 0.3422453368030902 -0.08562344544204986 -0.07737833302881983 -0.24665700323465797 0.09579577816960712 -0.4511433318257332 -0.4113424438223269 0.01809666683483455 0.05840488885425859 0.24689322016719314 -0.24341788895738622 0.06142944428655836 0.44923656050943667 -0.016605666555632424 -0.3733762221721311 -0.08180200038542454 -0.24024033195908284 -0.14312366613497338 0.6384825550226702 0.30511033141778576 0.5221760081541207 -0.040418666787445545 0.5669113263073895 0.048022555394305125 -0.268711110473507 0.3504351112189599
20 -0.11073100025003607 -0.20187991044738077 0.16376963664184918 0.007348363607889041 0.40622745047916065 0.2897065444426103 0.3389495448632674 -0.08976954492655667 -0.06789690899578008 -0.24638572877103632 0.09467063607140021 -0.44967254454439337 -0.4104795483025638 0.011789454634047368 0.054149999875913964 0.2467450892383402 -0.2456414536996321 0.0634394542060115 0.4480338232083754 -0.02274772720623084 -0.36536463553255255 -0.07229663702574643 -0.23751427097754044 -0.13841118257154117 0.6306262720714916 0.3016145486723293 0.5162366411902688 -0.03004309107464823 0.5616831806573 0.04556563632054762 -0.2536360892382535 0.344777911901474
21 -0.11128971406391688 -0.1988597171647208 0.16389157303742 0.005731571586303679 0.41220842940466745 0.2903608573334558 0.3430065725530897 -0.08631614223122597 -0.06569057117615427 -0.2524455743176596 0.09696657210588455 -0.45874843427113127 -0.41346957215241026 0.013748857259218181 0.052453713225466866 0.25309257422174725 -0.24790528416633606 0.06715585770351547 0.4492397201912744 -0.010286428815951305 -0.374782851764134 -0.08975842754755702 -0.23532857213701522 -0.14194171556404658 0.6399622857570648 0.30314871455941883 0.5291634287152972 -0.04851371528846877 0.5723849960735866 0.047574429107563834 -0.2570045718124935 0.3515428602695465
22 -0.11073100025003607 -0.20187991044738077 0.16376963664184918 0.007348363607889041 0.40622745047916065 0.2897065444426103 0.3389495448632674 -0.08976954492655667 -0.06789690899578008 -0.24638572877103632 0.09467063607140021 -0.44967254454439337 -0.4104795483025638 0.011789454634047368 0.054149999875913964 0.2467450892383402 -0.2456414536996321 0.0634394542060115 0.4480338232083754 -0.02274772720623084 -0.36536463553255255 -0.07229663702574643 -0.23751427097754044 -0.13841118257154117 0.6306262720714916 0.3016145486723293 0.5162366411902688 -0.03004309107464823 0.5616831806573 0.04556563632054762 -0.2536360892382535 0.344777911901474
23 -0.11073100025003607 -0.20187991044738077 0.16376963664184918 0.007348363607889041 0.40622745047916065 0.2897065444426103 0.3389495448632674 -0.08976954492655667 -0.06789690899578008 -0.24638572877103632 0.09467063607140021 -0.44967254454439337 -0.4104795483025638 0.011789454634047368 0.054149999875913964 0.2467450892383402 -0.2456414536996321 0.0634394542060115 0.4480338232083754 -0.02274772720623084 -0.36536463553255255 -0.07229663702574643 -0.23751427097754044 -0.13841118257154117 0.6306262720714916 0.3016145486723293 0.5162366411902688 -0.03004309107464823 0.5616831806573 0.04556563632054762 -0.2536360892382535 0.344777911901474
24 -0.11128971406391688 -0.1988597171647208 0.16389157303742 0.005731571586303679 0.41220842940466745 0.2903608573334558 0.3430065725530897 -0.08631614223122597 -0.06569057117615427 -0.2524455743176596 0.09696657210588455 -0.45874843427113127 -0.41346957215241026 0.013748857259218181 0.052453713225466866 0.25309257422174725 -0.24790528416633606 0.06715585770351547 0.4492397201912744 -0.010286428815951305 -0.374782851764134 -0.08975842754755702 -0.23532857213701522 -0.14194171556404658 0.6399622857570648 0.30314871455941883 0.5291634287152972 -0.04851371528846877 0.5723849960735866 0.047574429107563834 -0.2570045718124935 0.3515428602695465
25 -0.11073100025003607 -0.20187991044738077 0.16376963664184918 0.007348363607889041 0.40622745047916065 0.2897065444426103 0.3389495448632674 -0.08976954492655667 -0.06789690899578008 -0.24638572877103632 0.09467063607140021 -0.44967254454439337 -0.4104795483025638 0.011789454634047368 0.054149999875913964 0.2467450892383402 -0.2456414536996321 0.0634394542060115 0.4480338232083754 -0.02274772720623084 -0.36536463553255255 -0.07229663702574643 -0.23751427097754044 -0.13841118257154117 0.6306262720714916 0.3016145486723293 0.5162366411902688 -0.03004309107464823 0.5616831806573 0.04556563632054762 -0.2536360892382535 0.344777911901474
26 -0.11044599985082944 -0.20271150271097818 0.16206750025351843 0.01036283354430149 0.41955816745758057 0.2977075030406316 0.3509125014146169 -0.0844281663497289 -0.06844000021616618 -0.25222483774026233 0.09859050127367179 -0.46075617770353955 -0.4190566688776016 0.01887533355814715 0.060004999240239464 0.2521065026521683 -0.24868199725945792 0.06421983366211255 0.46021467447280884 -0.003681833557493519 -0.3865533322095871 -0.09380800028642018 -0.23862833033005396 -0.1470066693921884 0.6487994939088821 0.3083873316645622 0.5356645087401072 -0.045670500956475735 0.5831966648499171 0.04811183363199234 -0.2646910026669502 0.3554091701904933
27 -0.11128971406391688 -0.1988597171647208 0.16389157303742 0.005731571586303679 0.41220842940466745 0.2903608573334558 0.3430065725530897 -0.08631614223122597 -0.06569057117615427 -0.2524455743176596 0.09696657210588455 -0.45874843427113127 -0.41346957215241026 0.013748857259218181 0.052453713225466866 0.25309257422174725 -0.24790528416633606 0.06715585770351547 0.4492397201912744 -0.010286428815951305 -0.374782851764134 -0.08975842754755702 -0.23532857213701522 -0.14194171556404658 0.6399622857570648 0.30314871455941883 0.5291634287152972 -0.04851371528846877 0.5723849960735866 0.047574429107563834 -0.2570045718124935 0.3515428602695465
28 -0.11176122145520316 -0.2050331122138434 0.16010133471960822 0.008041889041325904 0.4098703307617042 0.2886894449281196 0.3422453368030902 -0.08562344544204986 -0.07737833302881983 -0.24665700323465797 0.09579577816960712 -0.4511433318257332 -0.4113424438223269 0.01809666683483455 0.05840488885425859 0.24689322016719314 -0.24341788895738622 0.06142944428655836 0.44923656050943667 -0.016605666555632424 -0.3733762221721311 -0.08180200038542454 -0.24024033195908284 -0.14312366613497338 0.6384825550226702 0.30511033141778576 0.5221760081541207 -0.040418666787445545 0.5669113263073895 0.048022555394305125 -0.268711110473507 0.3504351112189599
29 -0.07968800018231074 -0.150992501527071 0.1134338341653347 0.006993833541249235 0.2974189991752307 0.21199983606735864 0.24442466969291368 -0.058687000535428524 -0.04977733346944054 -0.18408033500115076 0.07634200217823188 -0.3321610055863857 -0.29956983029842377 0.008724000382547578 0.03436366627768924 0.18073066820700964 -0.17609349576135477 0.040797667034591235 0.3365788360436757 -0.007533500300875555 -0.2748128299911817 -0.06507350038737059 -0.1713141625126203 -0.10527883470058441 0.4696661631266276 0.21308433140317598 0.38725850234429043 -0.03868250067656239 0.42369750142097473 0.03505233349278569 -0.19316366563240686 0.25509116674462956
30 -0.11128971406391688 -0.1988597171647208 0.16389157303742 0.005731571586303679 0.41220842940466745 0.2903608573334558 0.3430065725530897 -0.08631614223122597 -0.06569057117615427 -0.2524455743176596 0.09696657210588455 -0.45874843427113127 -0.41346957215241026 0.013748857259218181 0.052453713225466866 0.25309257422174725 -0.24790528416633606 0.06715585770351547 0.4492397201912744 -0.010286428815951305 -0.374782851764134 -0.08975842754755702 -0.23532857213701522 -0.14194171556404658 0.6399622857570648 0.30314871455941883 0.5291634287152972 -0.04851371528846877 0.5723849960735866 0.047574429107563834 -0.2570045718124935 0.3515428602695465
31 -0.11044599985082944 -0.20271150271097818 0.16206750025351843 0.01036283354430149 0.41955816745758057 0.2977075030406316 0.3509125014146169 -0.0844281663497289 -0.06844000021616618 -0.25222483774026233 0.09859050127367179 -0.46075617770353955 -0.4190566688776016 0.01887533355814715 0.060004999240239464 0.2521065026521683 -0.24868199725945792 0.06421983366211255 0.46021467447280884 -0.003681833557493519 -0.3865533322095871 -0.09380800028642018 -0.23862833033005396 -0.1470066693921884 0.6487994939088821 0.3083873316645622 0.5356645087401072 -0.045670500956475735 0.5831966648499171 0.04811183363199234 -0.2646910026669502 0.3554091701904933
32 -0.11128971406391688 -0.1988597171647208 0.16389157303742 0.005731571586303679 0.41220842940466745 0.2903608573334558 0.3430065725530897 -0.08631614223122597 -0.06569057117615427 -0.2524455743176596 0.09696657210588455 -0.45874843427113127 -0.41346957215241026 0.013748857259218181 0.052453713225466866 0.25309257422174725 -0.24790528416633606 0.06715585770351547 0.4492397201912744 -0.010286428815951305 -0.374782851764134 -0.08975842754755702 -0.23532857213701522 -0.14194171556404658 0.6399622857570648 0.30314871455941883 0.5291634287152972 -0.04851371528846877 0.5723849960735866 0.047574429107563834 -0.2570045718124935 0.3515428602695465
33 -0.11073100025003607 -0.20187991044738077 0.16376963664184918 0.007348363607889041 0.40622745047916065 0.2897065444426103 0.3389495448632674 -0.08976954492655667 -0.06789690899578008 -0.24638572877103632 0.09467063607140021 -0.44967254454439337 -0.4104795483025638 0.011789454634047368 0.054149999875913964 0.2467450892383402 -0.2456414536996321 0.0634394542060115 0.4480338232083754 -0.02274772720623084 -0.36536463553255255 -0.07229663702574643 -0.23751427097754044 -0.13841118257154117 0.6306262720714916 0.3016145486723293 0.5162366411902688 -0.03004309107464823 0.5616831806573 0.04556563632054762 -0.2536360892382535 0.344777911901474
34 -0.11044599985082944 -0.20271150271097818 0.16206750025351843 0.01036283354430149 0.41955816745758057 0.2977075030406316 0.3509125014146169 -0.0844281663497289 -0.06844000021616618 -0.25222483774026233 0.09859050127367179 -0.46075617770353955 -0.4190566688776016 0.01887533355814715 0.060004999240239464 0.2521065026521683 -0.24868199725945792 0.06421983366211255 0.46021467447280884 -0.003681833557493519 -0.3865533322095871 -0.09380800028642018 -0.23862833033005396 -0.1470066693921884 0.6487994939088821 0.3083873316645622 0.5356645087401072 -0.045670500956475735 0.5831966648499171 0.04811183363199234 -0.2646910026669502 0.3554091701904933
35 -0.11073100025003607 -0.20187991044738077 0.16376963664184918 0.007348363607889041 0.40622745047916065 0.2897065444426103 0.3389495448632674 -0.08976954492655667 -0.06789690899578008 -0.24638572877103632 0.09467063607140021 -0.44967254454439337 -0.4104795483025638 0.011789454634047368 0.054149999875913964 0.2467450892383402 -0.2456414536996321 0.0634394542060115 0.4480338232083754 -0.02274772720623084 -0.36536463553255255 -0.07229663702574643 -0.23751427097754044 -0.13841118257154117 0.6306262720714916 0.3016145486723293 0.5162366411902688 -0.03004309107464823 0.5616831806573 0.04556563632054762 -0.2536360892382535 0.344777911901474
36 -0.11128971406391688 -0.1988597171647208 0.16389157303742 0.005731571586303679 0.41220842940466745 0.2903608573334558 0.3430065725530897 -0.08631614223122597 -0.06569057117615427 -0.2524455743176596 0.09696657210588455 -0.45874843427113127 -0.41346957215241026 0.013748857259218181 0.052453713225466866 0.25309257422174725 -0.24790528416633606 0.06715585770351547 0.4492397201912744 -0.010286428815951305 -0.374782851764134 -0.08975842754755702 -0.23532857213701522 -0.14194171556404658 0.6399622857570648 0.30314871455941883 0.5291634287152972 -0.04851371528846877 0.5723849960735866 0.047574429107563834 -0.2570045718124935 0.3515428602695465
37 -0.11128971406391688 -0.1988597171647208 0.16389157303742 0.005731571586303679 0.41220842940466745 0.2903608573334558 0.3430065725530897 -0.08631614223122597 -0.06569057117615427 -0.2524455743176596 0.09696657210588455 -0.45874843427113127 -0.41346957215241026 0.013748857259218181 0.052453713225466866 0.25309257422174725 -0.24790528416633606 0.06715585770351547 0.4492397201912744 -0.010286428815951305 -0.374782851764134 -0.08975842754755702 -0.23532857213701522 -0.14194171556404658 0.6399622857570648 0.30314871455941883 0.5291634287152972 -0.04851371528846877 0.5723849960735866 0.047574429107563834 -0.2570045718124935 0.3515428602695465
38 -0.11128971406391688 -0.1988597171647208 0.16389157303742 0.005731571586303679 0.41220842940466745 0.2903608573334558 0.3430065725530897 -0.08631614223122597 -0.06569057117615427 -0.2524455743176596 0.09696657210588455 -0.45874843427113127 -0.41346957215241026 0.013748857259218181 0.052453713225466866 0.25309257422174725 -0.24790528416633606 0.06715585770351547 0.4492397201912744 -0.010286428815951305 -0.374782851764134 -0.08975842754755702 -0.23532857213701522 -0.14194171556404658 0.6399622857570648 0.30314871455941883 0.5291634287152972 -0.04851371528846877 0.5723849960735866 0.047574429107563834 -0.2570045718124935 0.3515428602695465
39 -0.11073100025003607 -0.20187991044738077 0.16376963664184918 0.007348363607889041 0.40622745047916065 0.2897065444426103 0.3389495448632674 -0.08976954492655667 -0.06789690899578008 -0.24638572877103632 0.09467063607140021 -0.44967254454439337 -0.4104795483025638 0.011789454634047368 0.054149999875913964 0.2467450892383402 -0.2456414536996321 0.0634394542060115 0.4480338232083754 -0.02274772720623084 -0.36536463553255255 -0.07229663702574643 -0.23751427097754044 -0.13841118257154117 0.6306262720714916 0.3016145486723293 0.5162366411902688 -0.03004309107464823 0.5616831806573 0.04556563632054762 -0.2536360892382535 0.344777911901474
40 -0.11044599985082944 -0.20271150271097818 0.16206750025351843 0.01036283354430149 0.41955816745758057 0.2977075030406316 0.3509125014146169 -0.0844281663497289 -0.06844000021616618 -0.25222483774026233 0.09859050127367179 -0.46075617770353955 -0.4190566688776016 0.01887533355814715 0.060004999240239464 0.2521065026521683 -0.24868199725945792 0.06421983366211255 0.46021467447280884 -0.003681833557493519 -0.3865533322095871 -0.09380800028642018 -0.23862833033005396 -0.1470066693921884 0.6487994939088821 0.3083873316645622 0.5356645087401072 -0.045670500956475735 0.5831966648499171 0.04811183363199234 -0.2646910026669502 0.3554091701904933
41 -0.11128971406391688 -0.1988597171647208 0.16389157303742 0.005731571586303679 0.41220842940466745 0.2903608573334558 0.3430065725530897 -0.08631614223122597 -0.06569057117615427 -0.2524455743176596 0.09696657210588455 -0.45874843427113127 -0.41346957215241026 0.013748857259218181 0.052453713225466866 0.25309257422174725 -0.24790528416633606 0.06715585770351547 0.4492397201912744 -0.010286428815951305 -0.374782851764134 -0.08975842754755702 -0.23532857213701522 -0.14194171556404658 0.6399622857570648 0.30314871455941883 0.5291634287152972 -0.04851371528846877 0.5723849960735866 0.047574429107563834 -0.2570045718124935 0.3515428602695465
42 -0.11128971406391688 -0.1988597171647208 0.16389157303742 0.005731571586303679 0.41220842940466745 0.2903608573334558 0.3430065725530897 -0.08631614223122597 -0.06569057117615427 -0.2524455743176596 0.09696657210588455 -0.45874843427113127 -0.41346957215241026 0.013748857259218181 0.052453713225466866 0.25309257422174725 -0.24790528416633606 0.06715585770351547 0.4492397201912744 -0.010286428815951305 -0.374782851764134 -0.08975842754755702 -0.23532857213701522 -0.14194171556404658 0.6399622857570648 0.30314871455941883 0.5291634287152972 -0.04851371528846877 0.5723849960735866 0.047574429107563834 -0.2570045718124935 0.3515428602695465
43 -0.11044599985082944 -0.20271150271097818 0.16206750025351843 0.01036283354430149 0.41955816745758057 0.2977075030406316 0.3509125014146169 -0.0844281663497289 -0.06844000021616618 -0.25222483774026233 0.09859050127367179 -0.46075617770353955 -0.4190566688776016 0.01887533355814715 0.060004999240239464 0.2521065026521683 -0.24868199725945792 0.06421983366211255 0.46021467447280884 -0.003681833557493519 -0.3865533322095871 -0.09380800028642018 -0.23862833033005396 -0.1470066693921884 0.6487994939088821 0.3083873316645622 0.5356645087401072 -0.045670500956475735 0.5831966648499171 0.04811183363199234 -0.2646910026669502 0.3554091701904933
44 -0.11128971406391688 -0.1988597171647208 0.16389157303742 0.005731571586303679 0.41220842940466745 0.2903608573334558 0.3430065725530897 -0.08631614223122597 -0.06569057117615427 -0.2524455743176596 0.09696657210588455 -0.45874843427113127 -0.41346957215241026 0.013748857259218181 0.052453713225466866 0.25309257422174725 -0.24790528416633606 0.06715585770351547 0.4492397201912744 -0.010286428815951305 -0.374782851764134 -0.08975842754755702 -0.23532857213701522 -0.14194171556404658 0.6399622857570648 0.30314871455941883 0.5291634287152972 -0.04851371528846877 0.5723849960735866 0.047574429107563834 -0.2570045718124935 0.3515428602695465
45 -0.11073100025003607 -0.20187991044738077 0.16376963664184918 0.007348363607889041 0.40622745047916065 0.2897065444426103 0.3389495448632674 -0.08976954492655667 -0.06789690899578008 -0.24638572877103632 0.09467063607140021 -0.44967254454439337 -0.4104795483025638 0.011789454634047368 0.054149999875913964 0.2467450892383402 -0.2456414536996321 0.0634394542060115 0.4480338232083754 -0.02274772720623084 -0.36536463553255255 -0.07229663702574643 -0.23751427097754044 -0.13841118257154117 0.6306262720714916 0.3016145486723293 0.5162366411902688 -0.03004309107464823 0.5616831806573 0.04556563632054762 -0.2536360892382535 0.344777911901474
46 -0.11698766673604648 -0.2164048378666242 0.16850816706816354 0.004292666834468643 0.43963666756947833 0.3067688395579656 0.3613978351155917 -0.09246950037777424 -0.07003266674776872 -0.26347866902748746 0.1064220021168391 -0.47893884281317395 -0.43263982733090717 0.018269833565379184 0.05484283280869325 0.25876500209172565 -0.25683066497246426 0.06916116674741109 0.4727173447608948 -0.00787483355573689 -0.3929239933689435 -0.0933258334795634 -0.24859116723140082 -0.15287350118160248 0.6720188309748968 0.3183671658237775 0.5491330077250799 -0.05268500093370676 0.5984328339497248 0.04645266694327196 -0.2719951669375102 0.3687911679347356
47 -0.11128971406391688 -0.1988597171647208 0.16389157303742 0.005731571586303679 0.41220842940466745 0.2903608573334558 0.3430065725530897 -0.08631614223122597 -0.06569057117615427 -0.2524455743176596 0.09696657210588455 -0.45874843427113127 -0.41346957215241026 0.013748857259218181 0.052453713225466866 0.25309257422174725 -0.24790528416633606 0.06715585770351547 0.4492397201912744 -0.010286428815951305 -0.374782851764134 -0.08975842754755702 -0.23532857213701522 -0.14194171556404658 0.6399622857570648 0.30314871455941883 0.5291634287152972 -0.04851371528846877 0.5723849960735866 0.047574429107563834 -0.2570045718124935 0.3515428602695465
48 -0.11073100025003607 -0.20187991044738077 0.16376963664184918 0.007348363607889041 0.40622745047916065 0.2897065444426103 0.3389495448632674 -0.08976954492655667 -0.06789690899578008 -0.24638572877103632 0.09467063607140021 -0.44967254454439337 -0.4104795483025638 0.011789454634047368 0.054149999875913964 0.2467450892383402 -0.2456414536996321 0.0634394542060115 0.4480338232083754 -0.02274772720623084 -0.36536463553255255 -0.07229663702574643 -0.23751427097754044 -0.13841118257154117 0.6306262720714916 0.3016145486723293 0.5162366411902688 -0.03004309107464823 0.5616831806573 0.04556563632054762 -0.2536360892382535 0.344777911901474
49 -0.11698766673604648 -0.2164048378666242 0.16850816706816354 0.004292666834468643 0.43963666756947833 0.3067688395579656 0.3613978351155917 -0.09246950037777424 -0.07003266674776872 -0.26347866902748746 0.1064220021168391 -0.47893884281317395 -0.43263982733090717 0.018269833565379184 0.05484283280869325 0.25876500209172565 -0.25683066497246426 0.06916116674741109 0.4727173447608948 -0.00787483355573689 -0.3929239933689435 -0.0933258334795634 -0.24859116723140082 -0.15287350118160248 0.6720188309748968 0.3183671658237775 0.5491330077250799 -0.05268500093370676 0.5984328339497248 0.04645266694327196 -0.2719951669375102 0.3687911679347356
50 -0.11073100025003607 -0.20187991044738077 0.16376963664184918 0.007348363607889041 0.40622745047916065 0.2897065444426103 0.3389495448632674 -0.08976954492655667 -0.06789690899578008 -0.24638572877103632 0.09467063607140021 -0.44967254454439337 -0.4104795483025638 0.011789454634047368 0.054149999875913964 0.2467450892383402 -0.2456414536996321 0.0634394542060115 0.4480338232083754 -0.02274772720623084 -0.36536463553255255 -0.07229663702574643 -0.23751427097754044 -0.13841118257154117 0.6306262720714916 0.3016145486723293 0.5162366411902688 -0.03004309107464823 0.5616831806573 0.04556563632054762 -0.2536360892382535 0.344777911901474
51 -0.11128971406391688 -0.1988597171647208 0.16389157303742 0.005731571586303679 0.41220842940466745 0.2903608573334558 0.3430065725530897 -0.08631614223122597 -0.06569057117615427 -0.2524455743176596 0.09696657210588455 -0.45874843427113127 -0.41346957215241026 0.013748857259218181 0.052453713225466866 0.25309257422174725 -0.24790528416633606 0.06715585770351547 0.4492397201912744 -0.010286428815951305 -0.374782851764134 -0.08975842754755702 -0.23532857213701522 -0.14194171556404658 0.6399622857570648 0.30314871455941883 0.5291634287152972 -0.04851371528846877 0.5723849960735866 0.047574429107563834 -0.2570045718124935 0.3515428602695465
52 -0.11073100025003607 -0.20187991044738077 0.16376963664184918 0.007348363607889041 0.40622745047916065 0.2897065444426103 0.3389495448632674 -0.08976954492655667 -0.06789690899578008 -0.24638572877103632 0.09467063607140021 -0.44967254454439337 -0.4104795483025638 0.011789454634047368 0.054149999875913964 0.2467450892383402 -0.2456414536996321 0.0634394542060115 0.4480338232083754 -0.02274772720623084 -0.36536463553255255 -0.07229663702574643 -0.23751427097754044 -0.13841118257154117 0.6306262720714916 0.3016145486723293 0.5162366411902688 -0.03004309107464823 0.5616831806573 0.04556563632054762 -0.2536360892382535 0.344777911901474
53 -0.11698766673604648 -0.2164048378666242 0.16850816706816354 0.004292666834468643 0.43963666756947833 0.3067688395579656 0.3613978351155917 -0.09246950037777424 -0.07003266674776872 -0.26347866902748746 0.1064220021168391 -0.47893884281317395 -0.43263982733090717 0.018269833565379184 0.05484283280869325 0.25876500209172565 -0.25683066497246426 0.06916116674741109 0.4727173447608948 -0.00787483355573689 -0.3929239933689435 -0.0933258334795634 -0.24859116723140082 -0.15287350118160248 0.6720188309748968 0.3183671658237775 0.5491330077250799 -0.05268500093370676 0.5984328339497248 0.04645266694327196 -0.2719951669375102 0.3687911679347356
54 -0.11698766673604648 -0.2164048378666242 0.16850816706816354 0.004292666834468643 0.43963666756947833 0.3067688395579656 0.3613978351155917 -0.09246950037777424 -0.07003266674776872 -0.26347866902748746 0.1064220021168391 -0.47893884281317395 -0.43263982733090717 0.018269833565379184 0.05484283280869325 0.25876500209172565 -0.25683066497246426 0.06916116674741109 0.4727173447608948 -0.00787483355573689 -0.3929239933689435 -0.0933258334795634 -0.24859116723140082 -0.15287350118160248 0.6720188309748968 0.3183671658237775 0.5491330077250799 -0.05268500093370676 0.5984328339497248 0.04645266694327196 -0.2719951669375102 0.3687911679347356
55 -0.11128971406391688 -0.1988597171647208 0.16389157303742 0.005731571586303679 0.41220842940466745 0.2903608573334558 0.3430065725530897 -0.08631614223122597 -0.06569057117615427 -0.2524455743176596 0.09696657210588455 -0.45874843427113127 -0.41346957215241026 0.013748857259218181 0.052453713225466866 0.25309257422174725 -0.24790528416633606 0.06715585770351547 0.4492397201912744 -0.010286428815951305 -0.374782851764134 -0.08975842754755702 -0.23532857213701522 -0.14194171556404658 0.6399622857570648 0.30314871455941883 0.5291634287152972 -0.04851371528846877 0.5723849960735866 0.047574429107563834 -0.2570045718124935 0.3515428602695465
56 -0.11698766673604648 -0.2164048378666242 0.16850816706816354 0.004292666834468643 0.43963666756947833 0.3067688395579656 0.3613978351155917 -0.09246950037777424 -0.07003266674776872 -0.26347866902748746 0.1064220021168391 -0.47893884281317395 -0.43263982733090717 0.018269833565379184 0.05484283280869325 0.25876500209172565 -0.25683066497246426 0.06916116674741109 0.4727173447608948 -0.00787483355573689 -0.3929239933689435 -0.0933258334795634 -0.24859116723140082 -0.15287350118160248 0.6720188309748968 0.3183671658237775 0.5491330077250799 -0.05268500093370676 0.5984328339497248 0.04645266694327196 -0.2719951669375102 0.3687911679347356
57 -0.11044599985082944 -0.20271150271097818 0.16206750025351843 0.01036283354430149 0.41955816745758057 0.2977075030406316 0.3509125014146169 -0.0844281663497289 -0.06844000021616618 -0.25222483774026233 0.09859050127367179 -0.46075617770353955 -0.4190566688776016 0.01887533355814715 0.060004999240239464 0.2521065026521683 -0.24868199725945792 0.06421983366211255 0.46021467447280884 -0.003681833557493519 -0.3865533322095871 -0.09380800028642018 -0.23862833033005396 -0.1470066693921884 0.6487994939088821 0.3083873316645622 0.5356645087401072 -0.045670500956475735 0.5831966648499171 0.04811183363199234 -0.2646910026669502 0.3554091701904933
58 -0.11176122145520316 -0.2050331122138434 0.16010133471960822 0.008041889041325904 0.4098703307617042 0.2886894449281196 0.3422453368030902 -0.08562344544204986 -0.07737833302881983 -0.24665700323465797 0.09579577816960712 -0.4511433318257332 -0.4113424438223269 0.01809666683483455 0.05840488885425859 0.24689322016719314 -0.24341788895738622 0.06142944428655836 0.44923656050943667 -0.016605666555632424 -0.3733762221721311 -0.08180200038542454 -0.24024033195908284 -0.14312366613497338 0.6384825550226702 0.30511033141778576 0.5221760081541207 -0.040418666787445545 0.5669113263073895 0.048022555394305125 -0.268711110473507 0.3504351112189599
59 -0.11176122145520316 -0.2050331122138434 0.16010133471960822 0.008041889041325904 0.4098703307617042 0.2886894449281196 0.3422453368030902 -0.08562344544204986 -0.07737833302881983 -0.24665700323465797 0.09579577816960712 -0.4511433318257332 -0.4113424438223269 0.01809666683483455 0.05840488885425859 0.24689322016719314 -0.24341788895738622 0.06142944428655836 0.44923656050943667 -0.016605666555632424 -0.3733762221721311 -0.08180200038542454 -0.24024033195908284 -0.14312366613497338 0.6384825550226702 0.30511033141778576 0.5221760081541207 -0.040418666787445545 0.5669113263073895 0.048022555394305125 -0.268711110473507 0.3504351112189599
60 -0.11128971406391688 -0.1988597171647208 0.16389157303742 0.005731571586303679 0.41220842940466745 0.2903608573334558 0.3430065725530897 -0.08631614223122597 -0.06569057117615427 -0.2524455743176596 0.09696657210588455 -0.45874843427113127 -0.41346957215241026 0.013748857259218181 0.052453713225466866 0.25309257422174725 -0.24790528416633606 0.06715585770351547 0.4492397201912744 -0.010286428815951305 -0.374782851764134 -0.08975842754755702 -0.23532857213701522 -0.14194171556404658 0.6399622857570648 0.30314871455941883 0.5291634287152972 -0.04851371528846877 0.5723849960735866 0.047574429107563834 -0.2570045718124935 0.3515428602695465
61 -0.11073100025003607 -0.20187991044738077 0.16376963664184918 0.007348363607889041 0.40622745047916065 0.2897065444426103 0.3389495448632674 -0.08976954492655667 -0.06789690899578008 -0.24638572877103632 0.09467063607140021 -0.44967254454439337 -0.4104795483025638 0.011789454634047368 0.054149999875913964 0.2467450892383402 -0.2456414536996321 0.0634394542060115 0.4480338232083754 -0.02274772720623084 -0.36536463553255255 -0.07229663702574643 -0.23751427097754044 -0.13841118257154117 0.6306262720714916 0.3016145486723293 0.5162366411902688 -0.03004309107464823 0.5616831806573 0.04556563632054762 -0.2536360892382535 0.344777911901474
62 -0.11073100025003607 -0.20187991044738077 0.16376963664184918 0.007348363607889041 0.40622745047916065 0.2897065444426103 0.3389495448632674 -0.08976954492655667 -0.06789690899578008 -0.24638572877103632 0.09467063607140021 -0.44967254454439337 -0.4104795483025638 0.011789454634047368 0.054149999875913964 0.2467450892383402 -0.2456414536996321 0.0634394542060115 0.4480338232083754 -0.02274772720623084 -0.36536463553255255 -0.07229663702574643 -0.23751427097754044 -0.13841118257154117 0.6306262720714916 0.3016145486723293 0.5162366411902688 -0.03004309107464823 0.5616831806573 0.04556563632054762 -0.2536360892382535 0.344777911901474
63 -0.11128971406391688 -0.1988597171647208 0.16389157303742 0.005731571586303679 0.41220842940466745 0.2903608573334558 0.3430065725530897 -0.08631614223122597 -0.06569057117615427 -0.2524455743176596 0.09696657210588455 -0.45874843427113127 -0.41346957215241026 0.013748857259218181 0.052453713225466866 0.25309257422174725 -0.24790528416633606 0.06715585770351547 0.4492397201912744 -0.010286428815951305 -0.374782851764134 -0.08975842754755702 -0.23532857213701522 -0.14194171556404658 0.6399622857570648 0.30314871455941883 0.5291634287152972 -0.04851371528846877 0.5723849960735866 0.047574429107563834 -0.2570045718124935 0.3515428602695465
64 -0.11128971406391688 -0.1988597171647208 0.16389157303742 0.005731571586303679 0.41220842940466745 0.2903608573334558 0.3430065725530897 -0.08631614223122597 -0.06569057117615427 -0.2524455743176596 0.09696657210588455 -0.45874843427113127 -0.41346957215241026 0.013748857259218181 0.052453713225466866 0.25309257422174725 -0.24790528416633606 0.06715585770351547 0.4492397201912744 -0.010286428815951305 -0.374782851764134 -0.08975842754755702 -0.23532857213701522 -0.14194171556404658 0.6399622857570648 0.30314871455941883 0.5291634287152972 -0.04851371528846877 0.5723849960735866 0.047574429107563834 -0.2570045718124935 0.3515428602695465
65 -0.11128971406391688 -0.1988597171647208 0.16389157303742 0.005731571586303679 0.41220842940466745 0.2903608573334558 0.3430065725530897 -0.08631614223122597 -0.06569057117615427 -0.2524455743176596 0.09696657210588455 -0.45874843427113127 -0.41346957215241026 0.013748857259218181 0.052453713225466866 0.25309257422174725 -0.24790528416633606 0.06715585770351547 0.4492397201912744 -0.010286428815951305 -0.374782851764134 -0.08975842754755702 -0.23532857213701522 -0.14194171556404658 0.6399622857570648 0.30314871455941883 0.5291634287152972 -0.04851371528846877 0.5723849960735866 0.047574429107563834 -0.2570045718124935 0.3515428602695465
66 -0.11128971406391688 -0.1988597171647208 0.16389157303742 0.005731571586303679 0.41220842940466745 0.2903608573334558 0.3430065725530897 -0.08631614223122597 -0.06569057117615427 -0.2524455743176596 0.09696657210588455 -0.45874843427113127 -0.41346957215241026 0.013748857259218181 0.052453713225466866 0.25309257422174725 -0.24790528416633606 0.06715585770351547 0.4492397201912744 -0.010286428815951305 -0.374782851764134 -0.08975842754755702 -0.23532857213701522 -0.14194171556404658 0.6399622857570648 0.30314871455941883 0.5291634287152972 -0.04851371528846877 0.5723849960735866 0.047574429107563834 -0.2570045718124935 0.3515428602695465
67 -0.11128971406391688 -0.1988597171647208 0.16389157303742 0.005731571586303679 0.41220842940466745 0.2903608573334558 0.3430065725530897 -0.08631614223122597 -0.06569057117615427 -0.2524455743176596 0.09696657210588455 -0.45874843427113127 -0.41346957215241026 0.013748857259218181 0.052453713225466866 0.25309257422174725 -0.24790528416633606 0.06715585770351547 0.4492397201912744 -0.010286428815951305 -0.374782851764134 -0.08975842754755702 -0.23532857213701522 -0.14194171556404658 0.6399622857570648 0.30314871455941883 0.5291634287152972 -0.04851371528846877 0.5723849960735866 0.047574429107563834 -0.2570045718124935 0.3515428602695465
68 -0.11698766673604648 -0.2164048378666242 0.16850816706816354 0.004292666834468643 0.43963666756947833 0.3067688395579656 0.3613978351155917 -0.09246950037777424 -0.07003266674776872 -0.26347866902748746 0.1064220021168391 -0.47893884281317395 -0.43263982733090717 0.018269833565379184 0.05484283280869325 0.25876500209172565 -0.25683066497246426 0.06916116674741109 0.4727173447608948 -0.00787483355573689 -0.3929239933689435 -0.0933258334795634 -0.24859116723140082 -0.15287350118160248 0.6720188309748968 0.3183671658237775 0.5491330077250799 -0.05268500093370676 0.5984328339497248 0.04645266694327196 -0.2719951669375102 0.3687911679347356
69 -0.11128971406391688 -0.1988597171647208 0.16389157303742 0.005731571586303679 0.41220842940466745 0.2903608573334558 0.3430065725530897 -0.08631614223122597 -0.06569057117615427 -0.2524455743176596 0.09696657210588455 -0.45874843427113127 -0.41346957215241026 0.013748857259218181 0.052453713225466866 0.25309257422174725 -0.24790528416633606 0.06715585770351547 0.4492397201912744 -0.010286428815951305 -0.374782851764134 -0.08975842754755702 -0.23532857213701522 -0.14194171556404658 0.6399622857570648 0.30314871455941883 0.5291634287152972 -0.04851371528846877 0.5723849960735866 0.047574429107563834 -0.2570045718124935 0.3515428602695465
70 -0.07968800018231074 -0.150992501527071 0.1134338341653347 0.006993833541249235 0.2974189991752307 0.21199983606735864 0.24442466969291368 -0.058687000535428524 -0.04977733346944054 -0.18408033500115076 0.07634200217823188 -0.3321610055863857 -0.29956983029842377 0.008724000382547578 0.03436366627768924 0.18073066820700964 -0.17609349576135477 0.040797667034591235 0.3365788360436757 -0.007533500300875555 -0.2748128299911817 -0.06507350038737059 -0.1713141625126203 -0.10527883470058441 0.4696661631266276 0.21308433140317598 0.38725850234429043 -0.03868250067656239 0.42369750142097473 0.03505233349278569 -0.19316366563240686 0.25509116674462956
71 -0.11044599985082944 -0.20271150271097818 0.16206750025351843 0.01036283354430149 0.41955816745758057 0.2977075030406316 0.3509125014146169 -0.0844281663497289 -0.06844000021616618 -0.25222483774026233 0.09859050127367179 -0.46075617770353955 -0.4190566688776016 0.01887533355814715 0.060004999240239464 0.2521065026521683 -0.24868199725945792 0.06421983366211255 0.46021467447280884 -0.003681833557493519 -0.3865533322095871 -0.09380800028642018 -0.23862833033005396 -0.1470066693921884 0.6487994939088821 0.3083873316645622 0.5356645087401072 -0.045670500956475735 0.5831966648499171 0.04811183363199234 -0.2646910026669502 0.3554091701904933
72 -0.11698766673604648 -0.2164048378666242 0.16850816706816354 0.004292666834468643 0.43963666756947833 0.3067688395579656 0.3613978351155917 -0.09246950037777424 -0.07003266674776872 -0.26347866902748746 0.1064220021168391 -0.47893884281317395 -0.43263982733090717 0.018269833565379184 0.05484283280869325 0.25876500209172565 -0.25683066497246426 0.06916116674741109 0.4727173447608948 -0.00787483355573689 -0.3929239933689435 -0.0933258334795634 -0.24859116723140082 -0.15287350118160248 0.6720188309748968 0.3183671658237775 0.5491330077250799 -0.05268500093370676 0.5984328339497248 0.04645266694327196 -0.2719951669375102 0.3687911679347356
73 -0.11052572659470818 -0.2302544577555223 0.18104236369783228 0.007468091069974683 0.45782563903115014 0.30256318368695 0.3727530918338082 -0.10464654659683054 -0.06568845429203728 -0.2689909122206948 0.10473163832317699 -0.5021635510704734 -0.4446300891312686 0.018606091066348283 0.05454863523217765 0.2624820944937793 -0.2623296339403499 0.06864400038664992 0.4926732751456174 -0.006613000243140215 -0.40163644877347077 -0.10733381861990149 -0.2536757263270291 -0.15964436531066895 0.6856366233392195 0.32059708779508417 0.570713912898844 -0.058229000053622505 0.6206580021164634 0.0497481817887588 -0.2915952733971856 0.3784185458313335
74 -0.10563799850642681 -0.19756480380892755 0.1598216027021408 0.003741400223225355 0.3956241962499917 0.27256180457770823 0.3299897987395525 -0.08252219912319561 -0.06964780017733574 -0.2447972028516233 0.09335200171917676 -0.4397254092618823 -0.4041884006932378 0.013401200459338725 0.05534299835562706 0.23922560326755046 -0.23703159573487936 0.06315460093319417 0.4267856107093394 -0.009134800429455936 -0.35572059601545336 -0.07769339997321367 -0.22593579702079297 -0.13768480194266886 0.6047039898112416 0.2923253976739943 0.4998196056112647 -0.037393600959330794 0.5458734007552266 0.040116000128909944 -0.252342801168561 0.3311941998079419
75 -0.10563799850642681 -0.19756480380892755 0.1598216027021408 0.003741400223225355 0.3956241962499917 0.27256180457770823 0.3299897987395525 -0.08252219912319561 -0.06964780017733574 -0.2447972028516233 0.09335200171917676 -0.4397254092618823 -0.4041884006932378 0.013401200459338725 0.05534299835562706 0.23922560326755046 -0.23703159573487936 0.06315460093319417 0.4267856107093394 -0.009134800429455936 -0.35572059601545336 -0.07769339997321367 -0.22593579702079297 -0.13768480194266886 0.6047039898112416 0.2923253976739943 0.4998196056112647 -0.037393600959330794 0.5458734007552266 0.040116000128909944 -0.252342801168561 0.3311941998079419
76 -0.10563799850642681 -0.19756480380892755 0.1598216027021408 0.003741400223225355 0.3956241962499917 0.27256180457770823 0.3299897987395525 -0.08252219912319561 -0.06964780017733574 -0.2447972028516233 0.09335200171917676 -0.4397254092618823 -0.4041884006932378 0.013401200459338725 0.05534299835562706 0.23922560326755046 -0.23703159573487936 0.06315460093319417 0.4267856107093394 -0.009134800429455936 -0.35572059601545336 -0.07769339997321367 -0.22593579702079297 -0.13768480194266886 0.6047039898112416 0.2923253976739943 0.4998196056112647 -0.037393600959330794 0.5458734007552266 0.040116000128909944 -0.252342801168561 0.3311941998079419
77 -0.10563799850642681 -0.19756480380892755 0.1598216027021408 0.003741400223225355 0.3956241962499917 0.27256180457770823 0.3299897987395525 -0.08252219912319561 -0.06964780017733574 -0.2447972028516233 0.09335200171917676 -0.4397254092618823 -0.4041884006932378 0.013401200459338725 0.05534299835562706 0.23922560326755046 -0.23703159573487936 0.06315460093319417 0.4267856107093394 -0.009134800429455936 -0.35572059601545336 -0.07769339997321367 -0.22593579702079297 -0.13768480194266886 0.6047039898112416 0.2923253976739943 0.4998196056112647 -0.037393600959330794 0.5458734007552266 0.040116000128909944 -0.252342801168561 0.3311941998079419
78 -0.031266142980062535 -0.06683400043818567 0.055104573465151976 -0.0015012855708066905 0.13026985562672572 0.08837157115340233 0.11274657175610107 -0.02942085705165352 -0.019660428565527712 -0.08188785754568276 0.030347572182238634 -0.1449594305595383 -0.13251971283794514 0.007168571464717388 0.019863428003321002 0.08022571531390506 -0.07268628285133413 0.023919429413841238 0.14294243344504917 -0.007121143064328602 -0.12162128403516752 -0.024197571653140976 -0.07425428381455797 -0.04643614317423531 0.20041728044660495 0.10289599969317871 0.16219242732040584 -0.014037714373054249 0.17810328870213457 0.0123271427333488 -0.08087799890199676 0.10882157142207559
79 -0.031266142980062535 -0.06683400043818567 0.055104573465151976 -0.0015012855708066905 0.13026985562672572 0.08837157115340233 0.11274657175610107 -0.02942085705165352 -0.019660428565527712 -0.08188785754568276 0.030347572182238634 -0.1449594305595383 -0.13251971283794514 0.007168571464717388 0.019863428003321002 0.08022571531390506 -0.07268628285133413 0.023919429413841238 0.14294243344504917 -0.007121143064328602 -0.12162128403516752 -0.024197571653140976 -0.07425428381455797 -0.04643614317423531 0.20041728044660495 0.10289599969317871 0.16219242732040584 -0.014037714373054249 0.17810328870213457 0.0123271427333488 -0.08087799890199676 0.10882157142207559
80 -0.10563799850642681 -0.19756480380892755 0.1598216027021408 0.003741400223225355 0.3956241962499917 0.27256180457770823 0.3299897987395525 -0.08252219912319561 -0.06964780017733574 -0.2447972028516233 0.09335200171917676 -0.4397254092618823 -0.4041884006932378 0.013401200459338725 0.05534299835562706 0.23922560326755046 -0.23703159573487936 0.06315460093319417 0.4267856107093394 -0.009134800429455936 -0.35572059601545336 -0.07769339997321367 -0.22593579702079297 -0.13768480194266886 0.6047039898112416 0.2923253976739943 0.4998196056112647 -0.037393600959330794 0.5458734007552266 0.040116000128909944 -0.252342801168561 0.3311941998079419
81 -0.031266142980062535 -0.06683400043818567 0.055104573465151976 -0.0015012855708066905 0.13026985562672572 0.08837157115340233 0.11274657175610107 -0.02942085705165352 -0.019660428565527712 -0.08188785754568276 0.030347572182238634 -0.1449594305595383 -0.13251971283794514 0.007168571464717388 0.019863428003321002 0.08022571531390506 -0.07268628285133413 0.023919429413841238 0.14294243344504917 -0.007121143064328602 -0.12162128403516752 -0.024197571653140976 -0.07425428381455797 -0.04643614317423531 0.20041728044660495 0.10289599969317871 0.16219242732040584 -0.014037714373054249 0.17810328870213457 0.0123271427333488 -0.08087799890199676 0.10882157142207559
82 -0.031266142980062535 -0.06683400043818567 0.055104573465151976 -0.0015012855708066905 0.13026985562672572 0.08837157115340233 0.11274657175610107 -0.02942085705165352 -0.019660428565527712 -0.08188785754568276 0.030347572182238634 -0.1449594305595383 -0.13251971283794514 0.007168571464717388 0.019863428003321002 0.08022571531390506 -0.07268628285133413 0.023919429413841238 0.14294243344504917 -0.007121143064328602 -0.12162128403516752 -0.024197571653140976 -0.07425428381455797 -0.04643614317423531 0.20041728044660495 0.10289599969317871 0.16219242732040584 -0.014037714373054249 0.17810328870213457 0.0123271427333488 -0.08087799890199676 0.10882157142207559
83 -0.10563799850642681 -0.19756480380892755 0.1598216027021408 0.003741400223225355 0.3956241962499917 0.27256180457770823 0.3299897987395525 -0.08252219912319561 -0.06964780017733574 -0.2447972028516233 0.09335200171917676 -0.4397254092618823 -0.4041884006932378 0.013401200459338725 0.05534299835562706 0.23922560326755046 -0.23703159573487936 0.06315460093319417 0.4267856107093394 -0.009134800429455936 -0.35572059601545336 -0.07769339997321367 -0.22593579702079297 -0.13768480194266886 0.6047039898112416 0.2923253976739943 0.4998196056112647 -0.037393600959330794 0.5458734007552266 0.040116000128909944 -0.252342801168561 0.3311941998079419
84 -0.031266142980062535 -0.06683400043818567 0.055104573465151976 -0.0015012855708066905 0.13026985562672572 0.08837157115340233 0.11274657175610107 -0.02942085705165352 -0.019660428565527712 -0.08188785754568276 0.030347572182238634 -0.1449594305595383 -0.13251971283794514 0.007168571464717388 0.019863428003321002 0.08022571531390506 -0.07268628285133413 0.023919429413841238 0.14294243344504917 -0.007121143064328602 -0.12162128403516752 -0.024197571653140976 -0.07425428381455797 -0.04643614317423531 0.20041728044660495 0.10289599969317871 0.16219242732040584 -0.014037714373054249 0.17810328870213457 0.0123271427333488 -0.08087799890199676 0.10882157142207559
85 -0.031266142980062535 -0.06683400043818567 0.055104573465151976 -0.0015012855708066905 0.13026985562672572 0.08837157115340233 0.11274657175610107 -0.02942085705165352 -0.019660428565527712 -0.08188785754568276 0.030347572182238634 -0.1449594305595383 -0.13251971283794514 0.007168571464717388 0.019863428003321002 0.08022571531390506 -0.07268628285133413 0.023919429413841238 0.14294243344504917 -0.007121143064328602 -0.12162128403516752 -0.024197571653140976 -0.07425428381455797 -0.04643614317423531 0.20041728044660495 0.10289599969317871 0.16219242732040584 -0.014037714373054249 0.17810328870213457 0.0123271427333488 -0.08087799890199676 0.10882157142207559
86 -0.031266142980062535 -0.06683400043818567 0.055104573465151976 -0.0015012855708066905 0.13026985562672572 0.08837157115340233 0.11274657175610107 -0.02942085705165352 -0.019660428565527712 -0.08188785754568276 0.030347572182238634 -0.1449594305595383 -0.13251971283794514 0.007168571464717388 0.019863428003321002 0.08022571531390506 -0.07268628285133413 0.023919429413841238 0.14294243344504917 -0.007121143064328602 -0.12162128403516752 -0.024197571653140976 -0.07425428381455797 -0.04643614317423531 0.20041728044660495 0.10289599969317871 0.16219242732040584 -0.014037714373054249 0.17810328870213457 0.0123271427333488 -0.08087799890199676 0.10882157142207559
87 -0.10563799850642681 -0.19756480380892755 0.1598216027021408 0.003741400223225355 0.3956241962499917 0.27256180457770823 0.3299897987395525 -0.08252219912319561 -0.06964780017733574 -0.2447972028516233 0.09335200171917676 -0.4397254092618823 -0.4041884006932378 0.013401200459338725 0.05534299835562706 0.23922560326755046 -0.23703159573487936 0.06315460093319417 0.4267856107093394 -0.009134800429455936 -0.35572059601545336 -0.07769339997321367 -0.22593579702079297 -0.13768480194266886 0.6047039898112416 0.2923253976739943 0.4998196056112647 -0.037393600959330794 0.5458734007552266 0.040116000128909944 -0.252342801168561 0.3311941998079419
88 -0.031266142980062535 -0.06683400043818567 0.055104573465151976 -0.0015012855708066905 0.13026985562672572 0.08837157115340233 0.11274657175610107 -0.02942085705165352 -0.019660428565527712 -0.08188785754568276 0.030347572182238634 -0.1449594305595383 -0.13251971283794514 0.007168571464717388 0.019863428003321002 0.08022571531390506 -0.07268628285133413 0.023919429413841238 0.14294243344504917 -0.007121143064328602 -0.12162128403516752 -0.024197571653140976 -0.07425428381455797 -0.04643614317423531 0.20041728044660495 0.10289599969317871 0.16219242732040584 -0.014037714373054249 0.17810328870213457 0.0123271427333488 -0.08087799890199676 0.10882157142207559
89 -0.031266142980062535 -0.06683400043818567 0.055104573465151976 -0.0015012855708066905 0.13026985562672572 0.08837157115340233 0.11274657175610107 -0.02942085705165352 -0.019660428565527712 -0.08188785754568276 0.030347572182238634 -0.1449594305595383 -0.13251971283794514 0.007168571464717388 0.019863428003321002 0.08022571531390506 -0.07268628285133413 0.023919429413841238 0.14294243344504917 -0.007121143064328602 -0.12162128403516752 -0.024197571653140976 -0.07425428381455797 -0.04643614317423531 0.20041728044660495 0.10289599969317871 0.16219242732040584 -0.014037714373054249 0.17810328870213457 0.0123271427333488 -0.08087799890199676 0.10882157142207559
90 -0.10563799850642681 -0.19756480380892755 0.1598216027021408 0.003741400223225355 0.3956241962499917 0.27256180457770823 0.3299897987395525 -0.08252219912319561 -0.06964780017733574 -0.2447972028516233 0.09335200171917676 -0.4397254092618823 -0.4041884006932378 0.013401200459338725 0.05534299835562706 0.23922560326755046 -0.23703159573487936 0.06315460093319417 0.4267856107093394 -0.009134800429455936 -0.35572059601545336 -0.07769339997321367 -0.22593579702079297 -0.13768480194266886 0.6047039898112416 0.2923253976739943 0.4998196056112647 -0.037393600959330794 0.5458734007552266 0.040116000128909944 -0.252342801168561 0.3311941998079419
91 -0.031266142980062535 -0.06683400043818567 0.055104573465151976 -0.0015012855708066905 0.13026985562672572 0.08837157115340233 0.11274657175610107 -0.02942085705165352 -0.019660428565527712 -0.08188785754568276 0.030347572182238634 -0.1449594305595383 -0.13251971283794514 0.007168571464717388 0.019863428003321002 0.08022571531390506 -0.07268628285133413 0.023919429413841238 0.14294243344504917 -0.007121143064328602 -0.12162128403516752 -0.024197571653140976 -0.07425428381455797 -0.04643614317423531 0.20041728044660495 0.10289599969317871 0.16219242732040584 -0.014037714373054249 0.17810328870213457 0.0123271427333488 -0.08087799890199676 0.10882157142207559
92 -0.031266142980062535 -0.06683400043818567 0.055104573465151976 -0.0015012855708066905 0.13026985562672572 0.08837157115340233 0.11274657175610107 -0.02942085705165352 -0.019660428565527712 -0.08188785754568276 0.030347572182238634 -0.1449594305595383 -0.13251971283794514 0.007168571464717388 0.019863428003321002 0.08022571531390506 -0.07268628285133413 0.023919429413841238 0.14294243344504917 -0.007121143064328602 -0.12162128403516752 -0.024197571653140976 -0.07425428381455797 -0.04643614317423531 0.20041728044660495 0.10289599969317871 0.16219242732040584 -0.014037714373054249 0.17810328870213457 0.0123271427333488 -0.08087799890199676 0.10882157142207559
93 -0.031266142980062535 -0.06683400043818567 0.055104573465151976 -0.0015012855708066905 0.13026985562672572 0.08837157115340233 0.11274657175610107 -0.02942085705165352 -0.019660428565527712 -0.08188785754568276 0.030347572182238634 -0.1449594305595383 -0.13251971283794514 0.007168571464717388 0.019863428003321002 0.08022571531390506 -0.07268628285133413 0.023919429413841238 0.14294243344504917 -0.007121143064328602 -0.12162128403516752 -0.024197571653140976 -0.07425428381455797 -0.04643614317423531 0.20041728044660495 0.10289599969317871 0.16219242732040584 -0.014037714373054249 0.17810328870213457 0.0123271427333488 -0.08087799890199676 0.10882157142207559
94 -0.031266142980062535 -0.06683400043818567 0.055104573465151976 -0.0015012855708066905 0.13026985562672572 0.08837157115340233 0.11274657175610107 -0.02942085705165352 -0.019660428565527712 -0.08188785754568276 0.030347572182238634 -0.1449594305595383 -0.13251971283794514 0.007168571464717388 0.019863428003321002 0.08022571531390506 -0.07268628285133413 0.023919429413841238 0.14294243344504917 -0.007121143064328602 -0.12162128403516752 -0.024197571653140976 -0.07425428381455797 -0.04643614317423531 0.20041728044660495 0.10289599969317871 0.16219242732040584 -0.014037714373054249 0.17810328870213457 0.0123271427333488 -0.08087799890199676 0.10882157142207559
95 -0.031266142980062535 -0.06683400043818567 0.055104573465151976 -0.0015012855708066905 0.13026985562672572 0.08837157115340233 0.11274657175610107 -0.02942085705165352 -0.019660428565527712 -0.08188785754568276 0.030347572182238634 -0.1449594305595383 -0.13251971283794514 0.007168571464717388 0.019863428003321002 0.08022571531390506 -0.07268628285133413 0.023919429413841238 0.14294243344504917 -0.007121143064328602 -0.12162128403516752 -0.024197571653140976 -0.07425428381455797 -0.04643614317423531 0.20041728044660495 0.10289599969317871 0.16219242732040584 -0.014037714373054249 0.17810328870213457 0.0123271427333488 -0.08087799890199676 0.10882157142207559
96 -0.031266142980062535 -0.06683400043818567 0.055104573465151976 -0.0015012855708066905 0.13026985562672572 0.08837157115340233 0.11274657175610107 -0.02942085705165352 -0.019660428565527712 -0.08188785754568276 0.030347572182238634 -0.1449594305595383 -0.13251971283794514 0.007168571464717388 0.019863428003321002 0.08022571531390506 -0.07268628285133413 0.023919429413841238 0.14294243344504917 -0.007121143064328602 -0.12162128403516752 -0.024197571653140976 -0.07425428381455797 -0.04643614317423531 0.20041728044660495 0.10289599969317871 0.16219242732040584 -0.014037714373054249 0.17810328870213457 0.0123271427333488 -0.08087799890199676 0.10882157142207559
97 -0.10563799850642681 -0.19756480380892755 0.1598216027021408 0.003741400223225355 0.3956241962499917 0.27256180457770823 0.3299897987395525 -0.08252219912319561 -0.06964780017733574 -0.2447972028516233 0.09335200171917676 -0.4397254092618823 -0.4041884006932378 0.013401200459338725 0.05534299835562706 0.23922560326755046 -0.23703159573487936 0.06315460093319417 0.4267856107093394 -0.009134800429455936 -0.35572059601545336 -0.07769339997321367 -0.22593579702079297 -0.13768480194266886 0.6047039898112416 0.2923253976739943 0.4998196056112647 -0.037393600959330794 0.5458734007552266 0.040116000128909944 -0.252342801168561 0.3311941998079419
98 -0.031266142980062535 -0.06683400043818567 0.055104573465151976 -0.0015012855708066905 0.13026985562672572 0.08837157115340233 0.11274657175610107 -0.02942085705165352 -0.019660428565527712 -0.08188785754568276 0.030347572182238634 -0.1449594305595383 -0.13251971283794514 0.007168571464717388 0.019863428003321002 0.08022571531390506 -0.07268628285133413 0.023919429413841238 0.14294243344504917 -0.007121143064328602 -0.12162128403516752 -0.024197571653140976 -0.07425428381455797 -0.04643614317423531 0.20041728044660495 0.10289599969317871 0.16219242732040584 -0.014037714373054249 0.17810328870213457 0.0123271427333488 -0.08087799890199676 0.10882157142207559
99 -0.031266142980062535 -0.06683400043818567 0.055104573465151976 -0.0015012855708066905 0.13026985562672572 0.08837157115340233 0.11274657175610107 -0.02942085705165352 -0.019660428565527712 -0.08188785754568276 0.030347572182238634 -0.1449594305595383 -0.13251971283794514 0.007168571464717388 0.019863428003321002 0.08022571531390506 -0.07268628285133413 0.023919429413841238 0.14294243344504917 -0.007121143064328602 -0.12162128403516752 -0.024197571653140976 -0.07425428381455797 -0.04643614317423531 0.20041728044660495 0.10289599969317871 0.16219242732040584 -0.014037714373054249 0.17810328870213457 0.0123271427333488 -0.08087799890199676 0.10882157142207559
100 -0.031266142980062535 -0.06683400043818567 0.055104573465151976 -0.0015012855708066905 0.13026985562672572 0.08837157115340233 0.11274657175610107 -0.02942085705165352 -0.019660428565527712 -0.08188785754568276 0.030347572182238634 -0.1449594305595383 -0.13251971283794514 0.007168571464717388 0.019863428003321002 0.08022571531390506 -0.07268628285133413 0.023919429413841238 0.14294243344504917 -0.007121143064328602 -0.12162128403516752 -0.024197571653140976 -0.07425428381455797 -0.04643614317423531 0.20041728044660495 0.10289599969317871 0.16219242732040584 -0.014037714373054249 0.17810328870213457 0.0123271427333488 -0.08087799890199676 0.10882157142207559
101 -0.031266142980062535 -0.06683400043818567 0.055104573465151976 -0.0015012855708066905 0.13026985562672572 0.08837157115340233 0.11274657175610107 -0.02942085705165352 -0.019660428565527712 -0.08188785754568276 0.030347572182238634 -0.1449594305595383 -0.13251971283794514 0.007168571464717388 0.019863428003321002 0.08022571531390506 -0.07268628285133413 0.023919429413841238 0.14294243344504917 -0.007121143064328602 -0.12162128403516752 -0.024197571653140976 -0.07425428381455797 -0.04643614317423531 0.20041728044660495 0.10289599969317871 0.16219242732040584 -0.014037714373054249 0.17810328870213457 0.0123271427333488 -0.08087799890199676 0.10882157142207559
102 -0.031266142980062535 -0.06683400043818567 0.055104573465151976 -0.0015012855708066905 0.13026985562672572 0.08837157115340233 0.11274657175610107 -0.02942085705165352 -0.019660428565527712 -0.08188785754568276 0.030347572182238634 -0.1449594305595383 -0.13251971283794514 0.007168571464717388 0.019863428003321002 0.08022571531390506 -0.07268628285133413 0.023919429413841238 0.14294243344504917 -0.007121143064328602 -0.12162128403516752 -0.024197571653140976 -0.07425428381455797 -0.04643614317423531 0.20041728044660495 0.10289599969317871 0.16219242732040584 -0.014037714373054249 0.17810328870213457 0.0123271427333488 -0.08087799890199676 0.10882157142207559
103 -0.031266142980062535 -0.06683400043818567 0.055104573465151976 -0.0015012855708066905 0.13026985562672572 0.08837157115340233 0.11274657175610107 -0.02942085705165352 -0.019660428565527712 -0.08188785754568276 0.030347572182238634 -0.1449594305595383 -0.13251971283794514 0.007168571464717388 0.019863428003321002 0.08022571531390506 -0.07268628285133413 0.023919429413841238 0.14294243344504917 -0.007121143064328602 -0.12162128403516752 -0.024197571653140976 -0.07425428381455797 -0.04643614317423531 0.20041728044660495 0.10289599969317871 0.16219242732040584 -0.014037714373054249 0.17810328870213457 0.0123271427333488 -0.08087799890199676 0.10882157142207559
104 -0.11128971406391688 -0.1988597171647208 0.16389157303742 0.005731571586303679 0.41220842940466745 0.2903608573334558 0.3430065725530897 -0.08631614223122597 -0.06569057117615427 -0.2524455743176596 0.09696657210588455 -0.45874843427113127 -0.41346957215241026 0.013748857259218181 0.052453713225466866 0.25309257422174725 -0.24790528416633606 0.06715585770351547 0.4492397201912744 -0.010286428815951305 -0.374782851764134 -0.08975842754755702 -0.23532857213701522 -0.14194171556404658 0.6399622857570648 0.30314871455941883 0.5291634287152972 -0.04851371528846877 0.5723849960735866 0.047574429107563834 -0.2570045718124935 0.3515428602695465
105 -0.11073100025003607 -0.20187991044738077 0.16376963664184918 0.007348363607889041 0.40622745047916065 0.2897065444426103 0.3389495448632674 -0.08976954492655667 -0.06789690899578008 -0.24638572877103632 0.09467063607140021 -0.44967254454439337 -0.4104795483025638 0.011789454634047368 0.054149999875913964 0.2467450892383402 -0.2456414536996321 0.0634394542060115 0.4480338232083754 -0.02274772720623084 -0.36536463553255255 -0.07229663702574643 -0.23751427097754044 -0.13841118257154117 0.6306262720714916 0.3016145486723293 0.5162366411902688 -0.03004309107464823 0.5616831806573 0.04556563632054762 -0.2536360892382535 0.344777911901474
106 -0.11044599985082944 -0.20271150271097818 0.16206750025351843 0.01036283354430149 0.41955816745758057 0.2977075030406316 0.3509125014146169 -0.0844281663497289 -0.06844000021616618 -0.25222483774026233 0.09859050127367179 -0.46075617770353955 -0.4190566688776016 0.01887533355814715 0.060004999240239464 0.2521065026521683 -0.24868199725945792 0.06421983366211255 0.46021467447280884 -0.003681833557493519 -0.3865533322095871 -0.09380800028642018 -0.23862833033005396 -0.1470066693921884 0.6487994939088821 0.3083873316645622 0.5356645087401072 -0.045670500956475735 0.5831966648499171 0.04811183363199234 -0.2646910026669502 0.3554091701904933
107 -0.11698766673604648 -0.2164048378666242 0.16850816706816354 0.004292666834468643 0.43963666756947833 0.3067688395579656 0.3613978351155917 -0.09246950037777424 -0.07003266674776872 -0.26347866902748746 0.1064220021168391 -0.47893884281317395 -0.43263982733090717 0.018269833565379184 0.05484283280869325 0.25876500209172565 -0.25683066497246426 0.06916116674741109 0.4727173447608948 -0.00787483355573689 -0.3929239933689435 -0.0933258334795634 -0.24859116723140082 -0.15287350118160248 0.6720188309748968 0.3183671658237775 0.5491330077250799 -0.05268500093370676 0.5984328339497248 0.04645266694327196 -0.2719951669375102 0.3687911679347356
108 -0.11128971406391688 -0.1988597171647208 0.16389157303742 0.005731571586303679 0.41220842940466745 0.2903608573334558 0.3430065725530897 -0.08631614223122597 -0.06569057117615427 -0.2524455743176596 0.09696657210588455 -0.45874843427113127 -0.41346957215241026 0.013748857259218181 0.052453713225466866 0.25309257422174725 -0.24790528416633606 0.06715585770351547 0.4492397201912744 -0.010286428815951305 -0.374782851764134 -0.08975842754755702 -0.23532857213701522 -0.14194171556404658 0.6399622857570648 0.30314871455941883 0.5291634287152972 -0.04851371528846877 0.5723849960735866 0.047574429107563834 -0.2570045718124935 0.3515428602695465
109 -0.11073100025003607 -0.20187991044738077 0.16376963664184918 0.007348363607889041 0.40622745047916065 0.2897065444426103 0.3389495448632674 -0.08976954492655667 -0.06789690899578008 -0.24638572877103632 0.09467063607140021 -0.44967254454439337 -0.4104795483025638 0.011789454634047368 0.054149999875913964 0.2467450892383402 -0.2456414536996321 0.0634394542060115 0.4480338232083754 -0.02274772720623084 -0.36536463553255255 -0.07229663702574643 -0.23751427097754044 -0.13841118257154117 0.6306262720714916 0.3016145486723293 0.5162366411902688 -0.03004309107464823 0.5616831806573 0.04556563632054762 -0.2536360892382535 0.344777911901474
110 -0.11073100025003607 -0.20187991044738077 0.16376963664184918 0.007348363607889041 0.40622745047916065 0.2897065444426103 0.3389495448632674 -0.08976954492655667 -0.06789690899578008 -0.24638572877103632 0.09467063607140021 -0.44967254454439337 -0.4104795483025638 0.011789454634047368 0.054149999875913964 0.2467450892383402 -0.2456414536996321 0.0634394542060115 0.4480338232083754 -0.02274772720623084 -0.36536463553255255 -0.07229663702574643 -0.23751427097754044 -0.13841118257154117 0.6306262720714916 0.3016145486723293 0.5162366411902688 -0.03004309107464823 0.5616831806573 0.04556563632054762 -0.2536360892382535 0.344777911901474
111 -0.11128971406391688 -0.1988597171647208 0.16389157303742 0.005731571586303679 0.41220842940466745 0.2903608573334558 0.3430065725530897 -0.08631614223122597 -0.06569057117615427 -0.2524455743176596 0.09696657210588455 -0.45874843427113127 -0.41346957215241026 0.013748857259218181 0.052453713225466866 0.25309257422174725 -0.24790528416633606 0.06715585770351547 0.4492397201912744 -0.010286428815951305 -0.374782851764134 -0.08975842754755702 -0.23532857213701522 -0.14194171556404658 0.6399622857570648 0.30314871455941883 0.5291634287152972 -0.04851371528846877 0.5723849960735866 0.047574429107563834 -0.2570045718124935 0.3515428602695465
112 -0.11044599985082944 -0.20271150271097818 0.16206750025351843 0.01036283354430149 0.41955816745758057 0.2977075030406316 0.3509125014146169 -0.0844281663497289 -0.06844000021616618 -0.25222483774026233 0.09859050127367179 -0.46075617770353955 -0.4190566688776016 0.01887533355814715 0.060004999240239464 0.2521065026521683 -0.24868199725945792 0.06421983366211255 0.46021467447280884 -0.003681833557493519 -0.3865533322095871 -0.09380800028642018 -0.23862833033005396 -0.1470066693921884 0.6487994939088821 0.3083873316645622 0.5356645087401072 -0.045670500956475735 0.5831966648499171 0.04811183363199234 -0.2646910026669502 0.3554091701904933
113 -0.11698766673604648 -0.2164048378666242 0.16850816706816354 0.004292666834468643 0.43963666756947833 0.3067688395579656 0.3613978351155917 -0.09246950037777424 -0.07003266674776872 -0.26347866902748746 0.1064220021168391 -0.47893884281317395 -0.43263982733090717 0.018269833565379184 0.05484283280869325 0.25876500209172565 -0.25683066497246426 0.06916116674741109 0.4727173447608948 -0.00787483355573689 -0.3929239933689435 -0.0933258334795634 -0.24859116723140082 -0.15287350118160248 0.6720188309748968 0.3183671658237775 0.5491330077250799 -0.05268500093370676 0.5984328339497248 0.04645266694327196 -0.2719951669375102 0.3687911679347356
114 -0.11044599985082944 -0.20271150271097818 0.16206750025351843 0.01036283354430149 0.41955816745758057 0.2977075030406316 0.3509125014146169 -0.0844281663497289 -0.06844000021616618 -0.25222483774026233 0.09859050127367179 -0.46075617770353955 -0.4190566688776016 0.01887533355814715 0.060004999240239464 0.2521065026521683 -0.24868199725945792 0.06421983366211255 0.46021467447280884 -0.003681833557493519 -0.3865533322095871 -0.09380800028642018 -0.23862833033005396 -0.1470066693921884 0.6487994939088821 0.3083873316645622 0.5356645087401072 -0.045670500956475735 0.5831966648499171 0.04811183363199234 -0.2646910026669502 0.3554091701904933
115 -0.11044599985082944 -0.20271150271097818 0.16206750025351843 0.01036283354430149 0.41955816745758057 0.2977075030406316 0.3509125014146169 -0.0844281663497289 -0.06844000021616618 -0.25222483774026233 0.09859050127367179 -0.46075617770353955 -0.4190566688776016 0.01887533355814715 0.060004999240239464 0.2521065026521683 -0.24868199725945792 0.06421983366211255 0.46021467447280884 -0.003681833557493519 -0.3865533322095871 -0.09380800028642018 -0.23862833033005396 -0.1470066693921884 0.6487994939088821 0.3083873316645622 0.5356645087401072 -0.045670500956475735 0.5831966648499171 0.04811183363199234 -0.2646910026669502 0.3554091701904933
116 -0.11044599985082944 -0.20271150271097818 0.16206750025351843 0.01036283354430149 0.41955816745758057 0.2977075030406316 0.3509125014146169 -0.0844281663497289 -0.06844000021616618 -0.25222483774026233 0.09859050127367179 -0.46075617770353955 -0.4190566688776016 0.01887533355814715 0.060004999240239464 0.2521065026521683 -0.24868199725945792 0.06421983366211255 0.46021467447280884 -0.003681833557493519 -0.3865533322095871 -0.09380800028642018 -0.23862833033005396 -0.1470066693921884 0.6487994939088821 0.3083873316645622 0.5356645087401072 -0.045670500956475735 0.5831966648499171 0.04811183363199234 -0.2646910026669502 0.3554091701904933
117 -0.11044599985082944 -0.20271150271097818 0.16206750025351843 0.01036283354430149 0.41955816745758057 0.2977075030406316 0.3509125014146169 -0.0844281663497289 -0.06844000021616618 -0.25222483774026233 0.09859050127367179 -0.46075617770353955 -0.4190566688776016 0.01887533355814715 0.060004999240239464 0.2521065026521683 -0.24868199725945792 0.06421983366211255 0.46021467447280884 -0.003681833557493519 -0.3865533322095871 -0.09380800028642018 -0.23862833033005396 -0.1470066693921884 0.6487994939088821 0.3083873316645622 0.5356645087401072 -0.045670500956475735 0.5831966648499171 0.04811183363199234 -0.2646910026669502 0.3554091701904933
118 -0.11128971406391688 -0.1988597171647208 0.16389157303742 0.005731571586303679 0.41220842940466745 0.2903608573334558 0.3430065725530897 -0.08631614223122597 -0.06569057117615427 -0.2524455743176596 0.09696657210588455 -0.45874843427113127 -0.41346957215241026 0.013748857259218181 0.052453713225466866 0.25309257422174725 -0.24790528416633606 0.06715585770351547 0.4492397201912744 -0.010286428815951305 -0.374782851764134 -0.08975842754755702 -0.23532857213701522 -0.14194171556404658 0.6399622857570648 0.30314871455941883 0.5291634287152972 -0.04851371528846877 0.5723849960735866 0.047574429107563834 -0.2570045718124935 0.3515428602695465
119 -0.11073100025003607 -0.20187991044738077 0.16376963664184918 0.007348363607889041 0.40622745047916065 0.2897065444426103 0.3389495448632674 -0.08976954492655667 -0.06789690899578008 -0.24638572877103632 0.09467063607140021 -0.44967254454439337 -0.4104795483025638 0.011789454634047368 0.054149999875913964 0.2467450892383402 -0.2456414536996321 0.0634394542060115 0.4480338232083754 -0.02274772720623084 -0.36536463553255255 -0.07229663702574643 -0.23751427097754044 -0.13841118257154117 0.6306262720714916 0.3016145486723293 0.5162366411902688 -0.03004309107464823 0.5616831806573 0.04556563632054762 -0.2536360892382535 0.344777911901474
120 -0.11044599985082944 -0.20271150271097818 0.16206750025351843 0.01036283354430149 0.41955816745758057 0.2977075030406316 0.3509125014146169 -0.0844281663497289 -0.06844000021616618 -0.25222483774026233 0.09859050127367179 -0.46075617770353955 -0.4190566688776016 0.01887533355814715 0.060004999240239464 0.2521065026521683 -0.24868199725945792 0.06421983366211255 0.46021467447280884 -0.003681833557493519 -0.3865533322095871 -0.09380800028642018 -0.23862833033005396 -0.1470066693921884 0.6487994939088821 0.3083873316645622 0.5356645087401072 -0.045670500956475735 0.5831966648499171 0.04811183363199234 -0.2646910026669502 0.3554091701904933
121 -0.11167655481646459 -0.20447366777807474 0.1603217791352007 0.009496555763891794 0.4104434418388539 0.29038822268032366 0.3416518923412595 -0.08606766764488485 -0.07544899969879124 -0.24989522548599374 0.0952566670667794 -0.44914610960727763 -0.41066088827533853 0.01773388906278544 0.058787999972183674 0.24525544233620167 -0.24311611118739368 0.061337888758215636 0.4514100049725837 -0.017538111023087468 -0.3725861110724509 -0.08075422255529298 -0.2388805542141199 -0.14248277722961372 0.6406289994095763 0.3046933314245608 0.5235900081849346 -0.04080866680790981 0.5643376597306795 0.04700866646857725 -0.26637488826074535 0.34988233343594605
122 -0.11698766673604648 -0.2164048378666242 0.16850816706816354 0.004292666834468643 0.43963666756947833 0.3067688395579656 0.3613978351155917 -0.09246950037777424 -0.07003266674776872 -0.26347866902748746 0.1064220021168391 -0.47893884281317395 -0.43263982733090717 0.018269833565379184 0.05484283280869325 0.25876500209172565 -0.25683066497246426 0.06916116674741109 0.4727173447608948 -0.00787483355573689 -0.3929239933689435 -0.0933258334795634 -0.24859116723140082 -0.15287350118160248 0.6720188309748968 0.3183671658237775 0.5491330077250799 -0.05268500093370676 0.5984328339497248 0.04645266694327196 -0.2719951669375102 0.3687911679347356
123 -0.11044599985082944 -0.20271150271097818 0.16206750025351843 0.01036283354430149 0.41955816745758057 0.2977075030406316 0.3509125014146169 -0.0844281663497289 -0.06844000021616618 -0.25222483774026233 0.09859050127367179 -0.46075617770353955 -0.4190566688776016 0.01887533355814715 0.060004999240239464 0.2521065026521683 -0.24868199725945792 0.06421983366211255 0.46021467447280884 -0.003681833557493519 -0.3865533322095871 -0.09380800028642018 -0.23862833033005396 -0.1470066693921884 0.6487994939088821 0.3083873316645622 0.5356645087401072 -0.045670500956475735 0.5831966648499171 0.04811183363199234 -0.2646910026669502 0.3554091701904933
124 -0.11698766673604648 -0.2164048378666242 0.16850816706816354 0.004292666834468643 0.43963666756947833 0.3067688395579656 0.3613978351155917 -0.09246950037777424 -0.07003266674776872 -0.26347866902748746 0.1064220021168391 -0.47893884281317395 -0.43263982733090717 0.018269833565379184 0.05484283280869325 0.25876500209172565 -0.25683066497246426 0.06916116674741109 0.4727173447608948 -0.00787483355573689 -0.3929239933689435 -0.0933258334795634 -0.24859116723140082 -0.15287350118160248 0.6720188309748968 0.3183671658237775 0.5491330077250799 -0.05268500093370676 0.5984328339497248 0.04645266694327196 -0.2719951669375102 0.3687911679347356
125 -0.11698766673604648 -0.2164048378666242 0.16850816706816354 0.004292666834468643 0.43963666756947833 0.3067688395579656 0.3613978351155917 -0.09246950037777424 -0.07003266674776872 -0.26347866902748746 0.1064220021168391 -0.47893884281317395 -0.43263982733090717 0.018269833565379184 0.05484283280869325 0.25876500209172565 -0.25683066497246426 0.06916116674741109 0.4727173447608948 -0.00787483355573689 -0.3929239933689435 -0.0933258334795634 -0.24859116723140082 -0.15287350118160248 0.6720188309748968 0.3183671658237775 0.5491330077250799 -0.05268500093370676 0.5984328339497248 0.04645266694327196 -0.2719951669375102 0.3687911679347356
126 -0.11044599985082944 -0.20271150271097818 0.16206750025351843 0.01036283354430149 0.41955816745758057 0.2977075030406316 0.3509125014146169 -0.0844281663497289 -0.06844000021616618 -0.25222483774026233 0.09859050127367179 -0.46075617770353955 -0.4190566688776016 0.01887533355814715 0.060004999240239464 0.2521065026521683 -0.24868199725945792 0.06421983366211255 0.46021467447280884 -0.003681833557493519 -0.3865533322095871 -0.09380800028642018 -0.23862833033005396 -0.1470066693921884 0.6487994939088821 0.3083873316645622 0.5356645087401072 -0.045670500956475735 0.5831966648499171 0.04811183363199234 -0.2646910026669502 0.3554091701904933
127 -0.11698766673604648 -0.2164048378666242 0.16850816706816354 0.004292666834468643 0.43963666756947833 0.3067688395579656 0.3613978351155917 -0.09246950037777424 -0.07003266674776872 -0.26347866902748746 0.1064220021168391 -0.47893884281317395 -0.43263982733090717 0.018269833565379184 0.05484283280869325 0.25876500209172565 -0.25683066497246426 0.06916116674741109 0.4727173447608948 -0.00787483355573689 -0.3929239933689435 -0.0933258334795634 -0.24859116723140082 -0.15287350118160248 0.6720188309748968 0.3183671658237775 0.5491330077250799 -0.05268500093370676 0.5984328339497248 0.04645266694327196 -0.2719951669375102 0.3687911679347356
128 -0.11073100025003607 -0.20187991044738077 0.16376963664184918 0.007348363607889041 0.40622745047916065 0.2897065444426103 0.3389495448632674 -0.08976954492655667 -0.06789690899578008 -0.24638572877103632 0.09467063607140021 -0.44967254454439337 -0.4104795483025638 0.011789454634047368 0.054149999875913964 0.2467450892383402 -0.2456414536996321 0.0634394542060115 0.4480338232083754 -0.02274772720623084 -0.36536463553255255 -0.07229663702574643 -0.23751427097754044 -0.13841118257154117 0.6306262720714916 0.3016145486723293 0.5162366411902688 -0.03004309107464823 0.5616831806573 0.04556563632054762 -0.2536360892382535 0.344777911901474
129 -0.11128971406391688 -0.1988597171647208 0.16389157303742 0.005731571586303679 0.41220842940466745 0.2903608573334558 0.3430065725530897 -0.08631614223122597 -0.06569057117615427 -0.2524455743176596 0.09696657210588455 -0.45874843427113127 -0.41346957215241026 0.013748857259218181 0.052453713225466866 0.25309257422174725 -0.24790528416633606 0.06715585770351547 0.4492397201912744 -0.010286428815951305 -0.374782851764134 -0.08975842754755702 -0.23532857213701522 -0.14194171556404658 0.6399622857570648 0.30314871455941883 0.5291634287152972 -0.04851371528846877 0.5723849960735866 0.047574429107563834 -0.2570045718124935 0.3515428602695465
130 -0.11073100025003607 -0.20187991044738077 0.16376963664184918 0.007348363607889041 0.40622745047916065 0.2897065444426103 0.3389495448632674 -0.08976954492655667 -0.06789690899578008 -0.24638572877103632 0.09467063607140021 -0.44967254454439337 -0.4104795483025638 0.011789454634047368 0.054149999875913964 0.2467450892383402 -0.2456414536996321 0.0634394542060115 0.4480338232083754 -0.02274772720623084 -0.36536463553255255 -0.07229663702574643 -0.23751427097754044 -0.13841118257154117 0.6306262720714916 0.3016145486723293 0.5162366411902688 -0.03004309107464823 0.5616831806573 0.04556563632054762 -0.2536360892382535 0.344777911901474
131 -0.11698766673604648 -0.2164048378666242 0.16850816706816354 0.004292666834468643 0.43963666756947833 0.3067688395579656 0.3613978351155917 -0.09246950037777424 -0.07003266674776872 -0.26347866902748746 0.1064220021168391 -0.47893884281317395 -0.43263982733090717 0.018269833565379184 0.05484283280869325 0.25876500209172565 -0.25683066497246426 0.06916116674741109 0.4727173447608948 -0.00787483355573689 -0.3929239933689435 -0.0933258334795634 -0.24859116723140082 -0.15287350118160248 0.6720188309748968 0.3183671658237775 0.5491330077250799 -0.05268500093370676 0.5984328339497248 0.04645266694327196 -0.2719951669375102 0.3687911679347356
132 -0.11073100025003607 -0.20187991044738077 0.16376963664184918 0.007348363607889041 0.40622745047916065 0.2897065444426103 0.3389495448632674 -0.08976954492655667 -0.06789690899578008 -0.24638572877103632 0.09467063607140021 -0.44967254454439337 -0.4104795483025638 0.011789454634047368 0.054149999875913964 0.2467450892383402 -0.2456414536996321 0.0634394542060115 0.4480338232083754 -0.02274772720623084 -0.36536463553255255 -0.07229663702574643 -0.23751427097754044 -0.13841118257154117 0.6306262720714916 0.3016145486723293 0.5162366411902688 -0.03004309107464823 0.5616831806573 0.04556563632054762 -0.2536360892382535 0.344777911901474
133 -0.11698766673604648 -0.2164048378666242 0.16850816706816354 0.004292666834468643 0.43963666756947833 0.3067688395579656 0.3613978351155917 -0.09246950037777424 -0.07003266674776872 -0.26347866902748746 0.1064220021168391 -0.47893884281317395 -0.43263982733090717 0.018269833565379184 0.05484283280869325 0.25876500209172565 -0.25683066497246426 0.06916116674741109 0.4727173447608948 -0.00787483355573689 -0.3929239933689435 -0.0933258334795634 -0.24859116723140082 -0.15287350118160248 0.6720188309748968 0.3183671658237775 0.5491330077250799 -0.05268500093370676 0.5984328339497248 0.04645266694327196 -0.2719951669375102 0.3687911679347356
134 -0.11044599985082944 -0.20271150271097818 0.16206750025351843 0.01036283354430149 0.41955816745758057 0.2977075030406316 0.3509125014146169 -0.0844281663497289 -0.06844000021616618 -0.25222483774026233 0.09859050127367179 -0.46075617770353955 -0.4190566688776016 0.01887533355814715 0.060004999240239464 0.2521065026521683 -0.24868199725945792 0.06421983366211255 0.46021467447280884 -0.003681833557493519 -0.3865533322095871 -0.09380800028642018 -0.23862833033005396 -0.1470066693921884 0.6487994939088821 0.3083873316645622 0.5356645087401072 -0.045670500956475735 0.5831966648499171 0.04811183363199234 -0.2646910026669502 0.3554091701904933
135 -0.11128971406391688 -0.1988597171647208 0.16389157303742 0.005731571586303679 0.41220842940466745 0.2903608573334558 0.3430065725530897 -0.08631614223122597 -0.06569057117615427 -0.2524455743176596 0.09696657210588455 -0.45874843427113127 -0.41346957215241026 0.013748857259218181 0.052453713225466866 0.25309257422174725 -0.24790528416633606 0.06715585770351547 0.4492397201912744 -0.010286428815951305 -0.374782851764134 -0.08975842754755702 -0.23532857213701522 -0.14194171556404658 0.6399622857570648 0.30314871455941883 0.5291634287152972 -0.04851371528846877 0.5723849960735866 0.047574429107563834 -0.2570045718124935 0.3515428602695465
136 -0.11073100025003607 -0.20187991044738077 0.16376963664184918 0.007348363607889041 0.40622745047916065 0.2897065444426103 0.3389495448632674 -0.08976954492655667 -0.06789690899578008 -0.24638572877103632 0.09467063607140021 -0.44967254454439337 -0.4104795483025638 0.011789454634047368 0.054149999875913964 0.2467450892383402 -0.2456414536996321 0.0634394542060115 0.4480338232083754 -0.02274772720623084 -0.36536463553255255 -0.07229663702574643 -0.23751427097754044 -0.13841118257154117 0.6306262720714916 0.3016145486723293 0.5162366411902688 -0.03004309107464823 0.5616831806573 0.04556563632054762 -0.2536360892382535 0.344777911901474
137 -0.11698766673604648 -0.2164048378666242 0.16850816706816354 0.004292666834468643 0.43963666756947833 0.3067688395579656 0.3613978351155917 -0.09246950037777424 -0.07003266674776872 -0.26347866902748746 0.1064220021168391 -0.47893884281317395 -0.43263982733090717 0.018269833565379184 0.05484283280869325 0.25876500209172565 -0.25683066497246426 0.06916116674741109 0.4727173447608948 -0.00787483355573689 -0.3929239933689435 -0.0933258334795634 -0.24859116723140082 -0.15287350118160248 0.6720188309748968 0.3183671658237775 0.5491330077250799 -0.05268500093370676 0.5984328339497248 0.04645266694327196 -0.2719951669375102 0.3687911679347356
138 -0.11167655481646459 -0.20447366777807474 0.1603217791352007 0.009496555763891794 0.4104434418388539 0.29038822268032366 0.3416518923412595 -0.08606766764488485 -0.07544899969879124 -0.24989522548599374 0.0952566670667794 -0.44914610960727763 -0.41066088827533853 0.01773388906278544 0.058787999972183674 0.24525544233620167 -0.24311611118739368 0.061337888758215636 0.4514100049725837 -0.017538111023087468 -0.3725861110724509 -0.08075422255529298 -0.2388805542141199 -0.14248277722961372 0.6406289994095763 0.3046933314245608 0.5235900081849346 -0.04080866680790981 0.5643376597306795 0.04700866646857725 -0.26637488826074535 0.34988233343594605
139 -0.11698766673604648 -0.2164048378666242 0.16850816706816354 0.004292666834468643 0.43963666756947833 0.3067688395579656 0.3613978351155917 -0.09246950037777424 -0.07003266674776872 -0.26347866902748746 0.1064220021168391 -0.47893884281317395 -0.43263982733090717 0.018269833565379184 0.05484283280869325 0.25876500209172565 -0.25683066497246426 0.06916116674741109 0.4727173447608948 -0.00787483355573689 -0.3929239933689435 -0.0933258334795634 -0.24859116723140082 -0.15287350118160248 0.6720188309748968 0.3183671658237775 0.5491330077250799 -0.05268500093370676 0.5984328339497248 0.04645266694327196 -0.2719951669375102 0.3687911679347356
140 -0.11167655481646459 -0.20447366777807474 0.1603217791352007 0.009496555763891794 0.4104434418388539 0.29038822268032366 0.3416518923412595 -0.08606766764488485 -0.07544899969879124 -0.24989522548599374 0.0952566670667794 -0.44914610960727763 -0.41066088827533853 0.01773388906278544 0.058787999972183674 0.24525544233620167 -0.24311611118739368 0.061337888758215636 0.4514100049725837 -0.017538111023087468 -0.3725861110724509 -0.08075422255529298 -0.2388805542141199 -0.14248277722961372 0.6406289994095763 0.3046933314245608 0.5235900081849346 -0.04080866680790981 0.5643376597306795 0.04700866646857725 -0.26637488826074535 0.34988233343594605
141 -0.11044599985082944 -0.20271150271097818 0.16206750025351843 0.01036283354430149 0.41955816745758057 0.2977075030406316 0.3509125014146169 -0.0844281663497289 -0.06844000021616618 -0.25222483774026233 0.09859050127367179 -0.46075617770353955 -0.4190566688776016 0.01887533355814715 0.060004999240239464 0.2521065026521683 -0.24868199725945792 0.06421983366211255 0.46021467447280884 -0.003681833557493519 -0.3865533322095871 -0.09380800028642018 -0.23862833033005396 -0.1470066693921884 0.6487994939088821 0.3083873316645622 0.5356645087401072 -0.045670500956475735 0.5831966648499171 0.04811183363199234 -0.2646910026669502 0.3554091701904933
142 -0.11698766673604648 -0.2164048378666242 0.16850816706816354 0.004292666834468643 0.43963666756947833 0.3067688395579656 0.3613978351155917 -0.09246950037777424 -0.07003266674776872 -0.26347866902748746 0.1064220021168391 -0.47893884281317395 -0.43263982733090717 0.018269833565379184 0.05484283280869325 0.25876500209172565 -0.25683066497246426 0.06916116674741109 0.4727173447608948 -0.00787483355573689 -0.3929239933689435 -0.0933258334795634 -0.24859116723140082 -0.15287350118160248 0.6720188309748968 0.3183671658237775 0.5491330077250799 -0.05268500093370676 0.5984328339497248 0.04645266694327196 -0.2719951669375102 0.3687911679347356
143 -0.11128971406391688 -0.1988597171647208 0.16389157303742 0.005731571586303679 0.41220842940466745 0.2903608573334558 0.3430065725530897 -0.08631614223122597 -0.06569057117615427 -0.2524455743176596 0.09696657210588455 -0.45874843427113127 -0.41346957215241026 0.013748857259218181 0.052453713225466866 0.25309257422174725 -0.24790528416633606 0.06715585770351547 0.4492397201912744 -0.010286428815951305 -0.374782851764134 -0.08975842754755702 -0.23532857213701522 -0.14194171556404658 0.6399622857570648 0.30314871455941883 0.5291634287152972 -0.04851371528846877 0.5723849960735866 0.047574429107563834 -0.2570045718124935 0.3515428602695465
144 -0.11698766673604648 -0.2164048378666242 0.16850816706816354 0.004292666834468643 0.43963666756947833 0.3067688395579656 0.3613978351155917 -0.09246950037777424 -0.07003266674776872 -0.26347866902748746 0.1064220021168391 -0.47893884281317395 -0.43263982733090717 0.018269833565379184 0.05484283280869325 0.25876500209172565 -0.25683066497246426 0.06916116674741109 0.4727173447608948 -0.00787483355573689 -0.3929239933689435 -0.0933258334795634 -0.24859116723140082 -0.15287350118160248 0.6720188309748968 0.3183671658237775 0.5491330077250799 -0.05268500093370676 0.5984328339497248 0.04645266694327196 -0.2719951669375102 0.3687911679347356
145 -0.11044599985082944 -0.20271150271097818 0.16206750025351843 0.01036283354430149 0.41955816745758057 0.2977075030406316 0.3509125014146169 -0.0844281663497289 -0.06844000021616618 -0.25222483774026233 0.09859050127367179 -0.46075617770353955 -0.4190566688776016 0.01887533355814715 0.060004999240239464 0.2521065026521683 -0.24868199725945792 0.06421983366211255 0.46021467447280884 -0.003681833557493519 -0.3865533322095871 -0.09380800028642018 -0.23862833033005396 -0.1470066693921884 0.6487994939088821 0.3083873316645622 0.5356645087401072 -0.045670500956475735 0.5831966648499171 0.04811183363199234 -0.2646910026669502 0.3554091701904933
146 -0.11073100025003607 -0.20187991044738077 0.16376963664184918 0.007348363607889041 0.40622745047916065 0.2897065444426103 0.3389495448632674 -0.08976954492655667 -0.06789690899578008 -0.24638572877103632 0.09467063607140021 -0.44967254454439337 -0.4104795483025638 0.011789454634047368 0.054149999875913964 0.2467450892383402 -0.2456414536996321 0.0634394542060115 0.4480338232083754 -0.02274772720623084 -0.36536463553255255 -0.07229663702574643 -0.23751427097754044 -0.13841118257154117 0.6306262720714916 0.3016145486723293 0.5162366411902688 -0.03004309107464823 0.5616831806573 0.04556563632054762 -0.2536360892382535 0.344777911901474
147 -0.11128971406391688 -0.1988597171647208 0.16389157303742 0.005731571586303679 0.41220842940466745 0.2903608573334558 0.3430065725530897 -0.08631614223122597 -0.06569057117615427 -0.2524455743176596 0.09696657210588455 -0.45874843427113127 -0.41346957215241026 0.013748857259218181 0.052453713225466866 0.25309257422174725 -0.24790528416633606 0.06715585770351547 0.4492397201912744 -0.010286428815951305 -0.374782851764134 -0.08975842754755702 -0.23532857213701522 -0.14194171556404658 0.6399622857570648 0.30314871455941883 0.5291634287152972 -0.04851371528846877 0.5723849960735866 0.047574429107563834 -0.2570045718124935 0.3515428602695465
148 -0.11044599985082944 -0.20271150271097818 0.16206750025351843 0.01036283354430149 0.41955816745758057 0.2977075030406316 0.3509125014146169 -0.0844281663497289 -0.06844000021616618 -0.25222483774026233 0.09859050127367179 -0.46075617770353955 -0.4190566688776016 0.01887533355814715 0.060004999240239464 0.2521065026521683 -0.24868199725945792 0.06421983366211255 0.46021467447280884 -0.003681833557493519 -0.3865533322095871 -0.09380800028642018 -0.23862833033005396 -0.1470066693921884 0.6487994939088821 0.3083873316645622 0.5356645087401072 -0.045670500956475735 0.5831966648499171 0.04811183363199234 -0.2646910026669502 0.3554091701904933
149 -0.11073100025003607 -0.20187991044738077 0.16376963664184918 0.007348363607889041 0.40622745047916065 0.2897065444426103 0.3389495448632674 -0.08976954492655667 -0.06789690899578008 -0.24638572877103632 0.09467063607140021 -0.44967254454439337 -0.4104795483025638 0.011789454634047368 0.054149999875913964 0.2467450892383402 -0.2456414536996321 0.0634394542060115 0.4480338232083754 -0.02274772720623084 -0.36536463553255255 -0.07229663702574643 -0.23751427097754044 -0.13841118257154117 0.6306262720714916 0.3016145486723293 0.5162366411902688 -0.03004309107464823 0.5616831806573 0.04556563632054762 -0.2536360892382535 0.344777911901474
150 -0.11044599985082944 -0.20271150271097818 0.16206750025351843 0.01036283354430149 0.41955816745758057 0.2977075030406316 0.3509125014146169 -0.0844281663497289 -0.06844000021616618 -0.25222483774026233 0.09859050127367179 -0.46075617770353955 -0.4190566688776016 0.01887533355814715 0.060004999240239464 0.2521065026521683 -0.24868199725945792 0.06421983366211255 0.46021467447280884 -0.003681833557493519 -0.3865533322095871 -0.09380800028642018 -0.23862833033005396 -0.1470066693921884 0.6487994939088821 0.3083873316645622 0.5356645087401072 -0.045670500956475735 0.5831966648499171 0.04811183363199234 -0.2646910026669502 0.3554091701904933
151 -0.11167655481646459 -0.20447366777807474 0.1603217791352007 0.009496555763891794 0.4104434418388539 0.29038822268032366 0.3416518923412595 -0.08606766764488485 -0.07544899969879124 -0.24989522548599374 0.0952566670667794 -0.44914610960727763 -0.41066088827533853 0.01773388906278544 0.058787999972183674 0.24525544233620167 -0.24311611118739368 0.061337888758215636 0.4514100049725837 -0.017538111023087468 -0.3725861110724509 -0.08075422255529298 -0.2388805542141199 -0.14248277722961372 0.6406289994095763 0.3046933314245608 0.5235900081849346 -0.04080866680790981 0.5643376597306795 0.04700866646857725 -0.26637488826074535 0.34988233343594605
152 -0.11073100025003607 -0.20187991044738077 0.16376963664184918 0.007348363607889041 0.40622745047916065 0.2897065444426103 0.3389495448632674 -0.08976954492655667 -0.06789690899578008 -0.24638572877103632 0.09467063607140021 -0.44967254454439337 -0.4104795483025638 0.011789454634047368 0.054149999875913964 0.2467450892383402 -0.2456414536996321 0.0634394542060115 0.4480338232083754 -0.02274772720623084 -0.36536463553255255 -0.07229663702574643 -0.23751427097754044 -0.13841118257154117 0.6306262720714916 0.3016145486723293 0.5162366411902688 -0.03004309107464823 0.5616831806573 0.04556563632054762 -0.2536360892382535 0.344777911901474
153 -0.11698766673604648 -0.2164048378666242 0.16850816706816354 0.004292666834468643 0.43963666756947833 0.3067688395579656 0.3613978351155917 -0.09246950037777424 -0.07003266674776872 -0.26347866902748746 0.1064220021168391 -0.47893884281317395 -0.43263982733090717 0.018269833565379184 0.05484283280869325 0.25876500209172565 -0.25683066497246426 0.06916116674741109 0.4727173447608948 -0.00787483355573689 -0.3929239933689435 -0.0933258334795634 -0.24859116723140082 -0.15287350118160248 0.6720188309748968 0.3183671658237775 0.5491330077250799 -0.05268500093370676 0.5984328339497248 0.04645266694327196 -0.2719951669375102 0.3687911679347356
