1300 32
FSNamesysnem -0.173003 -0.187881 0.111449 0.071365 0.458369 0.354863 0.410393 -0.042744 -0.109415 -0.404167 0.169506 -0.534533 -0.582952 0.014401 0.031077 0.430793 -0.394813 0.109742 0.428645 -0.077391 -0.445817 0.003971 -0.245053 -0.144581 0.886668 0.351981 0.611323 -0.000125 0.658964 0.049296 -0.341848 0.414031 
tevminating -0.127435 -0.143085 0.085459 0.064352 0.324775 0.218649 0.244913 -0.036028 -0.085951 -0.279626 0.137783 -0.335591 -0.377075 -0.017561 -0.024234 0.302967 -0.255626 0.078247 0.283619 -0.021266 -0.308672 -0.033740 -0.144291 -0.120794 0.600434 0.258480 0.381692 -0.005527 0.466523 0.008560 -0.208480 0.287520 
rrc -0.010197 -0.019932 0.018681 0.026113 0.048694 0.080642 0.048375 0.027887 0.009979 -0.051107 0.009069 -0.089467 -0.084603 0.035987 0.030101 0.036199 -0.059822 0.005684 0.052498 -0.015569 -0.075129 0.023749 -0.051240 0.000467 0.133354 0.043962 0.110228 -0.015822 0.094686 0.054850 -0.068267 0.078112 
eo -0.103233 -0.110605 0.059640 0.046627 0.290250 0.245952 0.263562 -0.033229 -0.056620 -0.258826 0.083432 -0.349289 -0.376648 0.006706 0.021944 0.288019 -0.245209 0.067390 0.277475 -0.038400 -0.295567 0.017795 -0.149100 -0.093885 0.567681 0.233443 0.410460 0.006751 0.425427 0.042976 -0.224569 0.257030 
rize -0.076542 -0.078362 0.053866 0.046545 0.191748 0.175082 0.171227 -0.014760 -0.040621 -0.180040 0.058808 -0.238363 -0.254894 0.013584 0.008344 0.193302 -0.171156 0.034071 0.189792 -0.028773 -0.201396 0.011379 -0.106088 -0.062759 0.395477 0.167326 0.275368 -0.002779 0.290386 0.047176 -0.153457 0.180479 
Recqived -0.016472 -0.047458 0.016375 0.034717 0.082631 0.083756 0.057654 0.012872 -0.010189 -0.089861 0.023739 -0.098488 -0.111399 0.009150 -0.001530 0.101042 -0.071282 0.010286 0.077051 0.002298 -0.093685 0.013096 -0.054953 -0.030160 0.171898 0.079046 0.117047 0.003666 0.134115 0.021291 -0.076766 0.090024 
blkckMap -0.094602 -0.087458 0.050163 0.079156 0.268378 0.216848 0.216145 -0.013375 -0.047822 -0.216701 0.077520 -0.298938 -0.314497 0.033702 0.019270 0.226480 -0.197575 0.049737 0.199282 -0.021454 -0.255949 0.023729 -0.111774 -0.075482 0.486740 0.191083 0.332105 -0.002993 0.362618 0.054456 -0.181304 0.257440 
dfx -0.196646 -0.185769 0.102937 0.092085 0.503183 0.393111 0.445859 -0.074987 -0.114826 -0.434049 0.180097 -0.578560 -0.626319 -0.010217 0.010787 0.471792 -0.416175 0.120808 0.477055 -0.062397 -0.475468 -0.018668 -0.257506 -0.150949 0.940619 0.391324 0.648094 0.012145 0.717384 0.023849 -0.362651 0.419823 
FSNamezystem -0.166094 -0.169465 0.106491 0.064842 0.434768 0.347578 0.394201 -0.042735 -0.099842 -0.379409 0.151038 -0.530458 -0.563927 0.020492 0.029741 0.414806 -0.383897 0.101210 0.418868 -0.072481 -0.429357 0.003082 -0.240533 -0.135423 0.842748 0.347328 0.587991 0.012159 0.627466 0.051431 -0.330137 0.393956 
idded -0.164651 -0.145622 0.096752 0.068652 0.368711 0.314882 0.364367 -0.049106 -0.088081 -0.352589 0.124280 -0.482307 -0.505502 0.014463 0.028506 0.400689 -0.359049 0.092988 0.414420 -0.086861 -0.388159 0.009327 -0.228748 -0.130463 0.791244 0.321044 0.535767 0.023701 0.575469 0.042617 -0.295936 0.334534 
desv -0.138909 -0.153310 0.103488 0.063237 0.390743 0.305182 0.339632 -0.039622 -0.086787 -0.324471 0.132377 -0.453862 -0.470754 -0.012172 0.013683 0.362689 -0.331912 0.090455 0.375208 -0.049678 -0.373315 -0.012370 -0.194540 -0.131052 0.732767 0.303390 0.513346 0.005042 0.566892 0.024891 -0.294596 0.347350 
lameSystem -0.165772 -0.177349 0.095495 0.069668 0.446920 0.336952 0.377279 -0.049425 -0.110504 -0.372707 0.167482 -0.502023 -0.557278 -0.001403 0.013912 0.417970 -0.361191 0.103197 0.397001 -0.040664 -0.427635 -0.004532 -0.221089 -0.150784 0.831313 0.347231 0.579390 0.008273 0.627187 0.035965 -0.322093 0.396484 
hrc -0.033391 -0.050242 0.028616 0.044522 0.121852 0.102716 0.087265 0.009549 -0.004219 -0.095838 0.027591 -0.147924 -0.139759 0.016430 0.022046 0.094712 -0.112105 0.027932 0.100899 -0.005418 -0.133633 0.015741 -0.066834 -0.024450 0.230389 0.096707 0.183740 -0.016107 0.176415 0.046110 -0.094445 0.122685 
NameSystei -0.122569 -0.134823 0.089372 0.059958 0.323621 0.236622 0.269300 -0.027076 -0.079754 -0.257753 0.116516 -0.356999 -0.388570 -0.003852 0.000658 0.297838 -0.261091 0.063307 0.289581 -0.040310 -0.305500 0.003254 -0.148655 -0.098756 0.590510 0.236693 0.400842 0.000797 0.458257 0.030005 -0.224272 0.288488 
allocateBlovk -0.159161 -0.143511 0.089581 0.086273 0.400827 0.350257 0.361154 -0.028601 -0.100865 -0.346387 0.153537 -0.502474 -0.558453 0.017022 0.027098 0.407185 -0.355858 0.096004 0.400822 -0.057748 -0.430964 0.006093 -0.246702 -0.140849 0.799480 0.342257 0.546855 0.032349 0.599429 0.053664 -0.330917 0.385748 
dfc -0.199557 -0.209364 0.113591 0.071854 0.537057 0.419340 0.485972 -0.083497 -0.116535 -0.473559 0.197184 -0.636108 -0.684210 -0.005100 0.035463 0.507634 -0.458448 0.145022 0.519640 -0.065568 -0.513940 -0.030603 -0.291577 -0.159843 1.038571 0.420538 0.728942 0.002988 0.791113 -0.003156 -0.392216 0.450769 
Reteiving -0.093960 -0.124777 0.079648 0.046453 0.265962 0.169174 0.190326 -0.018212 -0.066772 -0.220161 0.114220 -0.266659 -0.283752 -0.021065 -0.022944 0.242767 -0.204400 0.056957 0.237791 -0.012162 -0.232196 -0.029831 -0.122460 -0.101305 0.468276 0.202759 0.314400 -0.012832 0.377354 0.003321 -0.167894 0.238039 
PacketRejponder -0.091379 -0.118624 0.065456 0.043442 0.282553 0.208905 0.231255 -0.028970 -0.065063 -0.228877 0.099258 -0.273436 -0.321085 -0.010359 -0.001963 0.237380 -0.202280 0.045767 0.212614 -0.027194 -0.246920 0.001264 -0.092595 -0.092982 0.491294 0.197181 0.342058 -0.013386 0.369731 0.021130 -0.203565 0.255904 
bNFO -0.147824 -0.151804 0.094625 0.047503 0.395297 0.305801 0.362594 -0.034321 -0.105919 -0.340861 0.136202 -0.485104 -0.515946 0.003762 0.042299 0.381681 -0.334053 0.105788 0.388325 -0.074592 -0.398844 0.007174 -0.216236 -0.120859 0.775969 0.321624 0.531017 0.000506 0.581920 0.044022 -0.290783 0.349579 
aoded -0.085746 -0.083409 0.048333 0.055053 0.198128 0.181716 0.201199 -0.015313 -0.042592 -0.196961 0.051976 -0.271054 -0.280970 0.020061 0.019846 0.232504 -0.202107 0.043893 0.227536 -0.062241 -0.231541 0.031184 -0.129885 -0.063098 0.446876 0.177058 0.293627 0.017538 0.316049 0.040795 -0.172836 0.192821 
Delezing -0.124822 -0.147619 0.093571 0.058471 0.338477 0.243553 0.279586 -0.055078 -0.072339 -0.287240 0.115720 -0.356626 -0.391898 -0.011404 -0.005725 0.320080 -0.281887 0.083038 0.321448 -0.041698 -0.313350 -0.013416 -0.172321 -0.118157 0.624840 0.254509 0.436068 -0.013336 0.477286 0.003674 -0.235547 0.285646 
cuxrent -0.102535 -0.123600 0.063367 0.069770 0.324805 0.239320 0.253465 -0.035180 -0.068483 -0.246941 0.116207 -0.342817 -0.363281 -0.017645 0.000939 0.284766 -0.248750 0.060480 0.259806 -0.019378 -0.286302 0.000209 -0.133794 -0.097340 0.555466 0.230434 0.397962 0.000240 0.443706 0.032115 -0.236636 0.283769 
fjr -0.117338 -0.113143 0.065418 0.063175 0.332396 0.265905 0.279600 -0.015291 -0.061595 -0.264772 0.110829 -0.378941 -0.396237 0.002692 0.018887 0.287651 -0.251456 0.056283 0.292099 -0.029676 -0.315269 0.010453 -0.147405 -0.094470 0.613774 0.250247 0.439797 -0.003368 0.454549 0.070257 -0.256375 0.318988 
fata -0.127465 -0.137814 0.073902 0.082703 0.382682 0.270810 0.292871 -0.043126 -0.087472 -0.288052 0.127262 -0.409231 -0.431051 -0.015511 -0.018686 0.336543 -0.275882 0.077929 0.304561 -0.014637 -0.350541 -0.001153 -0.153224 -0.112127 0.660609 0.280031 0.438208 0.008301 0.510642 0.046473 -0.259172 0.333287 
NwmeSystem -0.113102 -0.132142 0.074886 0.060207 0.321171 0.247034 0.274437 -0.012964 -0.071289 -0.261171 0.104793 -0.366499 -0.395062 0.008447 0.019759 0.296478 -0.260457 0.063622 0.279017 -0.037614 -0.310609 0.015168 -0.156672 -0.097534 0.590660 0.245593 0.423092 -0.000741 0.451542 0.053437 -0.231381 0.303868 
on -0.111097 -0.126630 0.072752 0.060967 0.315446 0.251035 0.262149 -0.036952 -0.061212 -0.271355 0.093810 -0.339410 -0.382967 -0.001205 0.011045 0.290357 -0.254783 0.070468 0.284200 -0.035659 -0.301728 0.009609 -0.141138 -0.101893 0.584924 0.241048 0.407102 -0.006139 0.439629 0.039415 -0.232064 0.269987 
irc -0.090303 -0.114703 0.072358 0.046524 0.279051 0.228864 0.235119 -0.018654 -0.061634 -0.246193 0.097432 -0.332134 -0.350608 0.010759 0.021020 0.256320 -0.234980 0.056008 0.263825 -0.032554 -0.267167 0.006114 -0.142239 -0.088347 0.547892 0.217230 0.383871 -0.005116 0.405921 0.046655 -0.212967 0.264327 
terminatinh -0.096482 -0.096409 0.064562 0.056407 0.234291 0.170286 0.172437 -0.022306 -0.051647 -0.205005 0.088684 -0.255955 -0.267860 0.008017 -0.005857 0.209402 -0.196877 0.055805 0.190281 -0.028873 -0.231717 -0.018420 -0.100446 -0.078774 0.441672 0.192238 0.276547 -0.014310 0.335820 0.027179 -0.151405 0.222134 
secceeded 0.067166 0.025279 -0.032805 0.026597 -0.100563 -0.077279 -0.120657 0.042536 0.041136 0.093547 -0.083430 0.150249 0.164220 0.033160 -0.020038 -0.080058 0.083855 -0.051409 -0.134691 0.044918 0.110646 0.046961 0.067595 0.026152 -0.220047 -0.100121 -0.161434 0.016268 -0.163415 0.024105 0.067404 -0.094044 
PackelResponder -0.081522 -0.096803 0.053334 0.050903 0.233843 0.196359 0.211262 -0.010188 -0.053206 -0.201079 0.073458 -0.264085 -0.279123 0.008379 0.012265 0.212529 -0.186164 0.037563 0.199923 -0.042934 -0.226909 0.022259 -0.102082 -0.076706 0.443020 0.174354 0.311224 -0.004305 0.316514 0.045024 -0.190308 0.233001 
tz -0.100150 -0.127179 0.068528 0.061637 0.309789 0.225085 0.243753 -0.041367 -0.074593 -0.254980 0.097469 -0.338497 -0.365767 -0.014484 -0.006214 0.302705 -0.238191 0.066414 0.264945 -0.017359 -0.296849 -0.009206 -0.137145 -0.104498 0.553858 0.239906 0.382152 0.001294 0.448412 0.016956 -0.203133 0.261602 
bloskMap -0.139173 -0.130010 0.075297 0.083918 0.361495 0.275366 0.292675 -0.031466 -0.077023 -0.304434 0.120082 -0.382914 -0.423861 0.016410 0.012405 0.312201 -0.270009 0.076513 0.293579 -0.043035 -0.343548 0.005448 -0.149845 -0.108841 0.660533 0.265319 0.433321 -0.010838 0.487688 0.040352 -0.239233 0.331157 
agded -0.062093 -0.059485 0.029312 0.044963 0.128502 0.124372 0.131258 0.001509 -0.025204 -0.135084 0.034034 -0.187284 -0.195360 0.029033 0.010908 0.160066 -0.132841 0.026729 0.151344 -0.040269 -0.162879 0.027968 -0.094466 -0.027592 0.312899 0.120438 0.181645 0.019367 0.208034 0.035409 -0.119142 0.122774 
bpdated -0.053751 -0.058541 0.031391 0.047607 0.124226 0.112365 0.117611 0.012355 -0.018339 -0.134371 0.017325 -0.163697 -0.167012 0.029119 0.015625 0.133971 -0.117067 0.021379 0.119173 -0.025218 -0.149030 0.022291 -0.066054 -0.026676 0.260837 0.110095 0.176712 0.001460 0.183986 0.029765 -0.092077 0.118562 
PacketResqonder -0.090535 -0.128216 0.066302 0.047502 0.294220 0.213846 0.242342 -0.030393 -0.075465 -0.241827 0.102500 -0.294306 -0.337128 -0.016003 -0.004842 0.255684 -0.217522 0.057223 0.232411 -0.027950 -0.270796 0.001967 -0.109631 -0.103174 0.524508 0.210583 0.362217 -0.011536 0.392034 0.025606 -0.216658 0.264484 
thile -0.092300 -0.082963 0.037419 0.076096 0.221398 0.175118 0.175223 -0.004415 -0.046327 -0.182315 0.071869 -0.262299 -0.284586 0.018967 0.010286 0.214936 -0.177844 0.040779 0.189784 -0.007165 -0.239085 0.017188 -0.113307 -0.064766 0.432356 0.193135 0.288068 0.010292 0.314500 0.057176 -0.155703 0.211190 
ItFO -0.162935 -0.188255 0.092550 0.065854 0.477105 0.345072 0.406056 -0.052605 -0.121978 -0.399089 0.175838 -0.535547 -0.598646 -0.013035 0.009641 0.441013 -0.378726 0.123987 0.434455 -0.053700 -0.450145 -0.015701 -0.237110 -0.147761 0.888644 0.382921 0.588081 0.000017 0.677824 0.026334 -0.336096 0.398654 
amlocateBlock -0.133944 -0.128083 0.075039 0.088177 0.354969 0.309692 0.306658 -0.017085 -0.082577 -0.299921 0.117431 -0.425235 -0.481591 0.017897 0.013210 0.346156 -0.306369 0.074904 0.330511 -0.033300 -0.373941 0.008039 -0.184804 -0.119903 0.689604 0.293041 0.463231 0.025963 0.516387 0.052396 -0.280812 0.336438 
delefe -0.162097 -0.142834 0.082659 0.071747 0.395469 0.347162 0.383790 -0.040726 -0.074505 -0.349901 0.129360 -0.516895 -0.522153 0.014919 0.031586 0.388944 -0.363204 0.091742 0.408393 -0.065158 -0.400889 0.007235 -0.233312 -0.120358 0.788024 0.329395 0.581520 0.017882 0.584859 0.051232 -0.322435 0.363947 
addea -0.135043 -0.131108 0.093072 0.069611 0.334563 0.270713 0.317290 -0.038335 -0.070888 -0.285538 0.104205 -0.414432 -0.421883 0.000896 0.015725 0.328176 -0.306597 0.079190 0.342353 -0.071886 -0.342378 0.008463 -0.186354 -0.098826 0.663016 0.268196 0.452995 0.011340 0.494267 0.044487 -0.271176 0.306297 
PabketResponder -0.090670 -0.122742 0.066816 0.045688 0.292320 0.197472 0.229023 -0.028812 -0.073171 -0.233588 0.096079 -0.271111 -0.316601 -0.010600 -0.006055 0.239702 -0.199446 0.046822 0.210438 -0.024618 -0.256172 -0.000249 -0.087257 -0.098575 0.499983 0.199231 0.339641 -0.019715 0.371486 0.021336 -0.191161 0.261814 
NameSyptem -0.100839 -0.117115 0.068551 0.061869 0.284106 0.222246 0.238534 -0.010776 -0.061695 -0.235605 0.095451 -0.318634 -0.349968 0.010786 0.018773 0.266124 -0.223221 0.051168 0.240713 -0.031179 -0.268683 0.025711 -0.134260 -0.082893 0.521911 0.213271 0.370910 0.004020 0.393418 0.050010 -0.207300 0.263244 
updbted -0.094095 -0.087186 0.036991 0.074091 0.217166 0.187957 0.202212 0.000998 -0.050294 -0.204872 0.063861 -0.278345 -0.288092 0.024298 0.019492 0.223737 -0.183502 0.037286 0.208690 -0.040490 -0.242579 0.027590 -0.117294 -0.065997 0.438517 0.185374 0.296778 0.010021 0.319149 0.050864 -0.165566 0.210352 
invalkdSet -0.078306 -0.069630 0.047481 0.072241 0.232835 0.196132 0.180070 -0.005685 -0.048498 -0.180296 0.057268 -0.256860 -0.276791 0.020150 0.011228 0.219075 -0.173630 0.014460 0.179877 -0.007819 -0.222879 0.030855 -0.093966 -0.071186 0.413236 0.182842 0.279514 0.032283 0.300184 0.064436 -0.183278 0.215549 
gNFO -0.152639 -0.147295 0.085142 0.057525 0.388446 0.307253 0.352856 -0.031086 -0.102573 -0.331318 0.142052 -0.467889 -0.511017 0.003046 0.033604 0.375343 -0.319902 0.103463 0.375480 -0.064787 -0.387541 0.009526 -0.211754 -0.110437 0.772237 0.319388 0.496433 0.013636 0.563810 0.054656 -0.299852 0.338618 
tetminating -0.120332 -0.140726 0.084556 0.068284 0.311362 0.199437 0.223427 -0.033735 -0.082287 -0.262591 0.131744 -0.319430 -0.347581 -0.019378 -0.032599 0.289852 -0.240779 0.073597 0.263043 -0.007515 -0.290444 -0.038689 -0.130553 -0.116225 0.562315 0.241577 0.359048 -0.008113 0.448093 0.005652 -0.188105 0.271963 
NfmeSystem -0.186592 -0.162951 0.098950 0.084699 0.451310 0.358722 0.407461 -0.047623 -0.101882 -0.377469 0.161735 -0.539938 -0.582210 0.004282 0.033571 0.424321 -0.379647 0.106977 0.426043 -0.058882 -0.456254 0.006211 -0.236968 -0.135103 0.866040 0.356163 0.616063 0.011022 0.650323 0.056193 -0.333810 0.410076 
INFs -0.169669 -0.179330 0.089467 0.072417 0.451647 0.346724 0.403376 -0.044927 -0.110220 -0.386525 0.166712 -0.520786 -0.579180 -0.001628 0.019239 0.423809 -0.379180 0.114359 0.440059 -0.080080 -0.442961 -0.004228 -0.248194 -0.138986 0.863920 0.362267 0.585285 -0.007722 0.648550 0.033158 -0.333206 0.388941 
desb -0.142882 -0.159481 0.096164 0.068051 0.362508 0.285326 0.322391 -0.027044 -0.088179 -0.315979 0.112019 -0.426579 -0.437353 -0.002944 0.017909 0.347876 -0.309316 0.083588 0.343338 -0.043329 -0.364149 -0.007049 -0.173493 -0.130041 0.681684 0.289838 0.488803 -0.001149 0.525428 0.021287 -0.268981 0.311770 
parb -0.053010 -0.067683 0.039321 0.058305 0.137961 0.128555 0.114930 0.019796 -0.023933 -0.136952 0.035374 -0.143043 -0.167898 0.015155 0.024800 0.130740 -0.099213 0.018305 0.108562 -0.012577 -0.156407 0.027017 -0.056397 -0.041557 0.269126 0.107151 0.197944 -0.013371 0.188233 0.041108 -0.118002 0.140991 
blocx -0.159375 -0.143018 0.078277 0.074772 0.391638 0.331956 0.347533 -0.048920 -0.091228 -0.352746 0.134476 -0.468322 -0.524219 0.015629 0.027218 0.379252 -0.329460 0.096929 0.372300 -0.059072 -0.409582 0.002482 -0.205264 -0.124338 0.763124 0.319095 0.528213 0.006454 0.567765 0.035607 -0.285773 0.351192 
sioe -0.115944 -0.104358 0.056848 0.068993 0.267802 0.224244 0.231917 -0.017566 -0.066092 -0.242180 0.085581 -0.315346 -0.343565 0.014480 0.013861 0.269276 -0.224624 0.052853 0.253589 -0.036964 -0.277175 0.022000 -0.132351 -0.089427 0.535086 0.223215 0.353680 0.011317 0.381170 0.052231 -0.200531 0.240750 
pata -0.072844 -0.089274 0.049943 0.068069 0.224782 0.160583 0.170351 -0.010798 -0.044616 -0.181390 0.065756 -0.221788 -0.241573 -0.004026 -0.007436 0.199511 -0.152832 0.042342 0.163343 -0.005233 -0.206941 0.009355 -0.082359 -0.058816 0.387510 0.159509 0.253431 -0.001537 0.294088 0.032819 -0.153322 0.201575 
wata -0.034528 -0.074057 0.041163 0.051586 0.179867 0.114294 0.113396 0.000214 -0.028413 -0.118610 0.040110 -0.166674 -0.172955 0.005785 -0.016593 0.141670 -0.112591 0.021057 0.105108 0.004622 -0.157565 0.010331 -0.061648 -0.040860 0.266548 0.117331 0.175455 -0.005192 0.221664 0.037232 -0.115494 0.165649 
lerved -0.035226 -0.053499 0.021184 0.031190 0.130794 0.125241 0.113153 0.000481 -0.019254 -0.119522 0.037773 -0.160745 -0.171034 0.022177 0.011170 0.124681 -0.110893 0.016010 0.114719 -0.020984 -0.134413 0.024145 -0.076815 -0.042647 0.263042 0.107365 0.187532 -0.000729 0.193983 0.047057 -0.115455 0.139667 
dfb -0.209372 -0.213353 0.118704 0.081539 0.527107 0.406452 0.472966 -0.072696 -0.123831 -0.465370 0.187509 -0.610206 -0.667492 -0.002843 0.031447 0.502870 -0.438829 0.137556 0.502314 -0.062776 -0.520785 -0.024278 -0.274520 -0.171296 1.006515 0.417691 0.706290 -0.000044 0.767653 0.002033 -0.377677 0.438541 
bfs -0.146043 -0.146242 0.079062 0.066774 0.380706 0.282148 0.308876 -0.032088 -0.089943 -0.315665 0.127254 -0.431476 -0.460186 0.009225 0.017333 0.349427 -0.303600 0.086784 0.344091 -0.040729 -0.375536 -0.004372 -0.179421 -0.119906 0.701310 0.292446 0.480933 -0.001775 0.527238 0.022826 -0.252664 0.331919 
btock -0.090498 -0.091260 0.051782 0.060678 0.257605 0.209411 0.209141 -0.010320 -0.057722 -0.222881 0.063645 -0.315041 -0.326875 0.031361 0.025741 0.237582 -0.210686 0.054594 0.212137 -0.013449 -0.270677 0.007365 -0.114387 -0.075886 0.489892 0.212755 0.326217 0.011277 0.368922 0.044375 -0.175188 0.230321 
terpinating -0.060350 -0.104876 0.054011 0.053329 0.193396 0.106915 0.117125 -0.009461 -0.044524 -0.166721 0.077212 -0.152569 -0.174725 -0.010997 -0.027745 0.166300 -0.127775 0.037942 0.125777 0.005224 -0.152422 -0.017735 -0.065282 -0.068613 0.315207 0.135546 0.192842 -0.022732 0.258561 0.001745 -0.104804 0.156094 
kize -0.107131 -0.093082 0.058722 0.067385 0.255192 0.212755 0.223337 -0.027834 -0.061346 -0.214344 0.075905 -0.310871 -0.326777 0.014183 0.005661 0.246684 -0.217433 0.048183 0.241500 -0.025851 -0.258955 0.018151 -0.126380 -0.087119 0.499636 0.213381 0.341672 0.012216 0.369592 0.057361 -0.184094 0.228617 
sdze -0.115498 -0.117554 0.071352 0.067538 0.280523 0.241586 0.258287 -0.031335 -0.062868 -0.256082 0.081468 -0.351362 -0.358565 0.001886 0.006958 0.291530 -0.260822 0.065936 0.283827 -0.047128 -0.293284 0.004594 -0.148818 -0.097579 0.563026 0.239009 0.392640 0.005680 0.425520 0.031946 -0.218082 0.246332 
FSNamqsystem -0.175620 -0.182143 0.104638 0.070895 0.457372 0.367342 0.415337 -0.043033 -0.111729 -0.410025 0.168959 -0.552760 -0.604127 0.018332 0.030280 0.439544 -0.396822 0.112268 0.436774 -0.076045 -0.462366 -0.000582 -0.254393 -0.144107 0.896514 0.367574 0.615034 0.009650 0.663414 0.046296 -0.346711 0.414762 
Goe -0.084240 -0.084307 0.041289 0.064738 0.215876 0.188842 0.192062 -0.011065 -0.046038 -0.192664 0.061608 -0.253841 -0.282807 0.017432 0.011083 0.204607 -0.176541 0.037583 0.194603 -0.022761 -0.221606 0.030375 -0.107962 -0.063755 0.424691 0.180726 0.283848 0.011846 0.304134 0.067155 -0.171392 0.191915 
iu -0.154781 -0.179812 0.099291 0.062635 0.457872 0.326371 0.387653 -0.055638 -0.114800 -0.372068 0.161760 -0.501655 -0.554786 -0.009268 0.013726 0.427641 -0.350980 0.096980 0.413957 -0.046564 -0.419123 0.000517 -0.221637 -0.145486 0.843779 0.342260 0.572278 0.007617 0.641597 0.028775 -0.318087 0.392725 
Delettng -0.142869 -0.166745 0.102008 0.063853 0.401205 0.269378 0.319108 -0.067344 -0.092611 -0.325936 0.145956 -0.404978 -0.457308 -0.024928 -0.018757 0.355309 -0.313831 0.096533 0.343732 -0.024120 -0.363280 -0.030370 -0.174196 -0.138352 0.699904 0.293491 0.491687 -0.010655 0.551665 -0.001867 -0.259991 0.328127 
PicketResponder -0.142181 -0.151995 0.095068 0.061377 0.390233 0.294163 0.337104 -0.050999 -0.094681 -0.326677 0.137687 -0.418526 -0.463616 -0.014553 0.010857 0.347652 -0.309552 0.076783 0.338964 -0.048181 -0.364456 -0.004297 -0.158513 -0.132381 0.723719 0.288933 0.504314 -0.004235 0.535568 0.033737 -0.286236 0.357428 
tfrminating -0.150491 -0.154037 0.089263 0.088040 0.375889 0.270033 0.290401 -0.039677 -0.091362 -0.319075 0.158592 -0.405017 -0.449549 -0.015742 -0.015719 0.350685 -0.302054 0.089275 0.334842 -0.026864 -0.365230 -0.025385 -0.177397 -0.128548 0.707448 0.297998 0.459340 -0.002268 0.541976 0.033885 -0.258166 0.338878 
INpO -0.120064 -0.129182 0.080497 0.067022 0.330115 0.254685 0.286222 -0.023487 -0.075166 -0.275884 0.115091 -0.368585 -0.401442 -0.003971 0.023791 0.300346 -0.260756 0.076583 0.299965 -0.059377 -0.309115 0.024846 -0.154310 -0.094744 0.633020 0.255503 0.417241 -0.004369 0.463542 0.065287 -0.249547 0.299846 
blockkap -0.147891 -0.125541 0.083795 0.088462 0.371485 0.311511 0.321172 -0.036809 -0.082843 -0.322101 0.118196 -0.432347 -0.476951 0.022304 0.025320 0.341824 -0.302697 0.087096 0.327137 -0.046788 -0.376089 0.018222 -0.172354 -0.118358 0.714248 0.289617 0.483602 0.007555 0.525091 0.060572 -0.266170 0.344248 
IdFO -0.212256 -0.222379 0.118137 0.065607 0.563611 0.427764 0.524011 -0.079655 -0.135190 -0.496717 0.209347 -0.652532 -0.733941 -0.007753 0.038821 0.527192 -0.474454 0.159420 0.550828 -0.091718 -0.545482 -0.027119 -0.314472 -0.167610 1.092260 0.459833 0.741762 -0.005686 0.820164 0.006313 -0.417541 0.461204 
FShataset -0.152707 -0.177499 0.103813 0.066000 0.462518 0.314329 0.365405 -0.061028 -0.114327 -0.363473 0.161837 -0.487636 -0.528287 -0.025189 -0.016108 0.396544 -0.363225 0.098754 0.384806 -0.034114 -0.416149 -0.025681 -0.184823 -0.144769 0.800860 0.338899 0.542081 0.004402 0.620245 0.022836 -0.310284 0.381829 
blocd -0.128525 -0.125520 0.064373 0.053133 0.312563 0.278236 0.296157 -0.031074 -0.072528 -0.303449 0.103783 -0.411187 -0.453820 0.027880 0.040735 0.338469 -0.290734 0.087968 0.334581 -0.067004 -0.353538 0.015718 -0.192003 -0.104590 0.675727 0.270207 0.461459 0.007539 0.492358 0.027901 -0.239161 0.296590 
zfs -0.147428 -0.161937 0.093807 0.076116 0.421731 0.313967 0.336290 -0.055723 -0.094071 -0.346585 0.145040 -0.465991 -0.498771 -0.012917 0.000250 0.394950 -0.343507 0.097490 0.382035 -0.041570 -0.392869 -0.013402 -0.205033 -0.137564 0.766472 0.325745 0.531208 -0.002123 0.590383 0.017702 -0.288381 0.360968 
frqm -0.118639 -0.143980 0.063838 0.076181 0.338888 0.279235 0.289900 -0.013888 -0.076341 -0.299108 0.121752 -0.388401 -0.435685 0.003971 0.023750 0.324063 -0.266288 0.081770 0.313911 -0.031173 -0.344241 0.017239 -0.184829 -0.113101 0.663189 0.274070 0.462759 -0.005235 0.483869 0.065349 -0.267830 0.317191 
sfs -0.123361 -0.119549 0.061932 0.079507 0.322648 0.239221 0.246608 -0.018701 -0.075691 -0.252414 0.109134 -0.356219 -0.369487 0.005281 0.003394 0.299076 -0.255094 0.064877 0.282685 -0.030140 -0.309404 0.005933 -0.148873 -0.102667 0.584236 0.240729 0.387869 0.006259 0.439596 0.031122 -0.217952 0.285304 
terminsting -0.104776 -0.130838 0.071209 0.063234 0.275624 0.177377 0.197395 -0.027300 -0.071800 -0.239166 0.115556 -0.271524 -0.297591 -0.008937 -0.027362 0.252438 -0.210791 0.065636 0.224454 -0.011124 -0.249746 -0.031610 -0.117873 -0.106528 0.500804 0.210892 0.312699 -0.016059 0.396444 0.007780 -0.164071 0.240248 
PacketRespopder -0.093237 -0.127078 0.068800 0.051095 0.305083 0.221608 0.241477 -0.032936 -0.071988 -0.245955 0.103830 -0.286296 -0.339575 -0.012167 -0.009337 0.260226 -0.210911 0.051435 0.221553 -0.021818 -0.261242 0.001109 -0.097213 -0.100388 0.528769 0.210038 0.352924 -0.011683 0.394479 0.015515 -0.212964 0.272429 
dtst -0.154054 -0.175097 0.095753 0.073728 0.439398 0.308540 0.359728 -0.046450 -0.113860 -0.350937 0.151572 -0.488861 -0.504328 -0.022199 -0.006091 0.395005 -0.347045 0.100426 0.382060 -0.031826 -0.407812 -0.035245 -0.193236 -0.145643 0.772848 0.340240 0.525261 0.005828 0.618114 0.006196 -0.293021 0.365091 
invalidSed -0.019311 -0.027223 0.003193 0.054816 0.082772 0.081572 0.033197 0.015652 -0.008780 -0.071015 0.009250 -0.056092 -0.099063 0.030764 -0.011901 0.088263 -0.037664 -0.023759 0.033041 0.016268 -0.069477 0.037953 -0.020616 -0.020185 0.135737 0.066651 0.058815 0.019981 0.085279 0.046407 -0.064317 0.074440 
dlock -0.207619 -0.193664 0.110849 0.082359 0.526277 0.441379 0.497524 -0.071588 -0.116758 -0.467032 0.184141 -0.643707 -0.697678 0.011208 0.049818 0.495611 -0.459495 0.142238 0.515614 -0.082640 -0.531344 -0.015764 -0.299246 -0.159752 1.037631 0.431617 0.724207 0.008396 0.777709 0.030207 -0.406814 0.456483 
blojk -0.154484 -0.138543 0.081895 0.068424 0.389471 0.317903 0.347573 -0.032137 -0.088815 -0.333187 0.124347 -0.452385 -0.505626 0.023058 0.035898 0.360935 -0.311398 0.084666 0.354193 -0.051007 -0.399278 0.006025 -0.193312 -0.121934 0.747658 0.309941 0.513207 0.004719 0.552259 0.051306 -0.288267 0.355397 
dfw -0.183815 -0.209167 0.114616 0.078449 0.514362 0.400110 0.461576 -0.059675 -0.114107 -0.448453 0.181271 -0.592377 -0.634632 -0.009890 0.025509 0.474161 -0.427100 0.126013 0.488817 -0.057179 -0.483565 -0.023607 -0.270246 -0.160871 0.969912 0.398547 0.687077 -0.003195 0.740472 0.021504 -0.383974 0.441191 
PacketRespotder -0.097353 -0.123413 0.068906 0.048766 0.302986 0.223738 0.248061 -0.034655 -0.073760 -0.243540 0.100280 -0.307205 -0.346999 -0.009302 -0.010540 0.261684 -0.221696 0.053029 0.234025 -0.022238 -0.270506 -0.002434 -0.106235 -0.101228 0.531802 0.218905 0.362230 -0.003860 0.398391 0.020783 -0.215127 0.270007 
Recedved 0.009753 -0.011223 0.003732 0.027290 0.008838 0.025824 0.002339 0.028709 0.017235 -0.013247 -0.021527 -0.025486 -0.005807 0.026442 0.006464 0.024737 -0.024871 -0.014164 0.009355 0.001212 -0.020721 0.027931 -0.020703 -0.000469 0.024491 0.011889 0.027589 0.007489 0.025727 0.029796 -0.024811 0.029467 
hadoor -0.110805 -0.103604 0.064951 0.071388 0.266026 0.218500 0.237904 -0.010485 -0.050348 -0.223744 0.087459 -0.321252 -0.340184 -0.001903 0.033539 0.254925 -0.248917 0.064373 0.276560 -0.061079 -0.294684 0.020966 -0.157254 -0.082894 0.531078 0.230852 0.381225 -0.001852 0.387752 0.060564 -0.221666 0.261739 
INFy -0.166542 -0.180423 0.084606 0.069876 0.465911 0.369157 0.425074 -0.059792 -0.101296 -0.406283 0.161537 -0.547275 -0.615022 -0.001752 0.023040 0.449629 -0.394376 0.116906 0.460497 -0.077522 -0.462420 0.006499 -0.255820 -0.140771 0.895944 0.367426 0.634351 -0.001748 0.679493 0.039773 -0.351641 0.397601 
ueer -0.063766 -0.072001 0.038614 0.046344 0.215463 0.182094 0.187467 -0.006321 -0.034674 -0.166802 0.056180 -0.264369 -0.250986 0.005577 0.011461 0.178369 -0.166655 0.023305 0.185343 -0.023460 -0.211341 0.026096 -0.094122 -0.060113 0.388342 0.166253 0.306624 -0.004810 0.284851 0.075064 -0.177301 0.215073 
INyO -0.131506 -0.144213 0.086181 0.061260 0.385253 0.296929 0.330809 -0.042000 -0.082544 -0.311689 0.125560 -0.440896 -0.475907 -0.005569 0.017619 0.349350 -0.310341 0.086563 0.349517 -0.063035 -0.367012 0.016913 -0.177558 -0.110181 0.717243 0.295257 0.492528 -0.003273 0.544610 0.066097 -0.287750 0.340275 
PackitResponder -0.107992 -0.120736 0.069266 0.055468 0.307749 0.243678 0.264164 -0.030761 -0.073686 -0.258081 0.112309 -0.337279 -0.372331 -0.003693 0.004980 0.283341 -0.241643 0.054329 0.259742 -0.038934 -0.291441 0.005487 -0.127270 -0.105102 0.581309 0.232457 0.398221 0.001141 0.426278 0.033683 -0.236689 0.294201 
shrving -0.031815 -0.069789 0.027017 0.050537 0.134185 0.066452 0.055441 0.004130 -0.026352 -0.098093 0.051506 -0.075602 -0.101778 -0.002077 -0.021669 0.098732 -0.072532 0.020215 0.066855 0.015099 -0.100840 -0.002511 -0.042293 -0.045716 0.199419 0.085223 0.105967 -0.017697 0.158408 0.012957 -0.071764 0.100965 
aeceiving -0.082414 -0.122983 0.078074 0.039568 0.248454 0.171665 0.192642 -0.021478 -0.064292 -0.217962 0.103981 -0.265874 -0.276995 -0.014169 -0.012050 0.246897 -0.205444 0.057785 0.239601 -0.031329 -0.221787 -0.011058 -0.130683 -0.095268 0.462862 0.186296 0.313662 -0.007602 0.363008 -0.005305 -0.175855 0.219868 
temminating -0.156206 -0.153408 0.102223 0.076344 0.362037 0.258415 0.289452 -0.043798 -0.089191 -0.315497 0.148619 -0.399904 -0.433416 -0.014612 -0.019549 0.342306 -0.305710 0.092329 0.343704 -0.036729 -0.354630 -0.036058 -0.170664 -0.131253 0.689772 0.289614 0.450636 -0.005759 0.530186 0.017047 -0.239702 0.327356 
INFn -0.153849 -0.172686 0.090886 0.069690 0.425667 0.332793 0.378347 -0.048753 -0.096449 -0.371063 0.154954 -0.486531 -0.551443 -0.006441 0.012551 0.403662 -0.362706 0.107900 0.421100 -0.074666 -0.413031 0.000078 -0.230395 -0.130832 0.818991 0.338039 0.560945 -0.011477 0.616417 0.036002 -0.321495 0.365691 
js -0.088947 -0.086276 0.048774 0.043972 0.228138 0.166992 0.188871 0.001726 -0.041760 -0.173541 0.067703 -0.251190 -0.261351 0.019310 0.022723 0.197860 -0.169706 0.038326 0.191885 -0.026553 -0.227726 0.007683 -0.106960 -0.057671 0.414622 0.166500 0.283399 -0.004836 0.311178 0.038440 -0.160992 0.212862 
blockMav -0.148379 -0.130231 0.091471 0.077194 0.389899 0.316239 0.339424 -0.038892 -0.077993 -0.327280 0.128471 -0.463111 -0.489772 0.019152 0.029990 0.353812 -0.325572 0.092318 0.358317 -0.058362 -0.394291 -0.000577 -0.194563 -0.119592 0.748101 0.300266 0.516246 -0.000787 0.563016 0.043258 -0.284912 0.373183 
curyent -0.110585 -0.137706 0.070210 0.061735 0.353020 0.273672 0.284146 -0.042296 -0.071846 -0.281978 0.121625 -0.395811 -0.419494 -0.013939 0.010181 0.320336 -0.287069 0.072595 0.300720 -0.026299 -0.330900 -0.004184 -0.156997 -0.112420 0.625490 0.265638 0.461448 0.001059 0.500315 0.032084 -0.265412 0.313598 
ys -0.096475 -0.105254 0.054428 0.059847 0.285601 0.230176 0.220627 -0.026528 -0.050841 -0.227992 0.078855 -0.315182 -0.339943 0.007244 0.000765 0.263861 -0.221550 0.053105 0.240761 -0.029374 -0.277537 0.012889 -0.119436 -0.086090 0.506065 0.214820 0.356661 -0.006266 0.394424 0.040045 -0.200191 0.249960 
IrFO -0.127931 -0.157207 0.078784 0.054255 0.392939 0.303949 0.343274 -0.028400 -0.092759 -0.334832 0.140685 -0.451719 -0.503994 -0.000349 0.020750 0.361025 -0.324370 0.099475 0.371703 -0.062125 -0.373781 0.004255 -0.207399 -0.119436 0.752289 0.317576 0.505576 -0.008302 0.561609 0.050661 -0.300696 0.344505 
addsd -0.124538 -0.126436 0.080647 0.061885 0.293890 0.244187 0.283871 -0.026986 -0.073904 -0.269014 0.100153 -0.386387 -0.393510 0.005298 0.016826 0.328566 -0.290518 0.076326 0.334700 -0.083455 -0.318417 0.009381 -0.188785 -0.098291 0.626170 0.247619 0.407738 0.017328 0.467124 0.020770 -0.237758 0.274803 
bluck -0.140813 -0.138014 0.076303 0.067934 0.395072 0.323789 0.348065 -0.037024 -0.089707 -0.328502 0.124329 -0.486083 -0.519109 0.022415 0.037738 0.371941 -0.326723 0.090940 0.364940 -0.050582 -0.405047 0.011145 -0.204759 -0.115593 0.764006 0.314181 0.529197 0.009544 0.569532 0.046932 -0.290372 0.362753 
invamidSet -0.091386 -0.076962 0.055369 0.064480 0.241609 0.199182 0.184787 -0.012134 -0.049487 -0.194067 0.066746 -0.269930 -0.288787 0.017752 0.007347 0.230700 -0.187952 0.021574 0.202163 -0.013219 -0.230218 0.018121 -0.100636 -0.075565 0.441433 0.200131 0.290754 0.028434 0.317014 0.052969 -0.184999 0.222064 
INtO -0.125310 -0.141330 0.085701 0.061204 0.372822 0.263929 0.306382 -0.036000 -0.091993 -0.288636 0.127635 -0.413673 -0.437510 -0.011318 0.006801 0.329645 -0.286368 0.083053 0.319520 -0.046509 -0.342565 0.003424 -0.162115 -0.109358 0.673475 0.285063 0.442367 0.000805 0.518482 0.053028 -0.261947 0.322543 
PacketRespqnder -0.098964 -0.139409 0.078930 0.051385 0.321250 0.228101 0.264210 -0.035392 -0.079638 -0.265267 0.116783 -0.314627 -0.365300 -0.023767 0.001319 0.278805 -0.238768 0.066182 0.255315 -0.035983 -0.292638 0.002911 -0.116939 -0.109096 0.576979 0.221699 0.400749 -0.018367 0.433453 0.020755 -0.232968 0.289120 
cnvalidSet -0.064590 -0.066357 0.033435 0.058801 0.184779 0.177487 0.145831 0.001261 -0.028625 -0.151884 0.048622 -0.226591 -0.237358 0.018067 0.014029 0.199513 -0.157672 0.024996 0.160808 -0.005702 -0.188978 0.018744 -0.099882 -0.053979 0.350117 0.167421 0.243846 0.025720 0.263935 0.030340 -0.168567 0.170354 
sacketResponder -0.058888 -0.098317 0.040333 0.072262 0.211375 0.136294 0.132766 -0.009896 -0.051145 -0.160381 0.084642 -0.151856 -0.205036 -0.021233 -0.023915 0.179787 -0.131192 0.028956 0.118802 0.003545 -0.179328 0.011246 -0.054559 -0.083172 0.341467 0.136098 0.223451 -0.016469 0.267838 0.023653 -0.145506 0.188511 
fbom -0.194528 -0.184932 0.094486 0.085007 0.480826 0.377375 0.422854 -0.050379 -0.110752 -0.423865 0.166371 -0.554260 -0.621441 0.018642 0.042392 0.461327 -0.388078 0.129135 0.444188 -0.054596 -0.486180 0.004147 -0.256832 -0.154729 0.932109 0.388395 0.640574 0.001273 0.687049 0.039087 -0.343593 0.417284 
mut -0.156075 -0.166428 0.086177 0.073665 0.452217 0.322862 0.372617 -0.050664 -0.108729 -0.350060 0.152260 -0.494662 -0.536821 -0.009471 0.005481 0.406331 -0.338439 0.098778 0.385666 -0.036399 -0.421176 -0.007133 -0.199570 -0.143168 0.807165 0.342260 0.545578 0.006143 0.625874 0.033266 -0.304166 0.393794 
FSbamesystem -0.182660 -0.196047 0.110122 0.070197 0.483657 0.365382 0.421516 -0.051179 -0.117167 -0.425497 0.174883 -0.557474 -0.614588 0.016154 0.023999 0.452301 -0.405773 0.115503 0.438391 -0.056245 -0.473248 -0.014441 -0.248120 -0.155260 0.918449 0.379240 0.634648 0.004571 0.685503 0.031051 -0.345276 0.424004 
vSNamesystem -0.118017 -0.132528 0.066439 0.065474 0.322780 0.237172 0.269684 -0.017462 -0.081761 -0.262505 0.113476 -0.353924 -0.398374 0.016530 0.022548 0.305977 -0.252765 0.063618 0.262133 -0.033412 -0.320830 0.019071 -0.159937 -0.102364 0.610100 0.251809 0.406196 0.010574 0.449952 0.048144 -0.233962 0.300290 
desn -0.125803 -0.146892 0.092758 0.062195 0.346760 0.270488 0.300284 -0.032924 -0.073133 -0.294046 0.109695 -0.398695 -0.403421 -0.014053 0.002018 0.316707 -0.301328 0.078698 0.330741 -0.042797 -0.323916 -0.013004 -0.163688 -0.114311 0.638176 0.268590 0.457074 -0.007411 0.492529 0.025090 -0.260448 0.298842 
ff -0.196121 -0.192033 0.097476 0.081786 0.536686 0.398496 0.450629 -0.080510 -0.114152 -0.448014 0.194631 -0.602255 -0.656650 -0.001182 0.022141 0.497113 -0.427053 0.131124 0.489857 -0.048617 -0.496137 -0.012531 -0.271409 -0.157583 0.993487 0.399328 0.686327 0.012138 0.753052 0.015936 -0.370358 0.448822 
Rdceived -0.086310 -0.090209 0.055978 0.054687 0.218285 0.197630 0.198752 -0.006309 -0.038550 -0.198055 0.075767 -0.286980 -0.291279 0.009088 0.013092 0.231591 -0.210569 0.047197 0.232900 -0.037528 -0.226919 0.009679 -0.135872 -0.067817 0.449776 0.189556 0.311974 0.012712 0.345814 0.037068 -0.185945 0.217309 
INuO -0.142617 -0.152696 0.088498 0.063264 0.413720 0.304699 0.361732 -0.040941 -0.096305 -0.321965 0.142707 -0.472622 -0.506529 -0.008141 0.022040 0.376523 -0.325055 0.094265 0.375070 -0.069260 -0.386950 0.017381 -0.201014 -0.113420 0.773496 0.317582 0.514764 0.001871 0.581581 0.061065 -0.306616 0.367197 
es -0.068203 -0.073839 0.043701 0.043709 0.194678 0.159685 0.160259 -0.008344 -0.037236 -0.160500 0.049290 -0.231483 -0.226369 0.009208 0.005914 0.182081 -0.160285 0.033235 0.174497 -0.017312 -0.195422 0.011233 -0.090304 -0.061766 0.358576 0.152855 0.263685 -0.000295 0.270876 0.033691 -0.143242 0.173591 
meceiving -0.139709 -0.148975 0.101913 0.059819 0.345677 0.259406 0.285932 -0.038058 -0.080623 -0.302794 0.135676 -0.387572 -0.409051 -0.011512 -0.005465 0.325108 -0.297422 0.086784 0.342725 -0.044495 -0.326108 -0.023107 -0.172119 -0.130064 0.660010 0.271401 0.450463 -0.008274 0.505764 0.015791 -0.245480 0.313603 
Receivimg -0.086458 -0.118199 0.067337 0.040970 0.247615 0.187403 0.201305 -0.004039 -0.055677 -0.217112 0.092680 -0.288092 -0.290676 0.003997 -0.000537 0.252297 -0.208490 0.060986 0.244240 -0.019775 -0.226370 -0.010887 -0.148145 -0.093588 0.473005 0.206582 0.326010 -0.001049 0.366303 0.010133 -0.181458 0.231562 
NameSystex -0.160513 -0.135599 0.094666 0.078690 0.369831 0.292702 0.323846 -0.046701 -0.087264 -0.306903 0.139843 -0.431440 -0.466498 -0.008066 0.006679 0.344240 -0.315218 0.076841 0.342671 -0.060433 -0.374657 0.000720 -0.177657 -0.108962 0.690157 0.287398 0.483410 0.011369 0.529568 0.049107 -0.270174 0.335005 
df -0.198133 -0.211254 0.112852 0.070865 0.534678 0.404512 0.478180 -0.083082 -0.117864 -0.467648 0.194281 -0.613742 -0.672180 -0.006264 0.025818 0.505648 -0.448985 0.139906 0.512245 -0.065057 -0.502220 -0.027929 -0.285964 -0.162208 1.016181 0.411953 0.706358 0.004743 0.777837 -0.001683 -0.381556 0.441184 
FSNamesyltem -0.132790 -0.148747 0.079494 0.070933 0.384416 0.317293 0.337775 -0.021432 -0.086507 -0.331191 0.124760 -0.459395 -0.500600 0.026479 0.019561 0.368376 -0.321634 0.074392 0.352313 -0.047744 -0.374119 0.019744 -0.204315 -0.119817 0.726035 0.300050 0.508157 0.018185 0.538549 0.064771 -0.296098 0.353440 
xerification -0.049798 -0.030179 0.023638 0.054421 0.109639 0.108946 0.087055 0.009860 -0.014392 -0.100679 0.030892 -0.144581 -0.144962 0.024629 0.001403 0.117413 -0.096975 0.005389 0.111310 -0.018380 -0.119924 0.029204 -0.064626 -0.027468 0.224942 0.094979 0.154644 0.006443 0.160392 0.041688 -0.084076 0.113319 
FmNamesystem -0.213038 -0.202140 0.123431 0.079570 0.518012 0.414564 0.480955 -0.058097 -0.120994 -0.460109 0.189629 -0.620633 -0.683903 0.022374 0.034905 0.477662 -0.451396 0.135948 0.497160 -0.087296 -0.526447 -0.013021 -0.288451 -0.158825 1.010019 0.416847 0.694892 0.002562 0.748827 0.043673 -0.384993 0.460681 
NamrSystem -0.108104 -0.130466 0.067733 0.060386 0.316643 0.245320 0.265159 -0.016627 -0.073117 -0.261660 0.113247 -0.354777 -0.394282 0.013145 0.017193 0.291063 -0.249814 0.063929 0.260071 -0.032905 -0.301070 0.014590 -0.154761 -0.094257 0.586597 0.241535 0.403004 0.002132 0.445553 0.049906 -0.230687 0.289927 
qfs -0.136328 -0.159304 0.076842 0.074876 0.381565 0.295106 0.311022 -0.034721 -0.090803 -0.328179 0.135628 -0.426231 -0.470441 -0.006671 0.004775 0.364424 -0.304373 0.092396 0.355065 -0.037708 -0.380561 -0.004841 -0.196019 -0.130033 0.716559 0.302560 0.487504 0.001142 0.534220 0.030227 -0.278185 0.335309 
hadoos -0.126143 -0.118224 0.066779 0.073348 0.286355 0.221262 0.251186 -0.012254 -0.064537 -0.237076 0.094403 -0.343556 -0.358584 0.001862 0.028657 0.285583 -0.264061 0.075782 0.292188 -0.060315 -0.315700 0.013091 -0.172941 -0.092557 0.564983 0.248279 0.385487 0.005482 0.417724 0.040297 -0.218957 0.268177 
NaieSystem -0.124251 -0.138184 0.084345 0.060039 0.342014 0.253314 0.288830 -0.024587 -0.083369 -0.279180 0.120691 -0.390141 -0.414947 0.004538 0.021791 0.324762 -0.273559 0.063711 0.299714 -0.040907 -0.324030 0.017040 -0.166206 -0.103359 0.631867 0.257820 0.445397 0.008756 0.480034 0.043766 -0.244803 0.308830 
Gyt -0.077654 -0.102365 0.052046 0.067230 0.274989 0.200582 0.200462 -0.026250 -0.059982 -0.208165 0.078713 -0.287123 -0.316790 -0.001212 -0.010706 0.247563 -0.197333 0.040011 0.214106 -0.004154 -0.252528 0.012148 -0.105007 -0.084745 0.461901 0.199567 0.316029 0.010202 0.375148 0.042770 -0.183524 0.230609 
Deletibg -0.129885 -0.147644 0.087158 0.066480 0.336786 0.238355 0.272165 -0.042552 -0.082086 -0.284412 0.116101 -0.348953 -0.394609 0.000552 -0.003697 0.315854 -0.261513 0.076237 0.296552 -0.020298 -0.319914 -0.012725 -0.160007 -0.123559 0.607517 0.255957 0.419524 -0.003428 0.467779 0.003013 -0.224662 0.276625 
blhck -0.105256 -0.110858 0.061487 0.061811 0.309161 0.248132 0.255665 -0.021709 -0.064003 -0.254489 0.083734 -0.371818 -0.384805 0.026173 0.030443 0.274216 -0.257666 0.073038 0.265911 -0.027941 -0.314594 0.007310 -0.147883 -0.092033 0.582112 0.245364 0.405195 -0.000213 0.434466 0.048039 -0.217613 0.279996 
apdated -0.032216 -0.049177 0.023915 0.050962 0.095944 0.084424 0.084853 0.014152 -0.013942 -0.094941 0.015594 -0.115446 -0.117600 0.017517 -0.000384 0.110436 -0.086102 0.006571 0.084297 -0.019564 -0.105393 0.030078 -0.052390 -0.016524 0.194538 0.077119 0.117406 0.010796 0.137541 0.028443 -0.082776 0.094035 
terved 0.026154 0.011650 -0.012833 0.026323 -0.039160 -0.021592 -0.053462 0.032624 0.022666 0.029938 -0.032447 0.045399 0.052933 0.038802 -0.002808 -0.037498 0.037113 -0.029208 -0.069392 0.022285 0.024093 0.025520 0.016046 0.020369 -0.073516 -0.025064 -0.066560 0.006409 -0.053276 0.039704 0.027927 -0.018486 
fmr -0.153836 -0.153884 0.086281 0.081525 0.424368 0.338329 0.356340 -0.036331 -0.090888 -0.351511 0.148006 -0.480468 -0.522646 -0.000295 0.016330 0.377222 -0.337490 0.095435 0.384010 -0.041229 -0.403562 0.003911 -0.202572 -0.135140 0.795235 0.331728 0.554529 -0.005744 0.588552 0.067662 -0.315587 0.390005 
terjinating -0.065975 -0.106810 0.055867 0.039796 0.208552 0.116590 0.133057 -0.014280 -0.052666 -0.175681 0.083957 -0.179790 -0.199387 -0.006292 -0.021646 0.176571 -0.136294 0.039226 0.137568 0.002160 -0.169268 -0.025350 -0.071991 -0.070846 0.343930 0.148882 0.210600 -0.020853 0.281831 0.000275 -0.112242 0.171605 
parc -0.036080 -0.059068 0.034866 0.047327 0.136314 0.132036 0.117303 0.013056 -0.011333 -0.132020 0.035675 -0.159360 -0.167343 0.016543 0.025908 0.121850 -0.111771 0.022999 0.115685 -0.015139 -0.138270 0.024338 -0.067502 -0.026140 0.279049 0.098946 0.205594 -0.011685 0.194945 0.041527 -0.121814 0.147075 
dfy -0.206871 -0.208724 0.108129 0.076293 0.552841 0.431760 0.499496 -0.089475 -0.113860 -0.481628 0.194249 -0.643065 -0.700891 -0.007024 0.029144 0.518142 -0.461512 0.142161 0.527004 -0.068011 -0.532219 -0.023894 -0.291797 -0.164263 1.043699 0.427378 0.748565 0.000542 0.800895 0.008846 -0.401538 0.458913 
mdded -0.165350 -0.135545 0.090148 0.074053 0.349825 0.311900 0.351172 -0.042167 -0.075253 -0.330964 0.111658 -0.466481 -0.488437 0.017824 0.025221 0.377224 -0.349325 0.093120 0.397039 -0.086386 -0.382007 0.007722 -0.213652 -0.121902 0.756852 0.309329 0.510997 0.020259 0.552995 0.047769 -0.285494 0.327392 
Reeeived 0.000830 -0.028468 0.019581 0.024578 0.041906 0.020133 0.009486 0.015950 0.001677 -0.030663 -0.004750 -0.020295 -0.015026 0.009344 -0.009966 0.037830 -0.023538 -0.014451 0.018948 0.015480 -0.024303 0.016365 -0.011765 -0.013385 0.046400 0.022022 0.037633 -0.001482 0.045833 0.021076 -0.022121 0.042711 
Verificathon -0.083704 -0.061463 0.051854 0.061224 0.188818 0.180361 0.163494 -0.003958 -0.025311 -0.165027 0.062835 -0.260170 -0.265728 0.022403 0.014755 0.187569 -0.191561 0.035210 0.201182 -0.047173 -0.225813 0.020577 -0.122718 -0.053357 0.402714 0.179226 0.283629 0.004310 0.287821 0.069183 -0.158310 0.211809 
FSNamehystem -0.172459 -0.180849 0.110905 0.067037 0.461648 0.351088 0.409975 -0.048363 -0.108476 -0.393441 0.162624 -0.539637 -0.580874 0.014131 0.027301 0.424808 -0.392337 0.108098 0.425911 -0.069550 -0.443120 -0.001402 -0.240369 -0.140050 0.874042 0.356518 0.604221 0.005391 0.652812 0.047042 -0.337189 0.409050 
PacketRespynder -0.098129 -0.132913 0.073710 0.050718 0.314374 0.227747 0.260611 -0.034569 -0.073979 -0.256315 0.108266 -0.318474 -0.357124 -0.014342 0.002228 0.270635 -0.236039 0.058052 0.249305 -0.032478 -0.285829 0.005063 -0.112717 -0.106142 0.560700 0.215982 0.396481 -0.011290 0.423211 0.026384 -0.227399 0.283731 
sizq -0.107251 -0.139928 0.072709 0.066957 0.293843 0.225627 0.239673 -0.033913 -0.081716 -0.265505 0.107813 -0.315742 -0.362593 -0.020238 -0.002291 0.302914 -0.231126 0.062080 0.281707 -0.028741 -0.298884 -0.000646 -0.143311 -0.114597 0.565667 0.234334 0.385269 -0.001997 0.430588 0.015501 -0.210942 0.253443 
sjze -0.061107 -0.057597 0.029455 0.043767 0.147227 0.131294 0.128889 0.000822 -0.020819 -0.130200 0.029333 -0.176295 -0.176634 0.022457 0.010746 0.145004 -0.115556 0.017919 0.117810 -0.014453 -0.156140 0.014998 -0.064573 -0.036746 0.285429 0.120813 0.198031 -0.001358 0.209012 0.034871 -0.111626 0.136123 
faom -0.172769 -0.175960 0.089035 0.084662 0.460155 0.357489 0.399349 -0.047917 -0.103581 -0.390040 0.160666 -0.523613 -0.582253 0.006535 0.028133 0.440581 -0.367792 0.118142 0.419657 -0.051386 -0.449871 0.010641 -0.244460 -0.141474 0.882598 0.362204 0.597758 0.007036 0.651287 0.047959 -0.339218 0.407890 
INFp -0.157036 -0.165098 0.084472 0.077522 0.418144 0.335092 0.376725 -0.043671 -0.097230 -0.373958 0.157042 -0.480163 -0.552778 0.000270 0.024092 0.406095 -0.349060 0.106552 0.416276 -0.077616 -0.410393 0.015849 -0.231687 -0.130197 0.822984 0.335160 0.556774 -0.002429 0.608589 0.042942 -0.315765 0.366065 
cubrent -0.119378 -0.146005 0.075175 0.061521 0.363782 0.268656 0.291975 -0.040140 -0.081305 -0.292767 0.129342 -0.398193 -0.424923 -0.012322 0.015694 0.323140 -0.288144 0.078360 0.303764 -0.025144 -0.338837 -0.011522 -0.159384 -0.116783 0.640675 0.272645 0.465283 -0.004536 0.508165 0.021641 -0.262139 0.317514 
delhte -0.172299 -0.166001 0.099156 0.070570 0.437394 0.348114 0.399999 -0.054677 -0.094707 -0.370560 0.145610 -0.527965 -0.543844 -0.005384 0.015829 0.398024 -0.377682 0.110266 0.413858 -0.057309 -0.428835 -0.017668 -0.222667 -0.136621 0.820802 0.355870 0.590363 0.001438 0.627307 0.034506 -0.324954 0.378338 
sile -0.124104 -0.118722 0.065031 0.074735 0.300774 0.254145 0.261791 -0.019995 -0.074720 -0.265799 0.104321 -0.356999 -0.398493 0.016507 0.015778 0.305665 -0.252650 0.060177 0.288352 -0.037594 -0.311532 0.021462 -0.159065 -0.103220 0.605387 0.247414 0.408706 0.011430 0.435093 0.051682 -0.228726 0.280706 
fob -0.187074 -0.181360 0.095275 0.085950 0.466822 0.364370 0.401879 -0.055673 -0.111292 -0.405412 0.158241 -0.527620 -0.588572 0.002260 0.029370 0.446056 -0.370640 0.115534 0.425343 -0.048767 -0.470946 0.004133 -0.224774 -0.156739 0.886033 0.369424 0.613056 0.003893 0.663237 0.034044 -0.332099 0.398418 
sry -0.040260 -0.050488 0.021861 0.051049 0.137226 0.129942 0.101549 0.008262 -0.014060 -0.110837 0.024736 -0.160115 -0.164210 0.017517 0.008633 0.124372 -0.108577 0.012435 0.112581 -0.013572 -0.152173 0.030092 -0.057902 -0.036723 0.245352 0.099146 0.194661 -0.009057 0.188738 0.054474 -0.110310 0.134025 
allocaleBlock -0.119774 -0.108218 0.052838 0.084972 0.319116 0.305212 0.294236 -0.001446 -0.075449 -0.276722 0.102531 -0.423591 -0.457767 0.031700 0.030733 0.334282 -0.286302 0.064295 0.323032 -0.047769 -0.355299 0.031360 -0.201499 -0.107156 0.646762 0.276972 0.448117 0.035201 0.473658 0.069322 -0.278570 0.319474 
hadfop -0.103924 -0.093359 0.052777 0.081540 0.249786 0.204067 0.205702 -0.010969 -0.041858 -0.209811 0.084128 -0.301295 -0.316296 0.009005 0.025811 0.257213 -0.223529 0.058001 0.254447 -0.046741 -0.269004 0.032669 -0.149995 -0.074982 0.497058 0.208510 0.345919 0.012507 0.364600 0.044764 -0.189983 0.240383 
INsO -0.119742 -0.131077 0.078893 0.061422 0.339748 0.248985 0.281864 -0.023917 -0.081670 -0.264162 0.114793 -0.378947 -0.396831 -0.004387 0.012587 0.299992 -0.265951 0.075547 0.296913 -0.055232 -0.315634 0.012760 -0.153277 -0.096558 0.623926 0.258895 0.405389 -0.004835 0.467921 0.058342 -0.246772 0.300067 
bize -0.125368 -0.131343 0.081455 0.049925 0.319319 0.254064 0.277522 -0.040433 -0.077747 -0.292379 0.098804 -0.378232 -0.408900 0.007339 0.012727 0.311757 -0.267892 0.070701 0.304156 -0.037563 -0.322516 -0.003261 -0.152596 -0.107989 0.620127 0.265428 0.433227 -0.002797 0.461179 0.026617 -0.221075 0.274645 
fila -0.208201 -0.192955 0.107204 0.091482 0.527839 0.409254 0.460888 -0.076339 -0.122266 -0.448190 0.198472 -0.595072 -0.673795 -0.001412 0.022870 0.491920 -0.417530 0.131091 0.488403 -0.061030 -0.514330 -0.006682 -0.275974 -0.161278 1.006900 0.414317 0.686076 0.002220 0.745260 0.037179 -0.380423 0.461111 
ij -0.130765 -0.148573 0.094208 0.052264 0.373272 0.266475 0.314739 -0.035789 -0.087447 -0.303845 0.127363 -0.398796 -0.440964 -0.002010 0.014054 0.341958 -0.278611 0.067917 0.333491 -0.031695 -0.343360 -0.001217 -0.170141 -0.119791 0.688879 0.270122 0.473508 0.000931 0.520522 0.037985 -0.264006 0.332170 
Reczived -0.030892 -0.054530 0.030442 0.036156 0.118401 0.108489 0.084999 -0.002386 -0.013350 -0.110366 0.032293 -0.144084 -0.146338 0.008159 -0.006400 0.134456 -0.109554 0.017077 0.110533 -0.002884 -0.116264 0.005635 -0.067407 -0.041255 0.233721 0.106270 0.161331 0.004618 0.190413 0.015680 -0.094203 0.119768 
updatyd -0.088202 -0.101033 0.043860 0.070805 0.249419 0.207962 0.224128 -0.009168 -0.052061 -0.219989 0.070676 -0.313682 -0.319780 0.007451 0.009074 0.256105 -0.210004 0.044021 0.243487 -0.046340 -0.265263 0.029623 -0.128339 -0.072529 0.482526 0.196967 0.336977 0.011119 0.365186 0.049962 -0.190843 0.241169 
allodateBlock -0.148020 -0.122355 0.078490 0.081335 0.361539 0.326496 0.334640 -0.017920 -0.085702 -0.309229 0.122361 -0.471919 -0.507037 0.028213 0.033750 0.367261 -0.329345 0.078973 0.371338 -0.063350 -0.394199 0.017719 -0.220786 -0.117593 0.727064 0.307635 0.497672 0.033958 0.538993 0.058912 -0.299838 0.350826 
zelete -0.103349 -0.113141 0.074638 0.061758 0.300617 0.241198 0.252158 -0.039940 -0.060180 -0.252939 0.087979 -0.349905 -0.365405 -0.004211 -0.000897 0.285501 -0.256723 0.059432 0.268544 -0.022300 -0.291699 0.004627 -0.143135 -0.102338 0.550780 0.244414 0.413350 0.004183 0.422171 0.043096 -0.223346 0.265080 
NameSyetem -0.104348 -0.119263 0.073622 0.058997 0.295339 0.222450 0.249650 -0.014760 -0.063637 -0.232766 0.095073 -0.332947 -0.360003 0.009549 0.019646 0.271953 -0.236855 0.053241 0.252808 -0.028966 -0.282031 0.024481 -0.143420 -0.084726 0.536643 0.218780 0.388622 0.006870 0.406779 0.055979 -0.218654 0.268916 
sizn -0.104984 -0.126559 0.082561 0.064521 0.291816 0.218164 0.224047 -0.036808 -0.071477 -0.249756 0.096801 -0.306047 -0.339253 -0.010359 -0.010207 0.285237 -0.238075 0.059489 0.266558 -0.028097 -0.273323 -0.005313 -0.130233 -0.106624 0.539062 0.222439 0.360522 -0.006825 0.413010 0.014426 -0.199414 0.247923 
sfze -0.114820 -0.108499 0.057301 0.078334 0.293877 0.246348 0.243461 -0.031594 -0.061913 -0.251192 0.089649 -0.351244 -0.362055 0.002298 -0.000863 0.294159 -0.247151 0.059906 0.269900 -0.026732 -0.295761 0.011612 -0.138894 -0.096106 0.563174 0.238569 0.391496 0.009058 0.422277 0.041352 -0.215096 0.260855 
INrO -0.094257 -0.107029 0.070095 0.051348 0.286053 0.224214 0.244202 -0.013786 -0.059680 -0.225630 0.095640 -0.326993 -0.343373 0.001497 0.019890 0.240656 -0.227544 0.058485 0.253028 -0.054673 -0.266993 0.020256 -0.132364 -0.075806 0.534311 0.221498 0.360464 -0.012041 0.396175 0.077959 -0.225583 0.266640 
teuminating -0.148349 -0.152029 0.095735 0.073963 0.362233 0.252412 0.289558 -0.043456 -0.092055 -0.306618 0.150107 -0.402314 -0.429304 -0.015773 -0.015565 0.342068 -0.295603 0.086795 0.338985 -0.042132 -0.353029 -0.027874 -0.174055 -0.124977 0.681152 0.283268 0.447649 -0.006384 0.525479 0.018900 -0.239704 0.329524 
dfv -0.202954 -0.206147 0.121083 0.077692 0.546541 0.420875 0.484476 -0.081893 -0.121136 -0.469668 0.204814 -0.624287 -0.691623 -0.010275 0.029841 0.507413 -0.452014 0.140855 0.522661 -0.067986 -0.523568 -0.028084 -0.290617 -0.168866 1.041757 0.426768 0.719474 0.004479 0.794798 0.006125 -0.398961 0.464952 
znt -0.082956 -0.118164 0.076596 0.057097 0.295004 0.207226 0.210949 -0.045988 -0.061307 -0.231774 0.084899 -0.300422 -0.320790 -0.021156 -0.016071 0.272571 -0.228828 0.060123 0.241214 -0.009001 -0.258387 -0.013022 -0.116679 -0.100968 0.494319 0.220690 0.351071 -0.005820 0.406981 0.008964 -0.190323 0.237665 
Servel -0.011870 -0.026062 0.009874 0.031830 0.070641 0.080794 0.055141 0.021165 0.005890 -0.057658 0.010679 -0.083442 -0.099206 0.036763 0.028450 0.070188 -0.052641 -0.007169 0.043525 0.003677 -0.076331 0.037536 -0.048721 -0.013208 0.143813 0.053445 0.122650 0.003843 0.100359 0.051246 -0.072300 0.091067 
Gon -0.086061 -0.101980 0.058189 0.067897 0.242329 0.191996 0.194270 -0.018132 -0.050820 -0.204254 0.075902 -0.251252 -0.296401 0.005811 0.003315 0.221059 -0.192316 0.046601 0.213259 -0.022597 -0.232224 0.018642 -0.115237 -0.075220 0.450022 0.186142 0.295099 0.000046 0.334207 0.050121 -0.181607 0.209061 
sgrving -0.058464 -0.078945 0.031362 0.048356 0.170906 0.119050 0.100447 -0.000623 -0.040792 -0.148379 0.074454 -0.134395 -0.182023 0.009647 -0.016887 0.145824 -0.098860 0.028044 0.111124 0.001772 -0.148903 -0.004117 -0.062877 -0.051491 0.304483 0.121325 0.150164 -0.005651 0.216592 0.013879 -0.112622 0.137025 
INcO -0.123994 -0.142422 0.087939 0.055692 0.366794 0.282804 0.320170 -0.035899 -0.082836 -0.298559 0.125560 -0.433032 -0.455003 -0.003349 0.026043 0.336659 -0.305411 0.090988 0.339186 -0.060227 -0.347533 0.011627 -0.179893 -0.103770 0.705730 0.285074 0.474865 -0.001114 0.531030 0.054414 -0.279014 0.329079 
rot -0.080638 -0.085308 0.046461 0.051669 0.234475 0.187145 0.193303 -0.010673 -0.050822 -0.192352 0.070795 -0.264044 -0.288585 0.009196 0.017108 0.214785 -0.184479 0.046829 0.202915 -0.027988 -0.241046 0.012813 -0.111921 -0.073485 0.434991 0.184028 0.299534 0.001168 0.336172 0.044488 -0.172443 0.214286 
skze -0.047078 -0.036007 0.017507 0.063335 0.109845 0.109116 0.088295 0.003885 -0.017505 -0.088930 0.007932 -0.139984 -0.130497 0.029368 0.001245 0.108660 -0.093075 0.010266 0.080147 -0.001478 -0.123445 0.031039 -0.048878 -0.032913 0.209709 0.096092 0.141958 0.009099 0.151490 0.054630 -0.081996 0.095741 
shc -0.057579 -0.071066 0.033600 0.053692 0.170326 0.129846 0.122409 -0.001161 -0.025777 -0.135354 0.042225 -0.196688 -0.187347 0.016215 0.014862 0.152680 -0.145221 0.041389 0.135911 -0.008593 -0.175187 0.011202 -0.079334 -0.046279 0.314396 0.130075 0.219906 -0.006236 0.239723 0.026997 -0.114195 0.150244 
terminatkng -0.114274 -0.132364 0.085707 0.068498 0.302131 0.200824 0.229112 -0.031352 -0.072316 -0.254523 0.116206 -0.311522 -0.336035 -0.010381 -0.015332 0.273396 -0.244091 0.071046 0.246976 -0.013766 -0.282237 -0.025709 -0.127979 -0.107222 0.552902 0.229916 0.361896 -0.007236 0.433913 0.027187 -0.195183 0.267574 
mfs -0.178606 -0.168804 0.091800 0.084394 0.455609 0.344464 0.376804 -0.047357 -0.103575 -0.371823 0.161238 -0.508284 -0.551237 0.002182 0.010901 0.410880 -0.364368 0.107152 0.411975 -0.047638 -0.433681 -0.010334 -0.217491 -0.144861 0.842912 0.352254 0.567202 0.001180 0.631277 0.036276 -0.313740 0.402240 
dfq -0.196460 -0.216830 0.108113 0.080415 0.518463 0.404171 0.469636 -0.075324 -0.122708 -0.464718 0.197337 -0.595939 -0.664303 -0.021627 0.022843 0.495461 -0.428229 0.136257 0.508703 -0.062200 -0.510118 -0.025697 -0.280970 -0.168158 0.999814 0.413312 0.701753 0.000533 0.757837 0.008903 -0.385636 0.434962 
Dfleting -0.190259 -0.182371 0.106100 0.088829 0.474830 0.350816 0.398639 -0.073261 -0.109347 -0.400018 0.185128 -0.516354 -0.585422 -0.015508 -0.000899 0.438593 -0.383879 0.116916 0.442200 -0.047679 -0.455960 -0.023351 -0.238410 -0.154239 0.886468 0.368950 0.607638 -0.002178 0.669246 0.016062 -0.331993 0.405090 
Ruceived -0.052851 -0.066092 0.026668 0.053527 0.168949 0.143486 0.131793 0.001444 -0.030803 -0.138154 0.058749 -0.202436 -0.214644 0.011096 0.002232 0.172310 -0.134159 0.020769 0.148841 -0.013188 -0.170721 0.019702 -0.092679 -0.047473 0.325029 0.137390 0.217318 0.009095 0.248937 0.043712 -0.134428 0.178022 
tot -0.117001 -0.123802 0.059857 0.069404 0.338170 0.236283 0.262491 -0.034656 -0.085238 -0.268027 0.109396 -0.364520 -0.394416 -0.006722 0.002235 0.311700 -0.248960 0.070217 0.273860 -0.017501 -0.326720 -0.004110 -0.137952 -0.109637 0.594966 0.260505 0.392312 0.014523 0.471508 0.029335 -0.217614 0.287763 
ufdated -0.131527 -0.119849 0.062687 0.081973 0.339886 0.274065 0.299684 -0.030095 -0.077249 -0.276111 0.111989 -0.426048 -0.435387 0.006452 0.005811 0.330486 -0.283003 0.066065 0.324343 -0.052913 -0.352291 0.020057 -0.176399 -0.096775 0.653492 0.273495 0.440318 0.018999 0.489494 0.062944 -0.256769 0.319948 
ii -0.166892 -0.193796 0.124291 0.058704 0.460745 0.326596 0.388722 -0.061625 -0.121695 -0.392394 0.167033 -0.495734 -0.561597 -0.008497 0.011483 0.434071 -0.364761 0.103120 0.433676 -0.047866 -0.419972 -0.013186 -0.225719 -0.155428 0.865343 0.346143 0.577013 0.001075 0.652222 0.015673 -0.314330 0.386861 
bmock -0.134178 -0.123565 0.077040 0.069457 0.342524 0.291018 0.301867 -0.025219 -0.074465 -0.303738 0.094632 -0.420287 -0.450645 0.032900 0.036061 0.319082 -0.295672 0.083848 0.316425 -0.041841 -0.358185 0.007030 -0.168428 -0.107101 0.676834 0.283740 0.456732 0.007045 0.495623 0.053371 -0.249311 0.313627 
filu -0.220693 -0.199439 0.102042 0.086632 0.561841 0.433690 0.500858 -0.080428 -0.127405 -0.476149 0.213303 -0.643513 -0.728408 0.001734 0.040558 0.537861 -0.445968 0.135916 0.526129 -0.064579 -0.546637 -0.004817 -0.304538 -0.166839 1.080357 0.445341 0.745984 0.013398 0.802956 0.020576 -0.406703 0.485080 
desi -0.152357 -0.170767 0.110404 0.060574 0.401347 0.303462 0.359291 -0.039802 -0.096757 -0.341854 0.133582 -0.468284 -0.482827 -0.007624 0.012932 0.384021 -0.346502 0.095196 0.396604 -0.054176 -0.377447 -0.016113 -0.208675 -0.133794 0.762349 0.312963 0.527188 0.001786 0.583614 0.013709 -0.294708 0.344488 
FSeataset -0.160273 -0.180896 0.115910 0.059872 0.469096 0.329673 0.384402 -0.063432 -0.115487 -0.378291 0.164538 -0.508704 -0.547970 -0.019817 -0.007975 0.411042 -0.377923 0.099822 0.405603 -0.046812 -0.427774 -0.024287 -0.196743 -0.146692 0.827503 0.343271 0.568809 0.004407 0.640066 0.018374 -0.322578 0.393084 
ifs -0.177725 -0.178560 0.100189 0.077499 0.470724 0.345087 0.387674 -0.055594 -0.116643 -0.391580 0.173349 -0.521301 -0.565140 -0.004404 0.011192 0.431365 -0.373323 0.104105 0.431432 -0.050028 -0.439078 -0.012208 -0.228581 -0.152191 0.871417 0.360920 0.587544 0.004652 0.650428 0.026677 -0.322017 0.406067 
dwst -0.129571 -0.172140 0.095125 0.064734 0.408742 0.299564 0.342865 -0.028865 -0.098339 -0.331396 0.131076 -0.458515 -0.466413 -0.018101 0.005693 0.365953 -0.329302 0.088038 0.363967 -0.037653 -0.374600 -0.020929 -0.186655 -0.134082 0.722060 0.310936 0.508669 -0.001490 0.573450 0.017700 -0.291662 0.352734 
FSNbmesystem -0.189537 -0.183844 0.108712 0.074880 0.472380 0.369808 0.429345 -0.047250 -0.111207 -0.418758 0.170195 -0.567676 -0.612048 0.025749 0.039187 0.446042 -0.407850 0.114950 0.444272 -0.071074 -0.473814 -0.005457 -0.259649 -0.147447 0.917030 0.375274 0.640508 0.006528 0.683122 0.044954 -0.345883 0.425013 
moot -0.190116 -0.175666 0.096084 0.079571 0.474836 0.367787 0.415722 -0.062411 -0.111714 -0.405873 0.159366 -0.529154 -0.596874 0.000184 0.022343 0.437604 -0.383010 0.120514 0.432091 -0.059668 -0.469385 -0.010473 -0.226828 -0.159906 0.893207 0.382880 0.602793 0.005276 0.672666 0.033828 -0.334114 0.410035 
wdile -0.142731 -0.141100 0.086645 0.070803 0.352912 0.311480 0.334022 -0.023957 -0.074455 -0.318065 0.119281 -0.446445 -0.488046 0.017897 0.032419 0.363540 -0.323985 0.079814 0.371997 -0.067906 -0.372233 0.016901 -0.212904 -0.115210 0.728822 0.302631 0.510802 0.011307 0.533827 0.053725 -0.289715 0.342274 
FSDitaset -0.199245 -0.188922 0.117436 0.072566 0.522816 0.386809 0.445241 -0.084492 -0.125877 -0.437086 0.191023 -0.584051 -0.644748 -0.011047 0.002523 0.468313 -0.427066 0.117436 0.470951 -0.059724 -0.494241 -0.033595 -0.239361 -0.159880 0.959151 0.406231 0.652987 0.008122 0.724634 0.014147 -0.363366 0.439153 
grc -0.063355 -0.073265 0.036235 0.040418 0.174227 0.159842 0.144744 0.005059 -0.024318 -0.157808 0.057010 -0.211857 -0.231203 0.028387 0.022714 0.151901 -0.140917 0.039693 0.151765 -0.012745 -0.184131 0.010318 -0.092522 -0.035068 0.357998 0.141103 0.232580 -0.004275 0.250732 0.043713 -0.145600 0.161973 
ehile -0.083129 -0.085631 0.050685 0.056783 0.219330 0.184701 0.192249 -0.012116 -0.039763 -0.189366 0.059170 -0.269706 -0.280208 0.014623 0.017068 0.218574 -0.191482 0.042942 0.211959 -0.020093 -0.230498 0.021355 -0.120903 -0.071950 0.437339 0.186958 0.323864 0.002859 0.315498 0.047529 -0.168725 0.207668 
foy -0.184175 -0.178676 0.086282 0.082039 0.495963 0.392704 0.429990 -0.073305 -0.102114 -0.423299 0.165180 -0.565592 -0.625355 -0.004008 0.024150 0.466203 -0.397599 0.120787 0.455082 -0.053902 -0.485220 0.005464 -0.242695 -0.152643 0.929563 0.381773 0.660033 0.005597 0.702258 0.042706 -0.358946 0.422938 
Receivqd -0.010060 -0.054989 0.018980 0.033315 0.079949 0.065462 0.049252 0.013063 -0.012647 -0.081883 0.025412 -0.077491 -0.090292 -0.003542 -0.002726 0.094683 -0.059606 0.007037 0.072445 0.008437 -0.081829 0.011424 -0.045715 -0.033664 0.148378 0.063752 0.111943 -0.002355 0.129142 0.010414 -0.064919 0.082801 
Deseting -0.074110 -0.119341 0.066447 0.051547 0.251745 0.141745 0.163694 -0.035452 -0.052732 -0.194229 0.080274 -0.204644 -0.232484 -0.012888 -0.033228 0.211975 -0.169012 0.047664 0.176850 0.007541 -0.194141 -0.016784 -0.083709 -0.085518 0.397149 0.161766 0.259030 -0.016972 0.317347 -0.010449 -0.140566 0.186827 
termizating -0.092894 -0.115562 0.072847 0.055781 0.241374 0.165816 0.176831 -0.021544 -0.057599 -0.212299 0.094422 -0.258817 -0.270528 -0.002878 -0.024078 0.227585 -0.200237 0.056630 0.213150 -0.014276 -0.230295 -0.027773 -0.115681 -0.090851 0.448535 0.197248 0.288438 -0.010806 0.353965 0.012885 -0.154331 0.214058 
updatnd -0.089807 -0.102898 0.053979 0.068718 0.244142 0.193494 0.211620 -0.011771 -0.054376 -0.213867 0.078660 -0.288082 -0.299568 0.002026 0.001664 0.241377 -0.202505 0.047342 0.230171 -0.048139 -0.247111 0.018418 -0.120822 -0.071257 0.467128 0.189692 0.307725 0.001217 0.352629 0.038827 -0.180092 0.233882 
dks -0.139712 -0.143555 0.084006 0.077139 0.364889 0.284930 0.320775 -0.025759 -0.088614 -0.297133 0.115648 -0.432691 -0.441296 0.003824 0.013850 0.331052 -0.312692 0.083272 0.343868 -0.045987 -0.353762 -0.002068 -0.184677 -0.117944 0.682571 0.290955 0.465513 0.007664 0.518920 0.048466 -0.268804 0.318728 
dfk -0.185394 -0.182739 0.103935 0.086231 0.494412 0.388523 0.441608 -0.063236 -0.111541 -0.419034 0.167004 -0.585533 -0.618393 0.002802 0.026417 0.457699 -0.417938 0.121623 0.469675 -0.059088 -0.473628 -0.012520 -0.260447 -0.149951 0.938258 0.389420 0.646441 0.013656 0.711060 0.037337 -0.364333 0.420308 
tekminating -0.108354 -0.119902 0.071017 0.072603 0.273261 0.179379 0.198753 -0.027694 -0.069566 -0.225656 0.107882 -0.280523 -0.296414 -0.008440 -0.026349 0.251337 -0.209043 0.061206 0.227989 -0.010843 -0.252775 -0.018078 -0.114900 -0.102177 0.489157 0.206929 0.313707 -0.005681 0.386477 0.020133 -0.166383 0.238800 
qerminating -0.105770 -0.150814 0.094577 0.049561 0.296580 0.211934 0.226009 -0.033664 -0.069640 -0.274433 0.112019 -0.302945 -0.340220 -0.007732 -0.025672 0.278264 -0.243798 0.078606 0.268404 -0.033516 -0.276549 -0.028650 -0.143439 -0.116249 0.549809 0.236358 0.358743 -0.023167 0.420004 0.006986 -0.200456 0.254441 
PacketResponver -0.098178 -0.113017 0.073753 0.046047 0.274906 0.224937 0.253676 -0.015857 -0.067338 -0.237678 0.104681 -0.337168 -0.340284 0.003116 0.022171 0.252861 -0.231828 0.059098 0.252483 -0.053602 -0.274508 0.012162 -0.140475 -0.089169 0.541348 0.213212 0.387400 -0.005263 0.392915 0.046151 -0.222998 0.279507 
dws -0.128522 -0.168928 0.094785 0.065056 0.382105 0.294496 0.332882 -0.021282 -0.088567 -0.322743 0.124098 -0.438056 -0.451908 -0.010252 0.012571 0.347742 -0.321412 0.085209 0.359618 -0.045428 -0.359391 -0.012385 -0.191064 -0.125669 0.705085 0.297876 0.498026 -0.007278 0.543784 0.032184 -0.288083 0.339366 
boock -0.130449 -0.121343 0.073116 0.067091 0.336539 0.287941 0.301398 -0.026960 -0.073761 -0.306080 0.088526 -0.411559 -0.441664 0.030958 0.042123 0.317144 -0.290668 0.082034 0.312400 -0.048092 -0.355347 0.013359 -0.165449 -0.105843 0.667415 0.279661 0.453364 0.008055 0.486433 0.050167 -0.248787 0.301362 
PacketRjsponder -0.101998 -0.127694 0.066452 0.047417 0.305568 0.233311 0.259199 -0.032377 -0.074877 -0.256805 0.110537 -0.314903 -0.359487 -0.008963 -0.001429 0.269662 -0.227137 0.056511 0.240069 -0.033725 -0.277337 -0.001756 -0.110506 -0.104789 0.556581 0.222845 0.379900 -0.010233 0.415934 0.020568 -0.222353 0.282848 
flr -0.164311 -0.164023 0.087086 0.080540 0.454332 0.368784 0.390288 -0.048344 -0.099001 -0.379170 0.169156 -0.520834 -0.577932 -0.003833 0.023362 0.414616 -0.364379 0.104606 0.420870 -0.050658 -0.440865 0.004399 -0.232235 -0.145380 0.863319 0.356139 0.611705 -0.003490 0.641424 0.059918 -0.346063 0.417984 
FSNamesystex -0.205150 -0.174038 0.119397 0.083094 0.474333 0.384843 0.438367 -0.061561 -0.112360 -0.420402 0.180264 -0.581904 -0.622802 0.010848 0.024230 0.447465 -0.427098 0.112111 0.465815 -0.094151 -0.487909 -0.009561 -0.259821 -0.141869 0.925868 0.381350 0.641613 0.014251 0.691419 0.052574 -0.358813 0.428168 
xfs -0.132128 -0.105228 0.058931 0.085107 0.325642 0.243223 0.260136 -0.026253 -0.074046 -0.253085 0.113700 -0.360014 -0.381026 0.003623 0.003672 0.297645 -0.250708 0.061339 0.286633 -0.033934 -0.306933 0.012814 -0.148034 -0.088669 0.590610 0.235956 0.388321 0.012745 0.441371 0.042651 -0.220160 0.285566 
NameSrstem -0.123380 -0.145195 0.084883 0.059807 0.349923 0.251549 0.293263 -0.026672 -0.082505 -0.279365 0.128951 -0.373234 -0.415281 0.001254 0.016552 0.310189 -0.273387 0.076228 0.289933 -0.042328 -0.318311 0.008000 -0.164937 -0.102521 0.635387 0.254363 0.432698 -0.006896 0.484550 0.039968 -0.245793 0.312625 
dmta -0.187137 -0.195122 0.114482 0.080989 0.494516 0.370658 0.433179 -0.064190 -0.114903 -0.413593 0.171633 -0.556948 -0.602815 -0.010935 0.004228 0.442524 -0.400722 0.127703 0.447352 -0.053891 -0.469136 -0.031758 -0.239803 -0.154487 0.909971 0.389344 0.618460 -0.005336 0.701773 0.023626 -0.348007 0.421633 
addxd -0.118310 -0.108427 0.073696 0.071258 0.269539 0.234363 0.262960 -0.030485 -0.064528 -0.251466 0.088275 -0.356349 -0.368964 0.008573 0.008575 0.309553 -0.268077 0.063086 0.309031 -0.077358 -0.291536 0.018063 -0.174553 -0.086477 0.574102 0.228079 0.372791 0.026271 0.427498 0.033917 -0.223314 0.248134 
inwalidSet -0.066315 -0.064530 0.046467 0.058999 0.198831 0.171078 0.150316 0.005642 -0.035805 -0.154417 0.043845 -0.231861 -0.230504 0.020024 0.014292 0.193599 -0.155650 0.003867 0.170174 -0.018858 -0.189925 0.033336 -0.086721 -0.057227 0.352149 0.160650 0.250482 0.023057 0.253848 0.059605 -0.159483 0.192866 
sukceeded 0.050964 0.031363 -0.045057 0.052298 -0.068676 -0.055731 -0.097652 0.040625 0.028693 0.088287 -0.069258 0.118858 0.123333 0.041694 -0.021674 -0.063396 0.083347 -0.054368 -0.126221 0.038992 0.073992 0.065577 0.055945 0.024401 -0.173977 -0.080979 -0.146610 0.021802 -0.137445 0.056504 0.052561 -0.059130 
dasa -0.133119 -0.155419 0.092525 0.071228 0.375572 0.280908 0.319893 -0.036427 -0.084077 -0.302275 0.122077 -0.420274 -0.434088 -0.011544 -0.005688 0.335773 -0.304845 0.087780 0.335472 -0.046744 -0.350928 -0.010512 -0.177195 -0.111470 0.677636 0.283067 0.454825 -0.002761 0.521327 0.031948 -0.275299 0.326389 
terminaving -0.077448 -0.108931 0.063159 0.055218 0.224962 0.146936 0.152188 -0.014229 -0.053727 -0.196654 0.093630 -0.216267 -0.237778 -0.005325 -0.020034 0.204419 -0.167590 0.050292 0.177434 -0.009166 -0.202120 -0.019816 -0.098488 -0.083224 0.403182 0.170307 0.252107 -0.017072 0.320253 0.015680 -0.139866 0.201404 
invalidSct -0.070026 -0.067352 0.047522 0.059461 0.224019 0.190996 0.165396 -0.005181 -0.046144 -0.178826 0.055330 -0.257335 -0.270714 0.019739 0.012722 0.219042 -0.172422 0.016820 0.192798 -0.016137 -0.215326 0.026251 -0.094632 -0.071120 0.406239 0.177625 0.273380 0.027178 0.299370 0.043544 -0.167162 0.209502 
Namenystem -0.120409 -0.139793 0.079581 0.061169 0.340218 0.249595 0.282827 -0.028121 -0.077467 -0.271855 0.113978 -0.373064 -0.404328 0.003543 0.012193 0.310095 -0.269138 0.074812 0.284700 -0.037509 -0.319160 0.010898 -0.157484 -0.104953 0.614371 0.252121 0.424930 -0.000546 0.473408 0.039253 -0.237237 0.303215 
sipe -0.086794 -0.078793 0.045280 0.071273 0.194829 0.166687 0.161178 -0.000601 -0.045812 -0.185138 0.062673 -0.217849 -0.237171 0.014615 0.010712 0.192626 -0.153284 0.028913 0.174840 -0.019936 -0.193886 0.028719 -0.085374 -0.063007 0.390349 0.157326 0.256787 0.004980 0.267124 0.050301 -0.143231 0.180026 
PacketReeponder -0.083247 -0.118635 0.066920 0.044490 0.279490 0.196111 0.220745 -0.029512 -0.065021 -0.218471 0.093451 -0.258546 -0.303583 -0.013993 -0.006671 0.229422 -0.196332 0.044899 0.205378 -0.022958 -0.237880 0.004658 -0.089872 -0.091882 0.472236 0.187737 0.327271 -0.013622 0.354734 0.023357 -0.199072 0.247129 
fon -0.165814 -0.165054 0.089573 0.081964 0.440359 0.344096 0.368731 -0.057325 -0.094087 -0.373256 0.151419 -0.487927 -0.541268 -0.009477 0.012868 0.407820 -0.354523 0.105747 0.404340 -0.046415 -0.420283 0.001712 -0.208166 -0.138965 0.824054 0.340114 0.567078 0.000095 0.615338 0.042031 -0.319297 0.378691 
beock -0.080525 -0.084993 0.055671 0.048622 0.235274 0.202497 0.207280 -0.009976 -0.045409 -0.210869 0.045077 -0.299178 -0.298673 0.032889 0.037072 0.220945 -0.206340 0.049579 0.211088 -0.024505 -0.249241 0.017773 -0.113158 -0.070159 0.460711 0.191365 0.330240 0.006234 0.338711 0.045436 -0.174469 0.213491 
alloiateBlock -0.168484 -0.147331 0.088436 0.087138 0.419626 0.357226 0.372203 -0.035928 -0.106055 -0.358798 0.155674 -0.511788 -0.571913 0.014157 0.024872 0.417154 -0.363068 0.091534 0.409548 -0.052590 -0.437226 0.003323 -0.236226 -0.143429 0.824866 0.351105 0.561874 0.032069 0.614253 0.049289 -0.330389 0.392100 
it -0.130514 -0.157691 0.090979 0.061640 0.396135 0.271401 0.313596 -0.047040 -0.105840 -0.319313 0.135141 -0.422349 -0.458520 -0.013637 -0.000502 0.364305 -0.297338 0.079415 0.343784 -0.024969 -0.359832 -0.010450 -0.171083 -0.134664 0.705838 0.294296 0.474240 0.007672 0.548950 0.023733 -0.259133 0.333798 
NameSystmm -0.117901 -0.145876 0.078965 0.060062 0.339120 0.257000 0.287273 -0.016420 -0.084374 -0.281876 0.112023 -0.388700 -0.419387 0.014935 0.016641 0.327772 -0.268876 0.075495 0.296629 -0.035514 -0.321880 0.013570 -0.173805 -0.110354 0.627485 0.260560 0.432761 0.004739 0.478890 0.038048 -0.236852 0.308723 
yf -0.148967 -0.155180 0.082705 0.068481 0.439032 0.342313 0.360344 -0.065351 -0.078071 -0.362825 0.140267 -0.493216 -0.541896 0.006617 0.010294 0.413485 -0.351672 0.098614 0.392526 -0.044117 -0.408940 0.003416 -0.207656 -0.128609 0.803797 0.323555 0.563399 0.005593 0.623011 0.028877 -0.307769 0.375984 
blvckMap -0.112975 -0.113421 0.064202 0.069665 0.323039 0.256510 0.262808 -0.025102 -0.065512 -0.272535 0.111411 -0.354773 -0.396851 0.020992 0.020663 0.279387 -0.243285 0.069247 0.257141 -0.032014 -0.313918 0.006456 -0.142792 -0.095494 0.600093 0.243098 0.402914 -0.005636 0.447426 0.039204 -0.224486 0.307365 
yrom -0.099210 -0.104629 0.055220 0.057023 0.277936 0.253578 0.241068 -0.012398 -0.041141 -0.248182 0.078631 -0.327421 -0.376350 0.038531 0.032726 0.269910 -0.232063 0.065443 0.245950 -0.047307 -0.287128 0.028651 -0.153959 -0.082403 0.550403 0.231205 0.379895 -0.009563 0.407343 0.063653 -0.221371 0.266181 
WARv -0.046004 -0.063722 0.039332 0.054589 0.162535 0.131155 0.110766 0.003779 -0.030030 -0.136109 0.047551 -0.158339 -0.193408 0.019275 0.004706 0.133066 -0.118963 0.033699 0.122790 -0.004044 -0.169144 0.012178 -0.075056 -0.054877 0.297974 0.124020 0.181801 -0.002500 0.223047 0.041906 -0.121477 0.149902 
Sepved -0.007570 -0.012659 0.004733 0.034327 0.024145 0.034739 0.018904 0.017793 0.007837 -0.039876 -0.006853 -0.029944 -0.030993 0.023344 0.012540 0.043501 -0.023116 -0.014543 0.019146 -0.002727 -0.031176 0.037056 -0.014706 0.000277 0.071751 0.018338 0.051090 0.007139 0.039927 0.034726 -0.025413 0.041283 
NameSystes -0.165312 -0.147748 0.101953 0.068684 0.382536 0.291897 0.342828 -0.033540 -0.094712 -0.312099 0.147031 -0.458261 -0.478602 -0.004838 0.023483 0.350134 -0.334224 0.087818 0.364797 -0.071700 -0.393653 -0.002223 -0.196036 -0.115681 0.730865 0.301185 0.514354 -0.000044 0.554469 0.043371 -0.278083 0.357666 
NameSysjem -0.116620 -0.130364 0.076849 0.062198 0.313036 0.240174 0.269642 -0.010096 -0.066241 -0.252429 0.108972 -0.345870 -0.380849 0.010054 0.022433 0.290691 -0.243347 0.056545 0.265466 -0.037634 -0.298116 0.021222 -0.148103 -0.089633 0.579302 0.226362 0.409173 -0.002215 0.440048 0.049489 -0.232605 0.293508 
mne -0.097852 -0.093455 0.056938 0.061253 0.245881 0.209048 0.204065 -0.019562 -0.040025 -0.209240 0.066497 -0.280121 -0.299375 0.011580 0.002299 0.219588 -0.203605 0.047993 0.216027 -0.018112 -0.235620 0.011320 -0.100397 -0.074979 0.462706 0.198101 0.321458 -0.003545 0.338455 0.057035 -0.182281 0.222856 
dss -0.146107 -0.161750 0.089839 0.071547 0.384474 0.289868 0.327839 -0.028736 -0.096492 -0.319340 0.132087 -0.438711 -0.452278 -0.010522 0.006236 0.354125 -0.323867 0.090286 0.361584 -0.050633 -0.367636 -0.016097 -0.188976 -0.128171 0.710317 0.301912 0.483393 -0.002377 0.543514 0.021367 -0.276400 0.330988 
wfs -0.106238 -0.127287 0.067633 0.070659 0.326346 0.245404 0.253544 -0.012796 -0.065719 -0.256216 0.104025 -0.360511 -0.376641 0.005186 0.008843 0.295539 -0.259333 0.061494 0.287380 -0.030673 -0.306855 0.008224 -0.156026 -0.099432 0.584954 0.241951 0.407543 -0.001436 0.446694 0.041127 -0.231091 0.303880 
Recmiving -0.136335 -0.142528 0.092312 0.056287 0.329703 0.260720 0.279866 -0.027989 -0.075798 -0.297256 0.141478 -0.391527 -0.414711 -0.010705 -0.003572 0.328866 -0.294482 0.088044 0.344190 -0.046203 -0.323474 -0.027211 -0.187005 -0.122419 0.655304 0.277816 0.446613 -0.002946 0.501800 0.013186 -0.245435 0.314573 
tyrminating -0.111688 -0.127894 0.076333 0.067444 0.298068 0.215967 0.211052 -0.032269 -0.065242 -0.256276 0.120654 -0.306097 -0.350778 0.000905 -0.023063 0.277008 -0.233616 0.068065 0.238203 -0.016145 -0.282692 -0.025511 -0.130345 -0.104439 0.546925 0.239088 0.344217 -0.011527 0.431578 0.022196 -0.193993 0.265527 
sizg -0.125725 -0.149419 0.084422 0.062285 0.339474 0.244754 0.267637 -0.041766 -0.088952 -0.291125 0.123603 -0.357952 -0.396529 -0.011807 -0.012712 0.332489 -0.264757 0.075296 0.310130 -0.032005 -0.316987 -0.015344 -0.159176 -0.119719 0.631991 0.259420 0.406226 -0.000090 0.480546 0.004390 -0.228504 0.281292 
deut -0.164544 -0.182203 0.104215 0.063908 0.475768 0.351805 0.426089 -0.061698 -0.109869 -0.387498 0.155758 -0.553299 -0.571660 -0.019274 0.016111 0.441384 -0.388173 0.110236 0.441310 -0.052805 -0.445881 -0.018701 -0.233156 -0.148054 0.870333 0.367707 0.621683 0.008020 0.681234 0.012928 -0.343274 0.401874 
jNFO -0.139885 -0.133529 0.083147 0.040239 0.366316 0.287124 0.349320 -0.021234 -0.088758 -0.306014 0.127290 -0.457289 -0.478274 0.010667 0.051845 0.350354 -0.307882 0.091758 0.359027 -0.078824 -0.364817 0.012420 -0.207564 -0.097111 0.729952 0.296737 0.490878 0.005973 0.542551 0.057408 -0.284247 0.341640 
blocm -0.165840 -0.167736 0.087510 0.062535 0.425994 0.353077 0.390165 -0.041364 -0.097575 -0.387986 0.146273 -0.519440 -0.581992 0.030082 0.052456 0.422943 -0.365074 0.121342 0.414759 -0.064167 -0.446805 0.005435 -0.248809 -0.139507 0.862213 0.352009 0.599119 0.000177 0.632595 0.028783 -0.315383 0.388160 
bvock -0.095453 -0.099538 0.056121 0.056078 0.277374 0.234715 0.235308 -0.014162 -0.062544 -0.245562 0.075958 -0.333790 -0.366195 0.032022 0.036550 0.255456 -0.229300 0.061953 0.240207 -0.027913 -0.295245 0.012258 -0.134705 -0.085204 0.546584 0.231076 0.362194 0.009801 0.399789 0.046426 -0.204781 0.256145 
IuFO -0.191645 -0.208889 0.099684 0.065657 0.544409 0.402455 0.488047 -0.068681 -0.131731 -0.456367 0.202704 -0.618368 -0.698149 -0.010185 0.029129 0.500296 -0.433104 0.144511 0.509031 -0.079045 -0.518821 -0.011017 -0.290983 -0.156553 1.027398 0.433674 0.694598 -0.005471 0.772233 0.024111 -0.395221 0.454911 
rlockMap -0.091290 -0.081087 0.052149 0.080527 0.239560 0.213319 0.201850 -0.007602 -0.039800 -0.205912 0.076349 -0.268424 -0.294892 0.029234 0.018955 0.213028 -0.191179 0.047927 0.193761 -0.033201 -0.238733 0.025201 -0.116347 -0.070565 0.466872 0.180453 0.307226 -0.004140 0.342771 0.059734 -0.185930 0.241008 
mNFO -0.182024 -0.171529 0.106974 0.066166 0.465032 0.365221 0.426759 -0.050759 -0.116175 -0.392382 0.168007 -0.554917 -0.601748 -0.002698 0.035404 0.436681 -0.391032 0.124479 0.451024 -0.080863 -0.455496 -0.000547 -0.250414 -0.142667 0.906133 0.377805 0.611488 0.002445 0.678416 0.054348 -0.347598 0.414187 
NameSysyem -0.100619 -0.122176 0.061472 0.062934 0.290264 0.229820 0.249143 -0.007342 -0.061754 -0.239468 0.091023 -0.338319 -0.359482 0.013445 0.023821 0.274694 -0.233768 0.051157 0.253514 -0.033249 -0.286618 0.030915 -0.143198 -0.084548 0.538338 0.214916 0.393102 0.005138 0.406435 0.060143 -0.218800 0.271130 
NameSysuem -0.092933 -0.109434 0.053235 0.061633 0.272373 0.215173 0.230060 -0.001277 -0.052864 -0.212985 0.080791 -0.314335 -0.330999 0.016145 0.018140 0.259625 -0.211490 0.044488 0.228015 -0.029654 -0.258499 0.033420 -0.131703 -0.070359 0.498276 0.203968 0.351469 0.005664 0.375098 0.054395 -0.202541 0.255899 
hapoop -0.059237 -0.066531 0.024275 0.075229 0.141426 0.115306 0.105298 0.014270 -0.017969 -0.130624 0.043723 -0.133029 -0.168225 0.008574 0.024031 0.143024 -0.108071 0.032513 0.117597 -0.016966 -0.153876 0.043310 -0.079348 -0.039080 0.277168 0.120401 0.186927 -0.002095 0.188524 0.045936 -0.106982 0.138423 
mnb -0.121659 -0.130143 0.081055 0.069191 0.303512 0.237180 0.242053 -0.022525 -0.065434 -0.257527 0.089518 -0.324357 -0.367183 0.008789 0.011536 0.281418 -0.240248 0.065908 0.263266 -0.022732 -0.302689 0.004366 -0.122656 -0.107448 0.560860 0.236350 0.385381 -0.009877 0.424487 0.034997 -0.209963 0.267581 
sime -0.118257 -0.115445 0.065955 0.072245 0.288505 0.232134 0.242907 -0.014991 -0.071961 -0.253737 0.092412 -0.332513 -0.361270 0.017702 0.009481 0.281925 -0.236308 0.057877 0.263231 -0.028720 -0.285175 0.016687 -0.138703 -0.097420 0.565829 0.234842 0.371435 0.007004 0.404818 0.052283 -0.208183 0.261226 
ic -0.139434 -0.174617 0.102313 0.055116 0.412195 0.309449 0.347700 -0.054266 -0.100240 -0.356144 0.147366 -0.466613 -0.509465 -0.006074 0.017115 0.392150 -0.338118 0.098880 0.386238 -0.036133 -0.381502 -0.011279 -0.204093 -0.135060 0.786577 0.313480 0.539811 0.001566 0.598109 0.016401 -0.292742 0.354064 
mo -0.162539 -0.167507 0.089118 0.069702 0.426425 0.333884 0.371079 -0.048162 -0.093459 -0.364362 0.142186 -0.475034 -0.542315 0.008069 0.027486 0.398823 -0.344110 0.109790 0.390123 -0.052895 -0.417096 0.006326 -0.213979 -0.138490 0.812345 0.334838 0.551690 -0.000141 0.608207 0.046097 -0.306807 0.372428 
filv -0.214765 -0.197165 0.117194 0.087687 0.551993 0.432612 0.480863 -0.081485 -0.127019 -0.471962 0.216146 -0.624625 -0.718289 -0.002096 0.036016 0.519842 -0.441114 0.137559 0.522026 -0.063795 -0.542412 -0.011066 -0.296522 -0.174655 1.066404 0.437414 0.730659 0.007712 0.794573 0.024587 -0.401909 0.484083 
exceplion -0.028362 -0.040337 0.017909 0.048999 0.076023 0.091522 0.073576 0.025582 -0.005319 -0.085473 0.013247 -0.100918 -0.104826 0.024387 0.012567 0.097685 -0.074767 0.008694 0.086939 -0.018335 -0.085853 0.037183 -0.065871 -0.022779 0.167587 0.067245 0.132339 -0.004224 0.115870 0.028121 -0.075407 0.085290 
blocuMap -0.157074 -0.135409 0.080600 0.077202 0.387653 0.316849 0.339839 -0.038597 -0.073456 -0.335451 0.133995 -0.455996 -0.494889 0.017254 0.033820 0.357463 -0.316917 0.091764 0.358456 -0.067255 -0.395019 0.007022 -0.192444 -0.108471 0.751136 0.303911 0.518362 -0.008871 0.553979 0.035406 -0.279310 0.369675 
ip -0.135616 -0.151666 0.093857 0.069980 0.365096 0.277419 0.306268 -0.039081 -0.091262 -0.325014 0.132970 -0.391612 -0.448763 -0.006824 0.015753 0.348409 -0.285017 0.079968 0.343890 -0.039671 -0.341061 0.010361 -0.173130 -0.124868 0.700469 0.276100 0.473347 0.001091 0.514915 0.037096 -0.257136 0.321753 
FdNamesystem -0.232472 -0.215283 0.136504 0.072080 0.553630 0.446953 0.538666 -0.067853 -0.121771 -0.502469 0.203377 -0.687190 -0.740274 0.028850 0.057255 0.515246 -0.495631 0.151849 0.550841 -0.112067 -0.565894 -0.019167 -0.333285 -0.153142 1.091054 0.448989 0.766467 0.000685 0.813991 0.025989 -0.419051 0.481950 
blouk -0.165817 -0.148167 0.079992 0.075358 0.424701 0.346478 0.381306 -0.041832 -0.098175 -0.359850 0.135347 -0.508975 -0.560425 0.022362 0.038951 0.405560 -0.349241 0.099944 0.396655 -0.060941 -0.438047 0.011502 -0.224895 -0.128867 0.822204 0.346709 0.561015 0.012847 0.607149 0.049382 -0.313481 0.382382 
updased -0.075259 -0.078293 0.032061 0.069410 0.188256 0.165036 0.177560 0.007871 -0.037734 -0.167680 0.049556 -0.238684 -0.235206 0.018118 0.012931 0.191612 -0.158474 0.029008 0.178731 -0.048253 -0.203932 0.036635 -0.103396 -0.044520 0.379940 0.150796 0.245567 0.004710 0.267925 0.056364 -0.154011 0.193330 
NameSysteb -0.147027 -0.141782 0.093001 0.073114 0.343702 0.267604 0.299633 -0.028773 -0.088270 -0.285980 0.125947 -0.397047 -0.434012 -0.003971 0.018100 0.326613 -0.286561 0.071575 0.312703 -0.048852 -0.360167 0.010292 -0.157924 -0.113872 0.648853 0.265631 0.458988 0.005694 0.498537 0.041079 -0.250959 0.312962 
FSdamesystem -0.213824 -0.200000 0.125575 0.072138 0.518230 0.413191 0.487386 -0.060817 -0.115843 -0.464634 0.189211 -0.636464 -0.685418 0.025337 0.045843 0.492504 -0.463293 0.133760 0.510319 -0.092937 -0.524561 -0.014083 -0.299702 -0.151894 1.020757 0.417612 0.710944 0.010104 0.757937 0.030768 -0.390854 0.458637 
PacketRespfnder -0.087440 -0.119097 0.058445 0.051276 0.296272 0.216654 0.234963 -0.032726 -0.065296 -0.235169 0.099358 -0.287774 -0.323200 -0.010135 -0.012265 0.248063 -0.206927 0.048485 0.215349 -0.020087 -0.251831 0.000547 -0.094357 -0.099129 0.507559 0.200473 0.349928 -0.011905 0.387127 0.019049 -0.205448 0.265226 
veceiving -0.096769 -0.128392 0.072853 0.045555 0.275270 0.194365 0.216475 -0.024572 -0.071193 -0.243052 0.113755 -0.288023 -0.319154 -0.007172 -0.004651 0.262423 -0.221756 0.065083 0.254117 -0.027883 -0.257917 -0.014377 -0.141796 -0.107257 0.522072 0.217146 0.344189 -0.005836 0.398903 0.004199 -0.196518 0.246384 
dfl -0.227401 -0.221424 0.113021 0.079819 0.576727 0.457564 0.533941 -0.090590 -0.125031 -0.513302 0.220076 -0.674065 -0.760833 0.005846 0.048845 0.553921 -0.482863 0.156699 0.556392 -0.075585 -0.566722 -0.026244 -0.331805 -0.174120 1.125283 0.460583 0.791505 0.004231 0.848822 -0.003532 -0.424527 0.485706 
dsst -0.144179 -0.165371 0.090520 0.073661 0.408657 0.294747 0.335218 -0.035618 -0.104483 -0.328131 0.136247 -0.454176 -0.462410 -0.017811 -0.002084 0.371004 -0.328441 0.091269 0.361818 -0.039123 -0.378691 -0.023290 -0.181072 -0.136832 0.723901 0.311050 0.491608 0.003236 0.570423 0.008638 -0.280280 0.342087 
bzock -0.108246 -0.117349 0.076841 0.059026 0.312371 0.260790 0.265329 -0.032714 -0.065461 -0.278198 0.080155 -0.380342 -0.400259 0.021633 0.028184 0.298909 -0.274117 0.075631 0.286428 -0.035784 -0.320629 0.003345 -0.154913 -0.099634 0.605255 0.258679 0.419629 0.003805 0.455955 0.035927 -0.224463 0.274367 
DataBpockScanner -0.029309 -0.040837 0.023779 0.071742 0.116569 0.109278 0.088560 0.029819 -0.006015 -0.097347 0.037199 -0.137252 -0.136402 0.019981 0.014745 0.099064 -0.095991 0.003038 0.073717 -0.015715 -0.130130 0.046375 -0.048409 -0.024572 0.231133 0.086804 0.174199 -0.006423 0.157125 0.068889 -0.113050 0.138457 
lNFO -0.191935 -0.190333 0.106439 0.059599 0.517173 0.400957 0.476500 -0.067112 -0.130525 -0.436111 0.197553 -0.611885 -0.670852 -0.009262 0.044704 0.486660 -0.426406 0.140696 0.497062 -0.087521 -0.500398 -0.004153 -0.290716 -0.156278 1.001057 0.415143 0.689487 -0.000142 0.753356 0.037944 -0.389347 0.449916 
PvcketResponder -0.108107 -0.134513 0.067982 0.053870 0.328081 0.242105 0.272686 -0.036263 -0.081758 -0.270331 0.115376 -0.323455 -0.383272 -0.010769 -0.001152 0.281307 -0.240804 0.063089 0.253705 -0.028306 -0.302892 -0.003193 -0.120647 -0.114746 0.593930 0.241746 0.398049 -0.008560 0.438105 0.027921 -0.238994 0.299525 
INFv -0.166665 -0.176667 0.100115 0.069883 0.465686 0.364669 0.416031 -0.056148 -0.107310 -0.399262 0.175362 -0.535822 -0.613851 -0.003095 0.024860 0.443572 -0.389795 0.119037 0.460116 -0.079703 -0.457526 -0.000493 -0.259613 -0.144807 0.904285 0.370596 0.612087 0.000746 0.683496 0.033897 -0.352727 0.407413 
demete -0.162077 -0.156404 0.100849 0.067695 0.405046 0.325021 0.375040 -0.046091 -0.086569 -0.346981 0.127407 -0.492616 -0.500053 -0.003687 0.012400 0.371636 -0.353904 0.095151 0.385320 -0.044864 -0.391660 -0.013355 -0.198131 -0.129199 0.762318 0.330142 0.553240 0.007686 0.581178 0.041653 -0.305646 0.351602 
adued -0.098796 -0.104638 0.057236 0.056599 0.258532 0.216558 0.250809 -0.020741 -0.056671 -0.226384 0.079903 -0.343216 -0.348525 0.009063 0.015689 0.285442 -0.240919 0.053344 0.277999 -0.063228 -0.275574 0.027599 -0.158179 -0.072832 0.540948 0.214934 0.364234 0.019914 0.398206 0.039880 -0.214204 0.247112 
ent -0.054368 -0.074520 0.051041 0.040690 0.202472 0.146384 0.147762 -0.022647 -0.034749 -0.154891 0.045413 -0.216088 -0.210401 -0.005030 -0.005284 0.182628 -0.153754 0.031721 0.160476 0.001515 -0.180010 0.000222 -0.071642 -0.064729 0.335218 0.145474 0.252152 0.000619 0.275592 0.015760 -0.135257 0.166562 
yize -0.129335 -0.127835 0.081414 0.059979 0.347885 0.295151 0.294748 -0.056191 -0.067412 -0.307279 0.104878 -0.406212 -0.445050 0.005642 0.000639 0.340771 -0.289890 0.071200 0.318302 -0.041231 -0.337336 0.002503 -0.159153 -0.112812 0.663503 0.286180 0.461435 0.000642 0.504947 0.038308 -0.254556 0.301998 
acded -0.063607 -0.076076 0.041392 0.044995 0.161788 0.156974 0.167444 -0.008420 -0.031260 -0.162067 0.045688 -0.245324 -0.239081 0.018089 0.019613 0.206492 -0.182392 0.039143 0.196219 -0.047489 -0.192836 0.025949 -0.121156 -0.048598 0.383685 0.148248 0.262289 0.019050 0.279693 0.029327 -0.154431 0.164171 
qnt -0.072527 -0.114698 0.058667 0.054559 0.252175 0.186110 0.184893 -0.025104 -0.056085 -0.213275 0.075320 -0.256487 -0.290075 -0.014231 -0.009318 0.238112 -0.186356 0.055239 0.211081 -0.005735 -0.245273 -0.005758 -0.107123 -0.090433 0.439951 0.196022 0.305548 -0.004714 0.346714 0.018623 -0.177876 0.208162 
FSNamesastem -0.182095 -0.194072 0.123079 0.069024 0.484986 0.367587 0.431158 -0.050756 -0.116314 -0.416539 0.176129 -0.559939 -0.609527 0.009949 0.026159 0.450322 -0.410256 0.117930 0.444580 -0.078118 -0.465777 -0.004664 -0.252946 -0.143881 0.923587 0.372411 0.627189 -0.000035 0.688946 0.037399 -0.354653 0.429480 
NameSysttm -0.148024 -0.160679 0.100059 0.062807 0.397849 0.291324 0.339583 -0.039212 -0.100773 -0.325328 0.142205 -0.455106 -0.488657 -0.003464 0.015103 0.373341 -0.324807 0.091853 0.360494 -0.051128 -0.384036 -0.001925 -0.194699 -0.127762 0.730959 0.303520 0.510880 0.005166 0.567786 0.027152 -0.272610 0.354641 
IbFO -0.173668 -0.195752 0.100311 0.060384 0.483531 0.359726 0.424671 -0.052138 -0.121426 -0.420138 0.172115 -0.549622 -0.620668 -0.000656 0.027838 0.450530 -0.391896 0.130247 0.453561 -0.066416 -0.470290 -0.010657 -0.248626 -0.151414 0.918771 0.390359 0.620169 -0.007694 0.689157 0.022052 -0.345481 0.401270 
gfs -0.151801 -0.142832 0.070041 0.075455 0.377717 0.283816 0.301287 -0.029952 -0.086664 -0.308535 0.136936 -0.416426 -0.456692 0.007822 0.006946 0.343691 -0.291203 0.086186 0.334449 -0.030957 -0.363580 -0.004630 -0.178509 -0.109133 0.702827 0.291694 0.448184 0.010469 0.512904 0.032678 -0.263082 0.322770 
Serjed 0.017754 0.012090 -0.007839 0.011147 -0.037511 -0.018803 -0.034871 0.030870 0.030833 0.029058 -0.037413 0.044341 0.058196 0.039320 0.010106 -0.034705 0.033394 -0.039413 -0.054384 0.006002 0.038396 0.034973 0.021462 0.029655 -0.069573 -0.041376 -0.041244 -0.000006 -0.058790 0.039734 0.020924 -0.016703 
tx -0.083785 -0.068920 0.035207 0.074803 0.221202 0.161836 0.161924 -0.020159 -0.051384 -0.168620 0.065328 -0.235081 -0.249273 0.003030 -0.010037 0.201189 -0.151824 0.030947 0.167550 -0.005144 -0.212022 0.010863 -0.081895 -0.056462 0.371222 0.161484 0.236479 0.017096 0.296492 0.044108 -0.138478 0.183006 
delepe -0.148609 -0.139904 0.087379 0.074601 0.357760 0.315627 0.346649 -0.031497 -0.071505 -0.324824 0.118903 -0.447077 -0.466697 0.003232 0.029156 0.344139 -0.320423 0.082376 0.362441 -0.059844 -0.360454 0.015413 -0.196021 -0.113009 0.711263 0.295451 0.523542 0.006489 0.522418 0.058585 -0.294303 0.330245 
drom -0.160339 -0.173189 0.096598 0.067086 0.415474 0.345392 0.391566 -0.031624 -0.089056 -0.374861 0.143875 -0.499253 -0.547284 0.015021 0.042534 0.398843 -0.366469 0.114844 0.412924 -0.072614 -0.415602 0.000327 -0.247679 -0.133167 0.828363 0.344042 0.576787 -0.004964 0.616938 0.047372 -0.329206 0.375309 
adder -0.129557 -0.126290 0.093754 0.064157 0.328790 0.277120 0.316599 -0.028500 -0.068783 -0.285347 0.110530 -0.415416 -0.421495 -0.003821 0.028554 0.311646 -0.310490 0.070823 0.349958 -0.078247 -0.338991 0.007330 -0.185046 -0.101058 0.660803 0.269753 0.473117 0.003151 0.488905 0.053739 -0.281474 0.315402 
INFm -0.180383 -0.194338 0.095688 0.072085 0.486058 0.378633 0.446933 -0.052398 -0.112400 -0.428604 0.176565 -0.563993 -0.645680 0.012027 0.034796 0.470305 -0.408682 0.133408 0.475814 -0.081292 -0.476957 0.002153 -0.284829 -0.148226 0.952793 0.392629 0.647909 -0.004831 0.709260 0.033948 -0.363709 0.416098 
mnl -0.144981 -0.152550 0.088225 0.074618 0.377921 0.307001 0.321624 -0.038405 -0.076830 -0.319400 0.130535 -0.420775 -0.489303 0.011679 0.020448 0.361073 -0.312427 0.092282 0.350152 -0.040339 -0.370015 0.006053 -0.193293 -0.126955 0.731259 0.297189 0.501254 -0.002656 0.545795 0.043210 -0.278786 0.348195 
tize -0.112347 -0.113181 0.066264 0.064441 0.290442 0.224513 0.237184 -0.036605 -0.072080 -0.251981 0.096807 -0.337073 -0.358554 -0.001785 -0.005763 0.285069 -0.233512 0.055701 0.259337 -0.018650 -0.285367 -0.004496 -0.130525 -0.096200 0.550587 0.241261 0.366979 0.009981 0.419844 0.035427 -0.198606 0.253702 
PacketResponaer -0.100757 -0.116146 0.076182 0.049397 0.276931 0.220502 0.256455 -0.014872 -0.062501 -0.235015 0.098218 -0.333846 -0.332415 0.004566 0.022050 0.249919 -0.233621 0.059100 0.245488 -0.053926 -0.276009 0.014696 -0.137065 -0.081416 0.539944 0.210076 0.386281 -0.009316 0.387838 0.050571 -0.225452 0.278750 
blolk -0.172124 -0.153012 0.083585 0.079874 0.422237 0.364619 0.389082 -0.039839 -0.099291 -0.375466 0.140809 -0.517107 -0.587253 0.033310 0.048917 0.415117 -0.360259 0.107514 0.409958 -0.065136 -0.455590 0.012696 -0.245369 -0.137722 0.848875 0.355247 0.584364 0.012268 0.619388 0.053228 -0.322938 0.389294 
mest -0.111802 -0.117009 0.067023 0.062017 0.318850 0.229339 0.248012 -0.026947 -0.073412 -0.243152 0.093349 -0.343838 -0.352194 -0.002793 -0.004730 0.277773 -0.242499 0.060281 0.260293 -0.014943 -0.293626 -0.006883 -0.120207 -0.108067 0.550458 0.239013 0.376665 0.004990 0.428448 0.030666 -0.209430 0.278001 
serring -0.015488 -0.057313 0.028360 0.033294 0.093714 0.050584 0.036815 0.008811 -0.013176 -0.074687 0.030786 -0.043205 -0.054523 0.009730 -0.014067 0.061048 -0.048541 0.004784 0.040230 0.005304 -0.056463 0.002676 -0.028574 -0.029689 0.130094 0.045058 0.073093 -0.024029 0.104267 0.013317 -0.054655 0.068481 
blocc -0.140270 -0.145569 0.079505 0.054575 0.379666 0.323291 0.343736 -0.041039 -0.083048 -0.346638 0.126970 -0.477921 -0.519253 0.023002 0.047465 0.373436 -0.333930 0.103780 0.374649 -0.059038 -0.403328 0.005764 -0.209427 -0.120371 0.774619 0.307833 0.545699 0.000866 0.573453 0.024617 -0.281641 0.351484 
mnk -0.095053 -0.091396 0.061152 0.073470 0.261353 0.212263 0.204427 -0.015524 -0.047523 -0.202356 0.063636 -0.286654 -0.305257 0.020950 0.007865 0.222488 -0.208503 0.048214 0.214973 -0.013632 -0.243976 0.014648 -0.107719 -0.079116 0.471746 0.200949 0.310417 0.004197 0.350791 0.067314 -0.188948 0.233587 
djs -0.153843 -0.164760 0.096310 0.058917 0.403698 0.304364 0.361536 -0.031794 -0.090906 -0.335653 0.138257 -0.462373 -0.484947 -0.005238 0.019983 0.366790 -0.331491 0.091256 0.379427 -0.054857 -0.385490 -0.018148 -0.200727 -0.123805 0.755121 0.312741 0.523307 -0.004321 0.576233 0.025859 -0.297659 0.356438 
terminatint -0.094551 -0.108860 0.073099 0.058682 0.265963 0.175055 0.189550 -0.031126 -0.066577 -0.217312 0.093216 -0.273781 -0.289986 -0.009171 -0.014203 0.240439 -0.208504 0.054151 0.216754 -0.012863 -0.247481 -0.019776 -0.103996 -0.096468 0.465206 0.204329 0.307771 -0.003909 0.371943 0.015154 -0.162253 0.232544 
PacketRespoqder -0.085023 -0.127328 0.060614 0.050320 0.293386 0.211895 0.233618 -0.030148 -0.072819 -0.238565 0.099979 -0.273516 -0.330613 -0.020113 -0.009997 0.251233 -0.201275 0.051460 0.216251 -0.015589 -0.259270 0.002229 -0.096403 -0.099257 0.505913 0.204876 0.345881 -0.011342 0.378888 0.019029 -0.211988 0.256911 
us -0.114856 -0.132585 0.062226 0.064945 0.344939 0.247506 0.277519 -0.022693 -0.084078 -0.260055 0.114775 -0.381892 -0.400131 -0.003496 0.005587 0.312889 -0.258025 0.067094 0.297000 -0.035041 -0.325754 0.010992 -0.160072 -0.107407 0.613542 0.256870 0.417663 0.002446 0.470541 0.042179 -0.238510 0.306261 
rf -0.100282 -0.103013 0.061756 0.058569 0.288375 0.234312 0.238622 -0.019642 -0.052521 -0.237005 0.097670 -0.339915 -0.362149 0.013200 0.015784 0.270053 -0.243065 0.059456 0.276527 -0.036301 -0.282068 0.013279 -0.153976 -0.083704 0.551552 0.214987 0.386974 0.003889 0.417351 0.048100 -0.217027 0.271344 
cNFO -0.156406 -0.170366 0.097914 0.055546 0.436391 0.349425 0.402454 -0.047193 -0.110149 -0.373291 0.162530 -0.539393 -0.567745 -0.013266 0.041236 0.432082 -0.379777 0.122045 0.431277 -0.068421 -0.422601 -0.002784 -0.246932 -0.133971 0.862939 0.357770 0.597673 0.009012 0.658706 0.034464 -0.343823 0.386092 
dys -0.164323 -0.178931 0.099104 0.069909 0.447885 0.352076 0.391421 -0.054785 -0.097382 -0.381715 0.149272 -0.516521 -0.552398 -0.009700 0.011283 0.415216 -0.377081 0.107176 0.422020 -0.060153 -0.432008 -0.016276 -0.220195 -0.142598 0.831731 0.351156 0.587669 -0.005386 0.643480 0.024792 -0.327052 0.382459 
cllocateBlock -0.181094 -0.173630 0.092423 0.087216 0.457433 0.403896 0.419657 -0.044380 -0.107281 -0.407530 0.168331 -0.574606 -0.632429 0.013357 0.036167 0.461808 -0.410168 0.121536 0.446876 -0.046367 -0.481044 -0.011748 -0.269849 -0.155051 0.912435 0.392951 0.640792 0.027375 0.691795 0.033062 -0.374231 0.417669 
INFg -0.173742 -0.192862 0.091959 0.067229 0.468063 0.355314 0.418850 -0.054304 -0.111621 -0.409192 0.179113 -0.530935 -0.602636 -0.006039 0.011535 0.443658 -0.384783 0.122811 0.458058 -0.076531 -0.452002 -0.011218 -0.257843 -0.140936 0.900359 0.371133 0.600965 -0.005977 0.675279 0.023233 -0.346007 0.391226 
lize -0.170583 -0.174507 0.097752 0.063874 0.450429 0.358681 0.396457 -0.070465 -0.108449 -0.391294 0.162203 -0.521276 -0.574758 -0.008123 0.011697 0.432335 -0.371229 0.106852 0.425978 -0.052803 -0.432860 -0.010531 -0.229367 -0.152665 0.866312 0.366101 0.601930 0.001503 0.649160 0.028171 -0.329887 0.390190 
aeded -0.037838 -0.048170 0.031604 0.034340 0.096042 0.094159 0.109731 0.001706 -0.015642 -0.103537 0.011104 -0.157322 -0.140224 0.024039 0.014216 0.132225 -0.119056 0.013040 0.129392 -0.041542 -0.125851 0.033547 -0.081725 -0.026833 0.241015 0.088081 0.168708 0.014823 0.166375 0.034182 -0.097040 0.102959 
fou -0.194632 -0.184675 0.089266 0.082655 0.519501 0.395706 0.455723 -0.069955 -0.115575 -0.432064 0.183102 -0.588549 -0.650645 -0.003618 0.031625 0.488106 -0.407811 0.125427 0.472795 -0.059677 -0.498704 0.004012 -0.263846 -0.154261 0.977044 0.402876 0.671945 0.012413 0.732957 0.033881 -0.373750 0.444889 
tj -0.087992 -0.092601 0.051913 0.053916 0.257686 0.175848 0.201513 -0.012684 -0.052952 -0.190365 0.079465 -0.272750 -0.287394 0.003181 0.008110 0.229382 -0.174449 0.037343 0.200427 -0.005647 -0.247179 0.002803 -0.101223 -0.071449 0.448819 0.181564 0.307128 0.006253 0.356572 0.038668 -0.173022 0.234152 
FiDataset -0.204364 -0.206264 0.127009 0.069449 0.552150 0.406863 0.472656 -0.090068 -0.135285 -0.461910 0.198891 -0.609753 -0.681196 -0.013908 0.001097 0.484008 -0.445511 0.127656 0.489718 -0.063346 -0.524436 -0.037248 -0.251172 -0.167477 1.003001 0.428900 0.681235 0.004201 0.757185 0.009563 -0.384515 0.455689 
blohk -0.147249 -0.132560 0.072398 0.070186 0.372354 0.302118 0.322718 -0.034402 -0.084628 -0.317774 0.112416 -0.439090 -0.476346 0.025311 0.032197 0.337070 -0.308974 0.093156 0.333919 -0.052322 -0.385003 0.003680 -0.185999 -0.116715 0.710712 0.306394 0.479623 0.000730 0.521385 0.053293 -0.266657 0.332912 
qhile -0.099679 -0.114774 0.055053 0.069611 0.257417 0.223544 0.221526 -0.012690 -0.055031 -0.238822 0.081421 -0.307236 -0.351589 0.013898 0.014234 0.264237 -0.220536 0.063419 0.251880 -0.027501 -0.287030 0.017916 -0.152662 -0.090364 0.526758 0.232842 0.363279 0.001992 0.370526 0.054908 -0.206613 0.240719 
ddded -0.191105 -0.173246 0.109946 0.069816 0.434591 0.375656 0.443658 -0.061819 -0.095625 -0.412253 0.147513 -0.570980 -0.596577 0.005622 0.034324 0.466995 -0.426163 0.122718 0.487829 -0.100929 -0.454504 -0.007137 -0.274294 -0.148166 0.919946 0.376463 0.638994 0.022470 0.686824 0.024400 -0.357618 0.380991 
blockMpp -0.131811 -0.118092 0.070153 0.082617 0.330801 0.277487 0.279045 -0.023387 -0.068060 -0.299619 0.116001 -0.372563 -0.416091 0.025069 0.032114 0.301124 -0.260099 0.071714 0.288141 -0.046649 -0.325599 0.017164 -0.150885 -0.105437 0.639785 0.254209 0.434510 -0.005276 0.467323 0.040310 -0.230409 0.315697 
bqock -0.093801 -0.110549 0.058972 0.056877 0.268546 0.237130 0.236237 -0.012801 -0.061154 -0.256061 0.068049 -0.333639 -0.363502 0.026394 0.034958 0.262922 -0.230993 0.068702 0.251752 -0.032123 -0.300274 0.012529 -0.142458 -0.088482 0.542161 0.231227 0.370942 0.004520 0.391925 0.045785 -0.208621 0.242595 
blogk -0.164047 -0.153536 0.081719 0.071301 0.408762 0.330516 0.357531 -0.039912 -0.101341 -0.360349 0.138961 -0.475578 -0.532594 0.018264 0.024318 0.382903 -0.330051 0.102116 0.378360 -0.052075 -0.419383 -0.003249 -0.208906 -0.130530 0.791320 0.333683 0.523360 0.006455 0.578338 0.042555 -0.296231 0.357436 
INFb -0.170378 -0.182662 0.093716 0.074918 0.439834 0.346417 0.398564 -0.044609 -0.109773 -0.390924 0.155859 -0.511628 -0.582861 0.005552 0.026820 0.432620 -0.368947 0.112516 0.430984 -0.073370 -0.449899 0.005179 -0.239204 -0.145426 0.857718 0.358002 0.588303 -0.003884 0.645467 0.030607 -0.328281 0.374768 
blocs -0.170376 -0.162704 0.088620 0.063764 0.421962 0.341647 0.376107 -0.042844 -0.101380 -0.372328 0.150422 -0.505632 -0.555488 0.014657 0.039523 0.399620 -0.359625 0.112941 0.405659 -0.068025 -0.442135 -0.006871 -0.226820 -0.137292 0.830059 0.344695 0.574832 -0.005379 0.614958 0.022695 -0.303978 0.383305 
ie -0.115464 -0.128634 0.077570 0.052025 0.320412 0.252553 0.276655 -0.036084 -0.077645 -0.282326 0.103185 -0.372924 -0.397467 0.001504 0.005312 0.305430 -0.260382 0.062481 0.301523 -0.031270 -0.303490 0.007003 -0.149167 -0.107480 0.613385 0.252919 0.426125 0.005578 0.454062 0.045055 -0.231546 0.280083 
Reckiving -0.096536 -0.116731 0.070170 0.055749 0.263897 0.200066 0.209349 -0.015496 -0.061628 -0.228292 0.109529 -0.297491 -0.305377 -0.006769 -0.009161 0.256072 -0.219438 0.061401 0.251071 -0.023978 -0.241658 -0.013185 -0.139549 -0.100519 0.498455 0.210897 0.338934 -0.002659 0.391081 0.017452 -0.190133 0.247060 
hfs -0.121997 -0.121239 0.063067 0.080885 0.328792 0.229451 0.244541 -0.024565 -0.067116 -0.247906 0.108145 -0.356758 -0.366985 -0.004881 0.005174 0.290241 -0.263669 0.073361 0.285027 -0.023034 -0.315042 0.002446 -0.150961 -0.099824 0.580641 0.248733 0.402203 -0.000337 0.442581 0.038358 -0.215167 0.287999 
dwlete -0.155539 -0.162291 0.092531 0.069871 0.413746 0.342733 0.383278 -0.036222 -0.089640 -0.354581 0.139151 -0.506033 -0.530154 -0.001891 0.020241 0.384093 -0.358901 0.093717 0.396098 -0.055844 -0.410440 -0.004299 -0.217750 -0.128269 0.784465 0.338940 0.570761 0.006560 0.597509 0.049652 -0.324293 0.374552 
rart -0.005939 -0.022151 0.018341 0.031184 0.072185 0.058903 0.038574 0.019901 -0.004479 -0.038172 0.011451 -0.067944 -0.066546 0.019879 0.003409 0.037437 -0.041959 -0.002686 0.028768 0.002408 -0.071419 0.015143 -0.030199 -0.007678 0.101569 0.045551 0.071733 -0.009028 0.087061 0.044386 -0.059402 0.076662 
Reqeived -0.005831 -0.039308 0.017846 0.029375 0.058133 0.046562 0.026916 0.015006 -0.006007 -0.059294 0.007892 -0.046199 -0.058750 0.008008 -0.009496 0.063676 -0.038167 -0.002914 0.043325 0.008236 -0.058496 0.014259 -0.031865 -0.021815 0.098030 0.048748 0.062705 -0.000705 0.076411 0.022948 -0.045614 0.060000 
