1335 32
apded -0.036243 -0.112835 0.092496 -0.032147 0.253198 0.171887 0.177916 -0.063230 -0.036257 -0.143009 0.059042 -0.250506 -0.235405 0.042701 -0.003743 0.120809 -0.140485 -0.021626 0.264404 0.009658 -0.191884 -0.049475 -0.162758 -0.041630 0.357486 0.155766 0.318409 -0.011592 0.338782 0.035436 -0.127262 0.217158 
deyt -0.096927 -0.224456 0.172600 -0.019857 0.430017 0.311212 0.347889 -0.089683 -0.056105 -0.253171 0.103670 -0.443400 -0.420205 0.045279 0.035233 0.216096 -0.244315 0.025522 0.424060 0.015355 -0.362429 -0.074504 -0.243274 -0.115579 0.618481 0.310536 0.532865 -0.024000 0.573848 0.054941 -0.245813 0.362595 
Deletidg -0.076150 -0.151952 0.122525 -0.035789 0.307553 0.207670 0.224935 -0.074060 -0.051698 -0.158348 0.084820 -0.319004 -0.321301 0.045138 0.015834 0.155654 -0.164749 -0.009397 0.324893 0.011448 -0.252886 -0.060385 -0.193028 -0.089965 0.436272 0.215033 0.362781 -0.034449 0.419028 0.034740 -0.188938 0.273742 
teqminating -0.105437 -0.188112 0.150638 -0.031038 0.364465 0.229451 0.272248 -0.071296 -0.040368 -0.214306 0.092292 -0.409433 -0.355390 0.033169 0.042164 0.175965 -0.207496 0.013505 0.387378 -0.019920 -0.320630 -0.071471 -0.223614 -0.119198 0.545938 0.265997 0.446027 -0.029006 0.494988 0.045910 -0.211746 0.332244 
frmm -0.134790 -0.248068 0.187686 -0.020831 0.499310 0.327496 0.400097 -0.124026 -0.085719 -0.290369 0.120497 -0.523360 -0.481926 0.045558 0.055995 0.268125 -0.290911 0.048450 0.524124 -0.009148 -0.454192 -0.091799 -0.323117 -0.168204 0.749809 0.369217 0.638862 -0.049651 0.701493 0.079218 -0.301359 0.439596 
fow -0.063659 -0.127331 0.101022 -0.021005 0.263795 0.177056 0.217737 -0.060710 -0.014813 -0.161039 0.077386 -0.273351 -0.256632 0.018349 0.014321 0.107708 -0.158467 0.046805 0.265437 0.004185 -0.247657 -0.050399 -0.139309 -0.081565 0.379705 0.216322 0.321458 -0.013625 0.377567 0.025789 -0.148040 0.234956 
invalidSeb -0.037919 -0.093588 0.063915 -0.025322 0.217229 0.134659 0.111627 -0.050952 -0.051483 -0.090369 0.044575 -0.194099 -0.193843 0.050532 -0.002320 0.100447 -0.107399 -0.052690 0.221984 0.009455 -0.119902 -0.050355 -0.140202 -0.028347 0.293301 0.096524 0.223461 -0.019662 0.240467 0.031895 -0.127839 0.167030 
FSNamesyhtem -0.128386 -0.222032 0.162924 -0.013757 0.436802 0.272331 0.349907 -0.111868 -0.081948 -0.247815 0.125564 -0.468351 -0.436303 0.027674 0.067450 0.224855 -0.273957 0.035923 0.483622 -0.019565 -0.415801 -0.076648 -0.269767 -0.161119 0.682516 0.326383 0.561573 -0.054751 0.615363 0.074795 -0.282527 0.380248 
INFe -0.128115 -0.283631 0.206426 -0.002780 0.579303 0.420459 0.464877 -0.125505 -0.102041 -0.342693 0.138217 -0.609375 -0.558626 0.023845 0.066960 0.328351 -0.350458 0.072814 0.619257 -0.003985 -0.506289 -0.094254 -0.305857 -0.180714 0.861687 0.413822 0.731865 -0.049908 0.786884 0.083372 -0.341098 0.472086 
os -0.077830 -0.157645 0.100735 -0.015225 0.312075 0.216225 0.249275 -0.077922 -0.052089 -0.172243 0.091186 -0.298031 -0.294480 0.022597 0.033092 0.130312 -0.186266 0.029326 0.312006 0.020869 -0.287928 -0.054985 -0.182282 -0.088914 0.436037 0.233745 0.386470 -0.049207 0.430565 0.039343 -0.175011 0.262165 
ofs -0.079072 -0.152802 0.105528 -0.015343 0.316035 0.216539 0.246624 -0.068891 -0.037579 -0.175376 0.097514 -0.312283 -0.308843 0.025698 0.026576 0.133807 -0.190794 0.028987 0.320573 0.006862 -0.289671 -0.061629 -0.186338 -0.093804 0.458146 0.240647 0.390171 -0.031949 0.437927 0.041340 -0.180804 0.267207 
uscr -0.118841 -0.250372 0.194220 0.002714 0.495114 0.368720 0.417261 -0.089386 -0.082596 -0.293342 0.133607 -0.534956 -0.484420 0.045185 0.069314 0.256351 -0.293170 0.066073 0.508995 0.025826 -0.440507 -0.095956 -0.288919 -0.167411 0.728787 0.364512 0.625968 -0.078002 0.692402 0.052759 -0.291968 0.418355 
addod -0.084090 -0.210360 0.156799 -0.034023 0.433005 0.287226 0.313917 -0.101949 -0.070029 -0.250776 0.095535 -0.422291 -0.405009 0.050966 0.017377 0.212939 -0.242690 0.006018 0.438062 0.014896 -0.351336 -0.091921 -0.262474 -0.085767 0.598383 0.283572 0.524011 -0.037219 0.583042 0.052114 -0.231090 0.370243 
Redeiving -0.078411 -0.198270 0.158030 -0.032121 0.432731 0.297177 0.319259 -0.087772 -0.062130 -0.261106 0.107583 -0.454827 -0.408730 0.055458 0.027873 0.207100 -0.238441 -0.016624 0.430230 0.004626 -0.348279 -0.082461 -0.260042 -0.095925 0.599520 0.292660 0.505057 -0.049127 0.562626 0.058028 -0.243742 0.390069 
rSNamesystem -0.074970 -0.096236 0.062528 -0.016672 0.175940 0.094238 0.138323 -0.056605 -0.038116 -0.093559 0.062046 -0.179022 -0.169629 0.023282 0.037223 0.073627 -0.103187 -0.002724 0.206796 -0.029564 -0.181635 -0.032554 -0.147380 -0.067918 0.300695 0.137843 0.243808 -0.003206 0.267495 0.041400 -0.120062 0.161532 
ks -0.024552 -0.057082 0.048668 -0.016507 0.097881 0.095363 0.082343 -0.024843 -0.005628 -0.054399 0.022180 -0.105807 -0.123946 0.033320 0.010089 0.033673 -0.051035 -0.005802 0.110112 0.007120 -0.098883 -0.020040 -0.089460 -0.032912 0.161197 0.081048 0.139045 0.000282 0.162949 -0.003170 -0.069480 0.093603 
updatbd -0.071814 -0.162343 0.140579 -0.012684 0.359902 0.238817 0.259565 -0.063754 -0.056094 -0.184104 0.104144 -0.361765 -0.337910 0.049877 0.025605 0.181569 -0.204371 -0.000687 0.378817 0.009374 -0.284164 -0.069855 -0.224928 -0.101782 0.534193 0.228965 0.436252 -0.025163 0.466095 0.048220 -0.200031 0.294214 
sizc -0.091598 -0.173086 0.146467 -0.016774 0.348796 0.246928 0.277696 -0.069796 -0.043438 -0.204319 0.101887 -0.386984 -0.334704 0.032920 0.040773 0.179582 -0.219883 0.020704 0.375230 0.009150 -0.318650 -0.085364 -0.224465 -0.098912 0.539286 0.261861 0.451934 -0.051547 0.498716 0.046075 -0.196268 0.300877 
addStoredBluck -0.078701 -0.183295 0.142303 -0.001790 0.369481 0.262044 0.287170 -0.065853 -0.079123 -0.222005 0.102920 -0.386064 -0.368367 0.057269 0.044050 0.182338 -0.215420 -0.001515 0.384220 0.026499 -0.293730 -0.068257 -0.236641 -0.094494 0.543924 0.265266 0.455059 -0.029051 0.499399 0.049792 -0.202149 0.311745 
fize -0.087113 -0.172745 0.149485 -0.025620 0.373374 0.257158 0.285653 -0.083128 -0.041966 -0.213309 0.112154 -0.396713 -0.352658 0.029833 0.025356 0.191859 -0.235374 0.019725 0.395930 -0.004675 -0.327160 -0.074264 -0.217829 -0.099659 0.555335 0.276547 0.469708 -0.029797 0.512146 0.060496 -0.204594 0.313482 
NtmeSystem -0.152604 -0.260728 0.185704 -0.011755 0.486969 0.318611 0.396786 -0.121565 -0.077317 -0.287052 0.125989 -0.518129 -0.473416 0.024896 0.075587 0.254108 -0.281802 0.057983 0.524473 -0.013408 -0.454316 -0.083964 -0.284131 -0.175147 0.748586 0.374085 0.627842 -0.026284 0.668106 0.079953 -0.284947 0.424885 
dfn -0.034394 -0.113413 0.087083 -0.014515 0.221977 0.154483 0.170404 -0.053671 -0.021875 -0.137917 0.055399 -0.231903 -0.219485 0.041450 0.002515 0.101564 -0.127982 -0.000844 0.223857 -0.001994 -0.187233 -0.044162 -0.126699 -0.053593 0.327316 0.158716 0.278545 -0.008209 0.300754 0.032182 -0.126576 0.198198 
Rxceiving -0.009917 -0.078146 0.065753 -0.024034 0.177921 0.121142 0.109997 -0.039865 -0.017811 -0.110533 0.033551 -0.177875 -0.145550 0.035836 0.004000 0.062414 -0.081287 -0.043551 0.160892 0.000640 -0.115990 -0.026808 -0.126272 -0.015523 0.240127 0.110302 0.195556 -0.012494 0.218677 0.015614 -0.086715 0.166626 
IbFO -0.140475 -0.292459 0.228127 0.004307 0.598074 0.443319 0.487923 -0.111726 -0.104963 -0.350326 0.129453 -0.630112 -0.582093 0.033847 0.076257 0.345364 -0.354470 0.086621 0.641995 -0.003825 -0.518934 -0.106609 -0.335222 -0.199100 0.911192 0.423857 0.746251 -0.033508 0.828617 0.074501 -0.379169 0.482411 
bSNamesystem -0.121316 -0.184392 0.150911 -0.017090 0.364185 0.227639 0.302045 -0.088489 -0.057796 -0.210632 0.113060 -0.405095 -0.368769 0.020664 0.061561 0.183741 -0.235553 0.033549 0.423465 -0.038488 -0.369425 -0.069555 -0.240787 -0.141419 0.602414 0.280058 0.485252 -0.020906 0.538834 0.063863 -0.243528 0.325077 
oc -0.105989 -0.222393 0.162728 -0.013966 0.470608 0.324367 0.382509 -0.106796 -0.079291 -0.271180 0.125776 -0.484365 -0.438450 0.038634 0.048992 0.223813 -0.279196 0.054224 0.472733 0.035316 -0.418593 -0.088405 -0.256688 -0.136428 0.659147 0.344806 0.585603 -0.078886 0.641010 0.057107 -0.257381 0.389139 
PaeketResponder -0.056065 -0.160234 0.126589 -0.023808 0.354316 0.247566 0.263170 -0.072359 -0.050507 -0.202877 0.099188 -0.345137 -0.335560 0.041177 0.023461 0.153865 -0.194582 0.002235 0.339733 0.017601 -0.275905 -0.059185 -0.211350 -0.073168 0.474469 0.250940 0.407024 -0.025082 0.469717 0.038266 -0.182806 0.297850 
adxed -0.011609 -0.082424 0.043975 -0.030216 0.160042 0.111510 0.104807 -0.048976 -0.028633 -0.088152 0.026830 -0.136824 -0.141042 0.032479 -0.004073 0.062475 -0.088085 -0.025654 0.155225 0.010864 -0.113126 -0.023142 -0.096676 -0.008167 0.210730 0.097207 0.193822 -0.012139 0.210617 0.019241 -0.066474 0.131205 
io -0.104801 -0.235464 0.169395 -0.016301 0.499914 0.340401 0.376578 -0.117723 -0.077743 -0.283497 0.119285 -0.486667 -0.446810 0.029442 0.027937 0.247881 -0.285969 0.041537 0.496234 0.026894 -0.410405 -0.086533 -0.269829 -0.119115 0.684400 0.338826 0.607108 -0.049423 0.645824 0.067133 -0.265541 0.404211 
sfs -0.025907 -0.039022 0.015086 -0.010905 0.063640 0.062822 0.046670 -0.009448 0.004399 -0.027674 0.019458 -0.055900 -0.078685 0.019027 -0.003024 0.017027 -0.038917 0.000818 0.074576 -0.006767 -0.064800 -0.024161 -0.061146 -0.021131 0.122043 0.053938 0.085993 0.008207 0.113255 0.004077 -0.051901 0.052765 
dolete -0.127331 -0.272392 0.200456 -0.027028 0.545970 0.389972 0.439396 -0.128198 -0.088924 -0.327277 0.118292 -0.571266 -0.519660 0.034981 0.049013 0.274401 -0.313229 0.052407 0.559378 0.021014 -0.464781 -0.092598 -0.292266 -0.157206 0.778336 0.397776 0.678193 -0.044976 0.741579 0.071173 -0.309107 0.454666 
yf -0.049736 -0.099790 0.090442 -0.011527 0.199013 0.149440 0.146911 -0.033301 -0.007717 -0.111032 0.061828 -0.195442 -0.199967 0.031082 0.012564 0.095144 -0.127239 0.002827 0.197250 -0.005935 -0.170065 -0.035444 -0.122842 -0.048046 0.297898 0.146068 0.249501 0.006621 0.269837 0.025857 -0.120074 0.157952 
PacketRjsponder -0.062199 -0.166816 0.131996 -0.028240 0.364633 0.246688 0.266545 -0.082278 -0.043034 -0.214863 0.094705 -0.357719 -0.333646 0.033704 0.019313 0.149198 -0.192810 0.012216 0.345548 0.018406 -0.283920 -0.063201 -0.215842 -0.071147 0.474725 0.254758 0.427616 -0.024974 0.483365 0.032016 -0.175070 0.307832 
addStoredBkock -0.103682 -0.200436 0.178442 -0.009631 0.403811 0.295091 0.310380 -0.065369 -0.055790 -0.253469 0.118516 -0.426150 -0.401967 0.043603 0.045573 0.203277 -0.248296 0.019767 0.419727 0.018749 -0.346331 -0.079187 -0.246921 -0.114535 0.603417 0.317985 0.506855 -0.014459 0.562351 0.057005 -0.231940 0.342784 
ro -0.067856 -0.133189 0.094823 -0.014457 0.282578 0.199419 0.225380 -0.066863 -0.050718 -0.157579 0.088802 -0.266151 -0.255811 0.027448 0.025888 0.124347 -0.160092 0.033205 0.272376 0.025173 -0.255708 -0.051136 -0.168063 -0.084158 0.369687 0.208066 0.345168 -0.054249 0.386438 0.035892 -0.156756 0.239698 
uaer -0.113546 -0.266431 0.199019 0.001157 0.541659 0.401126 0.442445 -0.107703 -0.100129 -0.318808 0.138316 -0.564249 -0.520371 0.044214 0.068840 0.285195 -0.317319 0.059597 0.549900 0.023211 -0.461289 -0.086715 -0.299258 -0.165763 0.768482 0.385495 0.665533 -0.081116 0.732037 0.061374 -0.308608 0.450057 
Recbiving -0.079735 -0.181656 0.151371 -0.030241 0.398451 0.265597 0.288821 -0.082999 -0.048134 -0.242019 0.103462 -0.424770 -0.363527 0.039293 0.024935 0.191841 -0.225986 -0.006119 0.402042 0.002463 -0.329625 -0.077180 -0.238332 -0.103573 0.563731 0.277302 0.474620 -0.051066 0.519184 0.060035 -0.221064 0.361097 
IaFO -0.131823 -0.277691 0.208850 -0.000799 0.564023 0.402435 0.448252 -0.109432 -0.097925 -0.331212 0.134368 -0.584881 -0.540742 0.036430 0.074679 0.311337 -0.335030 0.067248 0.591419 0.001287 -0.491677 -0.100486 -0.319426 -0.174284 0.835899 0.405947 0.696193 -0.052914 0.772915 0.071504 -0.334338 0.466810 
dsst -0.068167 -0.141125 0.097261 -0.011455 0.259219 0.189407 0.214096 -0.048744 -0.033583 -0.144604 0.063932 -0.265534 -0.258430 0.026952 0.019671 0.115667 -0.141622 0.021868 0.264804 0.009675 -0.224345 -0.058474 -0.163020 -0.078268 0.392065 0.189507 0.321529 -0.008277 0.361902 0.027785 -0.152449 0.217050 
INiO -0.142034 -0.290916 0.222630 -0.012346 0.581091 0.419529 0.451980 -0.129242 -0.088055 -0.342550 0.124055 -0.611963 -0.557116 0.039844 0.058162 0.328218 -0.322455 0.060017 0.601575 0.006785 -0.484935 -0.101439 -0.314488 -0.172892 0.843790 0.413925 0.712781 -0.044517 0.769841 0.069164 -0.336280 0.484126 
blyck -0.113198 -0.206958 0.188501 -0.015078 0.388524 0.282694 0.341408 -0.076187 -0.035988 -0.246475 0.119446 -0.445115 -0.406698 0.031647 0.045585 0.203744 -0.256283 0.049898 0.424368 -0.002013 -0.378751 -0.075669 -0.227150 -0.134565 0.614276 0.296956 0.523180 -0.036310 0.572584 0.043115 -0.250137 0.347380 
azded -0.055082 -0.146036 0.112264 -0.035386 0.307818 0.209264 0.231273 -0.081128 -0.051608 -0.172292 0.083632 -0.314256 -0.300620 0.035408 0.020350 0.153521 -0.187271 -0.003594 0.330933 0.006655 -0.264019 -0.058787 -0.190353 -0.064977 0.441761 0.216297 0.384962 -0.035301 0.432240 0.042288 -0.158497 0.266665 
mni -0.111934 -0.251443 0.185073 -0.018247 0.510168 0.340507 0.394361 -0.136512 -0.082057 -0.291383 0.115401 -0.525906 -0.483988 0.043901 0.029138 0.268156 -0.291341 0.037467 0.527044 0.008721 -0.429724 -0.091603 -0.276146 -0.142193 0.727771 0.339919 0.631602 -0.056521 0.667632 0.070265 -0.293423 0.427111 
NxmeSystem -0.131757 -0.231629 0.167948 -0.012233 0.412897 0.260846 0.340531 -0.108239 -0.066275 -0.243909 0.118680 -0.435190 -0.406832 0.023071 0.073792 0.205628 -0.247374 0.035473 0.441407 -0.020875 -0.395575 -0.066131 -0.250313 -0.149965 0.648103 0.320832 0.536662 -0.023535 0.568527 0.072308 -0.245560 0.366355 
bpock -0.113188 -0.219482 0.206390 -0.011719 0.450527 0.324435 0.382974 -0.079183 -0.046769 -0.287885 0.120854 -0.519551 -0.459527 0.031082 0.042074 0.235107 -0.280154 0.055402 0.492683 0.004655 -0.415429 -0.090135 -0.262361 -0.158232 0.706755 0.334203 0.595539 -0.027212 0.646754 0.050554 -0.287266 0.395217 
updajed -0.062899 -0.158379 0.126582 -0.018997 0.337504 0.223742 0.241583 -0.077365 -0.056448 -0.184816 0.093255 -0.343886 -0.317614 0.045945 0.021166 0.153658 -0.200688 -0.003532 0.359910 0.014684 -0.274504 -0.060042 -0.203017 -0.077283 0.484538 0.214635 0.431509 -0.038459 0.457325 0.036501 -0.176917 0.282126 
ufs -0.092591 -0.189289 0.141622 -0.007085 0.390211 0.270227 0.306887 -0.078693 -0.056986 -0.216821 0.122295 -0.397036 -0.389605 0.037614 0.039445 0.190348 -0.240751 0.035630 0.405437 0.000548 -0.347945 -0.073834 -0.233180 -0.119457 0.571747 0.283689 0.483053 -0.041156 0.533351 0.053154 -0.222461 0.324924 
WrRN -0.002913 -0.021830 -0.003553 -0.014715 0.059119 0.044345 0.054206 -0.017839 -0.019745 -0.047871 0.022455 -0.052641 -0.048365 0.018480 0.004934 0.010391 -0.037457 -0.003737 0.049236 0.016673 -0.058733 -0.006585 -0.037832 -0.017688 0.064328 0.059886 0.067185 -0.042319 0.095131 0.014661 -0.035282 0.055997 
WkRN -0.003293 -0.031533 0.017172 -0.017558 0.060633 0.046184 0.053593 -0.020733 -0.006536 -0.056268 0.015280 -0.068965 -0.064657 0.023685 0.005850 0.004827 -0.039534 -0.017266 0.058561 0.010685 -0.063234 -0.000928 -0.050059 -0.011614 0.090346 0.063025 0.089761 -0.021576 0.106704 0.003665 -0.039254 0.064528 
Deletzng -0.107087 -0.204748 0.165413 -0.025851 0.396663 0.267269 0.344141 -0.094573 -0.058617 -0.236808 0.127161 -0.438552 -0.413395 0.013794 0.056076 0.204321 -0.255446 0.048422 0.425319 -0.006722 -0.388743 -0.068609 -0.220726 -0.146891 0.600783 0.319115 0.494943 -0.056814 0.567755 0.057791 -0.245501 0.352751 
tv -0.055121 -0.097252 0.077801 -0.018506 0.192664 0.147224 0.158081 -0.041982 -0.025975 -0.109741 0.054660 -0.195218 -0.182870 0.033594 0.019670 0.079001 -0.108598 0.020855 0.199162 0.016454 -0.174482 -0.036129 -0.118354 -0.060587 0.269980 0.148396 0.247252 -0.015206 0.281127 0.018219 -0.110813 0.162493 
swze -0.026888 -0.039532 0.026640 -0.015787 0.047842 0.049363 0.071528 -0.022293 0.000395 -0.031984 0.028349 -0.062613 -0.059805 -0.003376 0.011427 0.015251 -0.047599 0.018355 0.075164 0.001634 -0.072399 -0.002458 -0.027402 -0.026333 0.115432 0.068474 0.081818 -0.002335 0.112894 0.004095 -0.039887 0.050250 
hhdoop -0.113444 -0.240344 0.179367 -0.040802 0.466707 0.316071 0.358162 -0.101594 -0.068580 -0.281751 0.097602 -0.492011 -0.446938 0.043460 0.032871 0.231255 -0.270813 0.021831 0.485573 0.016659 -0.398261 -0.093520 -0.269670 -0.129375 0.662280 0.333882 0.572659 -0.055450 0.646526 0.060938 -0.277517 0.413181 
tlock -0.120779 -0.206927 0.175944 -0.030236 0.389245 0.271096 0.324146 -0.082293 -0.036768 -0.247360 0.105307 -0.441510 -0.391993 0.035257 0.045517 0.183871 -0.232800 0.046378 0.410328 0.015678 -0.369639 -0.080105 -0.235267 -0.133449 0.583990 0.315856 0.515327 -0.039754 0.570875 0.040068 -0.224687 0.354486 
Recriving -0.063367 -0.158390 0.125887 -0.023634 0.351332 0.231261 0.262130 -0.073023 -0.038876 -0.220480 0.102584 -0.363647 -0.311089 0.030325 0.016549 0.161056 -0.201159 0.001372 0.337891 0.012484 -0.293460 -0.062668 -0.197466 -0.086224 0.477751 0.254779 0.415553 -0.052770 0.454724 0.057407 -0.183533 0.320678 
dflete -0.092891 -0.194118 0.150958 -0.032778 0.397004 0.268824 0.307455 -0.090161 -0.052095 -0.233496 0.107938 -0.413086 -0.377403 0.042343 0.020811 0.187022 -0.233714 0.018272 0.400116 0.009230 -0.338277 -0.076690 -0.223525 -0.101973 0.560584 0.295306 0.493292 -0.029134 0.540618 0.060928 -0.210826 0.338673 
dyst -0.083543 -0.180646 0.139732 -0.011438 0.330432 0.240135 0.271468 -0.063234 -0.038095 -0.193894 0.081842 -0.341012 -0.325978 0.032504 0.030784 0.159729 -0.191824 0.023820 0.332443 0.004660 -0.283734 -0.066356 -0.198977 -0.091631 0.497614 0.237691 0.411757 -0.005872 0.449057 0.040090 -0.194101 0.276197 
fhom -0.127539 -0.247500 0.182333 -0.025674 0.487982 0.312085 0.382038 -0.123060 -0.080353 -0.281869 0.117733 -0.502133 -0.460033 0.033656 0.051496 0.246033 -0.292968 0.045358 0.507803 -0.002826 -0.444889 -0.086540 -0.297267 -0.152037 0.718412 0.363109 0.618089 -0.056034 0.681840 0.073283 -0.289180 0.423024 
pbrt -0.064492 -0.126622 0.131081 -0.006435 0.284061 0.208734 0.244435 -0.040287 -0.032938 -0.158324 0.091553 -0.324795 -0.291057 0.032892 0.029420 0.144196 -0.158994 0.029612 0.305803 0.005639 -0.255339 -0.065287 -0.186395 -0.111310 0.444277 0.210580 0.360252 -0.009542 0.398040 0.034495 -0.177236 0.247563 
idded -0.092823 -0.227564 0.178584 -0.041236 0.488302 0.332522 0.345749 -0.109039 -0.067569 -0.273528 0.100665 -0.485562 -0.448460 0.053568 0.005111 0.248378 -0.266841 0.000249 0.495985 0.020800 -0.373007 -0.101706 -0.276963 -0.093479 0.669887 0.310069 0.585015 -0.024369 0.635705 0.063093 -0.258339 0.407638 
IgFO -0.135322 -0.275051 0.214044 -0.004980 0.542194 0.383071 0.435846 -0.104274 -0.094199 -0.314867 0.136835 -0.562670 -0.532573 0.038417 0.079915 0.299894 -0.322879 0.060482 0.566683 0.003889 -0.481028 -0.098318 -0.320851 -0.174874 0.806082 0.405977 0.665452 -0.050997 0.754103 0.070450 -0.327915 0.455197 
Receivinv -0.065714 -0.183959 0.130402 -0.023156 0.381109 0.266887 0.285054 -0.072867 -0.054567 -0.255853 0.100423 -0.402229 -0.349604 0.051907 0.023866 0.173011 -0.216832 -0.014032 0.386251 0.011041 -0.325106 -0.076500 -0.228452 -0.072098 0.528111 0.260662 0.470755 -0.051007 0.512228 0.053796 -0.199699 0.363471 
dARN -0.031534 -0.118204 0.080566 -0.002231 0.266937 0.173012 0.195583 -0.054441 -0.040959 -0.173488 0.079479 -0.258640 -0.233807 0.040785 0.014399 0.118973 -0.154759 -0.008799 0.245618 0.013024 -0.206291 -0.051294 -0.158267 -0.043680 0.369838 0.191640 0.308175 -0.038300 0.339879 0.044152 -0.129633 0.232064 
terminatang -0.100548 -0.177321 0.126426 -0.032034 0.333962 0.196834 0.254819 -0.067084 -0.032569 -0.208306 0.097196 -0.365510 -0.308360 0.015002 0.041422 0.149789 -0.209414 0.030104 0.341799 -0.013584 -0.318278 -0.068856 -0.189183 -0.109036 0.484136 0.263113 0.413301 -0.057851 0.464757 0.051616 -0.179703 0.308390 
mnl -0.122462 -0.246836 0.166899 -0.011236 0.466530 0.299474 0.384621 -0.137022 -0.086028 -0.273835 0.122363 -0.493735 -0.456897 0.033808 0.050906 0.230284 -0.281543 0.051257 0.495579 0.008779 -0.426099 -0.073206 -0.250987 -0.148960 0.680058 0.332772 0.603236 -0.073177 0.634885 0.062658 -0.260103 0.404685 
INqO -0.141455 -0.269610 0.212422 -0.000943 0.535233 0.380356 0.446672 -0.110299 -0.080877 -0.319143 0.144186 -0.575728 -0.530035 0.034988 0.075072 0.290943 -0.308276 0.071908 0.558885 0.001149 -0.464591 -0.083703 -0.286705 -0.176225 0.800713 0.402950 0.661328 -0.030978 0.724282 0.063288 -0.313031 0.453017 
uqdated -0.074871 -0.165932 0.128312 -0.013378 0.361398 0.235016 0.265687 -0.067009 -0.060006 -0.192253 0.109711 -0.362270 -0.343554 0.047517 0.027622 0.167370 -0.206337 0.011069 0.374591 0.011060 -0.285872 -0.059690 -0.203869 -0.096524 0.514078 0.244047 0.431476 -0.022469 0.474733 0.043744 -0.190511 0.296169 
qhile -0.087742 -0.176283 0.125683 -0.026672 0.347177 0.206596 0.259588 -0.089089 -0.061036 -0.197609 0.102090 -0.364737 -0.319745 0.024656 0.028951 0.153676 -0.211876 0.012005 0.364159 0.003871 -0.298248 -0.059051 -0.191303 -0.088982 0.486040 0.246795 0.436774 -0.041062 0.463363 0.054573 -0.173449 0.295397 
dile -0.109795 -0.254253 0.182918 -0.027865 0.514954 0.352215 0.387754 -0.131092 -0.085753 -0.301341 0.115142 -0.517981 -0.470065 0.037807 0.028033 0.259326 -0.294618 0.026366 0.522530 0.019422 -0.418912 -0.090982 -0.279293 -0.118458 0.709988 0.346407 0.635293 -0.049263 0.673058 0.072462 -0.266604 0.427451 
tn -0.019402 -0.044723 0.039506 -0.018292 0.077109 0.065751 0.066546 -0.022356 -0.003167 -0.045069 0.011233 -0.098361 -0.090440 0.032682 0.003512 0.034137 -0.038020 0.001012 0.089660 0.002138 -0.076137 -0.022825 -0.050332 -0.033837 0.125962 0.069891 0.102594 0.001577 0.121632 0.007419 -0.055352 0.073767 
fxr 0.002088 -0.018517 0.019178 -0.006591 0.043349 0.068658 0.033175 0.002656 0.003780 -0.013206 0.008546 -0.041852 -0.049467 0.035666 0.004517 0.011370 -0.008381 -0.005685 0.031155 0.006495 -0.023505 -0.006809 -0.043726 -0.019320 0.069238 0.044041 0.042038 -0.000068 0.069628 -0.010459 -0.031790 0.035611 
vlock -0.134251 -0.236461 0.193204 -0.031876 0.457827 0.331776 0.389525 -0.108413 -0.054991 -0.290734 0.118177 -0.505855 -0.460729 0.036428 0.046221 0.221179 -0.278182 0.059056 0.479061 0.020342 -0.420691 -0.076500 -0.254060 -0.158511 0.675664 0.350424 0.598754 -0.058277 0.659644 0.047240 -0.284688 0.402805 
gs -0.045496 -0.087406 0.056200 -0.015405 0.153342 0.116529 0.119541 -0.037373 -0.030179 -0.071638 0.046339 -0.133361 -0.162599 0.031533 0.024893 0.071770 -0.083968 0.002824 0.149141 0.013464 -0.140505 -0.034868 -0.113748 -0.046778 0.209543 0.124937 0.168508 -0.032323 0.220759 0.015096 -0.092355 0.131516 
srz -0.034984 -0.057950 0.042322 -0.002278 0.104180 0.101844 0.113928 -0.017008 -0.023628 -0.054404 0.045922 -0.119909 -0.120352 0.019703 0.029192 0.053195 -0.065303 0.020404 0.126478 0.007205 -0.122063 -0.025771 -0.086551 -0.052317 0.181999 0.095794 0.141861 -0.031682 0.184805 0.005136 -0.077342 0.098952 
rser -0.033776 -0.070835 0.047923 -0.011220 0.135871 0.125174 0.127705 -0.024270 -0.025284 -0.074268 0.052868 -0.130926 -0.132095 0.021607 0.013525 0.060654 -0.073363 0.019684 0.128741 0.023555 -0.127996 -0.024514 -0.087847 -0.055245 0.183074 0.115314 0.167523 -0.038498 0.208794 0.015727 -0.087298 0.124085 
uadoop -0.130314 -0.298518 0.220542 -0.007259 0.611657 0.449197 0.468313 -0.121157 -0.107516 -0.365949 0.117008 -0.623767 -0.588215 0.054714 0.055029 0.334393 -0.346525 0.050080 0.633216 0.016964 -0.490253 -0.110037 -0.344226 -0.168069 0.882824 0.409314 0.737566 -0.049584 0.815023 0.066979 -0.363044 0.499847 
PackexResponder -0.039454 -0.149311 0.107460 -0.021105 0.335751 0.223267 0.248661 -0.073539 -0.049016 -0.194597 0.088452 -0.315556 -0.306450 0.035260 0.019357 0.127600 -0.175826 0.004101 0.306128 0.016928 -0.249656 -0.052514 -0.197540 -0.056730 0.432405 0.222647 0.379422 -0.022462 0.431676 0.028327 -0.158393 0.273101 
fox -0.040246 -0.095387 0.070852 -0.012698 0.195260 0.140694 0.151177 -0.043139 -0.012243 -0.110616 0.057105 -0.198022 -0.186576 0.027849 0.019175 0.072326 -0.119304 0.014680 0.190003 0.002808 -0.183020 -0.031422 -0.114164 -0.063018 0.295130 0.165913 0.249106 -0.017175 0.275122 0.023047 -0.106852 0.163634 
FSNamesystef -0.181627 -0.283597 0.224462 -0.018912 0.561773 0.407052 0.451455 -0.111242 -0.064729 -0.350634 0.123864 -0.634812 -0.579550 0.007055 0.070513 0.336795 -0.342910 0.092739 0.632375 -0.037068 -0.529791 -0.121384 -0.318681 -0.211124 0.880599 0.439274 0.719123 -0.014981 0.797222 0.087048 -0.359404 0.479639 
mfs -0.124451 -0.235276 0.160946 -0.008593 0.473147 0.316329 0.372635 -0.108182 -0.066218 -0.266503 0.125021 -0.484039 -0.466128 0.034725 0.043598 0.231357 -0.278231 0.053410 0.494203 0.001172 -0.420780 -0.094386 -0.276860 -0.142946 0.698687 0.336779 0.595290 -0.040273 0.644140 0.061547 -0.272151 0.395726 
IcFO -0.143541 -0.303898 0.226733 0.002945 0.614214 0.456804 0.498319 -0.115997 -0.103531 -0.367654 0.120264 -0.651995 -0.590597 0.038395 0.076246 0.350256 -0.355681 0.091012 0.647455 0.009477 -0.527971 -0.111970 -0.336049 -0.199372 0.921258 0.439936 0.768582 -0.046485 0.847348 0.071033 -0.375909 0.498857 
Deletiog -0.101591 -0.194583 0.157842 -0.028955 0.382223 0.255822 0.284109 -0.086572 -0.064904 -0.212844 0.109339 -0.397173 -0.388489 0.038713 0.037851 0.192565 -0.221457 0.006180 0.400464 0.009160 -0.336774 -0.077210 -0.238069 -0.115170 0.552182 0.283887 0.461507 -0.046141 0.526926 0.049590 -0.236041 0.338753 
zerving -0.046808 -0.137712 0.108507 -0.018439 0.277676 0.192546 0.234699 -0.072244 -0.046306 -0.165191 0.096407 -0.303736 -0.277841 0.013906 0.036901 0.131468 -0.178978 0.015515 0.293685 0.007698 -0.263725 -0.039313 -0.156277 -0.087749 0.406396 0.223436 0.347300 -0.053429 0.392501 0.042309 -0.157448 0.254442 
addec -0.094558 -0.231601 0.178327 -0.030126 0.476067 0.329192 0.359410 -0.105233 -0.077897 -0.282501 0.111776 -0.488737 -0.448569 0.054311 0.034922 0.241940 -0.280419 0.015495 0.480243 0.020855 -0.397716 -0.103476 -0.279544 -0.107484 0.665413 0.330520 0.584444 -0.064992 0.646941 0.061826 -0.252302 0.402006 
tl -0.073275 -0.111990 0.079636 -0.023981 0.216268 0.146923 0.171363 -0.061747 -0.032675 -0.113218 0.061490 -0.227762 -0.207991 0.034245 0.026449 0.090862 -0.120928 0.021759 0.225787 0.015667 -0.198808 -0.038878 -0.130733 -0.073402 0.301637 0.173640 0.281525 -0.032168 0.305655 0.023597 -0.103700 0.183682 
adned -0.029070 -0.114312 0.078670 -0.032860 0.225575 0.151158 0.161310 -0.067747 -0.038742 -0.133480 0.050782 -0.221450 -0.213707 0.037831 -0.001371 0.101782 -0.132229 -0.022154 0.232788 0.004757 -0.179407 -0.039739 -0.133017 -0.031568 0.309973 0.142402 0.281700 -0.024733 0.305848 0.032211 -0.116098 0.199468 
vfs -0.049648 -0.082073 0.056728 -0.024328 0.176424 0.137777 0.137620 -0.044179 -0.012343 -0.093256 0.055778 -0.164485 -0.178833 0.029224 0.003133 0.067004 -0.107229 0.014536 0.181287 0.002038 -0.157739 -0.034221 -0.105457 -0.055479 0.256973 0.130026 0.217234 -0.012069 0.255869 0.021130 -0.115963 0.145091 
ttrminating -0.037048 -0.073012 0.053513 -0.024722 0.134920 0.073623 0.070380 -0.035942 -0.008470 -0.071363 0.028086 -0.140250 -0.105149 0.020487 0.011411 0.041345 -0.057732 -0.016050 0.141824 -0.013696 -0.102903 -0.030277 -0.107017 -0.027225 0.193952 0.092123 0.161902 -0.002662 0.179202 0.009485 -0.058660 0.127037 
dath -0.088463 -0.195580 0.139240 -0.021087 0.373652 0.240606 0.282880 -0.083188 -0.065994 -0.208644 0.094726 -0.382163 -0.351219 0.038385 0.039589 0.179834 -0.214429 0.019528 0.376871 0.015787 -0.321382 -0.079006 -0.220427 -0.103389 0.522964 0.270199 0.450310 -0.057347 0.499482 0.050324 -0.200635 0.320624 
invalidSes -0.067553 -0.130156 0.092801 -0.040838 0.291459 0.191191 0.165361 -0.075283 -0.045621 -0.151841 0.057301 -0.284179 -0.271471 0.042360 0.008639 0.130749 -0.159223 -0.031000 0.303410 -0.006184 -0.213780 -0.073124 -0.185649 -0.056421 0.396101 0.174000 0.323303 -0.029676 0.362863 0.042834 -0.164990 0.245629 
INdO -0.138438 -0.283075 0.215269 -0.013274 0.551693 0.393291 0.440974 -0.121188 -0.083232 -0.330672 0.125008 -0.583567 -0.537001 0.037933 0.061272 0.304580 -0.313440 0.061780 0.571953 0.007501 -0.475052 -0.094085 -0.299499 -0.169836 0.807121 0.405139 0.685743 -0.044982 0.747671 0.065605 -0.319714 0.467653 
lfs -0.069363 -0.112061 0.074142 -0.025214 0.228574 0.164506 0.176098 -0.060149 -0.021369 -0.117743 0.070729 -0.222721 -0.231759 0.030717 0.015092 0.097648 -0.133634 0.019074 0.235008 0.000599 -0.209626 -0.046428 -0.138819 -0.069306 0.325418 0.174259 0.281465 -0.027381 0.323355 0.026139 -0.127898 0.193926 
blackMap -0.099866 -0.175891 0.144060 -0.022248 0.350126 0.236469 0.289267 -0.064960 -0.024100 -0.220288 0.111499 -0.388047 -0.348224 0.029114 0.027639 0.170200 -0.225310 0.042623 0.367351 0.004441 -0.322849 -0.074240 -0.185108 -0.113620 0.530900 0.260447 0.442167 -0.053268 0.496373 0.038562 -0.209713 0.317151 
rdded -0.033507 -0.100923 0.071557 -0.042775 0.216281 0.150394 0.142329 -0.058391 -0.033749 -0.121869 0.043264 -0.195076 -0.191854 0.043023 -0.016615 0.096797 -0.113017 -0.020601 0.210950 0.017828 -0.156515 -0.045566 -0.138127 -0.029457 0.273904 0.136844 0.264674 -0.011896 0.296576 0.035523 -0.110619 0.184733 
blork -0.128803 -0.243873 0.204555 -0.011679 0.476110 0.354140 0.419475 -0.094822 -0.063019 -0.302352 0.128506 -0.536086 -0.490792 0.024515 0.057513 0.245823 -0.290690 0.076778 0.513029 0.007516 -0.447806 -0.081823 -0.268470 -0.172679 0.720318 0.362576 0.620755 -0.044675 0.690111 0.047711 -0.301912 0.420918 
bize -0.102932 -0.211178 0.182626 -0.020370 0.455191 0.318087 0.365603 -0.098855 -0.066165 -0.261310 0.130538 -0.489387 -0.440213 0.018502 0.040837 0.247656 -0.293534 0.043952 0.500449 -0.005206 -0.411041 -0.089560 -0.253950 -0.133495 0.684924 0.324509 0.573897 -0.040467 0.631948 0.069486 -0.270402 0.376432 
sive -0.071574 -0.140575 0.108653 -0.022264 0.270494 0.192692 0.212005 -0.064928 -0.030974 -0.167710 0.084567 -0.276466 -0.245238 0.018511 0.012040 0.120573 -0.176465 0.010106 0.287480 0.009391 -0.244075 -0.048216 -0.157272 -0.063799 0.397810 0.195957 0.363729 -0.024416 0.386674 0.044713 -0.152276 0.235088 
Recevving -0.085371 -0.205299 0.156171 -0.028773 0.433711 0.292089 0.344827 -0.091198 -0.054850 -0.279991 0.115170 -0.461974 -0.404572 0.033734 0.032824 0.201427 -0.256901 0.019808 0.426853 0.011276 -0.378551 -0.073822 -0.235803 -0.117275 0.604167 0.320224 0.525961 -0.061812 0.583033 0.064710 -0.242028 0.393923 
terminatixg -0.106461 -0.183409 0.140819 -0.038046 0.350542 0.219057 0.253120 -0.071385 -0.029075 -0.208850 0.095157 -0.387316 -0.333650 0.020430 0.035955 0.167051 -0.209483 0.021199 0.362064 -0.014123 -0.324156 -0.073571 -0.207094 -0.113910 0.505561 0.275910 0.434507 -0.045614 0.479182 0.052164 -0.188701 0.318776 
blocn -0.106931 -0.221596 0.177662 -0.017937 0.440767 0.303555 0.377885 -0.102800 -0.064201 -0.277146 0.121848 -0.491256 -0.435698 0.028438 0.052968 0.223260 -0.283966 0.062374 0.477531 0.001551 -0.428677 -0.091670 -0.244554 -0.149432 0.670510 0.335212 0.571280 -0.068006 0.641856 0.058465 -0.270319 0.390219 
IsFO -0.129593 -0.251414 0.193374 -0.004092 0.491562 0.347051 0.402799 -0.092867 -0.078309 -0.292049 0.134359 -0.520202 -0.480666 0.028764 0.070592 0.258520 -0.304482 0.060060 0.524888 -0.002010 -0.452219 -0.090882 -0.291481 -0.162980 0.753702 0.371812 0.628740 -0.040548 0.698728 0.068116 -0.298963 0.416101 
sizn -0.039623 -0.096743 0.077082 -0.009159 0.173101 0.129771 0.150929 -0.043993 -0.018956 -0.108913 0.051725 -0.203782 -0.176741 0.017938 0.021986 0.086942 -0.115431 0.002968 0.205495 -0.007308 -0.170816 -0.037498 -0.116211 -0.049479 0.300295 0.132945 0.238162 -0.016722 0.261983 0.023791 -0.107786 0.161494 
fioe -0.104600 -0.214245 0.171337 -0.027566 0.454073 0.307720 0.339251 -0.102414 -0.054307 -0.266446 0.120282 -0.461534 -0.416008 0.032514 0.019913 0.225363 -0.274048 0.029275 0.462720 0.005942 -0.385098 -0.087510 -0.254338 -0.113501 0.648691 0.325200 0.565058 -0.031562 0.609328 0.071060 -0.248630 0.379192 
FSNamesystcm -0.160867 -0.270341 0.205505 -0.001386 0.522994 0.363319 0.433700 -0.115886 -0.087661 -0.310587 0.128877 -0.575762 -0.528094 0.030716 0.080432 0.301962 -0.324651 0.074064 0.581908 -0.021725 -0.497749 -0.103479 -0.312486 -0.201074 0.836975 0.395320 0.676738 -0.054768 0.746638 0.079436 -0.351645 0.449046 
pabt -0.068475 -0.135775 0.127874 -0.014001 0.300402 0.199652 0.238400 -0.050470 -0.038776 -0.165967 0.087489 -0.330295 -0.293762 0.033618 0.029656 0.149581 -0.173832 0.013525 0.321708 -0.001262 -0.260321 -0.070846 -0.195906 -0.096349 0.463268 0.210294 0.373296 -0.012291 0.405342 0.042432 -0.172433 0.253432 
blocb -0.132815 -0.260754 0.209870 -0.016021 0.535518 0.380547 0.441530 -0.109348 -0.091841 -0.312908 0.129009 -0.575443 -0.522625 0.034046 0.060889 0.296157 -0.327364 0.071286 0.575574 0.008505 -0.482703 -0.113572 -0.306913 -0.175822 0.806456 0.384232 0.671081 -0.061599 0.755739 0.068715 -0.334902 0.444138 
Remeiving -0.131416 -0.277988 0.212280 -0.024283 0.578204 0.414868 0.448963 -0.116719 -0.084504 -0.351105 0.112829 -0.623353 -0.561912 0.050319 0.051565 0.315639 -0.322080 0.029935 0.604580 -0.003692 -0.483718 -0.107119 -0.331348 -0.168235 0.841736 0.394059 0.697276 -0.052571 0.769478 0.073169 -0.352502 0.505173 
FSdamesystem -0.137697 -0.237600 0.182126 -0.016084 0.481238 0.318977 0.386692 -0.116696 -0.081564 -0.276656 0.122934 -0.510666 -0.473234 0.028698 0.063626 0.252849 -0.301777 0.048306 0.531132 -0.020667 -0.452410 -0.092277 -0.294328 -0.167315 0.752894 0.354771 0.615891 -0.040569 0.683085 0.079730 -0.313353 0.408438 
celeting -0.095848 -0.209344 0.161013 -0.038729 0.425649 0.279249 0.344583 -0.096749 -0.053397 -0.252422 0.107149 -0.464856 -0.418742 0.029756 0.035343 0.210093 -0.248398 0.031174 0.434081 0.012826 -0.378530 -0.084097 -0.235442 -0.125997 0.601122 0.315661 0.515445 -0.059744 0.581930 0.055797 -0.238140 0.380431 
ii -0.090093 -0.212460 0.165139 -0.027742 0.476599 0.325149 0.334566 -0.112097 -0.066835 -0.258834 0.106066 -0.464986 -0.419080 0.043664 0.004331 0.249240 -0.260823 0.013517 0.469276 0.023055 -0.360209 -0.091300 -0.260282 -0.097707 0.638230 0.303866 0.561827 -0.037032 0.590946 0.069113 -0.244541 0.379351 
blocs -0.137773 -0.270515 0.204100 -0.016270 0.544101 0.396063 0.450821 -0.118978 -0.083419 -0.333190 0.117745 -0.588274 -0.534536 0.023357 0.064665 0.286372 -0.332395 0.085760 0.584829 0.000135 -0.501412 -0.113487 -0.306749 -0.179099 0.817949 0.398530 0.690310 -0.058059 0.777505 0.063312 -0.337505 0.454671 
siue -0.105988 -0.207228 0.163222 -0.025175 0.405594 0.282584 0.321196 -0.091345 -0.061964 -0.239399 0.111007 -0.428446 -0.379146 0.033301 0.030626 0.209839 -0.252008 0.013797 0.430521 0.009496 -0.351961 -0.073387 -0.246314 -0.109030 0.602782 0.288059 0.526143 -0.043443 0.561496 0.066496 -0.228637 0.349466 
NamfSystem -0.148829 -0.250818 0.175838 -0.005173 0.489145 0.316665 0.400621 -0.121327 -0.078616 -0.285001 0.131049 -0.513900 -0.474591 0.026743 0.066975 0.258602 -0.287825 0.057485 0.525394 -0.020005 -0.449051 -0.078648 -0.280241 -0.173405 0.752633 0.360812 0.625558 -0.031660 0.659107 0.081607 -0.286017 0.417574 
DataBlockScanney -0.043310 -0.088230 0.055254 -0.030959 0.172772 0.119744 0.131125 -0.053715 -0.018742 -0.116406 0.066002 -0.157451 -0.153383 0.020072 0.009896 0.065736 -0.114383 -0.003907 0.171699 -0.006542 -0.175952 -0.017615 -0.105271 -0.031678 0.244006 0.142364 0.231021 -0.029547 0.254922 0.028163 -0.079118 0.158615 
hurrent -0.097181 -0.197895 0.155037 -0.016303 0.372777 0.259350 0.332687 -0.078597 -0.047477 -0.234696 0.127243 -0.413965 -0.366447 0.013298 0.045762 0.191695 -0.245947 0.064409 0.393187 0.008401 -0.375430 -0.066982 -0.196137 -0.147699 0.549669 0.312452 0.487059 -0.064441 0.537518 0.070070 -0.215616 0.339415 
des -0.083447 -0.202433 0.134708 -0.024073 0.393814 0.276034 0.311710 -0.093696 -0.064346 -0.229525 0.097580 -0.387722 -0.373450 0.033893 0.026830 0.183461 -0.230780 0.022064 0.392322 0.018455 -0.338789 -0.071369 -0.218854 -0.100799 0.550190 0.280407 0.485073 -0.042919 0.530915 0.057858 -0.215819 0.330683 
INFl -0.134146 -0.290575 0.198459 0.003763 0.574947 0.409036 0.462098 -0.132919 -0.112303 -0.343358 0.134464 -0.609798 -0.559780 0.027924 0.075815 0.322075 -0.341029 0.075111 0.619052 -0.003847 -0.505751 -0.092827 -0.314015 -0.180856 0.854295 0.409413 0.731449 -0.061503 0.782659 0.074427 -0.326636 0.478746 
INFp -0.125487 -0.276877 0.209974 -0.002916 0.565989 0.417358 0.452501 -0.113136 -0.091924 -0.341096 0.130663 -0.611637 -0.558973 0.042100 0.061687 0.325581 -0.327310 0.055418 0.605958 -0.004027 -0.476816 -0.101483 -0.317780 -0.176798 0.851194 0.395543 0.709820 -0.041320 0.762491 0.075606 -0.335409 0.475343 
NameSysteo -0.173642 -0.316278 0.220293 -0.000129 0.605477 0.440556 0.496890 -0.132049 -0.092782 -0.377676 0.117180 -0.638794 -0.584122 0.016277 0.074652 0.344573 -0.350551 0.099785 0.645098 -0.010719 -0.541167 -0.108124 -0.318926 -0.204763 0.915183 0.440513 0.767320 -0.027364 0.820507 0.084946 -0.365498 0.498983 
nfs -0.021801 -0.055729 0.037647 -0.021602 0.100935 0.077868 0.067114 -0.030594 0.001541 -0.057783 0.021057 -0.103067 -0.120166 0.024308 -0.008725 0.039068 -0.061430 -0.006116 0.106818 -0.014514 -0.090442 -0.029139 -0.062323 -0.029254 0.157289 0.073802 0.120942 0.003718 0.143730 0.013983 -0.075742 0.088089 
saze -0.052409 -0.098175 0.068489 -0.014946 0.180634 0.127193 0.158241 -0.043409 -0.029348 -0.107260 0.068057 -0.194504 -0.175099 0.009278 0.030911 0.082278 -0.134233 0.011724 0.206531 0.000076 -0.189705 -0.032520 -0.112036 -0.055277 0.294217 0.151758 0.247368 -0.036788 0.280957 0.031261 -0.103654 0.157617 
FSoamesystem -0.149986 -0.255465 0.192566 -0.015488 0.520193 0.354362 0.429669 -0.126899 -0.087509 -0.303363 0.120374 -0.560451 -0.512491 0.018179 0.069232 0.281258 -0.320851 0.071123 0.579115 -0.016844 -0.486305 -0.090796 -0.305220 -0.192585 0.815769 0.389216 0.666000 -0.039917 0.742219 0.080489 -0.341771 0.437929 
rs -0.021870 -0.038689 0.015825 -0.013647 0.080644 0.087106 0.066235 -0.019108 -0.020997 -0.029691 0.020972 -0.065213 -0.084349 0.029471 0.006381 0.034612 -0.030868 0.006375 0.079408 0.015129 -0.069432 -0.023329 -0.068219 -0.031342 0.100556 0.057467 0.087139 -0.025398 0.122275 0.002654 -0.057640 0.067795 
tfs -0.036161 -0.054015 0.036554 -0.017829 0.108980 0.086044 0.072328 -0.014800 0.002363 -0.050479 0.028134 -0.108465 -0.117290 0.027581 0.002509 0.038731 -0.057796 0.005422 0.117615 -0.004852 -0.097035 -0.037476 -0.084427 -0.035557 0.175167 0.090751 0.134123 0.014289 0.164237 0.010918 -0.065927 0.088299 
bbockMap -0.126405 -0.229697 0.197050 -0.017071 0.462581 0.325462 0.382552 -0.080258 -0.042700 -0.295926 0.126677 -0.529914 -0.464486 0.020242 0.043649 0.242000 -0.294824 0.070277 0.507201 -0.000923 -0.426154 -0.097054 -0.244202 -0.164343 0.719808 0.348836 0.591101 -0.039899 0.660076 0.054321 -0.290615 0.409117 
FSDatoset -0.137697 -0.208374 0.165130 -0.025484 0.426507 0.283814 0.340175 -0.091441 -0.061503 -0.250474 0.125560 -0.461768 -0.425357 0.013138 0.046717 0.215444 -0.267196 0.061215 0.470945 -0.006546 -0.404282 -0.092369 -0.236108 -0.157133 0.641505 0.341563 0.528711 -0.032775 0.607002 0.069534 -0.261719 0.360993 
mwt -0.121183 -0.210247 0.156628 -0.017406 0.409391 0.267033 0.340324 -0.099463 -0.050332 -0.230301 0.110381 -0.433690 -0.407044 0.027568 0.040355 0.198241 -0.229198 0.064149 0.425748 0.016085 -0.364585 -0.079817 -0.225604 -0.135405 0.594908 0.308731 0.503341 -0.031996 0.557254 0.043319 -0.229932 0.354061 
sizr -0.085879 -0.170133 0.144109 -0.010613 0.334899 0.255747 0.278467 -0.064467 -0.042708 -0.195745 0.098624 -0.370401 -0.333440 0.029605 0.042659 0.174316 -0.194572 0.028741 0.353239 0.009419 -0.301154 -0.070937 -0.218374 -0.103673 0.504900 0.252902 0.424428 -0.043697 0.477481 0.033145 -0.195316 0.298388 
terminativg -0.075918 -0.144007 0.109166 -0.020840 0.272523 0.174203 0.181946 -0.049031 -0.035782 -0.156801 0.073931 -0.286227 -0.250090 0.032218 0.031405 0.121466 -0.151841 -0.009872 0.285427 -0.002389 -0.231416 -0.056528 -0.183476 -0.073770 0.395089 0.193976 0.334693 -0.031789 0.369312 0.033867 -0.150699 0.251247 
yize -0.095857 -0.200514 0.171303 -0.021024 0.395188 0.277053 0.314186 -0.085995 -0.050398 -0.234774 0.112412 -0.418381 -0.374835 0.018169 0.039728 0.208455 -0.261594 0.019425 0.422780 -0.002935 -0.349659 -0.071971 -0.224164 -0.099659 0.596205 0.283450 0.501849 -0.028340 0.540151 0.063624 -0.224909 0.328223 
znt -0.034281 -0.083281 0.071319 -0.014990 0.156933 0.119274 0.141723 -0.041879 -0.021950 -0.087260 0.047871 -0.197022 -0.187561 0.023137 0.028568 0.078175 -0.097056 0.009613 0.186326 -0.003811 -0.160827 -0.032140 -0.098439 -0.062545 0.258737 0.137118 0.204347 -0.015443 0.235843 0.015970 -0.101031 0.143476 
arc -0.063170 -0.132670 0.105435 -0.012290 0.297359 0.212407 0.239217 -0.056009 -0.054016 -0.166038 0.097529 -0.305643 -0.276922 0.045231 0.036129 0.146360 -0.176430 0.026343 0.294539 0.027931 -0.264664 -0.074937 -0.180773 -0.086620 0.406636 0.217961 0.354442 -0.077294 0.410663 0.037481 -0.156324 0.254472 
upoated -0.082369 -0.177840 0.149153 -0.015571 0.394917 0.264085 0.295639 -0.081008 -0.056669 -0.216325 0.115700 -0.404237 -0.369236 0.035490 0.031070 0.188395 -0.232522 0.019028 0.416858 0.013775 -0.329679 -0.063681 -0.226609 -0.118776 0.578576 0.274936 0.490254 -0.032705 0.526482 0.052151 -0.215733 0.327383 
qize -0.094532 -0.191299 0.157528 -0.015010 0.406486 0.271499 0.324665 -0.086090 -0.060835 -0.232700 0.124312 -0.436033 -0.388834 0.023602 0.043428 0.202624 -0.250721 0.030909 0.431000 -0.000464 -0.351784 -0.070131 -0.224237 -0.113337 0.600606 0.295571 0.505406 -0.026281 0.546318 0.059425 -0.220987 0.335269 
Rectiving -0.063528 -0.149140 0.121800 -0.029121 0.335939 0.221123 0.240675 -0.069620 -0.035189 -0.201742 0.090350 -0.349868 -0.299285 0.039366 0.014579 0.149299 -0.180413 -0.010679 0.328278 0.009612 -0.267990 -0.062869 -0.198090 -0.077430 0.460449 0.234363 0.391257 -0.037473 0.430111 0.047112 -0.175161 0.305142 
ImFO -0.160528 -0.363148 0.245344 0.032781 0.725686 0.587604 0.596934 -0.146195 -0.142428 -0.430980 0.072194 -0.754620 -0.697503 0.043041 0.087048 0.447286 -0.379281 0.131353 0.774652 0.002718 -0.579875 -0.106943 -0.384717 -0.238268 1.106998 0.479837 0.903885 -0.014122 0.988437 0.055025 -0.476669 0.556472 
afs -0.045269 -0.092636 0.057661 -0.013599 0.196752 0.138099 0.141665 -0.039758 -0.023321 -0.104142 0.061490 -0.184685 -0.196502 0.027965 0.013290 0.088067 -0.120858 0.009047 0.203065 -0.004140 -0.174305 -0.051143 -0.126245 -0.047180 0.284633 0.140972 0.230742 -0.020496 0.270668 0.027088 -0.106381 0.162479 
blockMat -0.151470 -0.258456 0.215354 -0.016648 0.508065 0.368060 0.432566 -0.097336 -0.045547 -0.320170 0.122563 -0.586621 -0.515351 0.014367 0.059121 0.269562 -0.309652 0.100965 0.546533 -0.001740 -0.476372 -0.098501 -0.267996 -0.189205 0.782542 0.396686 0.655330 -0.042778 0.731301 0.045720 -0.320653 0.440855 
INvO -0.141139 -0.278387 0.210884 -0.006016 0.535169 0.385866 0.442577 -0.118063 -0.084497 -0.331544 0.135469 -0.570694 -0.520195 0.030104 0.073232 0.286289 -0.316754 0.073080 0.560249 0.006512 -0.478811 -0.085127 -0.285154 -0.175463 0.790374 0.402217 0.676417 -0.052879 0.737578 0.065289 -0.317084 0.457228 
filh -0.100095 -0.193653 0.143515 -0.028263 0.377941 0.238917 0.274988 -0.098883 -0.055907 -0.211038 0.103097 -0.391987 -0.354481 0.036794 0.027661 0.185928 -0.225929 0.016569 0.390357 0.002879 -0.327472 -0.077166 -0.229584 -0.102103 0.536399 0.274244 0.472072 -0.057234 0.510224 0.056196 -0.198419 0.327984 
perminating -0.081398 -0.174313 0.143332 -0.019538 0.350223 0.222921 0.266112 -0.079345 -0.039792 -0.211881 0.092211 -0.393110 -0.333318 0.018661 0.032928 0.168006 -0.204382 0.007471 0.371608 -0.017657 -0.311999 -0.061168 -0.217584 -0.108337 0.526772 0.243635 0.448288 -0.039942 0.467331 0.047388 -0.201216 0.318737 
tvrminating -0.064676 -0.113479 0.089118 -0.031299 0.217094 0.130929 0.147782 -0.061315 -0.018687 -0.126369 0.056718 -0.231737 -0.191108 0.017658 0.015457 0.087703 -0.121434 0.003282 0.226090 -0.013319 -0.185241 -0.039573 -0.137635 -0.066807 0.311840 0.154124 0.268966 -0.027756 0.295111 0.027373 -0.124391 0.197498 
seleting -0.062603 -0.133791 0.103981 -0.029085 0.242715 0.165636 0.203214 -0.055066 -0.025865 -0.143299 0.070522 -0.269416 -0.250250 0.028535 0.015988 0.113251 -0.140159 -0.000016 0.251607 0.006541 -0.218763 -0.045353 -0.151171 -0.069939 0.362598 0.187252 0.302994 -0.030592 0.351175 0.027674 -0.148861 0.231104 
dkta -0.050861 -0.127255 0.109637 -0.015519 0.260031 0.184692 0.196664 -0.044722 -0.027661 -0.149989 0.064403 -0.277398 -0.251468 0.049920 0.022702 0.112218 -0.133602 -0.001151 0.256467 0.016122 -0.211530 -0.054477 -0.164123 -0.066407 0.374539 0.188516 0.316343 -0.015235 0.350508 0.019530 -0.140618 0.229779 
INtO -0.141067 -0.257129 0.203106 -0.011765 0.497561 0.348514 0.405277 -0.102518 -0.069262 -0.296606 0.131081 -0.542856 -0.493456 0.033168 0.067260 0.268241 -0.285752 0.063513 0.521522 0.005254 -0.443645 -0.090278 -0.274664 -0.169769 0.739403 0.385224 0.620643 -0.039872 0.679626 0.061587 -0.288079 0.428319 
addSooredBlock -0.099243 -0.201535 0.164362 -0.010339 0.414198 0.295410 0.307732 -0.073103 -0.075936 -0.254318 0.108902 -0.436558 -0.409565 0.048978 0.051897 0.205550 -0.248763 0.007477 0.432215 0.024130 -0.345601 -0.084126 -0.258978 -0.112696 0.609198 0.313132 0.507980 -0.035554 0.568128 0.056413 -0.237269 0.350978 
te -0.063706 -0.111783 0.083943 -0.026562 0.227776 0.160903 0.181538 -0.051320 -0.030321 -0.122119 0.067846 -0.233968 -0.219303 0.028971 0.015551 0.102074 -0.135098 0.017734 0.233353 0.016930 -0.205745 -0.040062 -0.124893 -0.072988 0.317884 0.182732 0.289580 -0.020945 0.317360 0.035975 -0.123431 0.186402 
FSNameuystem -0.122609 -0.202703 0.158703 -0.012554 0.401205 0.258715 0.311712 -0.095174 -0.076631 -0.222539 0.117211 -0.432988 -0.403576 0.044905 0.069504 0.211154 -0.248846 0.013902 0.449758 -0.017509 -0.374571 -0.076071 -0.271475 -0.152129 0.649082 0.299223 0.515684 -0.049236 0.570450 0.069393 -0.270034 0.356069 
adrStoredBlock -0.034287 -0.112341 0.071360 0.010793 0.232608 0.163638 0.171873 -0.043000 -0.060742 -0.137104 0.077204 -0.213681 -0.230718 0.034204 0.022454 0.099239 -0.126506 -0.000569 0.236230 0.031586 -0.176490 -0.038936 -0.149762 -0.040504 0.323248 0.169508 0.277630 -0.009254 0.311025 0.024561 -0.116685 0.190465 
kf -0.028779 -0.058777 0.068609 -0.016402 0.127090 0.106081 0.089630 -0.023433 0.007340 -0.072413 0.040480 -0.144121 -0.154875 0.039775 0.001720 0.052313 -0.068254 -0.007433 0.136192 -0.002339 -0.115824 -0.024280 -0.101937 -0.039485 0.200503 0.107088 0.175729 0.014859 0.192058 0.002861 -0.080226 0.117933 
vddStoredBlock -0.082987 -0.163699 0.128929 -0.013367 0.331397 0.237296 0.244243 -0.068418 -0.059546 -0.197982 0.094451 -0.334195 -0.323342 0.047202 0.031536 0.141440 -0.193935 0.007418 0.335558 0.029762 -0.265943 -0.057018 -0.195435 -0.090166 0.473387 0.249079 0.408388 -0.023819 0.453923 0.040134 -0.197372 0.273062 
srs -0.017116 -0.031559 0.005631 -0.006877 0.044232 0.065544 0.048765 -0.006468 -0.012488 -0.012900 0.015442 -0.033361 -0.054528 0.018614 0.008341 0.011797 -0.017660 0.007314 0.050592 0.010892 -0.050488 -0.017822 -0.051614 -0.025842 0.077523 0.038261 0.054125 -0.017256 0.089431 -0.002810 -0.044483 0.042323 
fvom -0.126424 -0.237063 0.180964 -0.024926 0.480415 0.317939 0.381147 -0.120980 -0.074263 -0.287031 0.122599 -0.488158 -0.451194 0.037772 0.047426 0.234065 -0.289664 0.047212 0.495380 -0.000102 -0.432741 -0.081530 -0.289355 -0.146851 0.707822 0.354591 0.611830 -0.043085 0.673563 0.071082 -0.288168 0.413625 
efs -0.059284 -0.119775 0.072850 -0.021370 0.246483 0.175709 0.188235 -0.049704 -0.031322 -0.129758 0.076451 -0.235267 -0.251298 0.034107 0.010107 0.107425 -0.147165 0.008283 0.247931 0.007821 -0.216405 -0.048075 -0.140775 -0.069453 0.351072 0.185286 0.295624 -0.022320 0.336917 0.037937 -0.142907 0.204652 
desm -0.122748 -0.272020 0.185715 -0.022879 0.530978 0.364001 0.421569 -0.130363 -0.098058 -0.311343 0.110146 -0.533880 -0.501336 0.041397 0.052510 0.267910 -0.304038 0.037196 0.543145 0.010172 -0.459439 -0.091044 -0.311683 -0.148757 0.768483 0.373692 0.662844 -0.048778 0.724427 0.075484 -0.308075 0.448594 
aqdStoredBlock -0.052247 -0.123848 0.088702 0.007893 0.258519 0.175823 0.192282 -0.039415 -0.063852 -0.150494 0.079440 -0.260645 -0.265779 0.039924 0.034888 0.110936 -0.140057 0.000801 0.273543 0.022603 -0.197681 -0.042060 -0.167631 -0.061138 0.375347 0.190057 0.308357 0.001991 0.348349 0.023754 -0.135786 0.213055 
daua -0.103827 -0.251544 0.186526 -0.013039 0.520110 0.361370 0.402614 -0.106820 -0.096754 -0.302508 0.116295 -0.534176 -0.477533 0.057671 0.055487 0.270112 -0.293078 0.027676 0.521382 0.016647 -0.425525 -0.094982 -0.297268 -0.135033 0.729588 0.351202 0.619783 -0.078125 0.686522 0.060176 -0.283868 0.438334 
htdoop -0.100430 -0.196322 0.154968 -0.041847 0.389605 0.262082 0.288114 -0.079780 -0.048416 -0.233227 0.087464 -0.405441 -0.369942 0.048225 0.023089 0.183721 -0.218386 0.008420 0.401153 0.018259 -0.324682 -0.087081 -0.237417 -0.102775 0.552755 0.284532 0.473990 -0.028832 0.539488 0.052238 -0.224374 0.346881 
olockMap -0.148154 -0.268783 0.205182 -0.020847 0.528932 0.385546 0.446678 -0.106910 -0.056381 -0.332674 0.124180 -0.587849 -0.517983 0.032686 0.058005 0.268964 -0.308080 0.077095 0.544872 0.023963 -0.465296 -0.087854 -0.271519 -0.185435 0.791514 0.405117 0.667152 -0.061128 0.734779 0.053035 -0.318868 0.460845 
mgt -0.136103 -0.253462 0.188333 -0.009196 0.499971 0.332814 0.401790 -0.109809 -0.082699 -0.272903 0.125022 -0.517070 -0.494552 0.042756 0.059387 0.259131 -0.276064 0.055495 0.512695 0.020545 -0.429931 -0.095477 -0.293750 -0.159134 0.718762 0.363485 0.604812 -0.050153 0.671796 0.055986 -0.286931 0.417243 
Receivigg -0.099051 -0.210928 0.179066 -0.032430 0.466885 0.311410 0.336489 -0.085956 -0.060232 -0.268926 0.113761 -0.486805 -0.434165 0.046462 0.033516 0.233445 -0.256891 -0.003092 0.458509 0.013572 -0.372377 -0.091119 -0.278822 -0.123182 0.647025 0.326747 0.535586 -0.055204 0.604164 0.063543 -0.267124 0.408812 
aeded -0.063102 -0.166585 0.117595 -0.040572 0.343537 0.228854 0.253523 -0.084149 -0.058998 -0.195857 0.089301 -0.335194 -0.328282 0.046313 0.008195 0.165194 -0.201977 -0.009313 0.351469 0.017574 -0.283372 -0.065980 -0.199191 -0.065920 0.467184 0.232804 0.420100 -0.039655 0.468810 0.051635 -0.178335 0.298320 
allccateBlock -0.089378 -0.161351 0.133614 -0.019562 0.323797 0.226759 0.251926 -0.062484 -0.037225 -0.202475 0.093380 -0.349079 -0.320971 0.038239 0.032123 0.154892 -0.197799 0.014801 0.332372 0.022330 -0.287572 -0.062529 -0.205000 -0.098816 0.478707 0.247196 0.417647 -0.057598 0.462502 0.033554 -0.187714 0.288127 
dwst -0.056320 -0.120469 0.084713 -0.016039 0.216606 0.161310 0.186469 -0.048054 -0.021863 -0.124780 0.050431 -0.222839 -0.218016 0.023451 0.011939 0.096302 -0.110834 0.028671 0.217644 0.012468 -0.179730 -0.046964 -0.124013 -0.063915 0.320837 0.165117 0.254852 0.000543 0.299309 0.016770 -0.123976 0.188583 
ls -0.070041 -0.115277 0.068228 -0.025063 0.220491 0.162246 0.178172 -0.069574 -0.037204 -0.111386 0.063251 -0.211019 -0.216751 0.029477 0.024391 0.092448 -0.126721 0.019515 0.227050 0.014763 -0.205394 -0.036885 -0.131476 -0.068876 0.302053 0.167304 0.275609 -0.045830 0.312704 0.023107 -0.118756 0.186385 
ySNamesystem -0.116802 -0.173209 0.141211 -0.013947 0.310008 0.186311 0.253778 -0.070385 -0.049635 -0.180646 0.096154 -0.333677 -0.304233 0.024689 0.062406 0.149425 -0.205117 0.009216 0.352076 -0.034643 -0.304523 -0.057798 -0.212718 -0.113238 0.524837 0.237262 0.410356 -0.004166 0.449849 0.062394 -0.205108 0.271498 
nrc -0.040618 -0.095793 0.086263 -0.020400 0.202555 0.152325 0.164800 -0.046790 -0.028263 -0.119583 0.059041 -0.225253 -0.200906 0.041805 0.014683 0.096204 -0.118992 0.010854 0.199379 0.017016 -0.183133 -0.053081 -0.118043 -0.069363 0.281381 0.151984 0.247505 -0.054396 0.286113 0.024525 -0.125165 0.180800 
ont -0.063967 -0.134980 0.105682 -0.017964 0.264462 0.181529 0.219020 -0.066002 -0.034636 -0.151625 0.075232 -0.283342 -0.266760 0.028758 0.023801 0.115702 -0.151786 0.021089 0.270349 0.013196 -0.240361 -0.046388 -0.145590 -0.088014 0.382714 0.206662 0.326710 -0.028874 0.363546 0.031228 -0.158729 0.232259 
bzockMap -0.119725 -0.225539 0.189389 -0.020760 0.449284 0.317374 0.376035 -0.085733 -0.043680 -0.284455 0.125981 -0.519717 -0.458714 0.020506 0.051985 0.233122 -0.284019 0.064337 0.490084 0.004612 -0.416095 -0.088416 -0.238476 -0.158609 0.696878 0.351374 0.572750 -0.047266 0.642026 0.049307 -0.271403 0.401215 
allocateBnock -0.119019 -0.207555 0.179772 -0.027527 0.418342 0.304628 0.346991 -0.084483 -0.043481 -0.267833 0.118334 -0.464699 -0.417133 0.031765 0.047799 0.210901 -0.266841 0.041334 0.437456 0.009180 -0.387463 -0.071177 -0.246750 -0.142743 0.633029 0.332229 0.542672 -0.059640 0.605704 0.050975 -0.253769 0.367699 
ty -0.048395 -0.093621 0.083223 -0.015996 0.176844 0.142045 0.141063 -0.031909 -0.012135 -0.092584 0.044128 -0.176999 -0.173378 0.035770 0.022201 0.083503 -0.099810 0.008218 0.172581 0.006132 -0.156393 -0.031992 -0.117581 -0.050414 0.261893 0.135898 0.225781 0.002174 0.247229 0.016873 -0.106233 0.140902 
IdFO -0.138067 -0.308495 0.229062 0.000177 0.620314 0.463188 0.494800 -0.122875 -0.107169 -0.367099 0.115999 -0.640971 -0.594048 0.042789 0.069379 0.350617 -0.350203 0.077331 0.646660 0.006818 -0.517229 -0.105830 -0.343990 -0.186794 0.917230 0.432316 0.767600 -0.033756 0.845180 0.069437 -0.376159 0.501595 
whilm -0.091759 -0.160599 0.117046 -0.041738 0.290561 0.160306 0.206012 -0.102558 -0.050076 -0.157244 0.075113 -0.294085 -0.259471 0.032663 0.030522 0.130177 -0.168376 -0.009225 0.306490 0.002195 -0.252155 -0.053097 -0.199788 -0.074219 0.424362 0.213208 0.367439 -0.044470 0.400757 0.047548 -0.153453 0.272581 
cuirent -0.131550 -0.273051 0.215776 -0.015100 0.545312 0.396757 0.450529 -0.108831 -0.068538 -0.343159 0.121343 -0.609920 -0.533545 0.025775 0.055307 0.302971 -0.324767 0.077343 0.578039 0.004642 -0.485011 -0.107398 -0.296085 -0.182726 0.809116 0.403726 0.692794 -0.048047 0.749858 0.075392 -0.314170 0.467896 
rfot -0.059281 -0.089380 0.075177 -0.017762 0.200516 0.140048 0.152685 -0.034035 -0.014761 -0.109799 0.067724 -0.198958 -0.193495 0.027317 0.003824 0.090014 -0.109832 0.024721 0.197338 0.007973 -0.175360 -0.048116 -0.127201 -0.068579 0.282330 0.161658 0.239852 -0.008926 0.280818 0.028466 -0.118278 0.170397 
qNFO -0.142257 -0.275332 0.206747 0.003354 0.552284 0.378301 0.466643 -0.108296 -0.100733 -0.336518 0.134255 -0.598536 -0.540394 0.034350 0.075734 0.300589 -0.316554 0.086082 0.580751 0.001390 -0.483265 -0.097447 -0.296500 -0.183441 0.818017 0.405571 0.679309 -0.040357 0.758965 0.065155 -0.329000 0.466056 
drta -0.050456 -0.118062 0.089329 -0.012415 0.258145 0.183973 0.197181 -0.041232 -0.039625 -0.140737 0.071692 -0.260247 -0.233253 0.045131 0.021635 0.118743 -0.131417 0.012298 0.245838 0.022175 -0.206710 -0.058886 -0.150777 -0.073249 0.349043 0.185124 0.293918 -0.037909 0.337755 0.030412 -0.137478 0.221313 
frkm -0.069823 -0.110461 0.105714 -0.019982 0.226918 0.151396 0.179212 -0.050730 -0.020786 -0.130671 0.076940 -0.238920 -0.219589 0.044199 0.021050 0.099995 -0.134229 0.005390 0.233053 -0.001660 -0.214427 -0.040690 -0.169868 -0.082504 0.354631 0.183734 0.305527 -0.015626 0.338130 0.034861 -0.142773 0.213521 
exceptnon -0.007720 -0.080330 0.038867 -0.015930 0.136180 0.094439 0.126645 -0.028337 -0.016406 -0.100012 0.036276 -0.133301 -0.133306 0.022138 0.007249 0.042530 -0.082367 -0.003439 0.126888 0.012815 -0.127095 -0.015187 -0.068420 -0.027755 0.208411 0.111289 0.170727 -0.010857 0.195896 0.019255 -0.077029 0.133119 
FSNamesystmm -0.130514 -0.227745 0.162745 -0.001491 0.433666 0.269519 0.354583 -0.115640 -0.088433 -0.241657 0.121420 -0.463115 -0.443151 0.039650 0.077253 0.223354 -0.263695 0.033264 0.484181 -0.026606 -0.414914 -0.074046 -0.287697 -0.165166 0.706205 0.316086 0.564397 -0.048335 0.618074 0.066294 -0.298685 0.384786 
terminatink -0.099698 -0.176841 0.131968 -0.031458 0.304748 0.204472 0.241495 -0.059061 -0.022284 -0.210779 0.083758 -0.359825 -0.314248 0.029539 0.024140 0.148710 -0.181268 0.013498 0.336413 -0.014846 -0.292809 -0.064081 -0.189302 -0.096698 0.465398 0.236571 0.409578 -0.025379 0.440221 0.041013 -0.175253 0.306407 
terminasing -0.085175 -0.163600 0.120870 -0.029503 0.309733 0.190898 0.230028 -0.069289 -0.036911 -0.187133 0.082607 -0.337731 -0.288178 0.019292 0.035508 0.141582 -0.187179 0.010211 0.327497 -0.017693 -0.288418 -0.064691 -0.194906 -0.093773 0.459223 0.230426 0.388324 -0.044953 0.432125 0.045837 -0.172196 0.284904 
IyFO -0.136377 -0.282437 0.223569 -0.000686 0.549209 0.402191 0.449247 -0.105307 -0.084679 -0.328364 0.132133 -0.575715 -0.534866 0.033624 0.075283 0.306954 -0.335772 0.066234 0.577846 -0.004539 -0.485400 -0.092619 -0.312951 -0.173129 0.837115 0.399818 0.693321 -0.032478 0.760028 0.071998 -0.339691 0.454416 
haloop -0.112331 -0.225678 0.162655 -0.034706 0.441015 0.291573 0.338152 -0.102951 -0.069769 -0.268326 0.106128 -0.455588 -0.421509 0.040516 0.036558 0.216195 -0.259617 0.021494 0.455938 0.014677 -0.381222 -0.088173 -0.258625 -0.119560 0.623022 0.316005 0.538168 -0.064360 0.605740 0.059371 -0.251454 0.393128 
mize -0.142528 -0.309092 0.220586 0.002433 0.642439 0.482945 0.519826 -0.148366 -0.114448 -0.368621 0.113649 -0.673304 -0.614467 0.033660 0.058306 0.370441 -0.360551 0.085887 0.690623 0.010276 -0.527262 -0.103395 -0.338071 -0.191662 0.955575 0.426770 0.800238 -0.042746 0.860374 0.068340 -0.386882 0.507391 
addStoredylock -0.074012 -0.172877 0.132776 -0.003222 0.331134 0.236154 0.250078 -0.066131 -0.059724 -0.202936 0.095444 -0.342325 -0.336006 0.051348 0.042829 0.155256 -0.192878 -0.001303 0.344275 0.017622 -0.277643 -0.066529 -0.216975 -0.077128 0.494605 0.246138 0.415882 -0.019089 0.453088 0.038797 -0.180722 0.289024 
wot -0.070575 -0.117416 0.095650 -0.024020 0.224433 0.157824 0.189326 -0.057307 -0.017808 -0.129991 0.064961 -0.229736 -0.220676 0.018599 0.016824 0.098064 -0.121019 0.036647 0.222638 0.018882 -0.197683 -0.043514 -0.126857 -0.073301 0.319241 0.189896 0.264294 -0.009990 0.314366 0.020438 -0.129507 0.200068 
blonk -0.098192 -0.194973 0.166010 -0.018236 0.368629 0.257783 0.330804 -0.087104 -0.043256 -0.240432 0.112354 -0.422824 -0.391095 0.019332 0.041169 0.177161 -0.240268 0.049862 0.408763 -0.006157 -0.366133 -0.059154 -0.206061 -0.131549 0.572982 0.284886 0.492793 -0.035305 0.546283 0.040190 -0.237866 0.339092 
allocatoBlock -0.109601 -0.178908 0.154484 -0.018674 0.359513 0.259289 0.281951 -0.069034 -0.047968 -0.218968 0.102546 -0.391699 -0.361383 0.040455 0.046416 0.179031 -0.221890 0.020707 0.381069 0.020130 -0.321117 -0.063937 -0.227742 -0.125971 0.550435 0.282735 0.459990 -0.055735 0.517626 0.039088 -0.223798 0.315437 
IjFO -0.145414 -0.293929 0.218700 -0.003708 0.566365 0.411227 0.463519 -0.115761 -0.100898 -0.343078 0.127141 -0.601091 -0.556993 0.037819 0.074396 0.308836 -0.338013 0.080994 0.603066 0.008137 -0.503232 -0.103235 -0.313706 -0.179390 0.841208 0.411008 0.719804 -0.048002 0.798989 0.063456 -0.345058 0.469423 
cSNamesystem -0.125548 -0.196493 0.146240 -0.025239 0.382144 0.229741 0.313587 -0.095166 -0.057644 -0.223487 0.106594 -0.420545 -0.377867 0.023680 0.062168 0.187345 -0.233487 0.031267 0.422821 -0.022972 -0.376200 -0.074534 -0.246556 -0.140189 0.603582 0.295452 0.499382 -0.032664 0.547541 0.066981 -0.232611 0.344477 
Receized -0.041784 -0.119941 0.089532 -0.034861 0.289377 0.193994 0.190766 -0.058212 -0.041632 -0.157666 0.075379 -0.284908 -0.261240 0.051205 0.002505 0.131662 -0.154558 -0.037212 0.288245 0.022028 -0.213892 -0.057324 -0.178885 -0.051462 0.398616 0.194484 0.334136 -0.032026 0.375759 0.045351 -0.154257 0.254038 
wtile -0.044653 -0.069322 0.051943 -0.034495 0.122752 0.080000 0.075972 -0.052533 -0.010259 -0.065679 0.032354 -0.117396 -0.100121 0.020407 -0.005748 0.047454 -0.063472 -0.010781 0.130212 0.012149 -0.084784 -0.024167 -0.077270 -0.016998 0.170981 0.094525 0.152601 0.001233 0.164056 0.019710 -0.049174 0.110228 
NameSystei -0.168295 -0.316934 0.225412 -0.008610 0.614993 0.455580 0.504118 -0.139728 -0.092660 -0.376704 0.110578 -0.659592 -0.596181 0.027809 0.062560 0.361728 -0.342868 0.091283 0.655410 -0.013127 -0.534222 -0.107359 -0.319905 -0.210397 0.925066 0.438291 0.774670 -0.025266 0.822862 0.086366 -0.370064 0.505327 
dect -0.114547 -0.252662 0.190826 -0.022250 0.508052 0.362368 0.405133 -0.100902 -0.074500 -0.301621 0.111632 -0.538859 -0.487953 0.052030 0.040101 0.258316 -0.283773 0.043134 0.508724 0.029466 -0.424365 -0.104058 -0.279898 -0.144503 0.722082 0.367331 0.624646 -0.048841 0.684641 0.061985 -0.283867 0.424598 
coot -0.137754 -0.274548 0.200258 -0.015639 0.556043 0.390117 0.452535 -0.117258 -0.082195 -0.335372 0.113488 -0.593151 -0.533491 0.026456 0.056304 0.281432 -0.315307 0.083366 0.572331 0.026859 -0.484733 -0.106527 -0.298870 -0.175352 0.803296 0.410193 0.689959 -0.048244 0.760584 0.060490 -0.323125 0.461468 
Reaeived -0.023331 -0.100443 0.057553 -0.029205 0.241349 0.165549 0.154626 -0.051725 -0.047251 -0.136648 0.060320 -0.221424 -0.212656 0.057791 -0.007699 0.095611 -0.121037 -0.051020 0.237578 0.021945 -0.164298 -0.038699 -0.149976 -0.020569 0.314385 0.141738 0.277556 -0.026082 0.306189 0.034202 -0.121770 0.218054 
iest -0.102066 -0.202321 0.151083 -0.021511 0.413966 0.289109 0.320414 -0.081385 -0.050743 -0.230560 0.106648 -0.429151 -0.400062 0.030116 0.025233 0.205333 -0.235964 0.027704 0.424206 0.016368 -0.343636 -0.084433 -0.234682 -0.112229 0.596092 0.294737 0.502555 -0.024883 0.547716 0.055852 -0.228990 0.344125 
addStoredBloci -0.050581 -0.175897 0.119255 0.001961 0.375339 0.253880 0.264534 -0.086112 -0.092056 -0.207327 0.103970 -0.342009 -0.341144 0.055039 0.029932 0.171862 -0.208288 -0.009290 0.369303 0.025665 -0.286197 -0.071134 -0.230212 -0.065643 0.515078 0.245899 0.438543 -0.032038 0.478361 0.054031 -0.193264 0.296963 
Receyving -0.082553 -0.199852 0.153504 -0.026653 0.410144 0.276333 0.327069 -0.087043 -0.046073 -0.261102 0.110348 -0.437217 -0.385851 0.034819 0.033105 0.194073 -0.244266 0.012230 0.402253 0.005194 -0.360090 -0.068468 -0.228372 -0.108674 0.584289 0.303139 0.500308 -0.053940 0.547482 0.061862 -0.229870 0.374300 
invhlidSet -0.082715 -0.152049 0.126166 -0.040140 0.324616 0.214750 0.210394 -0.073721 -0.042427 -0.174156 0.070016 -0.349338 -0.321267 0.040843 0.009963 0.161310 -0.175878 -0.014910 0.344154 -0.000883 -0.246477 -0.075368 -0.196165 -0.083583 0.450746 0.214375 0.372931 -0.023786 0.415865 0.044066 -0.192028 0.280639 
filz -0.098936 -0.185198 0.148419 -0.020957 0.379959 0.256161 0.293932 -0.089973 -0.050670 -0.219051 0.108709 -0.405425 -0.364822 0.036890 0.034529 0.194760 -0.230368 0.024553 0.403823 -0.004794 -0.334647 -0.079166 -0.232931 -0.102829 0.562283 0.276624 0.476378 -0.042571 0.522627 0.051143 -0.201938 0.327270 
INFh -0.135315 -0.299118 0.211298 0.002213 0.586544 0.421902 0.468877 -0.129444 -0.112812 -0.341991 0.128922 -0.624242 -0.575385 0.025598 0.081718 0.338250 -0.346983 0.078662 0.630794 -0.005780 -0.518740 -0.098335 -0.324593 -0.195402 0.876787 0.422009 0.738816 -0.066572 0.802535 0.074862 -0.354059 0.484443 
yNFO -0.142996 -0.284343 0.220159 -0.003484 0.541700 0.383321 0.457636 -0.108806 -0.091300 -0.338249 0.124585 -0.583514 -0.528205 0.029034 0.072590 0.305494 -0.328600 0.074138 0.574569 -0.001203 -0.483292 -0.099083 -0.297004 -0.170217 0.814035 0.394556 0.677468 -0.044494 0.754828 0.069465 -0.332096 0.460765 
addStoredBlocb -0.064512 -0.175655 0.127250 0.003800 0.372638 0.246396 0.273500 -0.071590 -0.092292 -0.197874 0.116225 -0.346008 -0.346061 0.051510 0.046518 0.176968 -0.220860 -0.004036 0.373322 0.027006 -0.296487 -0.080443 -0.236701 -0.077626 0.532701 0.253296 0.435225 -0.036378 0.483681 0.060290 -0.198335 0.291241 
tk -0.038485 -0.064006 0.069142 -0.017562 0.115652 0.104547 0.099552 -0.017814 -0.000311 -0.067014 0.026654 -0.145960 -0.142676 0.039966 0.009357 0.048463 -0.052747 0.001406 0.130231 0.011390 -0.105331 -0.021978 -0.092899 -0.046145 0.186909 0.101146 0.165053 0.013207 0.182955 -0.004522 -0.075568 0.110209 
dist -0.102652 -0.221471 0.170644 -0.020782 0.448677 0.316835 0.340615 -0.092949 -0.056648 -0.257934 0.096676 -0.465448 -0.426594 0.040481 0.023820 0.225061 -0.241833 0.027597 0.453339 0.012374 -0.359395 -0.096899 -0.263971 -0.114852 0.640739 0.305674 0.543165 -0.018728 0.588507 0.053356 -0.246402 0.372607 
xs 0.001575 -0.009200 -0.001791 -0.020450 -0.003898 0.027874 -0.003959 -0.002749 0.007773 0.010423 -0.016814 0.012489 -0.008125 0.017733 0.002902 -0.014139 0.006664 -0.012149 -0.000373 -0.001265 -0.005187 -0.003019 -0.016544 -0.002912 0.009275 0.010186 -0.006289 0.005836 0.016509 -0.008613 -0.007514 -0.005520 
whiue -0.084186 -0.158161 0.133735 -0.041237 0.299492 0.198705 0.230619 -0.083620 -0.043946 -0.169553 0.083467 -0.316537 -0.270965 0.032073 0.019316 0.150232 -0.182526 -0.003223 0.318496 0.010471 -0.250435 -0.052709 -0.183803 -0.078813 0.438626 0.220194 0.375225 -0.039636 0.414882 0.050793 -0.169038 0.270938 
daea -0.078397 -0.203719 0.143263 -0.021534 0.422018 0.280472 0.317432 -0.090188 -0.071085 -0.247733 0.107531 -0.423105 -0.379230 0.043966 0.038590 0.198426 -0.246996 0.012816 0.412616 0.017615 -0.353245 -0.080608 -0.228745 -0.096076 0.574310 0.294861 0.502090 -0.069417 0.554873 0.057888 -0.216168 0.358017 
scze -0.078022 -0.137527 0.108707 -0.020317 0.259087 0.177584 0.228445 -0.056729 -0.031319 -0.158474 0.092259 -0.294300 -0.254448 0.011386 0.038073 0.123762 -0.186321 0.030529 0.288688 0.007097 -0.272943 -0.056209 -0.153130 -0.090561 0.414402 0.221880 0.357524 -0.048067 0.398768 0.045388 -0.149928 0.229353 
srf -0.012951 -0.015656 0.009042 -0.005382 0.035227 0.051943 0.025325 0.002847 0.005179 -0.008040 0.021823 -0.030662 -0.051865 0.023582 -0.005192 0.012230 -0.009999 0.000015 0.038536 0.003740 -0.031454 -0.014894 -0.044527 -0.019706 0.061548 0.034720 0.043606 0.000879 0.067184 -0.003662 -0.035221 0.034587 
blcckMap -0.117356 -0.205220 0.173487 -0.024476 0.404761 0.276929 0.336985 -0.072500 -0.022666 -0.261394 0.120305 -0.461321 -0.401730 0.025218 0.033460 0.204889 -0.257701 0.060658 0.426275 0.008178 -0.379593 -0.090967 -0.212283 -0.138917 0.614439 0.311590 0.520308 -0.055360 0.579266 0.047003 -0.242409 0.368798 
ix -0.033000 -0.092979 0.074578 -0.019530 0.203682 0.152602 0.138351 -0.047834 -0.018494 -0.103705 0.040185 -0.202219 -0.182966 0.032513 0.008178 0.094983 -0.109451 -0.005319 0.197746 0.012440 -0.156387 -0.035117 -0.115441 -0.046515 0.282244 0.144292 0.242419 -0.013929 0.254501 0.024225 -0.099803 0.158968 
FSNawesystem -0.114985 -0.202876 0.141246 -0.005516 0.397819 0.247555 0.348012 -0.112061 -0.066997 -0.229998 0.133432 -0.422828 -0.390436 0.011892 0.055411 0.187843 -0.253317 0.061111 0.436820 -0.019436 -0.386720 -0.063414 -0.221754 -0.140173 0.629549 0.304333 0.522666 -0.031890 0.565030 0.065661 -0.239091 0.339170 
fire -0.072512 -0.146444 0.127823 -0.022149 0.326655 0.234898 0.245689 -0.065655 -0.033236 -0.186164 0.100840 -0.337836 -0.300364 0.038463 0.008722 0.161826 -0.193658 0.016510 0.327543 0.009307 -0.273173 -0.066450 -0.189008 -0.088140 0.461329 0.238455 0.404474 -0.031615 0.440890 0.052031 -0.177913 0.277795 
filq -0.093966 -0.172410 0.144679 -0.019879 0.373000 0.251452 0.285245 -0.084507 -0.041330 -0.208866 0.112928 -0.386042 -0.354570 0.045266 0.022966 0.180963 -0.214899 0.018478 0.383297 -0.001102 -0.300400 -0.068239 -0.222078 -0.090483 0.540712 0.261918 0.455950 -0.012051 0.495562 0.048065 -0.191462 0.316885 
FSDalaset -0.127767 -0.207686 0.143257 -0.024024 0.414909 0.261756 0.328149 -0.095246 -0.067794 -0.248103 0.123502 -0.440337 -0.407303 0.011998 0.042773 0.203394 -0.264603 0.054133 0.448034 -0.008592 -0.392563 -0.090532 -0.224187 -0.139824 0.607434 0.317171 0.510335 -0.059130 0.580454 0.068258 -0.243665 0.354509 
terminzting -0.081030 -0.150962 0.128938 -0.030840 0.295828 0.190758 0.215308 -0.065596 -0.029734 -0.170029 0.082287 -0.328561 -0.283949 0.020013 0.034482 0.145503 -0.172677 0.006778 0.316871 -0.013185 -0.266826 -0.060037 -0.192740 -0.096372 0.443423 0.228525 0.365134 -0.029857 0.410206 0.042856 -0.170057 0.271212 
deceiving -0.103842 -0.255673 0.201900 -0.026706 0.519514 0.367374 0.393457 -0.106949 -0.074857 -0.315977 0.110539 -0.554075 -0.490187 0.048363 0.041550 0.267610 -0.293515 0.017494 0.526621 0.011940 -0.429487 -0.104666 -0.294763 -0.134990 0.740909 0.357087 0.628100 -0.056885 0.689578 0.065077 -0.298645 0.453123 
INuO -0.156421 -0.323390 0.239442 0.004471 0.632104 0.480694 0.521530 -0.134625 -0.115570 -0.377220 0.116401 -0.673622 -0.615107 0.043682 0.082461 0.371986 -0.349410 0.087266 0.664177 0.009179 -0.528288 -0.093518 -0.340230 -0.209349 0.942002 0.450456 0.783688 -0.049929 0.855523 0.064284 -0.386752 0.517743 
Rpceived -0.009300 -0.070364 0.059833 -0.023093 0.197384 0.136811 0.111107 -0.042880 -0.022836 -0.114789 0.043363 -0.188170 -0.156183 0.046116 -0.013890 0.072369 -0.088764 -0.049182 0.193640 0.018004 -0.121204 -0.033973 -0.135985 -0.013266 0.266127 0.112414 0.241056 0.000534 0.243927 0.026192 -0.090107 0.174823 
krom -0.093939 -0.178114 0.151590 -0.026675 0.354635 0.227785 0.278155 -0.092324 -0.051734 -0.212131 0.103901 -0.364030 -0.337425 0.035674 0.047334 0.157774 -0.212941 0.019317 0.362166 0.006274 -0.344275 -0.064864 -0.247394 -0.115266 0.524752 0.280491 0.467619 -0.041609 0.514953 0.053373 -0.208728 0.325668 
Deletinz -0.082915 -0.168884 0.125712 -0.021967 0.312412 0.218893 0.263807 -0.077526 -0.054188 -0.189228 0.103617 -0.346074 -0.335656 0.032555 0.036509 0.163402 -0.194855 0.014434 0.350166 -0.006099 -0.307597 -0.065275 -0.189106 -0.100304 0.479524 0.237829 0.399352 -0.049793 0.452055 0.044178 -0.196138 0.292742 
serwing -0.002951 -0.037180 0.015236 -0.006210 0.042954 0.035937 0.056924 -0.014127 -0.000970 -0.025440 0.021922 -0.043720 -0.044058 0.001852 -0.004122 0.008895 -0.025360 0.001632 0.045388 0.008298 -0.040052 0.003055 -0.018613 -0.012012 0.082739 0.041879 0.051251 -0.007307 0.074023 -0.000555 -0.032029 0.051327 
bdded -0.078027 -0.191600 0.160174 -0.038746 0.406147 0.276489 0.306223 -0.090153 -0.057235 -0.233935 0.098484 -0.416362 -0.391076 0.046402 0.007856 0.204040 -0.240842 0.009399 0.427553 0.007675 -0.340576 -0.086871 -0.236188 -0.092704 0.579395 0.271374 0.505545 -0.023766 0.565948 0.054977 -0.234656 0.346301 
excepzion 0.009495 -0.054839 0.028671 -0.014357 0.106982 0.085268 0.067459 -0.019659 -0.024192 -0.060233 0.013640 -0.091622 -0.099650 0.038445 0.002537 0.039547 -0.047246 -0.040704 0.102006 0.018484 -0.065238 -0.015001 -0.078993 -0.007017 0.166761 0.066355 0.116107 -0.008584 0.142016 0.006168 -0.068112 0.097353 
iq -0.083921 -0.174444 0.143067 -0.010877 0.390788 0.266536 0.300237 -0.080644 -0.054355 -0.209140 0.112455 -0.392024 -0.362456 0.038575 0.026004 0.190954 -0.219068 0.021862 0.392756 0.014939 -0.302645 -0.063506 -0.214958 -0.091321 0.546321 0.263135 0.462683 -0.012126 0.497046 0.048450 -0.201786 0.313702 
bpockMap -0.104253 -0.194853 0.176013 -0.015052 0.399334 0.275773 0.328990 -0.069390 -0.026703 -0.256292 0.116338 -0.457407 -0.396345 0.022971 0.034252 0.198083 -0.247714 0.049263 0.426499 0.003536 -0.361420 -0.079087 -0.218104 -0.138384 0.622682 0.300920 0.515157 -0.030131 0.559499 0.044794 -0.241576 0.358229 
teeminating -0.116439 -0.218077 0.170161 -0.038214 0.417365 0.273627 0.317165 -0.082540 -0.047065 -0.250209 0.099647 -0.469200 -0.413054 0.035218 0.045413 0.211984 -0.248570 0.015732 0.444381 -0.014610 -0.378522 -0.087312 -0.251647 -0.133902 0.623767 0.306449 0.517539 -0.051095 0.576078 0.056889 -0.249961 0.382577 
mut -0.151468 -0.319270 0.224695 0.011032 0.648172 0.488232 0.534186 -0.141020 -0.124502 -0.370974 0.105064 -0.685523 -0.629018 0.052837 0.068571 0.366144 -0.342272 0.094518 0.683141 0.019804 -0.520961 -0.100861 -0.355427 -0.207863 0.957370 0.435160 0.803405 -0.039512 0.869224 0.055257 -0.392991 0.512746 
delkte -0.103565 -0.219913 0.168521 -0.027344 0.424791 0.298128 0.346429 -0.094283 -0.059760 -0.257201 0.112862 -0.448716 -0.419177 0.038557 0.031910 0.203906 -0.248475 0.026802 0.433410 0.020076 -0.369965 -0.072990 -0.234099 -0.119276 0.608651 0.315722 0.537885 -0.032019 0.582131 0.057058 -0.238298 0.368391 
far -0.047471 -0.102839 0.085401 -0.008280 0.235301 0.182270 0.181964 -0.036735 -0.031044 -0.127126 0.073576 -0.239764 -0.225021 0.048295 0.021959 0.111806 -0.125282 0.015167 0.225556 0.011822 -0.193007 -0.052595 -0.149950 -0.068553 0.324890 0.173905 0.270549 -0.040363 0.323210 0.019779 -0.131564 0.203845 
uwer -0.100387 -0.220107 0.172964 -0.008393 0.429141 0.316885 0.371623 -0.092867 -0.067823 -0.256196 0.131614 -0.455344 -0.424882 0.031557 0.056017 0.216076 -0.256555 0.060894 0.436333 0.023640 -0.383828 -0.066109 -0.234340 -0.142493 0.613651 0.330951 0.530866 -0.064146 0.596632 0.047440 -0.244412 0.375597 
DataBloskScanner -0.086939 -0.140704 0.109103 -0.037635 0.288097 0.199729 0.229490 -0.070584 -0.039806 -0.184142 0.096494 -0.300402 -0.271778 0.023857 0.028042 0.129518 -0.176037 0.020897 0.296453 -0.000828 -0.273479 -0.054477 -0.171818 -0.084474 0.403534 0.236642 0.356780 -0.046352 0.415315 0.042160 -0.137997 0.261006 
on -0.057595 -0.139642 0.103181 -0.014829 0.274257 0.185454 0.229010 -0.077649 -0.043283 -0.163753 0.081662 -0.281405 -0.264050 0.027322 0.025665 0.119315 -0.169351 0.022621 0.279766 0.014222 -0.260546 -0.043174 -0.143908 -0.084387 0.390747 0.209894 0.346594 -0.045977 0.379657 0.038708 -0.161154 0.242032 
Rebeived -0.040313 -0.122767 0.091143 -0.031711 0.289175 0.200573 0.195578 -0.060706 -0.049622 -0.165452 0.079833 -0.284420 -0.265396 0.054162 0.000938 0.125813 -0.157059 -0.038483 0.299383 0.015315 -0.221229 -0.053100 -0.181361 -0.049121 0.399039 0.186876 0.345995 -0.023049 0.383734 0.045904 -0.159162 0.261907 
jllocateBlock -0.116672 -0.199002 0.161277 -0.027026 0.378036 0.267503 0.293037 -0.075725 -0.049468 -0.239661 0.102924 -0.409267 -0.379167 0.044574 0.037771 0.175090 -0.229117 0.029797 0.388004 0.029628 -0.340585 -0.074572 -0.217636 -0.123122 0.540942 0.295325 0.480833 -0.065373 0.548089 0.034124 -0.231446 0.333399 
Deletinl -0.076204 -0.163402 0.096055 -0.023836 0.288232 0.184990 0.228729 -0.089974 -0.064595 -0.175697 0.091393 -0.310001 -0.302407 0.034906 0.026607 0.133185 -0.173156 0.001572 0.319173 0.004057 -0.271870 -0.052305 -0.168724 -0.079836 0.417333 0.209823 0.375104 -0.054232 0.401431 0.042538 -0.154221 0.274801 
foq -0.089909 -0.168116 0.141222 -0.009708 0.365371 0.249120 0.298976 -0.073360 -0.041535 -0.208092 0.120628 -0.373879 -0.353318 0.035386 0.034111 0.166020 -0.217881 0.038424 0.370470 0.002869 -0.315953 -0.059608 -0.210002 -0.105481 0.538082 0.275784 0.449011 -0.010154 0.500735 0.045250 -0.204426 0.307392 
INFb -0.133355 -0.293758 0.218110 0.003781 0.603264 0.445037 0.487196 -0.120046 -0.114264 -0.346938 0.132639 -0.636529 -0.588805 0.033364 0.075534 0.358779 -0.351677 0.079077 0.649297 -0.006792 -0.516838 -0.108343 -0.335002 -0.195130 0.911239 0.417116 0.748680 -0.044140 0.816876 0.079261 -0.368680 0.485630 
invalidSeu -0.008424 -0.054271 0.020847 -0.017063 0.146201 0.098461 0.057502 -0.045224 -0.059001 -0.046230 0.008201 -0.114718 -0.118726 0.063675 -0.014451 0.057910 -0.045867 -0.074880 0.144636 0.022433 -0.024852 -0.015458 -0.102010 0.002309 0.180591 0.026575 0.130280 -0.018581 0.135445 0.008215 -0.089143 0.105496 
eurrent -0.107205 -0.225147 0.167898 -0.011037 0.434126 0.310784 0.384338 -0.082248 -0.064099 -0.270611 0.139442 -0.471734 -0.433451 0.023948 0.051783 0.226990 -0.276006 0.064193 0.446238 0.018036 -0.414632 -0.070981 -0.225245 -0.165010 0.639910 0.353254 0.555984 -0.063330 0.608434 0.077500 -0.254313 0.382331 
blockMaw -0.139393 -0.251913 0.203834 -0.021662 0.496145 0.350320 0.431217 -0.100205 -0.037002 -0.328811 0.116455 -0.576253 -0.498703 -0.001937 0.058909 0.248324 -0.313160 0.119119 0.538120 -0.010834 -0.488502 -0.095812 -0.244440 -0.182072 0.758256 0.392668 0.642631 -0.041069 0.728012 0.040492 -0.302200 0.440438 
hest -0.082468 -0.153884 0.104173 -0.028740 0.289258 0.197171 0.238380 -0.062201 -0.040148 -0.154636 0.083286 -0.302099 -0.291836 0.025013 0.023109 0.132238 -0.172725 0.025893 0.303045 0.013854 -0.268998 -0.060086 -0.159947 -0.096233 0.413300 0.223757 0.356243 -0.040272 0.407502 0.041354 -0.172711 0.249395 
dfj -0.090209 -0.174665 0.134092 -0.022845 0.339059 0.234692 0.272427 -0.079979 -0.044858 -0.200863 0.092177 -0.358976 -0.339265 0.045865 0.017632 0.160924 -0.200172 0.032660 0.352416 0.011082 -0.296834 -0.070764 -0.190820 -0.091510 0.484918 0.242155 0.437794 -0.026456 0.477975 0.036008 -0.185331 0.288990 
bwockMap -0.098136 -0.162644 0.141289 -0.021133 0.307032 0.210621 0.265697 -0.059660 -0.014018 -0.198351 0.104460 -0.355676 -0.315208 0.021649 0.026991 0.148913 -0.196253 0.049153 0.330737 0.009220 -0.286876 -0.064258 -0.157048 -0.113579 0.486926 0.252207 0.388598 -0.032322 0.446227 0.032017 -0.191638 0.290322 
addStoredclock -0.062240 -0.151021 0.115046 0.001785 0.291427 0.204610 0.207951 -0.051879 -0.058791 -0.174881 0.084272 -0.294717 -0.290528 0.051914 0.038622 0.133961 -0.168144 -0.009304 0.301376 0.027568 -0.234177 -0.064833 -0.194229 -0.065528 0.431618 0.216623 0.359216 -0.022338 0.395373 0.035038 -0.157372 0.249630 
Delqting -0.088375 -0.167485 0.139145 -0.021022 0.333078 0.220691 0.278732 -0.081510 -0.049628 -0.190475 0.113192 -0.361687 -0.347643 0.029465 0.033747 0.166797 -0.195971 0.027198 0.353515 -0.007677 -0.302382 -0.055223 -0.189174 -0.116924 0.497408 0.251227 0.405477 -0.029236 0.457049 0.044660 -0.203513 0.297590 
blofk -0.118470 -0.212043 0.182355 -0.018276 0.424533 0.296990 0.357968 -0.085547 -0.040897 -0.265650 0.125665 -0.474800 -0.448215 0.023419 0.036555 0.212044 -0.265616 0.057330 0.464391 -0.007123 -0.401350 -0.077384 -0.242846 -0.143661 0.648489 0.321962 0.554587 -0.021433 0.614183 0.044837 -0.265795 0.376807 
tw -0.024580 -0.035625 0.032542 -0.024144 0.066633 0.060338 0.059051 -0.016658 0.008869 -0.033891 0.006967 -0.076627 -0.076638 0.019767 -0.000155 0.022752 -0.021561 0.022958 0.069962 0.011112 -0.058494 -0.019815 -0.037389 -0.029532 0.091799 0.072263 0.068271 0.014810 0.106536 -0.007177 -0.039921 0.062931 
updpted -0.051803 -0.133804 0.130311 -0.016494 0.319560 0.221918 0.228100 -0.062047 -0.040679 -0.168014 0.092855 -0.324454 -0.303087 0.045598 0.010163 0.156053 -0.176107 -0.007715 0.336387 0.013637 -0.240863 -0.053041 -0.197335 -0.085375 0.466137 0.206548 0.394771 -0.002785 0.411649 0.042669 -0.172064 0.260415 
updxted -0.025401 -0.099649 0.079608 -0.012632 0.226168 0.154732 0.156446 -0.050293 -0.032540 -0.111727 0.064310 -0.212337 -0.208018 0.031851 0.009224 0.090949 -0.123590 -0.011234 0.231837 0.011594 -0.164664 -0.024883 -0.135517 -0.049281 0.324999 0.143075 0.279539 0.003340 0.285229 0.024660 -0.107303 0.173623 
invalidfet -0.048970 -0.097303 0.076726 -0.029799 0.225861 0.148837 0.113941 -0.051818 -0.028087 -0.106870 0.041405 -0.231365 -0.228974 0.042636 -0.015959 0.108645 -0.107716 -0.043080 0.238749 -0.002218 -0.126815 -0.050177 -0.144188 -0.036859 0.310119 0.114754 0.246601 0.000366 0.258731 0.022305 -0.135600 0.182922 
iata -0.078760 -0.158678 0.123105 -0.017364 0.358418 0.233576 0.251503 -0.062373 -0.044974 -0.193110 0.095600 -0.366367 -0.319768 0.040985 0.028135 0.173576 -0.199906 0.009766 0.359102 0.013623 -0.282300 -0.082864 -0.203613 -0.081628 0.495860 0.241297 0.409721 -0.043733 0.453637 0.044140 -0.179209 0.298454 
Receqving -0.084080 -0.196168 0.154170 -0.027075 0.427945 0.284130 0.342192 -0.085564 -0.052203 -0.268305 0.118906 -0.455657 -0.403745 0.039659 0.032149 0.200403 -0.246561 0.019093 0.417958 0.008170 -0.363996 -0.071792 -0.234080 -0.117532 0.600892 0.316146 0.508089 -0.047106 0.567630 0.062836 -0.237666 0.384850 
Rbceiving -0.073195 -0.173074 0.151628 -0.030184 0.390425 0.260182 0.282152 -0.083476 -0.043809 -0.240549 0.101404 -0.422389 -0.355932 0.033906 0.022986 0.185823 -0.223864 -0.001863 0.399964 -0.003437 -0.326621 -0.079212 -0.236338 -0.096247 0.552813 0.270400 0.468227 -0.045826 0.516916 0.054636 -0.215354 0.354970 
NameSysteh -0.185726 -0.337876 0.237514 0.001031 0.639506 0.482921 0.533291 -0.143732 -0.105747 -0.393904 0.101484 -0.698867 -0.633011 0.015266 0.087712 0.387889 -0.362279 0.118739 0.694829 -0.016625 -0.571343 -0.108690 -0.336809 -0.239445 0.980360 0.473121 0.814363 -0.032806 0.876728 0.082233 -0.398611 0.522640 
swc -0.035667 -0.057706 0.044137 -0.016650 0.100499 0.083826 0.100276 -0.023163 -0.001432 -0.061393 0.031125 -0.114915 -0.102978 0.020834 0.008996 0.036935 -0.063397 0.024068 0.107805 0.017072 -0.104324 -0.032953 -0.062643 -0.037241 0.166714 0.095275 0.130806 -0.020782 0.172768 0.001581 -0.062653 0.094698 
Serqed -0.013421 -0.026550 0.014231 -0.020560 0.082042 0.063876 0.067625 -0.018750 -0.015342 -0.032983 0.039665 -0.052425 -0.073542 0.031100 -0.013737 0.027289 -0.035172 -0.004405 0.075869 0.019339 -0.049331 -0.006909 -0.040610 -0.017143 0.098920 0.062851 0.082799 0.010668 0.116833 0.017883 -0.049778 0.065523 
uf -0.093708 -0.192550 0.155526 -0.007724 0.416689 0.286733 0.323140 -0.087775 -0.063328 -0.228959 0.131404 -0.427173 -0.409714 0.044776 0.036628 0.211253 -0.249734 0.033811 0.427013 0.006997 -0.357690 -0.068594 -0.240136 -0.123731 0.591668 0.301082 0.512563 -0.044802 0.555400 0.055021 -0.229819 0.344011 
INhO -0.144382 -0.285571 0.210731 -0.009607 0.538895 0.375427 0.438520 -0.122422 -0.090864 -0.319847 0.130397 -0.579210 -0.529216 0.027096 0.077379 0.295235 -0.317726 0.069505 0.567910 0.004094 -0.487141 -0.088780 -0.292806 -0.183710 0.796472 0.409775 0.676493 -0.066599 0.740490 0.067595 -0.319762 0.460744 
addeb -0.091757 -0.223729 0.171077 -0.033065 0.455657 0.305916 0.346001 -0.100729 -0.082619 -0.259310 0.112514 -0.455862 -0.431273 0.046581 0.032539 0.237573 -0.268132 0.008797 0.465762 0.011293 -0.378996 -0.096831 -0.273280 -0.103544 0.641310 0.306668 0.550406 -0.046095 0.610814 0.068902 -0.246525 0.382313 
pata -0.035644 -0.082649 0.072284 -0.010555 0.202340 0.133178 0.148693 -0.029253 -0.022642 -0.109853 0.053514 -0.222213 -0.182359 0.036063 0.022998 0.085042 -0.107433 -0.003463 0.208550 0.004847 -0.163246 -0.047865 -0.129530 -0.054359 0.302053 0.137154 0.241523 -0.019797 0.262795 0.020102 -0.102814 0.171949 
oeceiving -0.111597 -0.247759 0.193685 -0.029263 0.509216 0.359964 0.399916 -0.108841 -0.070696 -0.308132 0.115534 -0.554230 -0.486400 0.035583 0.046478 0.260134 -0.293330 0.031143 0.525870 0.016896 -0.434733 -0.091880 -0.282549 -0.149755 0.733485 0.365526 0.623501 -0.067074 0.689547 0.061990 -0.297472 0.448373 
bltck -0.108721 -0.180493 0.169311 -0.020803 0.357668 0.253407 0.309175 -0.064441 -0.032261 -0.218843 0.114049 -0.415748 -0.374656 0.033798 0.036294 0.179998 -0.225825 0.049004 0.395387 0.006743 -0.344901 -0.079256 -0.209886 -0.131329 0.555868 0.279261 0.472844 -0.032146 0.529572 0.037808 -0.223405 0.320673 
blozk -0.129596 -0.240537 0.205297 -0.014342 0.474369 0.344943 0.416025 -0.101152 -0.064400 -0.295774 0.127130 -0.536876 -0.495045 0.018172 0.062258 0.251006 -0.298665 0.073781 0.527842 -0.004874 -0.451807 -0.081238 -0.271124 -0.169257 0.737414 0.360515 0.617592 -0.038766 0.693266 0.046901 -0.304297 0.412756 
dft -0.070618 -0.149072 0.121364 -0.019143 0.311405 0.216588 0.230644 -0.058161 -0.029544 -0.174235 0.078319 -0.321878 -0.306240 0.046700 0.008495 0.148844 -0.164561 0.013687 0.307955 0.008127 -0.248135 -0.068321 -0.188227 -0.081695 0.441486 0.224815 0.375764 -0.002703 0.412133 0.036414 -0.167856 0.261651 
addStorekBlock -0.118081 -0.230233 0.190210 -0.008611 0.451498 0.319901 0.350021 -0.087195 -0.069919 -0.286909 0.127582 -0.472127 -0.443681 0.035352 0.051587 0.230954 -0.279029 0.034328 0.469467 0.016235 -0.396873 -0.087629 -0.266983 -0.127450 0.664589 0.352996 0.569029 -0.025850 0.623069 0.067291 -0.249247 0.383982 
Nameaystem -0.148217 -0.274834 0.188484 -0.007561 0.523992 0.351452 0.422839 -0.128077 -0.091211 -0.308639 0.124044 -0.554351 -0.511060 0.031840 0.074024 0.282574 -0.306938 0.047788 0.560245 -0.013665 -0.472616 -0.083259 -0.303589 -0.176692 0.803338 0.374848 0.669190 -0.052888 0.707065 0.077353 -0.314539 0.452002 
bjockMap -0.126297 -0.231678 0.186880 -0.022174 0.437905 0.303383 0.361613 -0.082071 -0.040534 -0.287089 0.119708 -0.496112 -0.441498 0.027719 0.037718 0.216683 -0.274730 0.063322 0.465625 0.013178 -0.404728 -0.094719 -0.224111 -0.144212 0.655484 0.331792 0.560441 -0.051897 0.627238 0.044177 -0.267377 0.395079 
NameSystev -0.181986 -0.334770 0.236446 0.002409 0.638725 0.492190 0.538592 -0.130785 -0.098952 -0.410583 0.103471 -0.694582 -0.619938 0.020360 0.083601 0.378004 -0.362522 0.116322 0.691761 -0.015348 -0.565199 -0.109531 -0.330361 -0.223372 0.974642 0.463357 0.815068 -0.016291 0.877180 0.080976 -0.387453 0.525256 
usep -0.094515 -0.204443 0.156955 -0.011476 0.405938 0.289209 0.335589 -0.080790 -0.065409 -0.238692 0.124244 -0.427356 -0.403665 0.042408 0.038199 0.205384 -0.251876 0.021433 0.427332 0.015415 -0.352673 -0.068046 -0.235247 -0.125869 0.603061 0.292295 0.515356 -0.047568 0.556488 0.062829 -0.235345 0.346801 
cata -0.071715 -0.133439 0.097071 -0.020806 0.294121 0.182677 0.222467 -0.049430 -0.037405 -0.162577 0.087104 -0.311592 -0.268954 0.037535 0.034771 0.134573 -0.173680 0.023111 0.295708 0.018685 -0.260892 -0.078091 -0.161805 -0.082700 0.408441 0.218316 0.341649 -0.061218 0.394436 0.038090 -0.147645 0.253723 
sioe -0.097776 -0.190867 0.144405 -0.025657 0.374079 0.252055 0.287703 -0.087419 -0.046300 -0.225700 0.105347 -0.382672 -0.343102 0.017094 0.022749 0.176414 -0.235580 0.020771 0.389634 0.010511 -0.335479 -0.071684 -0.217832 -0.093451 0.546633 0.275129 0.486099 -0.033340 0.519842 0.061401 -0.207584 0.321068 
whilr -0.092663 -0.174260 0.136970 -0.033174 0.314682 0.221464 0.253000 -0.088839 -0.041158 -0.188530 0.085947 -0.340314 -0.304022 0.031067 0.029749 0.155820 -0.174784 0.026144 0.320371 0.015424 -0.274413 -0.063920 -0.191724 -0.092844 0.436162 0.242633 0.385990 -0.057602 0.439120 0.033629 -0.169871 0.298240 
FSDateset -0.126851 -0.198771 0.156342 -0.029112 0.407771 0.268186 0.326720 -0.090781 -0.056822 -0.238178 0.125416 -0.442656 -0.406908 0.011752 0.040433 0.203701 -0.258743 0.054826 0.448554 -0.006019 -0.388282 -0.088728 -0.222707 -0.145494 0.606895 0.327351 0.508038 -0.034566 0.579252 0.070783 -0.242353 0.346292 
termikating -0.096252 -0.166093 0.137096 -0.032195 0.318080 0.200013 0.232611 -0.063673 -0.024014 -0.189728 0.088540 -0.343637 -0.298635 0.024944 0.027563 0.151744 -0.183881 0.013807 0.332319 -0.004707 -0.288844 -0.069198 -0.198705 -0.099000 0.467555 0.244125 0.396697 -0.030161 0.442437 0.044907 -0.177637 0.295271 
INFs -0.132968 -0.289783 0.204202 0.000618 0.577717 0.426127 0.464773 -0.122680 -0.098257 -0.346279 0.125697 -0.612673 -0.566378 0.023030 0.076374 0.322809 -0.341614 0.079696 0.619587 -0.013335 -0.509707 -0.104182 -0.322492 -0.185281 0.871054 0.411670 0.727333 -0.045150 0.792484 0.073614 -0.346259 0.474964 
NameSymtem -0.137315 -0.249763 0.176601 -0.010677 0.466403 0.297326 0.359796 -0.121985 -0.093718 -0.259905 0.118100 -0.496267 -0.472506 0.054189 0.077223 0.252388 -0.264027 0.011428 0.506087 -0.011430 -0.418695 -0.078652 -0.301288 -0.161748 0.722827 0.337295 0.590016 -0.053275 0.629236 0.072137 -0.292490 0.421898 
Verificatihn -0.007584 -0.045714 0.015017 -0.006893 0.091722 0.063020 0.025862 -0.013543 -0.019417 -0.040164 0.031562 -0.065665 -0.073982 0.047584 -0.014780 0.040256 -0.037644 -0.041959 0.092906 0.008032 -0.055398 -0.028043 -0.074309 0.003313 0.113771 0.047179 0.092047 -0.030895 0.111426 0.010495 -0.045854 0.089792 
Rsceived -0.007744 -0.052715 0.028894 -0.021101 0.131116 0.093901 0.068065 -0.025138 -0.017397 -0.076074 0.027350 -0.114845 -0.100336 0.041911 -0.021038 0.040482 -0.054950 -0.048271 0.129575 0.023696 -0.070599 -0.024411 -0.091384 0.004433 0.173513 0.072155 0.157318 -0.001386 0.170499 0.016167 -0.059882 0.120929 
IrFO -0.123327 -0.243091 0.192141 -0.003638 0.494688 0.351241 0.402175 -0.091600 -0.083326 -0.292295 0.141593 -0.518612 -0.476497 0.033684 0.069467 0.263155 -0.300883 0.062953 0.517439 0.005696 -0.449009 -0.091244 -0.289600 -0.168287 0.735299 0.373817 0.622150 -0.052658 0.692539 0.072063 -0.296576 0.419601 
hapoop -0.090429 -0.187068 0.148863 -0.030389 0.383060 0.254962 0.287746 -0.078430 -0.050839 -0.233238 0.096028 -0.395978 -0.359665 0.041839 0.023403 0.186372 -0.223565 0.004760 0.394001 0.014953 -0.317955 -0.077760 -0.229421 -0.102396 0.550480 0.268898 0.466185 -0.042311 0.515718 0.056367 -0.221675 0.340493 
bloclMap -0.135324 -0.249105 0.191515 -0.024185 0.494041 0.346919 0.407488 -0.102610 -0.058620 -0.313322 0.121973 -0.554843 -0.492545 0.029947 0.050412 0.258825 -0.300855 0.069819 0.524766 0.004638 -0.447617 -0.101668 -0.266247 -0.164526 0.738996 0.368568 0.620886 -0.068097 0.698442 0.053776 -0.298970 0.439092 
arded -0.023080 -0.077628 0.049582 -0.030429 0.174439 0.123431 0.117992 -0.046896 -0.033803 -0.093914 0.044849 -0.150905 -0.155555 0.036436 -0.010496 0.081744 -0.097058 -0.015694 0.175561 0.017574 -0.130001 -0.034976 -0.110213 -0.023751 0.223016 0.109611 0.210167 -0.022970 0.240340 0.029305 -0.084285 0.148775 
aduStoredBlock -0.101033 -0.210086 0.166708 -0.006471 0.426756 0.299550 0.320483 -0.080939 -0.077778 -0.258273 0.118498 -0.436431 -0.417970 0.039677 0.052994 0.209803 -0.253580 0.021352 0.446153 0.022465 -0.360536 -0.080692 -0.263014 -0.117116 0.617186 0.318300 0.523758 -0.033398 0.582016 0.054974 -0.232685 0.358166 
rNFO -0.123594 -0.221078 0.168686 -0.015649 0.442761 0.292882 0.369485 -0.095388 -0.080241 -0.273363 0.130321 -0.474231 -0.424919 0.027404 0.059573 0.235654 -0.268264 0.063808 0.465420 0.004159 -0.414800 -0.091293 -0.255813 -0.152412 0.640545 0.341479 0.553949 -0.064281 0.627253 0.071286 -0.258822 0.392473 
fjr -0.069108 -0.122176 0.099613 -0.015251 0.240300 0.190516 0.204447 -0.049126 -0.033267 -0.136701 0.074414 -0.259494 -0.250692 0.049271 0.019145 0.112691 -0.131329 0.033700 0.243385 0.018810 -0.213578 -0.054904 -0.146015 -0.079400 0.333822 0.181596 0.302302 -0.038672 0.356187 0.011696 -0.142954 0.211973 
djs -0.091762 -0.194617 0.130461 -0.024259 0.353723 0.248823 0.288563 -0.090808 -0.060408 -0.211027 0.084368 -0.360735 -0.348909 0.037617 0.028322 0.162064 -0.206526 0.035004 0.363510 0.018639 -0.315790 -0.075761 -0.200732 -0.093424 0.494626 0.248009 0.447967 -0.044110 0.498647 0.037156 -0.196644 0.301808 
vo -0.092251 -0.181561 0.131882 -0.022239 0.374147 0.257335 0.303800 -0.097682 -0.059874 -0.218791 0.110993 -0.359058 -0.340430 0.026105 0.032676 0.160041 -0.229053 0.043298 0.372355 0.025160 -0.339269 -0.054662 -0.201267 -0.106500 0.510840 0.272012 0.470793 -0.055382 0.515798 0.048816 -0.213200 0.311416 
prom -0.102472 -0.201889 0.165817 -0.019424 0.424911 0.275453 0.339481 -0.104641 -0.069012 -0.252458 0.111733 -0.443806 -0.395439 0.028698 0.048124 0.204785 -0.248715 0.032938 0.440793 0.003763 -0.390186 -0.075486 -0.275920 -0.139406 0.630089 0.311365 0.551333 -0.042528 0.589690 0.067265 -0.247765 0.374623 
INjO -0.152005 -0.285470 0.213386 -0.009050 0.529732 0.377961 0.444106 -0.120363 -0.086411 -0.327103 0.130240 -0.580286 -0.530086 0.032055 0.074005 0.287970 -0.314127 0.079509 0.563857 0.009154 -0.481696 -0.092343 -0.281647 -0.175308 0.786331 0.401208 0.679469 -0.056075 0.743304 0.057463 -0.312296 0.454235 
bloco -0.134218 -0.272210 0.207005 -0.011949 0.552256 0.390521 0.443964 -0.119829 -0.090868 -0.335752 0.123172 -0.578294 -0.527363 0.026570 0.059119 0.290571 -0.336545 0.079004 0.582555 0.012715 -0.497680 -0.110116 -0.308733 -0.167964 0.814149 0.398362 0.696349 -0.063037 0.778113 0.064288 -0.338772 0.459182 
bloik -0.123311 -0.240796 0.204436 -0.024150 0.483498 0.347311 0.392661 -0.107738 -0.062414 -0.297452 0.116947 -0.531657 -0.488667 0.032934 0.036026 0.253439 -0.286640 0.048926 0.523099 0.001431 -0.428291 -0.088886 -0.278745 -0.148572 0.719549 0.342829 0.618945 -0.032603 0.679473 0.050031 -0.299210 0.420118 
updaded -0.036211 -0.127514 0.104592 -0.022179 0.306777 0.203760 0.196648 -0.067345 -0.053941 -0.153540 0.075011 -0.294687 -0.280355 0.054706 0.006182 0.138784 -0.164718 -0.029565 0.318413 0.015656 -0.216032 -0.052604 -0.195005 -0.055996 0.426602 0.176371 0.367415 -0.024038 0.392459 0.031660 -0.155882 0.247909 
cf -0.074929 -0.136841 0.111015 -0.021219 0.304241 0.202058 0.229417 -0.060801 -0.029687 -0.168550 0.096414 -0.321782 -0.300573 0.039113 0.021097 0.144812 -0.185336 0.026099 0.310038 0.011378 -0.275214 -0.074065 -0.175406 -0.089335 0.429692 0.232812 0.376327 -0.039788 0.416873 0.042748 -0.161656 0.257046 
INnO -0.116931 -0.235153 0.184675 -0.013294 0.439088 0.298334 0.363863 -0.104315 -0.061244 -0.272969 0.127876 -0.483417 -0.437860 0.027360 0.062991 0.230316 -0.269355 0.046623 0.461664 -0.004633 -0.410893 -0.072813 -0.236074 -0.148684 0.659382 0.345500 0.558507 -0.053440 0.606071 0.062442 -0.257260 0.392986 
deletz -0.124484 -0.267154 0.197030 -0.021042 0.523095 0.377204 0.430672 -0.111464 -0.087817 -0.313144 0.119251 -0.555634 -0.517570 0.042789 0.058222 0.274158 -0.301522 0.047656 0.541768 0.013978 -0.456167 -0.098989 -0.294006 -0.153104 0.759904 0.383204 0.643896 -0.051384 0.720070 0.063553 -0.304191 0.444168 
dfy -0.064312 -0.162464 0.132675 -0.015578 0.325068 0.234840 0.246470 -0.068170 -0.028957 -0.187688 0.085264 -0.318565 -0.310228 0.046157 0.017439 0.157382 -0.187891 0.008304 0.311648 0.000624 -0.271665 -0.055998 -0.195079 -0.074901 0.467298 0.228135 0.406181 -0.008482 0.431180 0.041758 -0.182784 0.271536 
IpFO -0.126568 -0.264571 0.216217 -0.002846 0.546933 0.396290 0.442279 -0.103969 -0.084568 -0.324648 0.130920 -0.583145 -0.532802 0.038876 0.065337 0.303206 -0.320408 0.060509 0.579462 0.000151 -0.473281 -0.096307 -0.318287 -0.178583 0.829199 0.392880 0.689738 -0.031504 0.750032 0.071606 -0.331366 0.456811 
fwr -0.021621 -0.046642 0.043754 -0.010056 0.102377 0.104486 0.094607 -0.015321 0.000299 -0.054935 0.030931 -0.108347 -0.111022 0.031742 0.001354 0.044510 -0.040779 0.023696 0.095884 0.011673 -0.078262 -0.022199 -0.064360 -0.039601 0.146853 0.090567 0.107006 -0.003446 0.156451 -0.007285 -0.068475 0.098051 
WAeN -0.001796 -0.028993 -0.001990 -0.019203 0.054142 0.044758 0.040118 -0.027134 -0.012932 -0.041021 0.018173 -0.044788 -0.046421 0.021175 0.011038 0.009679 -0.037102 -0.007967 0.042691 0.006562 -0.059284 -0.005669 -0.040276 -0.010803 0.069764 0.067735 0.071763 -0.038347 0.096940 0.011083 -0.015102 0.048817 
hadrop -0.088555 -0.189568 0.143386 -0.031425 0.378570 0.260215 0.292525 -0.074980 -0.052816 -0.231912 0.097325 -0.391131 -0.358785 0.045242 0.023261 0.187290 -0.221270 0.012809 0.383725 0.018961 -0.320953 -0.081985 -0.221351 -0.101066 0.525949 0.269469 0.456706 -0.057322 0.517659 0.055290 -0.214089 0.342161 
Reweived -0.006221 -0.062642 0.026898 -0.025764 0.151050 0.113313 0.100625 -0.037876 -0.029805 -0.083685 0.036618 -0.132964 -0.135896 0.049510 -0.017986 0.050741 -0.062246 -0.044505 0.151456 0.024542 -0.086827 -0.019193 -0.090997 0.000487 0.196251 0.086243 0.167754 -0.003420 0.193850 0.015523 -0.076250 0.145362 
FSNamhsystem -0.149927 -0.247734 0.183605 -0.012267 0.486274 0.318974 0.404806 -0.121213 -0.084089 -0.285846 0.126940 -0.529140 -0.482970 0.015329 0.074473 0.261540 -0.305564 0.065742 0.545484 -0.030147 -0.469758 -0.083034 -0.289003 -0.188850 0.769153 0.367907 0.631874 -0.045871 0.693200 0.081139 -0.314880 0.415836 
frou -0.090781 -0.166874 0.138433 -0.019071 0.356998 0.249477 0.288704 -0.073441 -0.060451 -0.207933 0.109450 -0.365647 -0.327076 0.047862 0.030424 0.173854 -0.210849 0.023746 0.357922 0.014657 -0.310363 -0.064611 -0.225933 -0.110935 0.514888 0.267475 0.442107 -0.051394 0.499915 0.054119 -0.207600 0.312064 
jart -0.074315 -0.134440 0.098684 -0.016691 0.254908 0.186684 0.211199 -0.049405 -0.043089 -0.143871 0.077521 -0.265102 -0.260586 0.042401 0.024631 0.121484 -0.137330 0.033410 0.255255 0.027291 -0.226793 -0.063358 -0.144110 -0.080139 0.336736 0.189377 0.300905 -0.049598 0.359735 0.017740 -0.145027 0.224691 
addStoredBqock -0.084487 -0.173856 0.156936 -0.004863 0.370140 0.271174 0.283228 -0.059761 -0.057642 -0.222863 0.116984 -0.382793 -0.369150 0.052680 0.043137 0.180106 -0.223845 0.009294 0.380356 0.019690 -0.305180 -0.072107 -0.231281 -0.098872 0.552960 0.284783 0.453392 -0.011465 0.508134 0.050954 -0.213020 0.307712 
fer -0.061632 -0.132119 0.105018 -0.015962 0.282382 0.217169 0.229009 -0.052808 -0.037264 -0.157830 0.089726 -0.289831 -0.277951 0.044937 0.018217 0.134064 -0.158114 0.020231 0.273942 0.017796 -0.240509 -0.050753 -0.166225 -0.087547 0.391748 0.217424 0.343094 -0.039251 0.391848 0.033654 -0.162161 0.244489 
papt -0.042789 -0.097344 0.096717 -0.011306 0.226850 0.161220 0.179288 -0.033840 -0.019131 -0.131152 0.056544 -0.259903 -0.224745 0.040147 0.011595 0.109326 -0.116463 -0.006157 0.240501 0.006075 -0.173943 -0.049966 -0.153137 -0.066734 0.353588 0.149882 0.284901 0.002972 0.294118 0.026074 -0.125899 0.197280 
whilk -0.073423 -0.127409 0.101308 -0.032673 0.205067 0.139063 0.167185 -0.065998 -0.016580 -0.131454 0.055517 -0.232700 -0.211087 0.024145 0.007559 0.094274 -0.117888 0.005989 0.224960 0.008554 -0.177288 -0.034023 -0.124842 -0.056627 0.304069 0.157069 0.270292 -0.019579 0.293610 0.017898 -0.116096 0.204487 
pyrt -0.048728 -0.105509 0.108505 -0.000271 0.211373 0.171900 0.190161 -0.026927 -0.015103 -0.122516 0.064220 -0.241913 -0.219225 0.030853 0.025606 0.105928 -0.115749 0.016216 0.219663 0.006366 -0.184312 -0.039882 -0.142962 -0.077739 0.343164 0.157542 0.276290 0.005927 0.292762 0.019694 -0.134153 0.185403 
Receivyng -0.100792 -0.225702 0.178531 -0.028487 0.466037 0.322660 0.374077 -0.095833 -0.047298 -0.297159 0.119813 -0.503674 -0.443904 0.034250 0.042060 0.232063 -0.279850 0.026499 0.462826 0.000046 -0.416116 -0.079804 -0.260119 -0.131750 0.671887 0.347230 0.575113 -0.057233 0.628113 0.068463 -0.267294 0.421778 
fule -0.111233 -0.221289 0.169523 -0.019801 0.441686 0.299826 0.358021 -0.107645 -0.073520 -0.260258 0.130259 -0.464049 -0.424331 0.038967 0.042130 0.223631 -0.278259 0.038703 0.462859 0.004231 -0.394858 -0.070731 -0.252120 -0.135210 0.644461 0.328201 0.566918 -0.057861 0.612622 0.068934 -0.240889 0.376440 
FSNamesystgm -0.165813 -0.274955 0.211819 -0.005693 0.546235 0.375526 0.453771 -0.122036 -0.089535 -0.320424 0.122502 -0.596912 -0.549676 0.018260 0.083067 0.315545 -0.329287 0.083875 0.601657 -0.029542 -0.509643 -0.096727 -0.323660 -0.214623 0.862838 0.410410 0.690278 -0.041534 0.769982 0.079215 -0.365821 0.462023 
gf -0.049487 -0.088399 0.076622 -0.015728 0.182536 0.127068 0.127230 -0.036122 -0.016787 -0.089228 0.065048 -0.172550 -0.193695 0.037964 0.016444 0.090411 -0.101736 0.001228 0.175604 0.004034 -0.157692 -0.039055 -0.126152 -0.053940 0.249762 0.151468 0.205299 -0.017925 0.250306 0.021309 -0.103271 0.155904 
FoNamesystem -0.167650 -0.313490 0.222676 0.002393 0.630039 0.476507 0.526323 -0.143365 -0.110092 -0.378086 0.102897 -0.684219 -0.619980 0.021688 0.085327 0.370195 -0.364402 0.101164 0.692918 -0.015996 -0.555387 -0.094601 -0.346054 -0.232519 0.990868 0.451385 0.804788 -0.038283 0.877977 0.075860 -0.420852 0.512998 
nlock -0.114289 -0.219108 0.186912 -0.032175 0.403750 0.280289 0.333928 -0.097498 -0.041404 -0.264628 0.104006 -0.463512 -0.420242 0.034805 0.037902 0.195078 -0.247801 0.034978 0.423021 0.005743 -0.378324 -0.075421 -0.228175 -0.135391 0.599377 0.312310 0.529537 -0.051054 0.578373 0.042374 -0.249475 0.370522 
lo -0.108558 -0.206133 0.141591 -0.021309 0.414546 0.277924 0.333483 -0.115267 -0.071018 -0.234320 0.118797 -0.406944 -0.383726 0.026272 0.043430 0.188174 -0.246628 0.048193 0.416954 0.024873 -0.377165 -0.060772 -0.225298 -0.120215 0.565454 0.307642 0.521557 -0.070194 0.564625 0.051893 -0.218580 0.348375 
