1300 32
wmile -0.134838 -0.109144 0.104302 0.036022 0.322080 0.206775 0.326140 -0.060029 -0.118889 -0.305383 0.142405 -0.419666 -0.410573 -0.015294 0.008546 0.320726 -0.277592 0.108085 0.343333 -0.086536 -0.261239 -0.011642 -0.147649 -0.117187 0.637493 0.287182 0.424281 0.018528 0.482149 0.020646 -0.206009 0.285251 
ia -0.158277 -0.152797 0.139941 0.093192 0.455145 0.296969 0.454143 -0.075358 -0.110077 -0.414019 0.205922 -0.545280 -0.574943 -0.013604 -0.005541 0.461346 -0.414311 0.142089 0.470079 -0.100813 -0.401025 -0.020525 -0.238426 -0.157958 0.963617 0.418080 0.599888 0.029612 0.687071 0.017654 -0.311997 0.382619 
ij -0.119662 -0.127461 0.121321 0.070801 0.384116 0.249686 0.366866 -0.065601 -0.106813 -0.347989 0.175864 -0.475843 -0.490422 -0.015201 -0.006891 0.385434 -0.338636 0.116786 0.381230 -0.092049 -0.329148 -0.023582 -0.196650 -0.106895 0.776881 0.337551 0.504877 0.028529 0.571149 0.008085 -0.246572 0.328496 
terminhting -0.027758 -0.034617 0.022827 0.021114 0.085382 0.061972 0.067199 -0.014570 -0.048518 -0.062490 0.026706 -0.112278 -0.087159 -0.001297 -0.008841 0.074677 -0.071086 0.017626 0.091600 -0.017438 -0.046000 0.003265 -0.034640 -0.028638 0.142524 0.063648 0.108408 0.011588 0.124613 -0.009470 -0.048931 0.066216 
nNFO -0.102741 -0.117005 0.124814 0.032092 0.310958 0.170246 0.332740 -0.062544 -0.103726 -0.297024 0.120108 -0.419302 -0.403327 -0.029279 0.029291 0.313097 -0.284520 0.091898 0.292144 -0.096624 -0.260376 0.003016 -0.153764 -0.103990 0.633870 0.267845 0.414087 0.027843 0.487198 0.008530 -0.195148 0.255585 
bloca -0.157740 -0.134332 0.153586 0.077481 0.443100 0.263833 0.462328 -0.062168 -0.129359 -0.422508 0.200754 -0.537278 -0.556598 -0.005094 0.015165 0.434575 -0.390795 0.142026 0.449622 -0.108103 -0.401934 -0.025393 -0.211870 -0.156814 0.915042 0.396257 0.582921 0.042353 0.682457 0.023519 -0.289196 0.363919 
bdded -0.112486 -0.114301 0.114100 0.037315 0.316607 0.193115 0.327757 -0.074385 -0.116112 -0.313617 0.133645 -0.430770 -0.424519 -0.018492 0.021508 0.329130 -0.278575 0.108515 0.316323 -0.090513 -0.277259 -0.009685 -0.142910 -0.100394 0.630382 0.278275 0.418444 0.033212 0.493697 0.001872 -0.204919 0.268474 
PacketRespondew -0.128135 -0.094214 0.084111 0.050499 0.318869 0.218961 0.291306 -0.035662 -0.102766 -0.250707 0.129411 -0.383467 -0.372996 -0.017127 0.003076 0.305945 -0.258697 0.097203 0.315843 -0.085411 -0.257755 0.000149 -0.171360 -0.113612 0.604279 0.282048 0.416425 0.030270 0.471338 -0.013792 -0.207765 0.267059 
brc -0.079861 -0.078483 0.070667 0.067451 0.262362 0.177472 0.257561 -0.028014 -0.066607 -0.230710 0.114936 -0.293002 -0.316005 0.000057 0.003134 0.255142 -0.225452 0.075029 0.274016 -0.050938 -0.244455 -0.019215 -0.134922 -0.073327 0.531696 0.232540 0.341589 0.025102 0.392338 -0.008244 -0.168002 0.223457 
Receivyd -0.064900 -0.071234 0.072619 0.037654 0.208998 0.140344 0.228803 -0.032703 -0.069317 -0.215256 0.101030 -0.278325 -0.277733 -0.022005 0.002548 0.240216 -0.216386 0.068350 0.228507 -0.066308 -0.195805 -0.009311 -0.133410 -0.069221 0.482723 0.208116 0.300665 0.021413 0.354431 0.027070 -0.151026 0.174538 
tp -0.060756 -0.083839 0.045081 0.036291 0.217379 0.146991 0.196521 -0.026270 -0.058922 -0.156708 0.076899 -0.246777 -0.236462 -0.014457 -0.001957 0.185565 -0.165256 0.043898 0.210440 -0.047196 -0.193706 -0.008868 -0.095935 -0.044656 0.394495 0.165803 0.243267 0.020850 0.285847 -0.015807 -0.128487 0.171946 
blocb -0.153104 -0.129098 0.144827 0.075692 0.423818 0.246334 0.429944 -0.062309 -0.123840 -0.398065 0.199293 -0.506276 -0.529192 0.002208 0.007612 0.417103 -0.361400 0.140857 0.422377 -0.104444 -0.378798 -0.021559 -0.197226 -0.147414 0.856975 0.377032 0.552373 0.042862 0.641169 0.015857 -0.269867 0.347092 
Reveiving -0.062620 -0.061345 0.053848 0.024478 0.171457 0.119317 0.166604 -0.024997 -0.065254 -0.181818 0.085134 -0.231336 -0.234991 -0.021212 -0.000116 0.183038 -0.162006 0.062193 0.188075 -0.041548 -0.157391 -0.002925 -0.103100 -0.045263 0.364236 0.161493 0.242650 0.022485 0.289079 0.006473 -0.123548 0.137920 
zser -0.060779 -0.060913 0.060740 0.026231 0.186977 0.140464 0.187031 -0.012270 -0.059122 -0.158968 0.064787 -0.231012 -0.221144 -0.007350 0.019619 0.173667 -0.162392 0.055247 0.189275 -0.042890 -0.182959 -0.004056 -0.104917 -0.052017 0.357386 0.160113 0.255624 0.007674 0.285105 -0.013184 -0.114796 0.153001 
qxception -0.013402 -0.004058 -0.010725 -0.007065 0.023091 0.045618 -0.000395 0.006690 -0.021853 -0.006150 -0.011115 -0.034284 -0.016733 -0.012112 -0.018038 0.017773 -0.019039 -0.007003 0.028047 0.018125 -0.002525 -0.002030 -0.017846 0.000020 0.000246 0.011944 0.027837 0.002161 0.019059 -0.022372 -0.023997 0.001683 
fice -0.172811 -0.156897 0.160252 0.086968 0.463275 0.287549 0.499688 -0.083415 -0.151401 -0.469533 0.226482 -0.604415 -0.637830 -0.005087 0.023611 0.488485 -0.440380 0.154882 0.497616 -0.119514 -0.427152 -0.033382 -0.249493 -0.155981 1.020815 0.443426 0.639549 0.028429 0.743092 0.019786 -0.338334 0.412686 
haioop -0.116625 -0.113032 0.108872 0.077669 0.335007 0.199954 0.369862 -0.037299 -0.107513 -0.325314 0.154387 -0.433008 -0.416439 -0.014781 0.013999 0.340787 -0.313476 0.089454 0.353922 -0.092492 -0.303662 -0.024268 -0.180487 -0.103540 0.741423 0.307054 0.436728 0.026676 0.542661 0.020835 -0.219299 0.284296 
updatod -0.103760 -0.094583 0.089437 0.045224 0.286788 0.184313 0.292308 -0.052509 -0.087412 -0.264151 0.122729 -0.369026 -0.360980 -0.014700 0.014550 0.298569 -0.258223 0.088774 0.307122 -0.069169 -0.265703 -0.019696 -0.151966 -0.083758 0.602693 0.255677 0.366337 0.030675 0.436862 0.000048 -0.204021 0.241899 
FSNamesyslem -0.141327 -0.111157 0.109896 0.026207 0.349334 0.231244 0.332476 -0.050042 -0.100322 -0.285751 0.151853 -0.407688 -0.421221 -0.027293 -0.010965 0.351359 -0.298021 0.102154 0.355816 -0.095724 -0.290501 -0.010335 -0.191833 -0.141367 0.690377 0.321062 0.471789 0.019371 0.488891 0.025536 -0.244395 0.287396 
sizb -0.100040 -0.105276 0.115203 0.080266 0.321138 0.193165 0.329399 -0.043119 -0.102384 -0.313388 0.160193 -0.406876 -0.397587 -0.005272 -0.005282 0.325377 -0.290100 0.105861 0.316746 -0.090279 -0.286822 -0.011538 -0.169327 -0.090072 0.676109 0.304244 0.432986 0.023286 0.497591 0.009096 -0.194397 0.269084 
addrd -0.117074 -0.106881 0.102243 0.050917 0.321513 0.194946 0.340764 -0.066408 -0.109363 -0.331331 0.134087 -0.443560 -0.427149 -0.027227 0.038735 0.329125 -0.304287 0.105711 0.336916 -0.091240 -0.291424 -0.013563 -0.164633 -0.085433 0.666288 0.287022 0.426544 0.025377 0.524327 -0.002277 -0.212683 0.282855 
foom -0.191336 -0.145354 0.158683 0.054405 0.444700 0.286524 0.476139 -0.082532 -0.153456 -0.457998 0.218452 -0.586848 -0.606689 -0.003153 0.018731 0.461231 -0.418985 0.162040 0.490537 -0.130986 -0.419315 -0.021423 -0.241598 -0.174118 0.973668 0.427352 0.634957 0.023614 0.721137 0.031715 -0.328735 0.384942 
Recpived -0.059409 -0.063383 0.058745 0.036393 0.176362 0.111761 0.189749 -0.028192 -0.062745 -0.180672 0.085128 -0.237496 -0.232900 -0.021299 0.008420 0.205971 -0.169023 0.057532 0.192864 -0.053971 -0.165507 -0.001302 -0.102201 -0.057317 0.399501 0.179002 0.246670 0.023118 0.293589 0.012085 -0.129843 0.146897 
geceiving -0.075312 -0.072271 0.079333 0.042222 0.211282 0.123966 0.213318 -0.026551 -0.079105 -0.228042 0.112101 -0.280746 -0.268997 -0.017978 0.001533 0.221278 -0.192607 0.073216 0.224381 -0.056301 -0.175967 -0.003997 -0.110700 -0.060191 0.451045 0.188787 0.297434 0.030311 0.352679 0.007634 -0.127274 0.180578 
bzock -0.120228 -0.121909 0.121275 0.063215 0.347758 0.231748 0.360097 -0.050663 -0.112900 -0.332980 0.155844 -0.440909 -0.448755 -0.008946 0.012413 0.349975 -0.305092 0.108871 0.361805 -0.083349 -0.329508 -0.018463 -0.183451 -0.091841 0.722436 0.318476 0.477538 0.031286 0.531528 -0.009875 -0.235604 0.299766 
ig -0.144283 -0.138640 0.120865 0.067614 0.405042 0.266195 0.388736 -0.059241 -0.104202 -0.354730 0.182194 -0.485381 -0.497190 -0.015892 -0.006439 0.397236 -0.349936 0.126266 0.425873 -0.086990 -0.345612 -0.013690 -0.208639 -0.128645 0.823035 0.357240 0.531077 0.035066 0.598471 0.005273 -0.264675 0.348194 
dfx -0.121227 -0.121465 0.103015 0.030073 0.336503 0.226741 0.314892 -0.073900 -0.101571 -0.306788 0.149003 -0.427295 -0.436345 -0.019297 0.017068 0.329213 -0.277656 0.109499 0.343905 -0.078415 -0.304360 -0.013395 -0.158478 -0.100639 0.627763 0.273283 0.433304 0.025990 0.490711 -0.009749 -0.223219 0.301876 
blwckMap -0.077934 -0.086846 0.055678 0.044789 0.249752 0.186125 0.221977 -0.030579 -0.066298 -0.190975 0.099760 -0.272305 -0.282463 -0.017790 -0.015251 0.214523 -0.188672 0.056859 0.260648 -0.037039 -0.216501 -0.018709 -0.104896 -0.047859 0.430762 0.195366 0.297931 0.021816 0.321130 -0.022760 -0.162884 0.210458 
NameSysttm -0.182089 -0.147170 0.130739 0.070287 0.446348 0.297047 0.454052 -0.063715 -0.140359 -0.429382 0.221774 -0.535572 -0.578691 0.004260 0.011783 0.437539 -0.399660 0.152617 0.495884 -0.103129 -0.420421 -0.026489 -0.230232 -0.151570 0.932513 0.412119 0.617793 0.039440 0.685063 0.005350 -0.314468 0.406605 
NameSyqtem -0.124241 -0.117728 0.086873 0.050953 0.301261 0.228222 0.295920 -0.052967 -0.082963 -0.259155 0.143126 -0.340732 -0.380514 -0.012914 -0.019687 0.310893 -0.268353 0.081517 0.329627 -0.063890 -0.266392 -0.003382 -0.164593 -0.118940 0.616617 0.289074 0.423372 0.020780 0.434450 0.001800 -0.219174 0.274185 
lize -0.163042 -0.148168 0.170096 0.066627 0.442674 0.269881 0.470900 -0.082856 -0.140623 -0.437690 0.199990 -0.590150 -0.595339 -0.014650 0.030281 0.463087 -0.401919 0.160855 0.454175 -0.120513 -0.390374 -0.021180 -0.230889 -0.146694 0.930890 0.407894 0.595422 0.028700 0.699148 0.013356 -0.304073 0.389838 
NameSyspem -0.129240 -0.117518 0.091894 0.053929 0.319489 0.227056 0.324384 -0.044567 -0.083966 -0.274650 0.150541 -0.370896 -0.396746 -0.016234 -0.010324 0.324915 -0.284411 0.084725 0.354431 -0.073173 -0.291132 -0.008096 -0.177633 -0.122175 0.666617 0.307495 0.438504 0.023418 0.472843 0.004106 -0.235324 0.287704 
df -0.146776 -0.147564 0.116409 0.048250 0.397676 0.243514 0.372745 -0.082450 -0.118232 -0.369466 0.174465 -0.499935 -0.504598 -0.020089 0.021463 0.397846 -0.339070 0.131527 0.392611 -0.094065 -0.347855 -0.007321 -0.183466 -0.139154 0.769175 0.335968 0.513977 0.026074 0.585353 0.001608 -0.258209 0.341326 
PacketRenponder -0.108528 -0.088272 0.077952 0.041666 0.284807 0.200673 0.260155 -0.033821 -0.093330 -0.216971 0.098027 -0.340754 -0.334084 -0.021599 0.004898 0.267496 -0.234070 0.078447 0.272836 -0.073351 -0.231127 -0.000070 -0.156063 -0.097713 0.533381 0.244023 0.370474 0.024240 0.421385 -0.017641 -0.182087 0.225611 
fer -0.104922 -0.112376 0.078299 0.040709 0.297370 0.208485 0.276032 -0.046320 -0.083866 -0.253273 0.120903 -0.356912 -0.365966 -0.022248 0.016802 0.282450 -0.248816 0.080370 0.296178 -0.056750 -0.279320 -0.008149 -0.143168 -0.096206 0.558059 0.237181 0.376379 0.012871 0.432896 -0.012448 -0.194592 0.251659 
sorjrand -0.013588 0.002625 -0.014902 0.017452 0.009403 0.037488 -0.010129 0.005875 -0.021971 -0.004458 -0.011574 -0.031750 0.017346 0.001918 0.008662 0.009293 -0.017951 -0.001415 0.018008 0.009107 -0.005851 0.012611 -0.014834 0.012938 -0.030200 0.014921 0.034576 0.003245 0.019455 -0.044168 -0.006850 0.005442 
FSDatalet -0.121921 -0.102206 0.082788 0.026450 0.311826 0.202313 0.272811 -0.039065 -0.088088 -0.248493 0.123857 -0.346365 -0.355864 -0.031067 -0.006895 0.281787 -0.241915 0.080616 0.301980 -0.058144 -0.255013 -0.009020 -0.142679 -0.099910 0.567408 0.244260 0.384429 0.017888 0.404129 -0.002762 -0.197113 0.247029 
seceived -0.012181 -0.015471 0.026590 0.017918 0.039522 0.038774 0.071142 -0.004033 -0.033907 -0.068050 0.026411 -0.077407 -0.072514 -0.016545 -0.004451 0.085333 -0.070428 0.011837 0.057698 -0.022983 -0.039815 0.001624 -0.044514 -0.021745 0.142659 0.077579 0.090817 0.005834 0.100731 0.017419 -0.047301 0.026954 
eo -0.131908 -0.121300 0.111291 0.036559 0.326550 0.217048 0.328488 -0.055974 -0.088342 -0.303883 0.137388 -0.421392 -0.427313 -0.014513 0.032698 0.336509 -0.290402 0.102744 0.339610 -0.068787 -0.308180 -0.000196 -0.168236 -0.125454 0.655995 0.287047 0.442793 0.021084 0.516717 0.002659 -0.226374 0.278260 
allocateBtock -0.140094 -0.114137 0.119689 0.059925 0.361872 0.228229 0.378682 -0.057249 -0.122123 -0.354729 0.171061 -0.449438 -0.475001 -0.007883 0.030907 0.370087 -0.322169 0.112190 0.367193 -0.094454 -0.348001 -0.021171 -0.184271 -0.114139 0.749451 0.329858 0.491646 0.041114 0.559615 0.001426 -0.252834 0.320052 
flock -0.160512 -0.145915 0.135065 0.047050 0.415344 0.272558 0.432822 -0.074140 -0.135796 -0.400622 0.184371 -0.543241 -0.555562 -0.022713 0.025416 0.415656 -0.382668 0.125902 0.431853 -0.106945 -0.392567 -0.026120 -0.222641 -0.121835 0.853865 0.378124 0.559819 0.024576 0.635185 0.004786 -0.306981 0.359222 
blockMhp -0.125935 -0.124725 0.093771 0.050218 0.344451 0.224904 0.326384 -0.057350 -0.096501 -0.289262 0.132513 -0.402204 -0.423284 -0.021277 0.009362 0.315737 -0.276813 0.083003 0.337527 -0.065611 -0.287877 -0.016960 -0.145413 -0.101103 0.627931 0.269250 0.418547 0.018901 0.485281 -0.011106 -0.213799 0.290629 
fpdated -0.081591 -0.095824 0.056700 0.044872 0.242026 0.172407 0.235473 -0.046175 -0.084112 -0.211101 0.103629 -0.303499 -0.297417 -0.019421 -0.000073 0.248269 -0.212115 0.062482 0.250891 -0.053595 -0.227242 -0.015689 -0.120061 -0.057400 0.471691 0.213165 0.305017 0.020384 0.339230 -0.017475 -0.176938 0.207437 
termisating -0.059222 -0.061478 0.056545 0.048112 0.174116 0.108693 0.168333 -0.021659 -0.081514 -0.168679 0.085653 -0.230772 -0.198264 0.003282 0.002568 0.164790 -0.148763 0.053138 0.186452 -0.049137 -0.147274 -0.006319 -0.083141 -0.043147 0.341977 0.156322 0.236975 0.025791 0.271883 -0.008000 -0.100757 0.154515 
fide -0.166077 -0.158757 0.152496 0.069329 0.439857 0.273218 0.466491 -0.091251 -0.149884 -0.445280 0.207111 -0.590946 -0.605121 -0.016949 0.025976 0.465124 -0.410284 0.150160 0.462065 -0.119203 -0.398401 -0.023827 -0.228170 -0.145397 0.941828 0.411459 0.598655 0.026805 0.697806 0.012336 -0.314912 0.390644 
oq -0.137958 -0.120474 0.102099 0.028865 0.330619 0.228930 0.313476 -0.065895 -0.091043 -0.303353 0.134349 -0.405178 -0.419906 -0.017085 0.014908 0.335491 -0.285185 0.104140 0.326591 -0.077855 -0.293087 -0.007375 -0.166727 -0.120173 0.632482 0.286684 0.448608 0.010631 0.478340 0.003943 -0.220661 0.281345 
aaded -0.088573 -0.096144 0.089407 0.059058 0.254631 0.156931 0.287280 -0.052937 -0.087629 -0.260800 0.114346 -0.347418 -0.344997 -0.016290 0.015374 0.280879 -0.250887 0.081222 0.269828 -0.070406 -0.226446 -0.003876 -0.130486 -0.089527 0.564936 0.249192 0.342769 0.024509 0.427257 0.009350 -0.173239 0.222672 
hadoip -0.091707 -0.104596 0.089031 0.073100 0.291646 0.179950 0.315186 -0.039912 -0.095931 -0.281233 0.130119 -0.384499 -0.358762 -0.022561 0.002477 0.291231 -0.276683 0.070369 0.300635 -0.083965 -0.256777 -0.018359 -0.151545 -0.080389 0.632890 0.261871 0.372979 0.019502 0.467884 0.016104 -0.185449 0.244341 
htdoop -0.059928 -0.062246 0.051197 0.025945 0.172213 0.113373 0.182140 -0.020858 -0.069985 -0.158691 0.071937 -0.238301 -0.211721 -0.006862 0.005548 0.164050 -0.157427 0.040099 0.184088 -0.054910 -0.157225 -0.009656 -0.094573 -0.038564 0.357510 0.153379 0.222694 0.019509 0.276327 0.004159 -0.112084 0.135537 
wo -0.105688 -0.074933 0.062229 0.012508 0.232578 0.170270 0.214483 -0.032991 -0.072610 -0.220820 0.109105 -0.290628 -0.292393 0.000455 0.012301 0.227131 -0.199800 0.087771 0.263227 -0.048565 -0.220927 -0.001247 -0.126180 -0.081593 0.451411 0.208310 0.324502 0.021879 0.352828 0.005727 -0.161272 0.200632 
site -0.071302 -0.077566 0.062735 0.042077 0.211779 0.145338 0.211385 -0.024568 -0.077137 -0.184457 0.090059 -0.266014 -0.252874 -0.002926 -0.001593 0.207629 -0.188031 0.052449 0.209130 -0.051183 -0.188304 -0.006110 -0.109094 -0.062606 0.421776 0.190468 0.283787 0.014516 0.311749 -0.005830 -0.130921 0.172794 
fale -0.125170 -0.131156 0.107962 0.056268 0.339752 0.221444 0.346716 -0.063496 -0.105114 -0.302021 0.146525 -0.422796 -0.432341 -0.017624 0.009535 0.342088 -0.296634 0.094714 0.340689 -0.078786 -0.300836 -0.007924 -0.157960 -0.124198 0.671669 0.299893 0.438812 0.017908 0.501960 0.000390 -0.230281 0.294356 
fife -0.165792 -0.168559 0.143507 0.074152 0.443626 0.273249 0.454850 -0.088885 -0.146708 -0.436328 0.215274 -0.576090 -0.597072 -0.014738 0.016482 0.461204 -0.403896 0.146096 0.458329 -0.112132 -0.399154 -0.018195 -0.223995 -0.156657 0.938905 0.408339 0.593913 0.026008 0.686267 0.011966 -0.311622 0.389681 
yNFO -0.164808 -0.132301 0.119161 0.045201 0.399774 0.252490 0.405392 -0.064480 -0.126388 -0.363502 0.167251 -0.496792 -0.502022 -0.018981 0.020347 0.389370 -0.361008 0.117997 0.411676 -0.102090 -0.341029 -0.018317 -0.207771 -0.133202 0.812777 0.348765 0.523142 0.020279 0.595744 0.016348 -0.262004 0.342584 
blockMxp -0.143988 -0.129034 0.111339 0.048159 0.381320 0.249513 0.369026 -0.063455 -0.116626 -0.337427 0.158070 -0.471496 -0.483606 -0.016855 0.028208 0.351537 -0.303281 0.108300 0.392134 -0.080564 -0.345038 -0.023390 -0.169307 -0.094003 0.708182 0.304443 0.478136 0.035410 0.557113 -0.027253 -0.250070 0.330569 
ont -0.093661 -0.095297 0.075921 0.010753 0.252098 0.172507 0.236836 -0.043884 -0.069483 -0.208315 0.085927 -0.321763 -0.306337 -0.020875 0.012098 0.233450 -0.216946 0.067775 0.239088 -0.053444 -0.219056 0.003058 -0.128056 -0.081572 0.462259 0.190868 0.317385 0.012291 0.366580 -0.009709 -0.159423 0.194992 
frod -0.094118 -0.084830 0.070579 0.031117 0.233882 0.154942 0.245101 -0.047964 -0.087669 -0.245336 0.105592 -0.328356 -0.312696 -0.015667 0.023872 0.249501 -0.223743 0.078867 0.256797 -0.067448 -0.225901 -0.009059 -0.130957 -0.067499 0.489285 0.219499 0.326038 0.016470 0.380563 -0.003438 -0.171277 0.204474 
sizq -0.087932 -0.098499 0.102542 0.052788 0.269135 0.177436 0.285528 -0.048590 -0.102619 -0.282451 0.126108 -0.365847 -0.358867 -0.015973 0.005913 0.284166 -0.258117 0.087406 0.267074 -0.087698 -0.242167 -0.010752 -0.149756 -0.071417 0.572812 0.262277 0.389833 0.005957 0.422054 0.009057 -0.172782 0.239415 
terminacing 0.005876 -0.009272 -0.007174 0.019105 0.017241 0.011775 0.000422 0.010731 -0.014265 0.004660 -0.005122 -0.026712 0.016400 -0.014018 -0.017547 0.006415 -0.013862 -0.015120 0.027004 -0.001251 0.015313 0.006116 -0.008499 0.007074 0.012532 0.008294 0.011353 0.004270 0.024706 -0.009666 -0.005034 -0.003227 
fkr -0.069234 -0.080230 0.039846 0.026320 0.202442 0.170159 0.169357 -0.029881 -0.054744 -0.156242 0.078226 -0.229687 -0.241682 -0.014671 -0.002364 0.181181 -0.160266 0.051942 0.200964 -0.037966 -0.195997 -0.008729 -0.106043 -0.038445 0.349978 0.160928 0.257524 0.000904 0.264764 -0.029395 -0.138414 0.171193 
FSNjmesystem -0.131601 -0.108086 0.105486 0.023024 0.338913 0.229299 0.319206 -0.055378 -0.098709 -0.291846 0.149831 -0.402387 -0.420193 -0.023077 -0.004517 0.335216 -0.293199 0.104256 0.341578 -0.088983 -0.290515 -0.012756 -0.188185 -0.117691 0.658068 0.300973 0.458488 0.024930 0.481799 0.014422 -0.229024 0.285636 
cdrrent -0.125739 -0.107170 0.084870 0.036814 0.311943 0.210383 0.283556 -0.058651 -0.091265 -0.278939 0.105519 -0.389473 -0.390550 -0.018178 0.034452 0.292222 -0.262009 0.092723 0.301054 -0.073933 -0.269383 -0.007296 -0.152303 -0.097135 0.559322 0.242275 0.413583 0.000038 0.468259 -0.030287 -0.196205 0.276339 
rojt -0.056309 -0.042772 0.026249 0.020784 0.138669 0.116119 0.113156 -0.011484 -0.047391 -0.125792 0.059573 -0.167518 -0.169525 0.004429 -0.002499 0.124904 -0.113524 0.040882 0.145486 -0.031072 -0.121906 -0.013218 -0.081302 -0.025875 0.248170 0.118671 0.190759 0.008334 0.207168 -0.014398 -0.084357 0.124462 
go -0.121830 -0.102060 0.092140 0.036111 0.297735 0.194148 0.284511 -0.036149 -0.087897 -0.273096 0.136211 -0.364519 -0.365578 -0.000850 0.012615 0.291033 -0.252981 0.100069 0.319101 -0.062024 -0.265836 -0.002839 -0.154350 -0.102462 0.587025 0.264886 0.406365 0.035274 0.457208 0.001458 -0.188082 0.257002 
invalidSpt -0.095066 -0.096679 0.070762 0.031671 0.279799 0.180225 0.277800 -0.027746 -0.059485 -0.227058 0.102631 -0.327460 -0.327391 -0.038516 0.004409 0.248208 -0.231377 0.051670 0.287907 -0.057368 -0.245000 -0.015687 -0.144407 -0.061025 0.563004 0.216373 0.332782 0.014392 0.386153 -0.013282 -0.188209 0.224104 
PbcketResponder -0.113302 -0.094662 0.093139 0.043411 0.311643 0.211965 0.290488 -0.036887 -0.107951 -0.252769 0.120116 -0.373892 -0.372190 -0.013712 0.009515 0.294277 -0.250481 0.093670 0.297597 -0.079221 -0.267116 -0.006787 -0.164539 -0.100372 0.583538 0.266680 0.408742 0.037913 0.460282 -0.018091 -0.193104 0.251964 
Rececved -0.065086 -0.061299 0.076503 0.034107 0.195835 0.121491 0.219344 -0.032075 -0.071930 -0.209526 0.098049 -0.260681 -0.270114 -0.019516 0.016798 0.233649 -0.195518 0.068857 0.210405 -0.057996 -0.186826 -0.004648 -0.114004 -0.074410 0.444196 0.196784 0.283673 0.032133 0.339799 0.023355 -0.139673 0.165452 
PacketResconder -0.101674 -0.078124 0.075696 0.048447 0.278575 0.197063 0.261121 -0.028801 -0.093250 -0.222151 0.107348 -0.330921 -0.322126 -0.017037 0.002160 0.274595 -0.237872 0.081571 0.271475 -0.072825 -0.232719 -0.008830 -0.159972 -0.089512 0.532806 0.247087 0.368494 0.030692 0.415434 -0.010015 -0.177022 0.224438 
fox -0.120057 -0.111287 0.096924 0.028133 0.307876 0.220218 0.301321 -0.059866 -0.094625 -0.283831 0.140928 -0.392863 -0.405170 -0.011848 0.014075 0.306714 -0.263429 0.099016 0.332361 -0.066301 -0.296181 -0.012477 -0.159644 -0.099431 0.601828 0.262720 0.411316 0.025137 0.464345 -0.007721 -0.219587 0.272940 
updatyd -0.110144 -0.110682 0.086745 0.052836 0.325478 0.218941 0.319631 -0.054673 -0.088910 -0.272747 0.129154 -0.399310 -0.389947 -0.018827 0.008829 0.319889 -0.288663 0.085478 0.341689 -0.075542 -0.291567 -0.025576 -0.168698 -0.089733 0.657789 0.271669 0.403252 0.020767 0.471469 -0.002245 -0.221119 0.279072 
INFf -0.155540 -0.150086 0.141179 0.058131 0.426790 0.237957 0.429488 -0.074709 -0.145190 -0.420531 0.195951 -0.552681 -0.555536 -0.020488 0.031219 0.429217 -0.377344 0.146674 0.429275 -0.117913 -0.384513 -0.004168 -0.209575 -0.158649 0.895681 0.383997 0.573682 0.046259 0.673664 0.015287 -0.281025 0.356527 
FzNamesystem -0.188398 -0.145226 0.161938 0.069374 0.467282 0.291043 0.481521 -0.074668 -0.150709 -0.450915 0.223453 -0.575487 -0.615607 0.001156 0.017192 0.475296 -0.410164 0.172547 0.491789 -0.145100 -0.415945 -0.026404 -0.241797 -0.175805 0.989794 0.445258 0.653021 0.024039 0.723554 0.028469 -0.317708 0.413886 
adred -0.077278 -0.075714 0.064256 0.039865 0.204918 0.139014 0.217870 -0.045121 -0.070482 -0.206810 0.083688 -0.282930 -0.274269 -0.013372 0.021799 0.222790 -0.197390 0.066032 0.220313 -0.056437 -0.185741 -0.003573 -0.110090 -0.062515 0.426525 0.192142 0.281997 0.014770 0.339823 -0.007955 -0.141199 0.184573 
oh -0.124233 -0.121300 0.091634 0.043817 0.321264 0.218218 0.301221 -0.056612 -0.072857 -0.268889 0.133065 -0.376673 -0.393000 -0.013734 0.009656 0.318283 -0.277009 0.086908 0.315276 -0.062800 -0.271873 -0.000345 -0.161133 -0.124290 0.610438 0.263269 0.410394 0.014842 0.472794 0.009440 -0.200518 0.270523 
Servea -0.031970 -0.029728 0.024206 0.004704 0.090404 0.082110 0.073225 -0.005964 -0.014256 -0.073518 0.032611 -0.087488 -0.100995 -0.015145 0.006726 0.090861 -0.077410 0.015736 0.087574 -0.007095 -0.098596 0.009979 -0.058886 -0.031043 0.152489 0.072481 0.134860 0.012317 0.128510 -0.010093 -0.064709 0.060470 
admed -0.137311 -0.122961 0.125057 0.057053 0.355298 0.216449 0.386872 -0.076830 -0.123274 -0.360266 0.161015 -0.479424 -0.483285 -0.020758 0.022406 0.375146 -0.332701 0.121798 0.378772 -0.105388 -0.309772 -0.012427 -0.173716 -0.128156 0.760345 0.333452 0.476119 0.024097 0.577201 0.021410 -0.240047 0.315575 
exreption 0.024237 0.005454 -0.044029 -0.019148 -0.057801 -0.004711 -0.086409 0.024910 0.020359 0.089705 -0.068692 0.062650 0.104540 -0.031093 -0.006726 -0.073244 0.048180 -0.048113 -0.055179 0.051247 0.069119 0.022488 0.022801 0.025209 -0.184458 -0.075158 -0.095109 -0.008232 -0.093443 -0.038432 0.035041 -0.068964 
updates -0.164042 -0.147992 0.135319 0.061612 0.447499 0.274083 0.443928 -0.066069 -0.137544 -0.409136 0.193129 -0.551999 -0.565031 -0.001185 0.044639 0.435214 -0.377757 0.145761 0.454536 -0.107461 -0.419771 -0.037445 -0.214827 -0.144451 0.889399 0.374328 0.570937 0.035438 0.676363 -0.001254 -0.296273 0.392792 
invalikSet -0.110656 -0.118887 0.091833 0.035758 0.330275 0.213576 0.312952 -0.043254 -0.081349 -0.264332 0.118607 -0.387557 -0.392603 -0.028470 0.012592 0.308890 -0.271985 0.074931 0.316450 -0.066948 -0.279798 -0.016795 -0.164410 -0.093292 0.628539 0.254416 0.407005 0.021319 0.459098 -0.011394 -0.214137 0.269385 
cNFO -0.173248 -0.143620 0.151972 0.059207 0.430077 0.258565 0.459810 -0.080634 -0.133987 -0.428823 0.188583 -0.550803 -0.576386 -0.019472 0.027707 0.439928 -0.400016 0.142428 0.452807 -0.118900 -0.376114 -0.016197 -0.223003 -0.157833 0.924894 0.400420 0.590427 0.022204 0.677766 0.023933 -0.298286 0.377200 
Receivinl -0.064442 -0.064058 0.070287 0.034522 0.179089 0.122578 0.193556 -0.030528 -0.081655 -0.192593 0.083531 -0.252838 -0.241071 -0.020964 -0.001047 0.204917 -0.178119 0.058345 0.188947 -0.056963 -0.156680 -0.004458 -0.100992 -0.066176 0.395730 0.176550 0.267038 0.012345 0.300405 0.012425 -0.129203 0.151652 
Reheived -0.020995 -0.038732 0.030382 0.020220 0.079404 0.073675 0.092429 -0.018576 -0.039094 -0.085608 0.047086 -0.107298 -0.122343 -0.010242 -0.011539 0.123512 -0.097811 0.030737 0.091355 -0.025408 -0.072038 0.003374 -0.063657 -0.037637 0.200045 0.102079 0.131840 0.017659 0.146366 0.019356 -0.069346 0.065353 
IrFO -0.095814 -0.094302 0.089424 0.047174 0.287639 0.180176 0.298875 -0.045019 -0.100623 -0.272020 0.107544 -0.365677 -0.357938 -0.024767 0.021781 0.285868 -0.265290 0.081008 0.286672 -0.089977 -0.253779 -0.011913 -0.148059 -0.084102 0.586915 0.255757 0.394817 0.014220 0.442259 0.001515 -0.182123 0.245758 
FyNamesystem -0.204468 -0.142750 0.153445 0.064386 0.480511 0.309325 0.491712 -0.075169 -0.160026 -0.459317 0.237534 -0.588868 -0.637270 0.012251 0.022068 0.486834 -0.431234 0.171200 0.516248 -0.138255 -0.439684 -0.039077 -0.257931 -0.177294 1.019497 0.454017 0.667764 0.030701 0.741334 0.032530 -0.339433 0.427015 
NameSlstem -0.139675 -0.114527 0.103914 0.047368 0.333289 0.228274 0.333712 -0.052939 -0.098374 -0.300140 0.159507 -0.390233 -0.419545 -0.011621 -0.004614 0.339944 -0.289515 0.106489 0.361656 -0.073280 -0.297344 -0.005331 -0.169517 -0.137346 0.676916 0.314496 0.457906 0.033897 0.492181 0.004148 -0.238009 0.298328 
eata -0.101839 -0.120674 0.098663 0.082456 0.334031 0.227676 0.325949 -0.040256 -0.076380 -0.287144 0.146053 -0.376880 -0.393971 -0.017813 -0.006804 0.317690 -0.288014 0.086604 0.330835 -0.062876 -0.305852 -0.007999 -0.159683 -0.109581 0.666100 0.287906 0.424807 0.027365 0.496564 0.000884 -0.204626 0.279254 
useh -0.089513 -0.096466 0.083193 0.034508 0.248099 0.176812 0.242395 -0.050366 -0.063929 -0.199908 0.101737 -0.292713 -0.318186 -0.009208 0.005833 0.254896 -0.218791 0.064436 0.243806 -0.051053 -0.211601 -0.002471 -0.124380 -0.105831 0.480826 0.208295 0.318840 0.008280 0.367755 0.010780 -0.159892 0.214139 
delt -0.145800 -0.133262 0.120777 0.030252 0.382329 0.252068 0.371042 -0.069792 -0.113757 -0.339969 0.151840 -0.476498 -0.483177 -0.024368 0.018484 0.362999 -0.322814 0.113735 0.376844 -0.089224 -0.335339 -0.014525 -0.176444 -0.125960 0.717873 0.309518 0.489918 0.019718 0.553926 -0.001917 -0.248829 0.329358 
qrc -0.078912 -0.063921 0.061280 0.046659 0.236418 0.164928 0.231599 -0.028616 -0.058987 -0.211898 0.091851 -0.275707 -0.286176 -0.012838 0.013839 0.231593 -0.210730 0.064010 0.237363 -0.053101 -0.210923 -0.019388 -0.129934 -0.058916 0.459502 0.208517 0.309986 0.012990 0.348399 -0.006562 -0.151473 0.203089 
Sirved -0.042486 -0.025132 0.024495 0.005032 0.097213 0.071793 0.093063 -0.016326 -0.034711 -0.098562 0.041558 -0.133202 -0.123929 -0.017534 0.013309 0.119970 -0.093030 0.028976 0.115539 -0.024386 -0.088496 0.001582 -0.071440 -0.016872 0.201707 0.095167 0.150604 0.015024 0.146632 -0.012656 -0.081423 0.078949 
blovk -0.135025 -0.123639 0.110642 0.038227 0.346681 0.237465 0.337711 -0.059630 -0.110223 -0.319275 0.152743 -0.423163 -0.451321 -0.012421 0.018342 0.347671 -0.284825 0.112920 0.351953 -0.077569 -0.332827 -0.012814 -0.171820 -0.106996 0.675824 0.305474 0.468285 0.036416 0.506478 -0.015439 -0.245000 0.296833 
INqO -0.111658 -0.132760 0.115664 0.038731 0.324136 0.210060 0.331717 -0.071801 -0.108044 -0.308040 0.126298 -0.407760 -0.426544 -0.024880 0.015756 0.327408 -0.292916 0.092124 0.303093 -0.092894 -0.284663 0.000610 -0.152793 -0.113739 0.631053 0.289597 0.450842 0.014679 0.481612 0.005077 -0.206199 0.282873 
frtm -0.075565 -0.074887 0.048829 0.045530 0.215993 0.166968 0.196096 -0.034539 -0.072234 -0.185496 0.105849 -0.247853 -0.252760 -0.006059 -0.022228 0.203206 -0.180495 0.061116 0.236185 -0.060891 -0.196544 -0.011633 -0.110205 -0.060194 0.422953 0.190178 0.294062 0.007241 0.300537 -0.009676 -0.145519 0.190897 
dfi -0.175433 -0.161375 0.156581 0.077294 0.466233 0.289118 0.474472 -0.099688 -0.156752 -0.482832 0.228388 -0.618578 -0.636659 -0.009057 0.017893 0.487094 -0.434197 0.169979 0.487484 -0.127610 -0.422105 -0.022731 -0.237023 -0.161301 0.995418 0.436158 0.644257 0.029031 0.740111 0.019206 -0.329057 0.410855 
qs -0.063761 -0.056153 0.031500 0.007349 0.170489 0.138006 0.133119 -0.016432 -0.045711 -0.127571 0.061869 -0.177883 -0.188783 -0.002581 0.000290 0.160241 -0.125180 0.052596 0.159039 -0.032225 -0.156383 -0.008755 -0.081297 -0.060393 0.272099 0.136607 0.222866 0.004369 0.209944 -0.010241 -0.108241 0.137518 
sru -0.033961 -0.029613 0.017750 0.021498 0.099339 0.088451 0.092812 -0.006491 -0.039832 -0.078997 0.031643 -0.135902 -0.101916 -0.003088 0.003071 0.092718 -0.089677 0.028654 0.116293 -0.036412 -0.095366 -0.002373 -0.058636 -0.019699 0.193789 0.088595 0.139636 -0.001746 0.155340 -0.014154 -0.065668 0.074459 
FSNamesystej -0.157732 -0.135226 0.135191 0.040109 0.417749 0.248104 0.408014 -0.070854 -0.144329 -0.396642 0.194688 -0.523371 -0.549413 -0.009096 0.028806 0.401443 -0.358335 0.133984 0.410062 -0.112337 -0.376480 -0.024995 -0.201726 -0.125019 0.812875 0.352902 0.554009 0.034167 0.630560 0.014348 -0.263482 0.354148 
hadoou -0.081769 -0.082082 0.080326 0.048263 0.237498 0.157267 0.256074 -0.040558 -0.087228 -0.229179 0.107442 -0.332604 -0.299628 -0.008055 -0.002449 0.258455 -0.233433 0.078185 0.254063 -0.086683 -0.209126 -0.012624 -0.139786 -0.074579 0.529443 0.228889 0.328426 0.019952 0.398806 0.018880 -0.164820 0.186216 
NameSysiem -0.093870 -0.089013 0.065745 0.047336 0.233971 0.187960 0.231590 -0.034661 -0.060816 -0.201536 0.121761 -0.263530 -0.287687 -0.010779 -0.035687 0.261153 -0.223160 0.066012 0.271036 -0.052123 -0.211017 -0.004957 -0.150022 -0.104120 0.512878 0.246919 0.343405 0.018283 0.345533 0.013866 -0.188358 0.208899 
Repeived -0.034891 -0.050325 0.036781 0.019120 0.110350 0.086258 0.118539 -0.022271 -0.045138 -0.112487 0.053395 -0.151240 -0.156032 -0.015393 -0.002079 0.145318 -0.114291 0.039927 0.120270 -0.033740 -0.110028 0.004220 -0.073887 -0.040061 0.254923 0.124517 0.163289 0.021530 0.189057 0.008781 -0.092271 0.084331 
addpd -0.115692 -0.113636 0.101121 0.049761 0.321956 0.191637 0.349371 -0.066615 -0.105753 -0.321479 0.130343 -0.444784 -0.425871 -0.034090 0.028464 0.326339 -0.301970 0.096118 0.337876 -0.094072 -0.286755 -0.014363 -0.159207 -0.085187 0.677363 0.290290 0.409655 0.022344 0.513644 0.002618 -0.218959 0.279028 
gadoop -0.103952 -0.088417 0.089337 0.042894 0.260240 0.158701 0.278647 -0.027891 -0.092841 -0.264093 0.119854 -0.344814 -0.331988 -0.008692 0.014105 0.254202 -0.234566 0.078311 0.283713 -0.065713 -0.241212 -0.009169 -0.136973 -0.076067 0.556516 0.243947 0.351805 0.033708 0.427833 0.003588 -0.166054 0.221411 
Deleling -0.102816 -0.100235 0.097743 0.005909 0.258988 0.157165 0.265416 -0.054567 -0.077860 -0.235796 0.101602 -0.353085 -0.340605 -0.043808 0.009860 0.252785 -0.241916 0.074243 0.250457 -0.077453 -0.207189 0.009215 -0.136576 -0.094846 0.510337 0.220115 0.329963 0.014466 0.408408 0.021896 -0.177064 0.198360 
oe -0.141941 -0.127646 0.109242 0.031098 0.337984 0.225646 0.331381 -0.060099 -0.085861 -0.299103 0.132812 -0.427483 -0.429120 -0.016589 0.031648 0.341550 -0.293375 0.100990 0.343310 -0.066347 -0.307061 0.001699 -0.171141 -0.132500 0.657937 0.287140 0.444758 0.017616 0.514001 -0.000336 -0.228639 0.282993 
INFr -0.158115 -0.136372 0.138972 0.061675 0.434430 0.259725 0.439287 -0.062291 -0.143429 -0.420406 0.189983 -0.553816 -0.556567 -0.022115 0.038235 0.422176 -0.383669 0.144120 0.448838 -0.112274 -0.404774 -0.018152 -0.219267 -0.136563 0.897687 0.380777 0.582722 0.042369 0.682590 0.003839 -0.288367 0.365879 
te -0.060192 -0.082368 0.055994 0.026048 0.192727 0.134088 0.172913 -0.031334 -0.055553 -0.146782 0.073091 -0.229330 -0.231851 -0.003634 0.006242 0.180244 -0.149774 0.047913 0.180794 -0.038796 -0.171531 0.004457 -0.088060 -0.059468 0.348844 0.154460 0.239619 0.020754 0.272571 -0.012336 -0.113445 0.153096 
addStorxdBlock -0.143306 -0.119023 0.090278 0.032888 0.341719 0.252770 0.310892 -0.049261 -0.107129 -0.292715 0.132461 -0.420734 -0.440297 -0.017945 0.015801 0.327993 -0.298952 0.090918 0.352878 -0.051156 -0.313380 -0.008665 -0.192092 -0.105560 0.650244 0.307921 0.465387 0.038785 0.502838 -0.029661 -0.255541 0.293600 
nrc -0.038264 -0.053090 0.063790 0.033541 0.179702 0.104902 0.197563 -0.020347 -0.048092 -0.164674 0.060045 -0.243517 -0.226615 -0.016348 0.033066 0.179147 -0.178295 0.043624 0.175461 -0.049884 -0.164502 -0.006842 -0.105319 -0.042126 0.373487 0.150377 0.234610 0.016775 0.303507 -0.002721 -0.115815 0.145167 
Rmceived -0.105637 -0.088296 0.092676 0.053257 0.278543 0.168027 0.300827 -0.051296 -0.104897 -0.290115 0.138611 -0.366099 -0.372458 -0.020730 0.013100 0.314391 -0.262308 0.095591 0.300758 -0.080180 -0.246262 -0.013281 -0.147191 -0.104218 0.614125 0.273257 0.382648 0.034511 0.455407 0.026232 -0.190668 0.244173 
kSNamesystem -0.072990 -0.057992 0.062994 0.017852 0.184640 0.139088 0.187606 -0.014261 -0.062453 -0.159916 0.093911 -0.211008 -0.222267 0.001437 -0.016546 0.181029 -0.162277 0.060564 0.197750 -0.060545 -0.165529 -0.008742 -0.117262 -0.053899 0.359598 0.182801 0.269165 0.010176 0.265430 0.008933 -0.122933 0.158199 
elock -0.147814 -0.136210 0.138255 0.038014 0.388158 0.250960 0.405444 -0.065425 -0.116537 -0.369412 0.161523 -0.511993 -0.513067 -0.028653 0.037225 0.385920 -0.353721 0.114928 0.393560 -0.098370 -0.365105 -0.014431 -0.202597 -0.121173 0.786095 0.340691 0.519983 0.025674 0.607245 0.007137 -0.274344 0.328214 
tNFO -0.102890 -0.108496 0.101559 0.041405 0.291836 0.168248 0.297488 -0.055021 -0.105477 -0.275265 0.119244 -0.371857 -0.363471 -0.018406 0.009323 0.281723 -0.254122 0.086121 0.280716 -0.086549 -0.241091 -0.000807 -0.137868 -0.086739 0.584427 0.258450 0.385415 0.029264 0.433244 0.002076 -0.172865 0.241595 
FSNamesyctem -0.116776 -0.099132 0.093482 0.039078 0.308388 0.213253 0.291972 -0.044115 -0.083255 -0.256119 0.141849 -0.344276 -0.369789 -0.023139 -0.021347 0.315539 -0.266864 0.085677 0.321393 -0.076839 -0.264508 -0.013264 -0.175219 -0.109738 0.623855 0.284527 0.421678 0.018004 0.425275 0.016900 -0.217119 0.256678 
addea -0.141890 -0.139981 0.139179 0.071640 0.402789 0.244476 0.424071 -0.074169 -0.119167 -0.393943 0.174960 -0.517524 -0.528175 -0.022730 0.023946 0.406139 -0.371155 0.123061 0.401691 -0.106503 -0.359763 -0.015170 -0.198600 -0.138181 0.836787 0.363363 0.528548 0.027841 0.641618 0.019270 -0.261623 0.344061 
sizm -0.111526 -0.104274 0.129088 0.070414 0.333640 0.205716 0.362812 -0.050515 -0.120447 -0.340633 0.164665 -0.447641 -0.429401 -0.014010 0.000142 0.343017 -0.316604 0.112958 0.352750 -0.112196 -0.296227 -0.012968 -0.181911 -0.104905 0.737793 0.323790 0.472925 0.016357 0.538743 0.023452 -0.215492 0.289116 
FSNamessstem -0.183027 -0.136365 0.154905 0.046964 0.449938 0.274197 0.455880 -0.075708 -0.151096 -0.437996 0.218249 -0.564490 -0.593334 -0.005983 0.028494 0.452834 -0.397095 0.165813 0.467849 -0.133610 -0.408506 -0.022018 -0.232627 -0.160060 0.922959 0.413311 0.626227 0.035353 0.693371 0.023788 -0.307629 0.391505 
srn 0.011846 0.000819 -0.026522 -0.012921 -0.012377 0.004787 -0.027699 0.022106 -0.003858 0.040664 -0.041477 0.001833 0.040332 -0.018313 0.019640 -0.036288 0.010250 -0.027213 -0.024732 0.010664 0.017861 0.012513 0.003753 0.020607 -0.086654 -0.036471 -0.033098 -0.013693 -0.018415 -0.026601 0.019754 -0.031662 
fiie -0.182401 -0.167521 0.170549 0.092678 0.478187 0.302082 0.514317 -0.094901 -0.164402 -0.499214 0.241096 -0.638901 -0.668441 -0.002330 0.015303 0.513801 -0.456319 0.172889 0.516257 -0.129765 -0.437568 -0.032219 -0.257425 -0.165175 1.070407 0.466870 0.670590 0.027361 0.773040 0.021376 -0.353629 0.426735 
dart -0.123533 -0.115196 0.086280 0.064249 0.350621 0.244431 0.325139 -0.046542 -0.091720 -0.307341 0.143089 -0.405174 -0.418883 -0.016194 0.006655 0.325370 -0.293918 0.101939 0.354883 -0.073611 -0.317004 -0.022889 -0.175222 -0.092289 0.665389 0.291595 0.449732 0.016706 0.505673 -0.016927 -0.220146 0.308611 
sxc -0.021434 -0.016089 0.023834 0.013435 0.089252 0.074046 0.102573 0.002283 -0.035780 -0.084837 0.037215 -0.117148 -0.117449 0.007368 0.012603 0.081307 -0.094703 0.019399 0.110899 -0.018935 -0.101020 -0.008557 -0.058838 -0.020939 0.185654 0.088740 0.132728 0.014428 0.158071 -0.000317 -0.064640 0.077905 
wlock -0.114439 -0.092907 0.086837 0.011232 0.281420 0.191904 0.277420 -0.042579 -0.096053 -0.263614 0.114797 -0.367917 -0.358019 -0.020766 0.020250 0.265131 -0.247567 0.087198 0.293470 -0.070663 -0.255658 -0.009755 -0.148656 -0.075547 0.535947 0.245832 0.376955 0.022257 0.417771 0.005701 -0.192911 0.238830 
tz -0.051763 -0.078868 0.074734 0.039116 0.211015 0.146372 0.205607 -0.032348 -0.067248 -0.188349 0.091365 -0.268077 -0.267450 -0.005238 -0.004436 0.202535 -0.181439 0.071744 0.210413 -0.056483 -0.190854 -0.004487 -0.116283 -0.044090 0.429078 0.190458 0.275983 0.020089 0.316521 -0.002761 -0.125803 0.177370 
mat -0.145039 -0.135561 0.101034 0.074131 0.400040 0.274418 0.375726 -0.057254 -0.105222 -0.339003 0.176754 -0.452775 -0.482020 -0.011410 -0.016122 0.378803 -0.336859 0.117420 0.418912 -0.079170 -0.348485 -0.025046 -0.194281 -0.135098 0.793635 0.344842 0.505092 0.024103 0.572235 0.006827 -0.260778 0.342065 
DataBlockScannur -0.064140 -0.058690 0.032508 0.025985 0.178425 0.123354 0.154650 -0.028142 -0.071305 -0.142549 0.071621 -0.233202 -0.207263 -0.018472 0.007740 0.153199 -0.154617 0.035167 0.182597 -0.047987 -0.165110 0.000301 -0.089537 -0.029911 0.324172 0.133940 0.227373 0.019018 0.264931 -0.026015 -0.126994 0.130553 
svc -0.059980 -0.045704 0.046904 0.034949 0.188926 0.122580 0.196181 -0.006826 -0.060363 -0.184432 0.085974 -0.225667 -0.239633 -0.004525 0.019298 0.191910 -0.183833 0.050698 0.203332 -0.042829 -0.198410 -0.016987 -0.117633 -0.052542 0.410386 0.185430 0.266953 0.020619 0.302709 0.007521 -0.137344 0.151677 
NameSystzm -0.153145 -0.133256 0.126651 0.067893 0.393771 0.265476 0.407630 -0.061667 -0.123945 -0.386066 0.203318 -0.487308 -0.517508 -0.002664 0.005823 0.400925 -0.364471 0.136716 0.441637 -0.092956 -0.376397 -0.018892 -0.219014 -0.129184 0.841698 0.376865 0.552513 0.039404 0.617014 0.006800 -0.283683 0.361982 
wNFO -0.114834 -0.095233 0.084596 0.021302 0.273393 0.176607 0.268972 -0.048217 -0.097389 -0.266604 0.117368 -0.344506 -0.344278 -0.019781 0.008611 0.262783 -0.238036 0.093908 0.286703 -0.072792 -0.228297 0.000454 -0.132754 -0.088943 0.534915 0.243274 0.372156 0.021375 0.404100 0.010057 -0.170630 0.238737 
iavalidSet -0.122671 -0.103865 0.069046 0.054858 0.319453 0.212584 0.307966 -0.032021 -0.082775 -0.264538 0.133640 -0.356519 -0.376354 -0.020157 -0.002483 0.305294 -0.264933 0.071861 0.333605 -0.061391 -0.277330 -0.023878 -0.160725 -0.097841 0.647444 0.266514 0.398232 0.018720 0.444705 -0.006211 -0.215293 0.268825 
sfc -0.083547 -0.084432 0.070172 0.045847 0.255762 0.153331 0.262654 -0.028679 -0.084299 -0.243107 0.116432 -0.320024 -0.319210 -0.008903 0.015285 0.248616 -0.241503 0.068475 0.260944 -0.060804 -0.241568 -0.008650 -0.132547 -0.087687 0.532330 0.234597 0.339371 0.018420 0.398523 0.010963 -0.169398 0.210023 
dfc -0.168630 -0.148621 0.144976 0.067294 0.453787 0.276101 0.466114 -0.085203 -0.140479 -0.452501 0.211867 -0.582707 -0.609395 -0.011518 0.029193 0.460940 -0.421964 0.152650 0.474153 -0.115221 -0.414583 -0.026896 -0.234092 -0.151308 0.952271 0.415207 0.611203 0.029274 0.710864 0.018934 -0.318382 0.398506 
Delhting -0.100001 -0.100144 0.085131 0.026914 0.264567 0.171096 0.256448 -0.051205 -0.078360 -0.232391 0.109025 -0.336895 -0.334279 -0.033352 0.005952 0.256067 -0.240761 0.073951 0.261916 -0.062879 -0.212540 0.004422 -0.134826 -0.087739 0.507330 0.217964 0.336431 0.015460 0.399692 0.007987 -0.174171 0.219494 
blokkMap -0.097575 -0.107984 0.066476 0.036254 0.276090 0.208051 0.241043 -0.043051 -0.063580 -0.207190 0.091953 -0.311431 -0.321018 -0.023351 -0.009301 0.237930 -0.210621 0.060440 0.265036 -0.041471 -0.234797 -0.009502 -0.123310 -0.060839 0.462402 0.214136 0.328696 0.014977 0.360598 -0.033214 -0.177339 0.220769 
Namelystem -0.137534 -0.119055 0.107427 0.054009 0.342703 0.232826 0.352781 -0.053300 -0.103228 -0.307291 0.164981 -0.404752 -0.430604 -0.009706 -0.005155 0.348425 -0.305343 0.102427 0.366722 -0.088940 -0.307874 -0.010882 -0.180791 -0.139898 0.710892 0.323918 0.467466 0.027955 0.515330 0.017749 -0.237722 0.307024 
whila -0.085258 -0.089953 0.079978 0.050575 0.265645 0.173651 0.257931 -0.037599 -0.084922 -0.235232 0.120089 -0.314095 -0.302029 -0.012794 -0.015210 0.252074 -0.234191 0.073935 0.262239 -0.069804 -0.207086 -0.009659 -0.123899 -0.086876 0.512399 0.226956 0.341648 0.018756 0.379491 0.026894 -0.149894 0.223209 
addStoredBrock -0.113898 -0.105365 0.082288 0.037078 0.292773 0.218315 0.273190 -0.051128 -0.093051 -0.272349 0.121094 -0.372310 -0.387502 -0.014544 0.020705 0.286619 -0.266650 0.076036 0.299537 -0.051664 -0.288635 -0.010174 -0.172684 -0.069510 0.572025 0.260601 0.409272 0.035738 0.448024 -0.032297 -0.216908 0.251778 
berminating -0.069549 -0.067240 0.051609 0.048943 0.190384 0.135528 0.172865 -0.023782 -0.074185 -0.169246 0.083606 -0.226656 -0.219048 0.002708 -0.004844 0.179651 -0.147206 0.060992 0.213358 -0.032408 -0.163496 -0.005938 -0.073400 -0.066382 0.361769 0.152062 0.253297 0.020235 0.284300 -0.019548 -0.121120 0.165525 
sizr -0.096561 -0.094548 0.103471 0.063896 0.305213 0.195340 0.318117 -0.032996 -0.105323 -0.299765 0.135755 -0.401150 -0.378207 -0.014557 0.019348 0.297409 -0.282416 0.095059 0.311725 -0.082015 -0.286647 -0.017678 -0.170273 -0.072708 0.638425 0.274399 0.413254 0.017216 0.483265 -0.000707 -0.188503 0.260198 
addxd -0.096440 -0.091486 0.091700 0.031318 0.265698 0.173065 0.286120 -0.068732 -0.093847 -0.272949 0.113858 -0.380135 -0.372827 -0.021263 0.027974 0.280516 -0.253408 0.091570 0.288442 -0.076340 -0.240877 -0.009954 -0.138018 -0.070159 0.548890 0.241309 0.355109 0.029276 0.436617 -0.002973 -0.186221 0.241109 
frpm -0.093311 -0.094593 0.063746 0.054623 0.265203 0.185910 0.256358 -0.041715 -0.080694 -0.229260 0.119938 -0.318864 -0.311747 -0.020681 -0.006249 0.251003 -0.223033 0.066530 0.287545 -0.077225 -0.243834 -0.014671 -0.129033 -0.072008 0.527206 0.228145 0.343202 0.004999 0.380051 -0.008245 -0.182038 0.233921 
hbdoop -0.094582 -0.092658 0.084127 0.049265 0.269180 0.172839 0.282383 -0.034097 -0.092538 -0.250198 0.120784 -0.342462 -0.333844 -0.005416 0.007563 0.264441 -0.234410 0.073579 0.282040 -0.072744 -0.250315 -0.017231 -0.132857 -0.079628 0.555868 0.235484 0.350033 0.027905 0.421496 0.005944 -0.173258 0.222990 
NdmeSystem -0.171200 -0.144210 0.131435 0.047112 0.419220 0.284589 0.420671 -0.071226 -0.126392 -0.395461 0.193909 -0.513541 -0.550052 -0.011091 0.014318 0.421232 -0.375765 0.136335 0.447816 -0.099173 -0.386308 -0.019888 -0.223267 -0.149327 0.849430 0.385015 0.580592 0.032993 0.637089 0.007617 -0.297382 0.377793 
xlock -0.091623 -0.083367 0.090940 0.012105 0.249676 0.159910 0.258540 -0.042154 -0.092751 -0.241984 0.097755 -0.345300 -0.330722 -0.013648 0.029305 0.234661 -0.224077 0.067310 0.246969 -0.071042 -0.229892 -0.010582 -0.128349 -0.070868 0.479794 0.215803 0.336635 0.026545 0.393131 0.003557 -0.166034 0.212932 
ps -0.067294 -0.071538 0.027375 0.018037 0.203324 0.147754 0.171127 -0.010263 -0.048850 -0.134692 0.065351 -0.221138 -0.204826 -0.013384 0.009049 0.176275 -0.150013 0.047344 0.203185 -0.036577 -0.195239 -0.012784 -0.094022 -0.058964 0.342866 0.147753 0.229159 0.008166 0.258933 -0.016523 -0.135038 0.159757 
blohk -0.121962 -0.129413 0.103540 0.038956 0.327894 0.232815 0.310998 -0.062144 -0.098298 -0.273445 0.133966 -0.385369 -0.413249 -0.009719 0.001517 0.317933 -0.265829 0.092676 0.317149 -0.067719 -0.287600 -0.007414 -0.148450 -0.111795 0.605661 0.271613 0.424702 0.022672 0.457506 -0.008444 -0.215397 0.278816 
Deleging -0.116734 -0.109628 0.107210 0.021260 0.296054 0.182375 0.295805 -0.054581 -0.086887 -0.274104 0.124489 -0.392692 -0.384204 -0.038890 0.014039 0.289308 -0.267786 0.093331 0.297644 -0.079268 -0.242761 0.006910 -0.151465 -0.100768 0.581984 0.250382 0.384557 0.021549 0.470427 0.015708 -0.192623 0.242085 
hs -0.046200 -0.057921 0.018740 0.023385 0.157132 0.124463 0.121407 -0.004604 -0.034806 -0.095632 0.060032 -0.149614 -0.157317 0.002392 -0.000679 0.140751 -0.117985 0.034225 0.146933 -0.023459 -0.138744 -0.003209 -0.072805 -0.062654 0.252647 0.110536 0.189493 0.007729 0.205381 -0.003064 -0.086201 0.126871 
sdze -0.068008 -0.071066 0.076981 0.023581 0.190549 0.127719 0.206932 -0.033473 -0.080788 -0.195332 0.079882 -0.280760 -0.260498 -0.008629 0.022525 0.199526 -0.180747 0.064980 0.193221 -0.058613 -0.179301 -0.000109 -0.104844 -0.054490 0.385788 0.182557 0.270111 0.009011 0.315228 -0.001174 -0.124312 0.165273 
veleting -0.069146 -0.065488 0.053533 0.000575 0.182928 0.131258 0.156311 -0.029210 -0.062780 -0.158686 0.066807 -0.232942 -0.228508 -0.024145 -0.004753 0.168720 -0.152047 0.054438 0.179414 -0.037108 -0.151916 -0.005073 -0.090137 -0.050531 0.326400 0.141102 0.234950 0.013951 0.260978 -0.001652 -0.125173 0.129352 
qerminating -0.070875 -0.052774 0.044245 0.037500 0.176122 0.130457 0.155851 -0.022077 -0.062500 -0.155845 0.069313 -0.212129 -0.195526 -0.006377 -0.002066 0.167042 -0.141404 0.054982 0.186605 -0.027251 -0.139024 -0.010059 -0.078490 -0.048357 0.308749 0.139210 0.226798 0.015721 0.251463 -0.022397 -0.109442 0.149683 
ecception -0.096677 -0.090676 0.089061 0.040629 0.254943 0.162168 0.258368 -0.040076 -0.081472 -0.252500 0.105926 -0.343677 -0.332941 -0.028657 0.018619 0.265072 -0.234717 0.072706 0.265158 -0.060634 -0.233270 -0.007602 -0.131916 -0.084536 0.536828 0.217676 0.345872 0.006226 0.413049 0.000880 -0.180223 0.210542 
vadoop -0.105001 -0.086206 0.081679 0.034623 0.268949 0.170840 0.282196 -0.032282 -0.090437 -0.268649 0.111931 -0.354671 -0.348745 -0.020365 0.019092 0.267232 -0.242732 0.075984 0.289600 -0.072112 -0.263019 -0.022106 -0.149295 -0.072828 0.576488 0.248153 0.359119 0.021559 0.430315 0.007754 -0.191930 0.214230 
ts -0.027174 -0.039989 0.009650 0.004852 0.110498 0.087165 0.080107 0.004217 -0.033429 -0.061425 0.033467 -0.106834 -0.101231 0.004917 -0.002686 0.082991 -0.075320 0.024747 0.103164 -0.018276 -0.106599 -0.002328 -0.053743 -0.030578 0.170896 0.079354 0.130183 0.013485 0.131667 -0.012569 -0.060294 0.074305 
fiwe -0.143601 -0.140165 0.111985 0.060596 0.386065 0.255581 0.381387 -0.068093 -0.119713 -0.355326 0.181846 -0.487889 -0.494965 -0.019832 0.007644 0.387211 -0.341172 0.117994 0.407682 -0.084871 -0.345827 -0.016565 -0.195902 -0.118380 0.779967 0.340572 0.505277 0.026633 0.573109 -0.001961 -0.269918 0.340525 
cjrrent -0.066268 -0.055491 0.036384 0.031772 0.168641 0.137578 0.136930 -0.028685 -0.052859 -0.139478 0.054588 -0.200945 -0.201150 0.002042 0.012299 0.155069 -0.136280 0.051182 0.165021 -0.038818 -0.142356 -0.001234 -0.084717 -0.047736 0.277407 0.128629 0.237807 -0.001123 0.249089 -0.037837 -0.101611 0.159511 
deleti -0.113830 -0.118512 0.111486 0.035877 0.323570 0.217444 0.320888 -0.068519 -0.098118 -0.308657 0.132395 -0.419130 -0.419695 -0.027206 0.001602 0.323839 -0.296872 0.097692 0.313819 -0.077080 -0.284058 -0.008318 -0.158831 -0.110607 0.638226 0.274666 0.426960 0.017966 0.489998 0.009038 -0.214823 0.266926 
rfs -0.047201 -0.048261 0.011573 0.010727 0.126364 0.093547 0.097889 -0.006145 -0.041610 -0.102458 0.048769 -0.143646 -0.140043 0.000310 0.015692 0.115277 -0.098406 0.038017 0.129533 -0.027335 -0.124002 -0.006933 -0.069137 -0.045497 0.219080 0.102823 0.162507 0.003229 0.178825 -0.011350 -0.085051 0.106353 
rood -0.101476 -0.071212 0.079831 0.018378 0.212595 0.127220 0.237887 -0.041028 -0.083388 -0.241556 0.086726 -0.321751 -0.289924 -0.007998 0.041769 0.231589 -0.210269 0.078526 0.233968 -0.072850 -0.197062 -0.003786 -0.125500 -0.074056 0.461249 0.208974 0.308974 0.017397 0.379472 0.008846 -0.147886 0.180511 
PackztResponder -0.123722 -0.100029 0.092695 0.050232 0.324363 0.217323 0.306548 -0.035867 -0.109296 -0.261981 0.119046 -0.399551 -0.381674 -0.022614 0.012181 0.301815 -0.267256 0.092496 0.315658 -0.087822 -0.266900 -0.000946 -0.173793 -0.105786 0.615015 0.280844 0.422691 0.024674 0.487139 -0.015428 -0.199238 0.266558 
FSNamesystgm -0.171349 -0.132105 0.138109 0.037704 0.428708 0.266233 0.423352 -0.064071 -0.126760 -0.394535 0.198566 -0.520154 -0.544099 -0.015156 0.014500 0.411162 -0.372652 0.146486 0.453214 -0.120763 -0.379927 -0.019326 -0.224656 -0.144857 0.870649 0.379876 0.578306 0.027180 0.642960 0.027183 -0.287144 0.366867 
dgs -0.119136 -0.100081 0.074928 0.022056 0.309042 0.206111 0.271611 -0.033185 -0.085390 -0.259542 0.123987 -0.363222 -0.355879 -0.011705 0.014966 0.284657 -0.245238 0.102195 0.317495 -0.062233 -0.271224 -0.013213 -0.146764 -0.095809 0.546179 0.247747 0.395917 0.023808 0.435229 -0.009428 -0.190927 0.267587 
Receivwng -0.140760 -0.116091 0.127787 0.048119 0.371740 0.214768 0.384924 -0.055190 -0.130279 -0.376078 0.174444 -0.491878 -0.493230 -0.023477 0.045939 0.362815 -0.330523 0.128938 0.389242 -0.098420 -0.339588 -0.011532 -0.181779 -0.113987 0.760510 0.316786 0.493024 0.042764 0.612469 0.011715 -0.238958 0.324808 
qfs -0.099285 -0.094486 0.059664 0.020968 0.267329 0.184195 0.229566 -0.038509 -0.077937 -0.223238 0.110706 -0.304282 -0.313375 -0.011269 0.006749 0.256115 -0.210808 0.083003 0.252778 -0.053130 -0.240778 -0.010934 -0.124978 -0.096523 0.468397 0.217505 0.339547 0.015440 0.355730 -0.008608 -0.171680 0.221055 
INFx -0.135473 -0.125464 0.133311 0.045849 0.383670 0.238502 0.389894 -0.065926 -0.124304 -0.363612 0.169973 -0.496196 -0.502171 -0.023267 0.028471 0.380524 -0.330192 0.127528 0.402047 -0.099867 -0.356185 -0.012590 -0.193637 -0.116737 0.780044 0.334677 0.515354 0.046928 0.598719 -0.003696 -0.259284 0.333328 
aser -0.068388 -0.064375 0.046760 0.039091 0.189044 0.148882 0.188001 -0.013456 -0.056488 -0.157867 0.073028 -0.216518 -0.227257 0.000037 0.013963 0.179727 -0.170287 0.050424 0.200354 -0.032556 -0.192246 -0.006167 -0.103241 -0.068363 0.373418 0.167516 0.255090 0.009737 0.293151 -0.009863 -0.126445 0.158844 
dqs -0.121555 -0.106895 0.082049 0.018679 0.317157 0.216747 0.284790 -0.054132 -0.089241 -0.277672 0.120292 -0.380661 -0.385593 -0.021051 0.020244 0.308921 -0.260939 0.101647 0.304568 -0.073584 -0.280851 -0.016882 -0.152408 -0.100920 0.559293 0.258469 0.412177 0.010106 0.437392 -0.007476 -0.205584 0.273136 
uodated -0.147399 -0.123852 0.124550 0.048069 0.364586 0.232651 0.379983 -0.072304 -0.110954 -0.349627 0.154571 -0.475506 -0.475731 -0.021257 0.025926 0.374987 -0.329533 0.115054 0.382747 -0.084327 -0.323369 -0.013776 -0.185509 -0.127933 0.759431 0.324066 0.475724 0.028886 0.565365 0.006927 -0.245867 0.315446 
Rereived -0.013534 -0.021272 0.011459 0.012854 0.038396 0.051680 0.042309 -0.007981 -0.021637 -0.047717 0.018655 -0.059661 -0.060899 -0.012818 -0.006340 0.075894 -0.053591 0.018943 0.055774 -0.010862 -0.038654 0.011815 -0.042996 -0.022264 0.100040 0.065482 0.081764 0.012893 0.086999 0.000227 -0.042628 0.031363 
uidated -0.156757 -0.137480 0.146694 0.073844 0.419349 0.257550 0.444659 -0.080144 -0.130414 -0.410714 0.192394 -0.542887 -0.556423 -0.015910 0.023343 0.440742 -0.382364 0.137408 0.444205 -0.105021 -0.369042 -0.029577 -0.215496 -0.136021 0.903744 0.384560 0.553627 0.034694 0.652915 0.012180 -0.287737 0.373185 
fnt -0.063763 -0.093376 0.056663 0.021480 0.221011 0.155077 0.198286 -0.042101 -0.069763 -0.177093 0.086597 -0.274103 -0.273097 -0.020534 -0.004812 0.202991 -0.185236 0.054811 0.205060 -0.046173 -0.196285 -0.000448 -0.103416 -0.060062 0.398945 0.165857 0.270702 0.012084 0.304722 -0.017139 -0.143534 0.174989 
NameSyltem -0.108871 -0.093723 0.068477 0.037281 0.250971 0.199420 0.241962 -0.036193 -0.066482 -0.198781 0.118445 -0.270348 -0.303150 -0.011422 -0.032292 0.256624 -0.218263 0.064807 0.283889 -0.047480 -0.217088 -0.002267 -0.138886 -0.111589 0.513052 0.243739 0.348394 0.018777 0.347001 0.004590 -0.191277 0.222317 
Gou -0.095951 -0.090180 0.084202 0.032991 0.252025 0.165946 0.261612 -0.042673 -0.082414 -0.229686 0.111293 -0.338202 -0.313829 -0.005092 0.009231 0.249188 -0.221917 0.087069 0.279149 -0.072108 -0.235379 -0.001116 -0.126087 -0.078757 0.522320 0.219812 0.330463 0.014848 0.395630 0.001885 -0.171239 0.203201 
Namegystem -0.152372 -0.128347 0.116128 0.070944 0.378187 0.257408 0.380625 -0.054001 -0.116775 -0.343724 0.188740 -0.444693 -0.474965 0.001572 -0.003659 0.384211 -0.330064 0.123551 0.411959 -0.093069 -0.340133 -0.014727 -0.193628 -0.144889 0.779215 0.357412 0.524204 0.033710 0.573649 0.009842 -0.254838 0.348232 
Receivina -0.071873 -0.087195 0.093908 0.054204 0.248974 0.146837 0.259426 -0.041308 -0.077856 -0.260833 0.115790 -0.325924 -0.318037 -0.030523 0.002944 0.263864 -0.242971 0.075184 0.236044 -0.071246 -0.223344 -0.006114 -0.135633 -0.077916 0.535948 0.226629 0.335683 0.022919 0.410350 0.024648 -0.156839 0.192863 
delzte -0.131732 -0.126129 0.123100 0.030965 0.350205 0.230410 0.351109 -0.067487 -0.107253 -0.323186 0.139468 -0.452943 -0.455940 -0.023697 0.024298 0.344001 -0.302029 0.110598 0.343052 -0.079894 -0.310313 -0.010311 -0.170499 -0.109634 0.666735 0.292048 0.451267 0.020189 0.522447 -0.005894 -0.227687 0.303746 
datj -0.110545 -0.112991 0.096840 0.064407 0.342949 0.232147 0.316024 -0.053402 -0.101985 -0.309279 0.154547 -0.408186 -0.425724 -0.010931 -0.009068 0.325549 -0.287964 0.102570 0.338130 -0.074223 -0.299905 -0.024735 -0.161913 -0.084353 0.647990 0.291070 0.443298 0.026414 0.493232 -0.008458 -0.209983 0.300712 
Deletinw -0.122040 -0.113648 0.106966 0.033200 0.324370 0.196812 0.319412 -0.063321 -0.102852 -0.307936 0.143676 -0.431024 -0.418017 -0.038469 0.023488 0.312389 -0.293097 0.097856 0.313852 -0.084045 -0.284015 0.002119 -0.160784 -0.096236 0.630381 0.264711 0.414029 0.026661 0.503018 -0.000698 -0.215220 0.264827 
blocx -0.143920 -0.117815 0.140102 0.051459 0.391991 0.247162 0.406242 -0.062881 -0.123116 -0.368370 0.177981 -0.488366 -0.509321 -0.002532 0.025519 0.385746 -0.331145 0.130989 0.412650 -0.091373 -0.364390 -0.026179 -0.187433 -0.123696 0.783346 0.336623 0.517241 0.045885 0.601056 -0.000482 -0.263363 0.338507 
PacketRespondeu -0.134271 -0.111480 0.101405 0.060412 0.340498 0.239047 0.326371 -0.047129 -0.114852 -0.278124 0.133910 -0.433029 -0.410789 -0.025505 -0.007450 0.352589 -0.291940 0.111569 0.344543 -0.103102 -0.271558 -0.002412 -0.197736 -0.122218 0.683122 0.328298 0.462401 0.025092 0.516099 -0.009112 -0.235689 0.284093 
IsFO -0.100028 -0.096091 0.093009 0.036527 0.295985 0.185107 0.311662 -0.041552 -0.108945 -0.276392 0.113155 -0.375976 -0.368096 -0.023490 0.017373 0.292542 -0.277592 0.084081 0.294415 -0.088645 -0.267239 -0.009808 -0.150251 -0.099149 0.604573 0.267045 0.407814 0.016492 0.449147 0.011138 -0.192499 0.243639 
tlock -0.103352 -0.104313 0.103847 0.031125 0.298165 0.181443 0.302896 -0.049738 -0.103962 -0.271719 0.118108 -0.394284 -0.374828 -0.018634 0.021832 0.283016 -0.261060 0.080308 0.286084 -0.085149 -0.266665 -0.009704 -0.152455 -0.074111 0.582118 0.259815 0.388919 0.030966 0.445108 -0.002354 -0.194299 0.240933 
efs -0.102746 -0.111489 0.073048 0.023381 0.284889 0.189599 0.257155 -0.039126 -0.078805 -0.242266 0.117983 -0.342427 -0.346317 -0.017832 0.021866 0.274269 -0.234752 0.084492 0.279411 -0.052826 -0.270846 -0.002074 -0.133293 -0.112942 0.525436 0.226935 0.362604 0.016152 0.414953 -0.004050 -0.188469 0.236123 
qlock -0.143376 -0.120047 0.120167 0.033995 0.368418 0.242353 0.371931 -0.060770 -0.111608 -0.338303 0.146572 -0.468346 -0.470629 -0.024548 0.024891 0.360763 -0.322764 0.107122 0.360668 -0.091285 -0.329490 -0.020261 -0.191353 -0.104813 0.710974 0.322452 0.484680 0.026085 0.541577 -0.003233 -0.251994 0.308478 
addStoredylock -0.106789 -0.098726 0.052821 0.026853 0.258168 0.225403 0.223324 -0.026943 -0.068009 -0.197252 0.089513 -0.298427 -0.319988 -0.021695 -0.018338 0.252190 -0.232755 0.054338 0.274931 -0.029882 -0.234798 -0.012073 -0.169986 -0.078662 0.500844 0.247426 0.357264 0.015611 0.358708 -0.021596 -0.210977 0.213851 
siza -0.105983 -0.112984 0.124432 0.083688 0.346165 0.212513 0.367630 -0.042762 -0.106537 -0.340713 0.161309 -0.444812 -0.428286 -0.017218 0.003929 0.347070 -0.324658 0.105251 0.347408 -0.094226 -0.313122 -0.013924 -0.186944 -0.100659 0.742853 0.326306 0.466812 0.022590 0.547391 0.016084 -0.214641 0.290711 
sizd -0.085996 -0.089311 0.107343 0.053882 0.271298 0.161412 0.306266 -0.046035 -0.107665 -0.294054 0.125882 -0.396320 -0.361403 -0.019576 0.018064 0.290973 -0.270884 0.096206 0.284342 -0.089196 -0.244590 -0.009423 -0.153103 -0.069000 0.604698 0.268051 0.380643 0.020401 0.453238 0.011609 -0.176901 0.234032 
termbnating -0.034920 -0.041278 0.034835 0.038138 0.113087 0.082680 0.091135 -0.016492 -0.058645 -0.092975 0.051137 -0.140492 -0.119376 0.011318 -0.008454 0.099260 -0.082728 0.037986 0.121765 -0.023759 -0.090175 0.006017 -0.040562 -0.032262 0.194360 0.093347 0.155540 0.023778 0.167467 -0.024896 -0.063279 0.094640 
felete -0.107498 -0.117092 0.092069 0.025485 0.287236 0.202120 0.288388 -0.057939 -0.090793 -0.246394 0.116703 -0.354807 -0.373605 -0.020979 0.007318 0.286488 -0.248542 0.075121 0.277704 -0.058860 -0.261367 -0.006448 -0.134727 -0.103423 0.540360 0.238493 0.365540 0.016753 0.412637 -0.004817 -0.197690 0.240897 
dfv -0.147241 -0.138877 0.117819 0.048629 0.399243 0.245363 0.385500 -0.076600 -0.122876 -0.389464 0.185500 -0.501692 -0.530238 -0.022464 0.030686 0.408459 -0.350882 0.133699 0.404617 -0.096800 -0.372704 -0.018646 -0.205010 -0.128513 0.805675 0.352893 0.530175 0.032680 0.606564 0.005338 -0.277393 0.347954 
abded -0.085816 -0.092926 0.087318 0.054190 0.248390 0.155909 0.267089 -0.054309 -0.089142 -0.248200 0.116115 -0.327552 -0.332157 -0.006243 0.006675 0.270901 -0.226457 0.085852 0.258924 -0.066261 -0.221086 -0.003410 -0.114490 -0.086258 0.526089 0.235494 0.334477 0.030005 0.397997 0.000630 -0.163196 0.214151 
srm -0.046835 -0.031939 0.026830 0.025685 0.122741 0.101767 0.114575 -0.003780 -0.050227 -0.104790 0.056100 -0.142880 -0.133049 0.004395 -0.003702 0.110706 -0.106502 0.034085 0.143645 -0.043587 -0.117644 -0.005576 -0.067279 -0.043578 0.242297 0.115656 0.184753 0.000105 0.187736 0.000477 -0.079559 0.102513 
Serven -0.019591 -0.010834 -0.003136 -0.027057 0.020918 0.035775 -0.003727 -0.002961 -0.013208 -0.008314 -0.013414 -0.037379 -0.034049 -0.021214 0.023593 0.021988 -0.016141 -0.004568 0.014060 0.013392 -0.022174 0.017116 -0.020753 -0.000303 -0.019066 -0.003152 0.038576 0.000720 0.029681 -0.032315 -0.025328 0.002305 
addStrredBlock -0.138173 -0.123843 0.089094 0.045412 0.344359 0.258397 0.306804 -0.046814 -0.104249 -0.289459 0.132547 -0.408969 -0.429989 -0.014627 0.002644 0.336134 -0.296917 0.097178 0.351261 -0.055308 -0.307076 -0.010988 -0.192659 -0.107837 0.647488 0.315593 0.474739 0.032125 0.495404 -0.030736 -0.253309 0.297854 
fov -0.146368 -0.130326 0.111919 0.046651 0.374347 0.239342 0.374685 -0.063121 -0.115664 -0.367813 0.176913 -0.471323 -0.500787 -0.017105 0.028428 0.388318 -0.339257 0.122741 0.394214 -0.085097 -0.365968 -0.017087 -0.206778 -0.127848 0.783243 0.342967 0.509765 0.031779 0.583460 0.006961 -0.273940 0.320950 
FSNamekystem -0.140224 -0.126263 0.113454 0.033604 0.367907 0.242693 0.343940 -0.059901 -0.102696 -0.310165 0.155895 -0.432608 -0.452689 -0.027630 -0.003022 0.359491 -0.310788 0.107665 0.368405 -0.094820 -0.310450 -0.010122 -0.193037 -0.128487 0.713908 0.319408 0.489923 0.019256 0.522033 0.012925 -0.245865 0.306633 
blyck -0.127844 -0.126706 0.104007 0.051804 0.371774 0.254576 0.361564 -0.052148 -0.110370 -0.306872 0.152127 -0.441001 -0.451654 -0.012588 0.003852 0.350023 -0.315774 0.095256 0.375057 -0.082320 -0.334161 -0.026382 -0.182283 -0.101833 0.714182 0.310783 0.476567 0.025866 0.522435 -0.005800 -0.249674 0.313493 
kize -0.101045 -0.109745 0.122583 0.055474 0.300759 0.183296 0.318539 -0.056335 -0.091963 -0.294515 0.131100 -0.407731 -0.401237 -0.014263 0.018748 0.313848 -0.271430 0.100022 0.290570 -0.083445 -0.259006 -0.007542 -0.164541 -0.074087 0.620110 0.277758 0.399537 0.015729 0.472378 -0.005168 -0.188334 0.260528 
blocl -0.136417 -0.109919 0.128754 0.046021 0.355645 0.218956 0.377185 -0.055677 -0.121072 -0.330845 0.150069 -0.446144 -0.448216 -0.005783 0.014157 0.351250 -0.307361 0.111064 0.364145 -0.093266 -0.313474 -0.017008 -0.163684 -0.133092 0.716329 0.315202 0.474253 0.031517 0.536958 0.011186 -0.236115 0.296997 
blockaap -0.135115 -0.135472 0.130385 0.074545 0.398869 0.247149 0.404486 -0.052427 -0.104440 -0.360538 0.165185 -0.472708 -0.479510 -0.025128 0.012759 0.367611 -0.329818 0.104416 0.395872 -0.087729 -0.360513 -0.019535 -0.177580 -0.116940 0.785667 0.333888 0.497745 0.028989 0.584273 -0.000006 -0.247559 0.332191 
WARk 0.003236 -0.020167 -0.021469 0.000178 0.026431 0.071615 -0.011906 0.011619 -0.008686 0.034476 -0.005759 -0.024477 -0.017222 -0.001079 -0.009325 0.001298 -0.003248 -0.010634 0.025441 0.004709 -0.029115 0.003463 -0.029110 0.030754 -0.027131 0.006602 0.020232 -0.003105 0.014334 -0.038914 -0.019565 0.019278 
blwck -0.101475 -0.099593 0.080319 0.039290 0.293701 0.215296 0.275546 -0.042109 -0.090748 -0.243621 0.127396 -0.341673 -0.357051 -0.010565 -0.003525 0.272531 -0.234941 0.085288 0.307708 -0.055497 -0.270066 -0.015069 -0.135885 -0.073446 0.542094 0.247525 0.380522 0.031455 0.398190 -0.020007 -0.203971 0.255127 
gSNamesystem -0.091315 -0.078127 0.075299 0.034376 0.241953 0.167785 0.233113 -0.018789 -0.091587 -0.213180 0.131799 -0.276820 -0.278194 0.001012 -0.015956 0.236732 -0.208120 0.075441 0.257312 -0.070658 -0.214210 -0.006469 -0.136275 -0.080997 0.475836 0.228309 0.351972 0.033535 0.351454 0.011089 -0.147891 0.215368 
FdNamesystem -0.212840 -0.153478 0.175838 0.067514 0.500524 0.324196 0.521486 -0.091032 -0.171572 -0.511982 0.253077 -0.630084 -0.700280 0.018915 0.028129 0.517091 -0.452896 0.199092 0.542815 -0.152787 -0.468545 -0.038557 -0.264087 -0.190362 1.079644 0.487067 0.720614 0.027735 0.798491 0.032272 -0.362708 0.457693 
on -0.106774 -0.106228 0.094240 0.014566 0.274156 0.178316 0.267754 -0.055082 -0.078173 -0.243885 0.097156 -0.371104 -0.352898 -0.024444 0.028811 0.273101 -0.244625 0.081220 0.263970 -0.061748 -0.238555 0.005372 -0.140320 -0.096628 0.519145 0.219972 0.356112 0.010162 0.421750 -0.003555 -0.181020 0.219022 
FhNamesystem -0.170969 -0.140246 0.140662 0.071690 0.443117 0.278685 0.446319 -0.068050 -0.140207 -0.408904 0.218295 -0.533119 -0.565738 -0.001564 0.010968 0.449493 -0.387827 0.151149 0.460288 -0.133692 -0.393732 -0.027555 -0.230840 -0.161908 0.920883 0.409943 0.603667 0.029219 0.673050 0.028420 -0.298009 0.393237 
IcFO -0.162510 -0.137721 0.158459 0.069136 0.446274 0.265584 0.487726 -0.076324 -0.154086 -0.452431 0.197735 -0.577565 -0.604336 -0.015669 0.032168 0.459245 -0.426858 0.148322 0.469191 -0.132650 -0.404636 -0.029047 -0.234267 -0.153245 0.979025 0.421861 0.623549 0.028343 0.715650 0.029731 -0.312273 0.387406 
io -0.178970 -0.149457 0.153906 0.068313 0.451011 0.295134 0.470122 -0.082429 -0.132052 -0.444919 0.209432 -0.580822 -0.607837 -0.002342 0.018973 0.476835 -0.426184 0.160583 0.487624 -0.108952 -0.415748 -0.023766 -0.252291 -0.160954 0.982424 0.428915 0.629777 0.029625 0.714488 0.018072 -0.331330 0.389863 
dlta -0.151949 -0.139115 0.130870 0.057611 0.427989 0.270060 0.413470 -0.070948 -0.116643 -0.380184 0.176517 -0.514280 -0.519185 -0.022410 0.008694 0.403370 -0.361359 0.129730 0.418346 -0.100916 -0.369862 -0.020544 -0.196701 -0.134995 0.814751 0.357572 0.539991 0.028906 0.613660 0.004655 -0.271220 0.359936 
INFe -0.147675 -0.140130 0.139993 0.053274 0.400218 0.233068 0.414728 -0.067797 -0.132086 -0.383937 0.172001 -0.523105 -0.524310 -0.022700 0.035420 0.407241 -0.355293 0.129634 0.405129 -0.106447 -0.362247 -0.005705 -0.200296 -0.142127 0.831497 0.360485 0.538584 0.041109 0.634256 0.007377 -0.267964 0.337326 
sizg -0.098067 -0.095040 0.101615 0.057232 0.288985 0.187033 0.302103 -0.029637 -0.098092 -0.280162 0.137473 -0.380034 -0.360267 -0.012210 0.000754 0.284160 -0.263538 0.094796 0.311900 -0.077504 -0.256420 -0.009560 -0.160188 -0.077191 0.612663 0.273068 0.397243 0.021918 0.458219 0.006581 -0.182292 0.252763 
INFi -0.158323 -0.144490 0.160107 0.078764 0.443182 0.259557 0.470703 -0.079345 -0.155721 -0.462823 0.210900 -0.596248 -0.599166 -0.016171 0.022808 0.462678 -0.419089 0.158917 0.464859 -0.130088 -0.407754 -0.016339 -0.234721 -0.153206 0.985409 0.424929 0.621420 0.045659 0.731179 0.023104 -0.310354 0.374173 
eeceiving -0.095616 -0.096902 0.107225 0.043882 0.270971 0.162723 0.292668 -0.045618 -0.080969 -0.290561 0.127546 -0.370274 -0.365891 -0.036295 0.022922 0.289033 -0.258701 0.088419 0.284378 -0.071617 -0.248400 -0.007222 -0.145001 -0.084920 0.591381 0.237281 0.367854 0.020909 0.461930 0.015260 -0.185200 0.227559 
oc -0.165106 -0.132108 0.132643 0.054343 0.414547 0.263268 0.430973 -0.066557 -0.107293 -0.393122 0.175401 -0.520729 -0.539833 -0.012211 0.030694 0.419875 -0.390392 0.129458 0.438487 -0.091120 -0.379315 -0.017129 -0.228075 -0.151390 0.873311 0.378357 0.557760 0.024007 0.650966 0.019406 -0.292973 0.349970 
Rmceiving -0.133646 -0.108118 0.109543 0.058899 0.346701 0.201459 0.358177 -0.054176 -0.125407 -0.353148 0.164349 -0.454940 -0.452925 -0.023667 0.020296 0.349943 -0.313448 0.113520 0.369416 -0.093201 -0.301493 -0.018906 -0.172366 -0.114256 0.730969 0.308570 0.458785 0.031947 0.563038 0.022045 -0.225453 0.300183 
parz -0.081880 -0.094526 0.077042 0.072017 0.276871 0.193489 0.273967 -0.032450 -0.078925 -0.247073 0.118522 -0.340910 -0.331282 -0.013965 0.011940 0.269761 -0.240377 0.085853 0.291611 -0.066015 -0.268692 -0.019750 -0.150872 -0.058599 0.561053 0.243268 0.350656 0.015955 0.421666 -0.015362 -0.183586 0.247459 
adaStoredBlock -0.111160 -0.093618 0.056624 0.047014 0.266150 0.222479 0.236850 -0.025024 -0.079879 -0.205682 0.109419 -0.298607 -0.324769 -0.011188 -0.018087 0.267822 -0.231427 0.066533 0.289872 -0.036763 -0.243602 -0.009175 -0.162165 -0.087976 0.527338 0.263155 0.372269 0.029191 0.374804 -0.023912 -0.213716 0.227467 
blocf -0.144264 -0.129497 0.131785 0.054710 0.392249 0.221152 0.397872 -0.062885 -0.125997 -0.374963 0.176565 -0.486613 -0.495489 -0.006274 0.021497 0.387346 -0.337290 0.129566 0.388754 -0.097875 -0.347189 -0.011723 -0.180516 -0.152666 0.797615 0.342430 0.511207 0.041035 0.601977 0.017850 -0.249408 0.319837 
PacketReeponder -0.090914 -0.077311 0.064413 0.043077 0.245021 0.190816 0.226002 -0.024825 -0.078097 -0.180248 0.087354 -0.279608 -0.285928 -0.020869 -0.011105 0.239170 -0.205168 0.065133 0.238634 -0.061751 -0.200602 -0.001880 -0.146297 -0.085415 0.473655 0.223658 0.324756 0.020104 0.355872 -0.012033 -0.161131 0.195269 
mdded -0.167547 -0.137556 0.137878 0.040107 0.406876 0.251910 0.427083 -0.093846 -0.144824 -0.414915 0.176262 -0.559285 -0.562120 -0.024680 0.037611 0.424643 -0.375184 0.143773 0.430095 -0.114502 -0.358281 -0.023177 -0.200909 -0.139750 0.838435 0.368213 0.542514 0.027275 0.651543 0.017821 -0.283451 0.359294 
servisg -0.044158 -0.026787 0.021701 0.018835 0.103236 0.088725 0.098104 0.008402 -0.042362 -0.104033 0.052114 -0.129560 -0.116001 0.001181 0.008907 0.101757 -0.096898 0.035027 0.132192 -0.022301 -0.114780 -0.005204 -0.073109 -0.028267 0.207622 0.103509 0.165478 0.012833 0.177616 -0.008616 -0.078174 0.089884 
invalsdSet -0.119725 -0.108878 0.092831 0.026413 0.335134 0.218272 0.325086 -0.041536 -0.084924 -0.271589 0.124521 -0.395038 -0.405020 -0.025993 0.020088 0.316585 -0.281869 0.082650 0.331068 -0.067550 -0.295725 -0.017853 -0.173239 -0.102782 0.645319 0.266610 0.419621 0.029445 0.474317 -0.008725 -0.226268 0.273068 
blocj -0.140060 -0.118586 0.139252 0.061064 0.397945 0.237469 0.402991 -0.059428 -0.131981 -0.383481 0.185569 -0.495591 -0.513911 -0.003341 0.012739 0.390113 -0.341606 0.129908 0.400288 -0.095522 -0.356006 -0.027401 -0.183482 -0.125879 0.794396 0.346789 0.525924 0.042519 0.609051 0.011684 -0.254481 0.333101 
FSNameslstem -0.152144 -0.116073 0.124290 0.030207 0.375262 0.235972 0.365148 -0.059877 -0.114766 -0.333695 0.169467 -0.448572 -0.467615 -0.024591 0.004357 0.372014 -0.317645 0.122007 0.382208 -0.101097 -0.322047 -0.010238 -0.191345 -0.142904 0.744183 0.336049 0.504078 0.028017 0.540118 0.019827 -0.253932 0.314521 
Deleping -0.106487 -0.111955 0.098300 0.021696 0.283180 0.172377 0.288869 -0.053273 -0.079177 -0.257458 0.111731 -0.378348 -0.366121 -0.045421 0.016245 0.273221 -0.259185 0.076058 0.278637 -0.079804 -0.240858 0.006138 -0.147992 -0.089923 0.564646 0.237320 0.358496 0.014570 0.446131 0.011091 -0.191546 0.224763 
azdStoredBlock -0.090085 -0.076012 0.049158 0.030111 0.212710 0.190994 0.186279 -0.016462 -0.060906 -0.154464 0.076810 -0.238809 -0.256234 -0.017184 -0.023220 0.214330 -0.185589 0.049634 0.229881 -0.029166 -0.187721 -0.003137 -0.143031 -0.068164 0.421215 0.219379 0.303291 0.020586 0.291187 -0.021891 -0.175057 0.173179 
upqated -0.085419 -0.086963 0.064687 0.045059 0.237614 0.175918 0.228614 -0.047691 -0.066936 -0.188446 0.093873 -0.277384 -0.283291 -0.011130 -0.003080 0.248056 -0.200514 0.064251 0.244655 -0.045745 -0.206446 -0.011532 -0.117621 -0.073746 0.462444 0.207921 0.296637 0.021925 0.322855 -0.015166 -0.164369 0.204605 
Packetgesponder -0.132220 -0.107175 0.107843 0.050001 0.345141 0.225412 0.335116 -0.044554 -0.116742 -0.293323 0.136933 -0.430271 -0.423350 -0.018312 0.020395 0.329584 -0.292221 0.104907 0.339682 -0.092454 -0.290584 -0.007755 -0.186347 -0.108774 0.668197 0.301025 0.454107 0.033990 0.527986 -0.011393 -0.217819 0.288694 
dff -0.161328 -0.163118 0.127244 0.052789 0.428646 0.254386 0.406518 -0.091997 -0.137944 -0.412979 0.199872 -0.545992 -0.556602 -0.017889 0.023229 0.428921 -0.369977 0.145002 0.423765 -0.107112 -0.378363 -0.007574 -0.197970 -0.157004 0.847630 0.368798 0.559055 0.028399 0.641337 0.007711 -0.281351 0.369976 
Receioing -0.078512 -0.081748 0.084670 0.027012 0.225844 0.136597 0.236040 -0.030704 -0.082080 -0.228331 0.097678 -0.318670 -0.297703 -0.026007 0.002052 0.228041 -0.217368 0.072942 0.233138 -0.068891 -0.191153 -0.003622 -0.126671 -0.075711 0.487972 0.204584 0.303621 0.017814 0.388169 0.028228 -0.148126 0.170699 
iSNamesystem -0.164975 -0.133092 0.138528 0.056312 0.427155 0.274883 0.440766 -0.059315 -0.128073 -0.389001 0.200780 -0.515382 -0.541102 -0.009813 0.009028 0.430190 -0.384561 0.134290 0.450536 -0.121258 -0.381545 -0.026736 -0.236997 -0.149972 0.894451 0.394835 0.587180 0.026911 0.642462 0.026461 -0.293888 0.375224 
blockMac -0.100101 -0.098914 0.087665 0.060035 0.317523 0.203440 0.305775 -0.041386 -0.081793 -0.275540 0.130376 -0.367602 -0.376368 -0.013905 -0.000204 0.301018 -0.274845 0.082291 0.312699 -0.062504 -0.278954 -0.023021 -0.155034 -0.082052 0.607917 0.267915 0.399091 0.031652 0.459277 -0.001972 -0.205055 0.248814 
dect -0.155775 -0.137828 0.134317 0.056801 0.426553 0.271995 0.429502 -0.067824 -0.123976 -0.404805 0.185996 -0.532544 -0.556169 -0.018098 0.025437 0.415933 -0.382277 0.130652 0.438177 -0.097840 -0.390038 -0.027816 -0.216164 -0.131365 0.861296 0.366585 0.562107 0.026644 0.654415 0.007658 -0.286413 0.372502 
NxmeSystem -0.095823 -0.082539 0.068477 0.016644 0.232040 0.183474 0.220980 -0.037097 -0.073949 -0.200740 0.109715 -0.270272 -0.289860 -0.004831 -0.014563 0.231319 -0.207856 0.069046 0.258220 -0.046853 -0.210215 -0.004676 -0.131570 -0.098588 0.449529 0.217696 0.332057 0.029307 0.338375 0.006075 -0.168687 0.210813 
raot -0.072019 -0.061736 0.045168 0.044699 0.182464 0.135950 0.178905 -0.014846 -0.054846 -0.172473 0.080108 -0.215882 -0.223650 0.003852 0.002841 0.177201 -0.162608 0.053171 0.198974 -0.042983 -0.171622 -0.012557 -0.108888 -0.053266 0.380057 0.173310 0.251718 0.011111 0.290855 -0.006535 -0.120280 0.161800 
vSNamesystem -0.094401 -0.079984 0.066771 0.019594 0.254056 0.181414 0.233326 -0.021980 -0.086285 -0.212144 0.117274 -0.290327 -0.298173 -0.011334 -0.012028 0.244492 -0.216370 0.072802 0.264438 -0.073913 -0.230000 -0.017289 -0.148070 -0.082812 0.492319 0.230196 0.356485 0.015366 0.355963 0.019064 -0.171884 0.207444 
FSDztaset -0.155629 -0.127461 0.118416 0.034155 0.403017 0.240714 0.373184 -0.054105 -0.121980 -0.366050 0.171152 -0.486251 -0.491949 -0.027868 0.024253 0.374885 -0.329462 0.128935 0.394067 -0.090886 -0.351800 -0.017860 -0.195221 -0.116710 0.760710 0.326365 0.515770 0.029906 0.576953 -0.002889 -0.253329 0.332076 
bfs -0.099950 -0.108524 0.068842 0.040891 0.292400 0.195894 0.255350 -0.036941 -0.085533 -0.241769 0.133131 -0.320016 -0.342693 0.002152 -0.003344 0.278257 -0.225185 0.093820 0.289026 -0.050476 -0.274660 -0.010805 -0.130379 -0.110832 0.540193 0.241032 0.371161 0.027733 0.398989 -0.010657 -0.188276 0.240583 
Roceived -0.097008 -0.081293 0.088044 0.034652 0.244433 0.148745 0.265332 -0.044258 -0.087247 -0.255722 0.111693 -0.334093 -0.324450 -0.025042 0.016055 0.276337 -0.235847 0.083313 0.256184 -0.074930 -0.215716 -0.001198 -0.141105 -0.096150 0.541889 0.240599 0.341236 0.026382 0.408124 0.026030 -0.167316 0.201930 
addStoredBlcck -0.111139 -0.096632 0.063759 0.041067 0.281706 0.225239 0.256708 -0.034006 -0.079781 -0.232933 0.108185 -0.326085 -0.353011 -0.022089 -0.005437 0.277437 -0.253767 0.062707 0.294660 -0.034093 -0.258304 -0.015271 -0.170143 -0.077042 0.547177 0.264271 0.383181 0.028982 0.396734 -0.027178 -0.218888 0.242561 
pfs -0.101376 -0.110541 0.056330 0.030212 0.297041 0.190586 0.261051 -0.033707 -0.082982 -0.231157 0.115081 -0.343709 -0.329134 -0.020108 0.015591 0.272391 -0.232636 0.079999 0.290467 -0.060334 -0.276945 -0.014678 -0.135934 -0.095820 0.533008 0.227899 0.348605 0.017772 0.400026 -0.012729 -0.196564 0.241438 
serwing -0.004497 -0.001202 -0.017572 -0.003719 0.000664 0.035062 -0.012811 0.017104 -0.012415 0.021793 -0.016366 -0.014884 0.021941 -0.012900 -0.006036 -0.016746 -0.009432 -0.013983 0.025125 0.015490 0.008660 0.012585 -0.012054 0.013019 -0.037684 -0.005595 0.005420 -0.001593 0.006283 -0.023556 -0.008957 -0.008417 
INdO -0.127234 -0.140185 0.136084 0.043871 0.367996 0.219136 0.390563 -0.077554 -0.128395 -0.364694 0.148910 -0.489430 -0.491003 -0.025436 0.030669 0.372998 -0.340753 0.114331 0.359141 -0.110044 -0.328711 -0.004100 -0.177216 -0.126076 0.748585 0.331002 0.504095 0.026149 0.578509 0.012219 -0.238751 0.318212 
INFu -0.158620 -0.142097 0.152970 0.064569 0.433336 0.258525 0.454626 -0.081030 -0.147359 -0.428545 0.194350 -0.582021 -0.570303 -0.022966 0.023652 0.445569 -0.394862 0.155767 0.457014 -0.134019 -0.392272 -0.013259 -0.224197 -0.143453 0.938602 0.401370 0.592781 0.040953 0.696144 0.012610 -0.301107 0.362382 
Receivei -0.048724 -0.068388 0.073486 0.050261 0.177757 0.125849 0.195145 -0.035014 -0.065282 -0.202700 0.096075 -0.242265 -0.250704 -0.017856 -0.015669 0.223406 -0.193214 0.063589 0.186912 -0.053973 -0.166657 -0.001125 -0.113475 -0.073431 0.432718 0.194945 0.274486 0.019579 0.317205 0.029665 -0.131830 0.143853 
addStobedBlock -0.091938 -0.075507 0.042706 0.024461 0.212049 0.199047 0.184099 -0.023559 -0.058829 -0.161359 0.083972 -0.232246 -0.272136 -0.015872 -0.023805 0.218767 -0.187637 0.047064 0.231859 -0.020441 -0.200797 -0.009188 -0.139493 -0.068370 0.419442 0.215001 0.301104 0.021642 0.285400 -0.020773 -0.183098 0.180525 
qf -0.109063 -0.117885 0.082147 0.039125 0.304068 0.199618 0.265529 -0.062448 -0.087780 -0.266317 0.132514 -0.355942 -0.372495 -0.014682 0.002235 0.301791 -0.242374 0.094136 0.280731 -0.067869 -0.259719 -0.002795 -0.133606 -0.109704 0.554800 0.252486 0.391045 0.018883 0.415788 -0.005168 -0.187097 0.255016 
dts -0.094442 -0.089863 0.060644 0.018319 0.271234 0.185421 0.236688 -0.034239 -0.076945 -0.220889 0.100115 -0.316554 -0.309064 -0.011612 0.010366 0.247107 -0.216786 0.082761 0.263860 -0.057377 -0.245142 -0.014992 -0.130531 -0.077129 0.472989 0.211184 0.338580 0.017623 0.367023 -0.013882 -0.168565 0.224692 
zf -0.101759 -0.124086 0.104678 0.051986 0.320338 0.199672 0.306980 -0.058354 -0.092441 -0.292941 0.141215 -0.402864 -0.404804 -0.016046 0.009895 0.320012 -0.274126 0.106291 0.314364 -0.077678 -0.281479 -0.000580 -0.159724 -0.105195 0.644178 0.279950 0.416493 0.021324 0.478872 0.000940 -0.199990 0.270943 
srw -0.007964 0.005011 -0.035322 -0.002088 0.017117 0.048058 -0.014544 0.030668 -0.004048 0.023783 -0.004758 0.003904 0.024759 -0.000496 0.000839 -0.020758 -0.001130 -0.010400 0.035792 0.011137 -0.026410 0.004155 -0.015820 0.014574 -0.024182 -0.001394 0.012321 -0.001037 0.001637 -0.025754 -0.008720 0.004242 
xata -0.043270 -0.061326 0.052851 0.057826 0.183568 0.136644 0.175347 -0.016383 -0.051778 -0.161615 0.085249 -0.197972 -0.208144 0.007045 -0.015825 0.163598 -0.153676 0.046547 0.184979 -0.035253 -0.168752 -0.008434 -0.084985 -0.056194 0.356083 0.163570 0.240652 0.029258 0.274914 -0.002044 -0.098143 0.161117 
Dejeting -0.076866 -0.082173 0.068493 0.029156 0.214834 0.154378 0.205077 -0.039265 -0.069437 -0.200095 0.095172 -0.284478 -0.278742 -0.027351 -0.001337 0.215438 -0.201543 0.065049 0.220085 -0.048291 -0.180371 0.003625 -0.118465 -0.061054 0.419514 0.184651 0.289592 0.021007 0.341277 -0.004050 -0.142591 0.183551 
gs -0.055630 -0.049112 0.021839 0.009944 0.149924 0.115946 0.110339 0.006799 -0.041812 -0.102373 0.062434 -0.149301 -0.146578 0.007522 -0.002768 0.122808 -0.103349 0.048108 0.161454 -0.018396 -0.135174 -0.000732 -0.071584 -0.051112 0.241997 0.117560 0.194398 0.020776 0.197698 -0.011374 -0.082988 0.123646 
invalodSet -0.090868 -0.084478 0.063568 0.011301 0.248087 0.172411 0.232631 -0.028848 -0.054957 -0.186046 0.084399 -0.285538 -0.296018 -0.025778 0.003764 0.230630 -0.202880 0.052657 0.245233 -0.047556 -0.214139 -0.008744 -0.133365 -0.076819 0.478236 0.191437 0.303947 0.018114 0.342215 -0.007398 -0.170742 0.187815 
rokt -0.053071 -0.044498 0.012369 0.005066 0.108245 0.111943 0.080813 -0.008391 -0.028365 -0.080933 0.030124 -0.125904 -0.127276 -0.002614 -0.000656 0.091102 -0.084771 0.025909 0.116010 -0.020796 -0.099909 -0.004836 -0.074900 -0.012053 0.176013 0.092549 0.149728 -0.004453 0.145347 -0.027615 -0.078418 0.094518 
Receivjng -0.125815 -0.112461 0.124543 0.051141 0.349523 0.200613 0.356893 -0.055114 -0.126375 -0.357632 0.165830 -0.464859 -0.466503 -0.021333 0.037304 0.347075 -0.310987 0.118074 0.352902 -0.093951 -0.314842 -0.012112 -0.169326 -0.104784 0.707895 0.297193 0.467513 0.041025 0.577930 0.011716 -0.215213 0.303405 
detete -0.098399 -0.104881 0.081293 0.025459 0.267048 0.197438 0.247722 -0.051291 -0.079711 -0.224109 0.099483 -0.320461 -0.335505 -0.012224 0.006362 0.259216 -0.219929 0.074376 0.253551 -0.047048 -0.237866 -0.005893 -0.124226 -0.086460 0.475562 0.211769 0.343933 0.017579 0.375354 -0.018816 -0.168123 0.228503 
zo -0.121896 -0.113509 0.123349 0.047193 0.331677 0.215274 0.348635 -0.054100 -0.096140 -0.324281 0.143820 -0.437488 -0.439045 -0.010431 0.023972 0.344801 -0.305726 0.117536 0.350492 -0.085062 -0.307558 -0.009278 -0.189197 -0.105930 0.704607 0.311469 0.458565 0.021336 0.531390 0.007768 -0.226296 0.286111 
fhr -0.084483 -0.100244 0.056457 0.051017 0.266581 0.194816 0.236291 -0.038456 -0.071051 -0.209542 0.113259 -0.292005 -0.311059 -0.014684 -0.000533 0.247733 -0.220103 0.063374 0.260055 -0.048554 -0.237207 -0.011293 -0.126338 -0.083446 0.486719 0.204049 0.327303 0.010906 0.369762 -0.007271 -0.162329 0.228660 
Redeiving -0.082363 -0.088429 0.086021 0.029730 0.239064 0.150806 0.247398 -0.042315 -0.087244 -0.250454 0.106575 -0.334392 -0.329461 -0.027409 0.012573 0.244443 -0.229030 0.079549 0.243944 -0.066656 -0.213646 -0.005767 -0.134410 -0.065553 0.501824 0.215650 0.323598 0.025422 0.405649 0.012659 -0.159532 0.195531 
cuprent -0.150753 -0.136960 0.119332 0.052171 0.394392 0.246093 0.385101 -0.071428 -0.115802 -0.351186 0.149641 -0.494835 -0.502630 -0.017877 0.035684 0.377328 -0.336352 0.115278 0.391862 -0.097137 -0.346861 -0.017022 -0.188515 -0.128715 0.771023 0.318733 0.507155 0.012371 0.595991 -0.014674 -0.258331 0.340674 
useg -0.107355 -0.094496 0.088059 0.027305 0.271453 0.192517 0.265067 -0.037968 -0.075225 -0.222982 0.112746 -0.330572 -0.334218 -0.010848 0.006531 0.263756 -0.228561 0.082407 0.293752 -0.058047 -0.241202 -0.004562 -0.137804 -0.103792 0.532025 0.233858 0.355968 0.019001 0.406044 0.003295 -0.181368 0.234178 
FSDatayet -0.128822 -0.119678 0.089606 0.039267 0.353421 0.229970 0.314017 -0.042769 -0.094290 -0.285909 0.143109 -0.396824 -0.408979 -0.028760 -0.003191 0.321199 -0.287458 0.088904 0.345269 -0.071454 -0.300226 -0.017077 -0.174923 -0.102811 0.661494 0.277886 0.441632 0.015884 0.477905 0.000631 -0.222489 0.285478 
PacketRestonder -0.129893 -0.102197 0.105213 0.051092 0.345624 0.224469 0.333982 -0.046145 -0.123499 -0.298956 0.136942 -0.433587 -0.420509 -0.017335 0.021657 0.330634 -0.294582 0.108289 0.334500 -0.093508 -0.292502 -0.008459 -0.182263 -0.110362 0.661594 0.295775 0.453216 0.036896 0.531210 -0.010543 -0.212607 0.286074 
PzcketResponder -0.114181 -0.094138 0.100960 0.035589 0.308666 0.205956 0.296486 -0.037104 -0.100535 -0.253346 0.106570 -0.384485 -0.366387 -0.028606 0.014941 0.291397 -0.257864 0.089721 0.287471 -0.089979 -0.251991 -0.002980 -0.174698 -0.094840 0.583240 0.267887 0.404777 0.024010 0.460282 -0.010966 -0.186669 0.247249 
Packetkesponder -0.131972 -0.115958 0.107944 0.047371 0.354126 0.235543 0.340840 -0.047370 -0.115426 -0.295808 0.130564 -0.442442 -0.435072 -0.023752 0.019662 0.335916 -0.302752 0.103586 0.344129 -0.090928 -0.294648 -0.009306 -0.195509 -0.108254 0.674636 0.305783 0.462261 0.031492 0.539397 -0.014561 -0.227059 0.292740 
Receijed -0.053133 -0.067257 0.070608 0.033517 0.178586 0.119049 0.188621 -0.035739 -0.074179 -0.184516 0.088578 -0.250341 -0.241945 -0.017740 -0.004805 0.209434 -0.178004 0.060598 0.181104 -0.054670 -0.150835 -0.001827 -0.098158 -0.063567 0.386650 0.176072 0.253863 0.025162 0.300435 0.022264 -0.117200 0.145753 
blolk -0.133286 -0.123859 0.111609 0.022699 0.331391 0.230071 0.323459 -0.062260 -0.110810 -0.282876 0.129404 -0.412408 -0.414972 -0.013985 0.007643 0.316809 -0.265224 0.099213 0.326750 -0.080684 -0.294793 -0.006366 -0.146423 -0.113636 0.613511 0.279178 0.434030 0.023976 0.462016 -0.010908 -0.226059 0.275406 
teominating -0.085783 -0.084192 0.084013 0.039478 0.229931 0.125966 0.234795 -0.040077 -0.097319 -0.234294 0.102853 -0.320960 -0.287275 -0.010818 0.016603 0.214842 -0.200734 0.068635 0.232356 -0.066285 -0.194278 -0.002195 -0.103454 -0.064045 0.465273 0.194251 0.298831 0.027822 0.370110 -0.000235 -0.135117 0.186277 
Dpleting -0.105059 -0.104073 0.079161 0.023320 0.277737 0.172044 0.259060 -0.049250 -0.083315 -0.232921 0.105635 -0.355398 -0.334642 -0.035223 0.009533 0.259947 -0.238056 0.076496 0.268896 -0.072127 -0.227921 0.002631 -0.137089 -0.084571 0.516848 0.222588 0.339946 0.018562 0.408076 -0.000769 -0.183083 0.220234 
terminatieg -0.011888 -0.026514 0.008362 0.025452 0.051078 0.050025 0.033384 0.003424 -0.021191 -0.021104 0.016206 -0.051534 -0.028573 -0.003599 -0.024311 0.044538 -0.033748 0.002719 0.066827 -0.005875 -0.021790 0.008190 -0.024562 -0.021751 0.088752 0.048170 0.064913 0.007751 0.064598 -0.005846 -0.028716 0.037123 
NameSystef -0.157672 -0.145577 0.104480 0.058491 0.389251 0.247220 0.379113 -0.058363 -0.121120 -0.358112 0.183063 -0.464320 -0.493126 -0.001255 0.022256 0.388892 -0.337748 0.120979 0.403775 -0.075995 -0.356230 -0.010219 -0.192665 -0.153277 0.779423 0.348162 0.518796 0.044772 0.589890 -0.001040 -0.260089 0.346951 
FSNsmesystem -0.143653 -0.113567 0.112203 0.021484 0.356621 0.242684 0.342333 -0.057489 -0.105643 -0.306535 0.156057 -0.426486 -0.444134 -0.022193 -0.002246 0.355522 -0.314806 0.109833 0.363307 -0.094597 -0.312070 -0.014355 -0.202789 -0.126888 0.697490 0.323610 0.488620 0.021869 0.508847 0.018028 -0.249279 0.296171 
Receivinh -0.077519 -0.094991 0.095258 0.051094 0.249454 0.145208 0.259061 -0.052478 -0.087276 -0.261494 0.115855 -0.329042 -0.340986 -0.025966 0.011195 0.270234 -0.241265 0.074514 0.233243 -0.068384 -0.210128 -0.003590 -0.126408 -0.086566 0.522951 0.218354 0.336401 0.018084 0.416324 0.023778 -0.151562 0.207162 
dlock -0.181746 -0.147153 0.155739 0.041355 0.448922 0.291596 0.466107 -0.082944 -0.145348 -0.444962 0.195624 -0.593952 -0.610609 -0.014815 0.038623 0.451022 -0.412702 0.149756 0.466935 -0.121127 -0.418740 -0.032480 -0.241888 -0.136369 0.920665 0.408875 0.615257 0.026490 0.699938 0.011025 -0.328083 0.394041 
mrom -0.155499 -0.112462 0.114158 0.056628 0.365831 0.240968 0.368135 -0.062614 -0.118461 -0.352166 0.170682 -0.460174 -0.464359 -0.007977 0.010965 0.368764 -0.323506 0.124131 0.406690 -0.103829 -0.325939 -0.021510 -0.187977 -0.137438 0.761061 0.333062 0.503850 0.017052 0.573387 0.018646 -0.249983 0.322656 
delate -0.143380 -0.137414 0.127281 0.046945 0.387062 0.251363 0.383931 -0.066556 -0.111306 -0.347801 0.156386 -0.476624 -0.489647 -0.020958 0.022111 0.374661 -0.329826 0.113346 0.377726 -0.084892 -0.342892 -0.015788 -0.179610 -0.129704 0.737770 0.321893 0.495142 0.023381 0.570756 -0.000594 -0.249202 0.333135 
pest -0.081735 -0.087128 0.042186 0.021803 0.240797 0.179787 0.208422 -0.017799 -0.063042 -0.170369 0.083436 -0.264784 -0.260970 -0.014203 0.004930 0.210892 -0.186072 0.057892 0.237247 -0.041097 -0.231926 -0.014076 -0.114570 -0.070790 0.415823 0.178093 0.285576 0.013383 0.317687 -0.020075 -0.160076 0.194246 
tfs -0.059719 -0.075721 0.039536 0.018222 0.196007 0.126421 0.165075 -0.021181 -0.068198 -0.155171 0.082561 -0.223321 -0.218337 0.000654 0.003322 0.174889 -0.151684 0.057081 0.185371 -0.041375 -0.183192 -0.004605 -0.090827 -0.064891 0.349162 0.156339 0.242084 0.023668 0.262075 -0.009322 -0.118858 0.151620 
fmom -0.201714 -0.150589 0.162381 0.070474 0.474191 0.311067 0.502385 -0.092050 -0.167736 -0.484812 0.245069 -0.611430 -0.651389 0.004342 0.006218 0.490886 -0.439176 0.180082 0.536751 -0.143680 -0.438737 -0.030488 -0.245336 -0.184723 1.040461 0.459127 0.676170 0.020716 0.758570 0.037068 -0.350834 0.424328 
ho -0.111278 -0.110735 0.088600 0.050869 0.304563 0.202890 0.295588 -0.047242 -0.081066 -0.265612 0.133693 -0.364807 -0.375485 -0.005285 0.013745 0.308783 -0.268580 0.086216 0.305391 -0.067168 -0.268067 -0.006080 -0.156253 -0.112545 0.597418 0.258657 0.401617 0.022095 0.464653 0.009573 -0.191496 0.261191 
pari -0.091751 -0.105585 0.078855 0.086969 0.306609 0.199583 0.301582 -0.041204 -0.087544 -0.277433 0.131238 -0.377227 -0.354660 -0.018656 0.004920 0.303441 -0.274724 0.081958 0.312724 -0.075318 -0.282277 -0.018551 -0.156077 -0.079763 0.631044 0.266807 0.389313 0.021092 0.466858 -0.007136 -0.198776 0.258566 
tdded -0.073353 -0.084864 0.089079 0.017669 0.223602 0.122847 0.236370 -0.063011 -0.099457 -0.230027 0.087175 -0.340598 -0.307058 -0.019428 0.025783 0.232092 -0.207307 0.074893 0.211916 -0.083275 -0.184740 -0.001969 -0.107166 -0.054742 0.443923 0.201984 0.293930 0.030024 0.361289 0.003964 -0.137764 0.181828 
dhta -0.113772 -0.125587 0.096043 0.069991 0.361518 0.240911 0.335017 -0.054747 -0.089984 -0.301119 0.151275 -0.406042 -0.418269 -0.017068 -0.006660 0.338317 -0.304441 0.093989 0.344481 -0.075602 -0.305838 -0.017297 -0.167651 -0.108653 0.673750 0.290378 0.447690 0.023961 0.506477 0.002440 -0.210988 0.307462 
in -0.113744 -0.133091 0.122770 0.052710 0.359272 0.225489 0.356105 -0.071997 -0.100060 -0.321890 0.142065 -0.473211 -0.463338 -0.032194 0.014629 0.365852 -0.326273 0.105944 0.346207 -0.086367 -0.302814 -0.007006 -0.184204 -0.108944 0.723038 0.302123 0.462956 0.018723 0.545651 -0.000686 -0.236345 0.296735 
Receivgd -0.087468 -0.079911 0.092412 0.040353 0.248579 0.149534 0.268744 -0.038007 -0.084045 -0.262321 0.123774 -0.332078 -0.330992 -0.024916 0.015096 0.273498 -0.236922 0.091692 0.273298 -0.071576 -0.226151 -0.004216 -0.137549 -0.083082 0.553585 0.239890 0.345207 0.035819 0.421073 0.025734 -0.168058 0.211920 
jile -0.116267 -0.117224 0.123321 0.055706 0.341670 0.204025 0.352753 -0.062096 -0.114580 -0.317984 0.145616 -0.452585 -0.440472 -0.014315 0.020536 0.347674 -0.301150 0.100920 0.330032 -0.096744 -0.280020 -0.014545 -0.164038 -0.107315 0.683872 0.301011 0.447994 0.028017 0.523837 0.006147 -0.211428 0.299422 
invalidSut -0.069160 -0.075088 0.047731 0.020483 0.213486 0.156969 0.197876 -0.025554 -0.040931 -0.156725 0.074189 -0.249993 -0.242224 -0.035094 -0.018661 0.201089 -0.180752 0.043509 0.225143 -0.049695 -0.174769 -0.011030 -0.125184 -0.045083 0.435802 0.170711 0.261365 0.006229 0.282477 -0.008579 -0.156737 0.157562 
ckrrent -0.062175 -0.048778 0.026447 0.016032 0.137826 0.123690 0.100303 -0.025521 -0.033667 -0.099863 0.027889 -0.156265 -0.161016 -0.000297 0.008100 0.119657 -0.105770 0.042689 0.129845 -0.028665 -0.109962 0.003558 -0.072998 -0.035065 0.194672 0.098677 0.192377 -0.015632 0.191461 -0.043426 -0.085850 0.121789 
NameSystbm -0.161225 -0.137621 0.122191 0.075788 0.407902 0.270038 0.405782 -0.061866 -0.114111 -0.379169 0.207769 -0.472946 -0.512690 0.000598 -0.005534 0.407342 -0.361787 0.133232 0.439269 -0.095991 -0.376325 -0.016565 -0.212737 -0.142340 0.841697 0.383361 0.560512 0.036182 0.611381 0.007350 -0.280609 0.365462 
blbckMap -0.101478 -0.114148 0.088881 0.075354 0.330076 0.216537 0.307147 -0.044328 -0.090535 -0.272655 0.141809 -0.364934 -0.381516 -0.011043 -0.008900 0.298748 -0.249143 0.083130 0.325410 -0.063634 -0.290393 -0.020947 -0.129403 -0.080057 0.601690 0.263979 0.402689 0.030298 0.447800 -0.023845 -0.199638 0.277478 
frr -0.065438 -0.066122 0.032266 0.036259 0.196039 0.158291 0.166831 -0.019819 -0.055206 -0.158328 0.075850 -0.218194 -0.221059 -0.012343 0.007829 0.173882 -0.157313 0.051478 0.204396 -0.037615 -0.192744 -0.014356 -0.102397 -0.045563 0.353638 0.151386 0.248312 0.003414 0.272855 -0.022771 -0.126873 0.168151 
dds -0.149768 -0.127999 0.112782 0.027291 0.390789 0.243608 0.375521 -0.068334 -0.117880 -0.365863 0.155995 -0.501316 -0.492054 -0.023246 0.039227 0.385165 -0.338896 0.132948 0.392233 -0.097605 -0.352487 -0.020979 -0.190806 -0.123905 0.737744 0.325804 0.508592 0.020532 0.581149 0.000186 -0.259016 0.338399 
sac -0.075933 -0.074036 0.071613 0.064964 0.250260 0.159216 0.268052 -0.016601 -0.067717 -0.231279 0.108841 -0.297354 -0.302151 -0.006659 0.008248 0.243902 -0.243174 0.061810 0.260567 -0.054007 -0.236733 -0.012380 -0.137254 -0.082211 0.537498 0.239555 0.333435 0.018859 0.398488 0.012817 -0.163089 0.205166 
invaoidSet -0.091550 -0.092631 0.068966 0.030134 0.265581 0.177540 0.256055 -0.029732 -0.063658 -0.217278 0.098547 -0.315030 -0.316718 -0.025814 0.004503 0.254472 -0.223489 0.058941 0.265611 -0.057310 -0.231315 -0.013663 -0.144732 -0.074067 0.535246 0.210361 0.332304 0.016682 0.380833 -0.006001 -0.176771 0.207756 
blocknap -0.120853 -0.118258 0.107500 0.047796 0.342992 0.214008 0.337481 -0.051540 -0.092957 -0.297211 0.125089 -0.418749 -0.412579 -0.030475 0.017641 0.310150 -0.279059 0.084329 0.331378 -0.070401 -0.300365 -0.009583 -0.147650 -0.100620 0.640676 0.269650 0.419082 0.023974 0.496571 -0.015788 -0.214901 0.277010 
wart -0.053375 -0.042498 0.013240 0.032624 0.146678 0.140805 0.115101 -0.001545 -0.042890 -0.117317 0.065715 -0.138122 -0.153773 0.005636 -0.014568 0.118259 -0.111252 0.049992 0.173759 -0.017066 -0.142432 -0.008954 -0.077693 -0.028845 0.257527 0.125399 0.197385 0.014422 0.193736 -0.018161 -0.088131 0.135567 
Delecing -0.110948 -0.108760 0.113951 0.031292 0.306866 0.176002 0.322423 -0.055323 -0.093165 -0.297142 0.132129 -0.415104 -0.402369 -0.041684 0.019715 0.306669 -0.290805 0.090698 0.303825 -0.092338 -0.259845 -0.002167 -0.164884 -0.098515 0.631595 0.264790 0.399650 0.021812 0.501204 0.024452 -0.203400 0.246482 
Sgrved 0.012445 0.020326 -0.042732 -0.027532 -0.048637 -0.019417 -0.077871 0.026472 0.016096 0.075179 -0.044737 0.071460 0.100124 -0.026086 0.006753 -0.055133 0.056044 -0.032430 -0.038713 0.035669 0.061649 0.025666 0.018160 0.034950 -0.167846 -0.058079 -0.070041 0.013292 -0.098027 -0.034372 0.040635 -0.055519 
desl -0.120250 -0.105008 0.096217 0.013822 0.301684 0.207356 0.295406 -0.053631 -0.095636 -0.266245 0.111632 -0.385471 -0.376995 -0.019270 0.026100 0.295791 -0.259790 0.091209 0.299688 -0.073933 -0.271621 -0.008285 -0.142629 -0.112310 0.552432 0.247853 0.401740 0.010223 0.440560 -0.002221 -0.202237 0.261506 
dese -0.118820 -0.113201 0.094776 0.018676 0.305285 0.204466 0.294129 -0.052681 -0.086781 -0.267110 0.113041 -0.386978 -0.387051 -0.020025 0.034524 0.304656 -0.261596 0.090626 0.296759 -0.064371 -0.279384 -0.005530 -0.148015 -0.113158 0.558834 0.249124 0.397395 0.013857 0.455793 -0.005131 -0.202032 0.260379 
degt -0.137090 -0.126308 0.101944 0.036716 0.361645 0.248003 0.333035 -0.051788 -0.099520 -0.312685 0.150348 -0.430876 -0.444408 -0.019025 0.006480 0.333198 -0.294675 0.109818 0.369658 -0.071114 -0.316722 -0.012909 -0.169529 -0.107907 0.669133 0.291067 0.463833 0.025357 0.521504 -0.009771 -0.225972 0.316525 
dls -0.142936 -0.120423 0.107528 0.020473 0.371886 0.235698 0.353036 -0.059538 -0.108281 -0.323840 0.139356 -0.461185 -0.449664 -0.021767 0.031623 0.356125 -0.309292 0.119605 0.364549 -0.089945 -0.327244 -0.017307 -0.172269 -0.127993 0.674182 0.300037 0.473662 0.017552 0.529869 -0.002191 -0.243306 0.316335 
succeedqd -0.032043 -0.032079 0.044449 0.013733 0.088880 0.066920 0.113008 -0.023649 -0.051331 -0.100260 0.041753 -0.139325 -0.130739 -0.021979 -0.010033 0.126084 -0.108467 0.019527 0.101989 -0.048779 -0.062549 -0.003083 -0.059328 -0.043388 0.231851 0.112907 0.151638 -0.000396 0.154366 0.029202 -0.073521 0.070053 
ddded -0.153303 -0.133891 0.143363 0.029576 0.392059 0.235878 0.412852 -0.095479 -0.138650 -0.404342 0.162771 -0.555224 -0.546623 -0.028537 0.045235 0.408155 -0.366393 0.136272 0.394835 -0.121764 -0.345977 -0.019965 -0.201878 -0.121212 0.796156 0.352382 0.525093 0.026425 0.631557 0.014079 -0.269016 0.344525 
delets -0.167262 -0.143909 0.137674 0.026322 0.434270 0.275399 0.429341 -0.067691 -0.132051 -0.404597 0.177494 -0.542771 -0.560138 -0.016554 0.043619 0.415599 -0.372678 0.144324 0.429258 -0.101228 -0.403102 -0.026376 -0.208188 -0.149607 0.826707 0.354707 0.564297 0.028664 0.654197 0.003026 -0.287763 0.374943 
terminaring -0.036513 -0.048342 0.044565 0.035473 0.120885 0.065292 0.110244 -0.022153 -0.063528 -0.120858 0.054023 -0.179872 -0.134024 0.000992 0.010583 0.106736 -0.101975 0.033878 0.123018 -0.042908 -0.096567 0.004761 -0.052413 -0.021996 0.224149 0.094971 0.164993 0.019693 0.204289 -0.016159 -0.063312 0.095777 
smze -0.089301 -0.082727 0.086580 0.039565 0.232935 0.159297 0.247957 -0.036614 -0.092949 -0.226512 0.109312 -0.314901 -0.307003 -0.002912 0.010672 0.239996 -0.211287 0.079216 0.251434 -0.064642 -0.213811 -0.004887 -0.121143 -0.082010 0.483291 0.223692 0.324655 0.010635 0.372377 0.007078 -0.152695 0.206794 
jf -0.076981 -0.099390 0.070506 0.044417 0.259618 0.162575 0.224673 -0.046826 -0.083132 -0.231318 0.125295 -0.317249 -0.325621 -0.003588 0.001210 0.252125 -0.210701 0.078886 0.242807 -0.061695 -0.221831 -0.005198 -0.115231 -0.079978 0.486519 0.215801 0.333489 0.027026 0.377327 -0.001318 -0.150432 0.221828 
Recxiving -0.068615 -0.061537 0.060569 0.023552 0.185528 0.121885 0.183442 -0.028799 -0.070285 -0.188966 0.086370 -0.257390 -0.246640 -0.020633 0.007792 0.185715 -0.174959 0.060098 0.207122 -0.043698 -0.163757 0.002051 -0.101711 -0.059037 0.384777 0.163804 0.255693 0.023545 0.315278 0.007466 -0.127888 0.156074 
oile -0.191473 -0.153715 0.163782 0.050523 0.449503 0.283471 0.476375 -0.085431 -0.141184 -0.436257 0.193520 -0.594258 -0.597383 -0.011227 0.033591 0.464767 -0.410889 0.151080 0.469161 -0.115162 -0.395289 -0.017797 -0.231703 -0.174122 0.941738 0.409507 0.609960 0.023104 0.703337 0.018716 -0.316805 0.387868 
terminzting -0.025851 -0.030445 0.022273 0.020267 0.074574 0.051342 0.058483 -0.011488 -0.047446 -0.067684 0.029512 -0.116675 -0.075911 -0.004034 -0.006639 0.063774 -0.059390 0.021404 0.087818 -0.017972 -0.045532 0.007770 -0.033358 -0.012382 0.128841 0.059268 0.098638 0.015851 0.119868 -0.019294 -0.043258 0.056770 
fwle -0.095368 -0.088208 0.060128 0.011199 0.226294 0.169994 0.211309 -0.046090 -0.080430 -0.188793 0.098224 -0.282848 -0.284584 -0.011799 0.001955 0.217938 -0.185401 0.068438 0.240010 -0.047217 -0.200215 -0.000515 -0.101978 -0.079817 0.403790 0.190026 0.292125 0.013096 0.308443 -0.006755 -0.161790 0.198513 
jerminating -0.039668 -0.038591 0.030313 0.035456 0.120435 0.087429 0.108520 -0.008518 -0.053170 -0.113736 0.051699 -0.162027 -0.136028 -0.002654 -0.000100 0.110034 -0.103519 0.035227 0.139441 -0.025769 -0.089386 -0.006269 -0.056112 -0.026181 0.227490 0.099571 0.162424 0.014204 0.194591 -0.013788 -0.071947 0.113003 
sizf -0.095832 -0.108260 0.105893 0.059028 0.297450 0.171684 0.308212 -0.046750 -0.110083 -0.303919 0.143609 -0.402615 -0.379868 -0.012913 0.012229 0.305049 -0.277314 0.099116 0.294110 -0.087017 -0.264657 -0.003384 -0.157584 -0.097192 0.638829 0.278386 0.405449 0.020948 0.474676 0.013201 -0.182631 0.250511 
IlFO -0.155220 -0.135925 0.149424 0.048118 0.423536 0.251744 0.450019 -0.077478 -0.147806 -0.408953 0.173836 -0.547487 -0.554925 -0.025085 0.028782 0.424915 -0.387292 0.138555 0.425030 -0.128730 -0.370085 -0.019083 -0.205778 -0.147475 0.875540 0.382010 0.572649 0.026862 0.649931 0.021524 -0.285588 0.359548 
dhs -0.106491 -0.105878 0.071946 0.031407 0.304173 0.204931 0.271287 -0.043846 -0.078020 -0.247229 0.117720 -0.349805 -0.356176 -0.014484 0.016562 0.290791 -0.251645 0.086886 0.291078 -0.062547 -0.262725 -0.014150 -0.144254 -0.103926 0.536342 0.234454 0.379189 0.012691 0.426083 -0.000771 -0.185903 0.261732 
Rechiving -0.077201 -0.077861 0.075014 0.042699 0.227407 0.139644 0.230722 -0.032676 -0.081178 -0.225561 0.107985 -0.298876 -0.292202 -0.021291 0.005872 0.233809 -0.214031 0.070325 0.240385 -0.062284 -0.192681 -0.007044 -0.122294 -0.071501 0.480440 0.200179 0.305488 0.017973 0.373477 0.020174 -0.148076 0.193355 
iest -0.135952 -0.130511 0.104788 0.048674 0.383203 0.258983 0.368893 -0.047931 -0.100088 -0.326937 0.158208 -0.450957 -0.466944 -0.018254 0.006626 0.369253 -0.331985 0.110542 0.385902 -0.078321 -0.347897 -0.021045 -0.200629 -0.123353 0.755519 0.322738 0.495360 0.021698 0.553111 -0.002669 -0.254496 0.323234 
allocateBloak -0.127692 -0.109852 0.108085 0.041435 0.321273 0.213227 0.320123 -0.051519 -0.096135 -0.287488 0.141703 -0.383182 -0.402079 -0.021494 0.010361 0.321156 -0.271704 0.089255 0.312275 -0.083995 -0.294635 -0.007115 -0.159229 -0.122023 0.640776 0.288160 0.425058 0.028403 0.469272 0.010713 -0.222732 0.270789 
wvile -0.077778 -0.060023 0.053829 0.011594 0.182448 0.129068 0.171135 -0.030707 -0.076835 -0.173780 0.080948 -0.237912 -0.230486 -0.008559 0.001677 0.187129 -0.151560 0.064144 0.195839 -0.049971 -0.150588 -0.006794 -0.091603 -0.056844 0.347157 0.167113 0.253927 0.015277 0.261354 0.007208 -0.122162 0.154915 
Goo -0.097218 -0.077138 0.078691 0.020025 0.221510 0.144771 0.243040 -0.026302 -0.079760 -0.223724 0.106580 -0.299385 -0.296606 0.008924 0.023787 0.226256 -0.206464 0.080455 0.256402 -0.055733 -0.230537 -0.003076 -0.125337 -0.079708 0.475827 0.209997 0.313867 0.018662 0.372922 0.009277 -0.163466 0.182492 
