2000 32
1 -0.1282876655459404 -0.2929474984606107 0.17932850122451782 -0.02344599987069766 0.49507583181063336 0.2573636670907338 0.395558829108874 -0.0962348332007726 -0.07563033327460289 -0.31578533351421356 0.08695916707317035 -0.593277836839358 -0.4324893256028493 0.06606949989994367 0.03289633337408304 0.4204931656519572 -0.24928616732358932 0.03545683311919371 0.5098335047562917 -0.04538333353896936 -0.38485350211461383 -0.08188966661691666 -0.3287624915440877 -0.1790430024266243 0.707615335782369 0.3650323326388995 0.5509631733099619 0.037721500266343355 0.6186635146538416 0.01395633384042109 -0.33431799709796906 0.32850732902685803
2 -0.1282876655459404 -0.2929474984606107 0.17932850122451782 -0.02344599987069766 0.49507583181063336 0.2573636670907338 0.395558829108874 -0.0962348332007726 -0.07563033327460289 -0.31578533351421356 0.08695916707317035 -0.593277836839358 -0.4324893256028493 0.06606949989994367 0.03289633337408304 0.4204931656519572 -0.24928616732358932 0.03545683311919371 0.5098335047562917 -0.04538333353896936 -0.38485350211461383 -0.08188966661691666 -0.3287624915440877 -0.1790430024266243 0.707615335782369 0.3650323326388995 0.5509631733099619 0.037721500266343355 0.6186635146538416 0.01395633384042109 -0.33431799709796906 0.32850732902685803
3 -0.13567609136754816 -0.2967498166994615 0.18327627127820795 -0.01849618174178018 0.48521227728236804 0.2601661817594008 0.3890965472568165 -0.09676054526459087 -0.08211700008674101 -0.3152542737397281 0.07913245531645688 -0.5877306352962147 -0.4376323629509319 0.056436999277635055 0.03310009092092514 0.4285825409672477 -0.2536397251215848 0.03572972711514343 0.5082372779195959 -0.07055191018364647 -0.37954008985649457 -0.05902136371216991 -0.33030108972029254 -0.17283263396133075 0.7027811841531233 0.3659762685949152 0.5469642769206654 0.06307909163561734 0.6124235581267964 0.01576354583217339 -0.3302196386185559 0.3228476345539093
4 -0.1282876655459404 -0.2929474984606107 0.17932850122451782 -0.02344599987069766 0.49507583181063336 0.2573636670907338 0.395558829108874 -0.0962348332007726 -0.07563033327460289 -0.31578533351421356 0.08695916707317035 -0.593277836839358 -0.4324893256028493 0.06606949989994367 0.03289633337408304 0.4204931656519572 -0.24928616732358932 0.03545683311919371 0.5098335047562917 -0.04538333353896936 -0.38485350211461383 -0.08188966661691666 -0.3287624915440877 -0.1790430024266243 0.707615335782369 0.3650323326388995 0.5509631733099619 0.037721500266343355 0.6186635146538416 0.01395633384042109 -0.33431799709796906 0.32850732902685803
5 -0.1282876655459404 -0.2929474984606107 0.17932850122451782 -0.02344599987069766 0.49507583181063336 0.2573636670907338 0.395558829108874 -0.0962348332007726 -0.07563033327460289 -0.31578533351421356 0.08695916707317035 -0.593277836839358 -0.4324893256028493 0.06606949989994367 0.03289633337408304 0.4204931656519572 -0.24928616732358932 0.03545683311919371 0.5098335047562917 -0.04538333353896936 -0.38485350211461383 -0.08188966661691666 -0.3287624915440877 -0.1790430024266243 0.707615335782369 0.3650323326388995 0.5509631733099619 0.037721500266343355 0.6186635146538416 0.01395633384042109 -0.33431799709796906 0.32850732902685803
6 -0.13567609136754816 -0.2967498166994615 0.18327627127820795 -0.01849618174178018 0.48521227728236804 0.2601661817594008 0.3890965472568165 -0.09676054526459087 -0.08211700008674101 -0.3152542737397281 0.07913245531645688 -0.5877306352962147 -0.4376323629509319 0.056436999277635055 0.03310009092092514 0.4285825409672477 -0.2536397251215848 0.03572972711514343 0.5082372779195959 -0.07055191018364647 -0.37954008985649457 -0.05902136371216991 -0.33030108972029254 -0.17283263396133075 0.7027811841531233 0.3659762685949152 0.5469642769206654 0.06307909163561734 0.6124235581267964 0.01576354583217339 -0.3302196386185559 0.3228476345539093
7 -0.13567609136754816 -0.2967498166994615 0.18327627127820795 -0.01849618174178018 0.48521227728236804 0.2601661817594008 0.3890965472568165 -0.09676054526459087 -0.08211700008674101 -0.3152542737397281 0.07913245531645688 -0.5877306352962147 -0.4376323629509319 0.056436999277635055 0.03310009092092514 0.4285825409672477 -0.2536397251215848 0.03572972711514343 0.5082372779195959 -0.07055191018364647 -0.37954008985649457 -0.05902136371216991 -0.33030108972029254 -0.17283263396133075 0.7027811841531233 0.3659762685949152 0.5469642769206654 0.06307909163561734 0.6124235581267964 0.01576354583217339 -0.3302196386185559 0.3228476345539093
8 -0.13567609136754816 -0.2967498166994615 0.18327627127820795 -0.01849618174178018 0.48521227728236804 0.2601661817594008 0.3890965472568165 -0.09676054526459087 -0.08211700008674101 -0.3152542737397281 0.07913245531645688 -0.5877306352962147 -0.4376323629509319 0.056436999277635055 0.03310009092092514 0.4285825409672477 -0.2536397251215848 0.03572972711514343 0.5082372779195959 -0.07055191018364647 -0.37954008985649457 -0.05902136371216991 -0.33030108972029254 -0.17283263396133075 0.7027811841531233 0.3659762685949152 0.5469642769206654 0.06307909163561734 0.6124235581267964 0.01576354583217339 -0.3302196386185559 0.3228476345539093
9 -0.1282876655459404 -0.2929474984606107 0.17932850122451782 -0.02344599987069766 0.49507583181063336 0.2573636670907338 0.395558829108874 -0.0962348332007726 -0.07563033327460289 -0.31578533351421356 0.08695916707317035 -0.593277836839358 -0.4324893256028493 0.06606949989994367 0.03289633337408304 0.4204931656519572 -0.24928616732358932 0.03545683311919371 0.5098335047562917 -0.04538333353896936 -0.38485350211461383 -0.08188966661691666 -0.3287624915440877 -0.1790430024266243 0.707615335782369 0.3650323326388995 0.5509631733099619 0.037721500266343355 0.6186635146538416 0.01395633384042109 -0.33431799709796906 0.32850732902685803
10 -0.1438444278069905 -0.3179198546069009 0.20190357097557612 -0.023814714247626916 0.5390894285270146 0.2828942856618336 0.435529283114842 -0.1039007135799953 -0.08325728614415441 -0.350747144648007 0.0890792863709586 -0.6575944210801806 -0.48075027976717266 0.06889299941914422 0.03703414276242256 0.47360428316252573 -0.27875071338244845 0.040425999888351986 0.5625540103231158 -0.05575014358120305 -0.4247492892401559 -0.08993414257253919 -0.3614241395677839 -0.19273842871189117 0.7812749998910087 0.4024260001523154 0.614606716803142 0.044548285858971734 0.683443009853363 0.019020714414572076 -0.3674255737236568 0.36186027952602934
11 -0.1438444278069905 -0.3179198546069009 0.20190357097557612 -0.023814714247626916 0.5390894285270146 0.2828942856618336 0.435529283114842 -0.1039007135799953 -0.08325728614415441 -0.350747144648007 0.0890792863709586 -0.6575944210801806 -0.48075027976717266 0.06889299941914422 0.03703414276242256 0.47360428316252573 -0.27875071338244845 0.040425999888351986 0.5625540103231158 -0.05575014358120305 -0.4247492892401559 -0.08993414257253919 -0.3614241395677839 -0.19273842871189117 0.7812749998910087 0.4024260001523154 0.614606716803142 0.044548285858971734 0.683443009853363 0.019020714414572076 -0.3674255737236568 0.36186027952602934
12 -0.1388933335741361 -0.3126596659421921 0.1952841654419899 -0.018475166444356244 0.5335988253355026 0.2817258338133494 0.4337965001662572 -0.09877866630752881 -0.08532716706395149 -0.3452469954888026 0.09019483501712482 -0.6473948359489441 -0.47480333348115283 0.07264733252425988 0.04396399979790052 0.4634236643711726 -0.2736113319794337 0.03740866699566444 0.5604068438212076 -0.04615233341852824 -0.4273756742477417 -0.09362249945600827 -0.35857165853182477 -0.19314750035603842 0.7745166718959808 0.4011539965867996 0.6087201635042826 0.04736900019148985 0.6811655163764954 0.01891550012320901 -0.36752333243687946 0.35774166385332745
13 -0.1388933335741361 -0.3126596659421921 0.1952841654419899 -0.018475166444356244 0.5335988253355026 0.2817258338133494 0.4337965001662572 -0.09877866630752881 -0.08532716706395149 -0.3452469954888026 0.09019483501712482 -0.6473948359489441 -0.47480333348115283 0.07264733252425988 0.04396399979790052 0.4634236643711726 -0.2736113319794337 0.03740866699566444 0.5604068438212076 -0.04615233341852824 -0.4273756742477417 -0.09362249945600827 -0.35857165853182477 -0.19314750035603842 0.7745166718959808 0.4011539965867996 0.6087201635042826 0.04736900019148985 0.6811655163764954 0.01891550012320901 -0.36752333243687946 0.35774166385332745
14 -0.13567609136754816 -0.2967498166994615 0.18327627127820795 -0.01849618174178018 0.48521227728236804 0.2601661817594008 0.3890965472568165 -0.09676054526459087 -0.08211700008674101 -0.3152542737397281 0.07913245531645688 -0.5877306352962147 -0.4376323629509319 0.056436999277635055 0.03310009092092514 0.4285825409672477 -0.2536397251215848 0.03572972711514343 0.5082372779195959 -0.07055191018364647 -0.37954008985649457 -0.05902136371216991 -0.33030108972029254 -0.17283263396133075 0.7027811841531233 0.3659762685949152 0.5469642769206654 0.06307909163561734 0.6124235581267964 0.01576354583217339 -0.3302196386185559 0.3228476345539093
15 -0.1388933335741361 -0.3126596659421921 0.1952841654419899 -0.018475166444356244 0.5335988253355026 0.2817258338133494 0.4337965001662572 -0.09877866630752881 -0.08532716706395149 -0.3452469954888026 0.09019483501712482 -0.6473948359489441 -0.47480333348115283 0.07264733252425988 0.04396399979790052 0.4634236643711726 -0.2736113319794337 0.03740866699566444 0.5604068438212076 -0.04615233341852824 -0.4273756742477417 -0.09362249945600827 -0.35857165853182477 -0.19314750035603842 0.7745166718959808 0.4011539965867996 0.6087201635042826 0.04736900019148985 0.6811655163764954 0.01891550012320901 -0.36752333243687946 0.35774166385332745
16 -0.12298622147904502 -0.26637022228290635 0.16128255556234056 -0.015618333321375152 0.43760977613015306 0.23347533458015984 0.35357155710355276 -0.08217466647167587 -0.08348466662897004 -0.2842238885867927 0.07262755622569886 -0.5297258835699823 -0.39428444219811354 0.0563474442395899 0.03560277788589398 0.385042330974506 -0.22647522232081327 0.03118811154531108 0.4582711179844207 -0.056567333265168905 -0.3486294465449949 -0.06174933391998315 -0.29978488862980157 -0.15859077591449022 0.6396396666144332 0.3338236603885889 0.4976303385984566 0.04798077760885159 0.5554146764592992 0.017002667183987796 -0.30930489022284746 0.29618088400457054
17 -0.1282876655459404 -0.2929474984606107 0.17932850122451782 -0.02344599987069766 0.49507583181063336 0.2573636670907338 0.395558829108874 -0.0962348332007726 -0.07563033327460289 -0.31578533351421356 0.08695916707317035 -0.593277836839358 -0.4324893256028493 0.06606949989994367 0.03289633337408304 0.4204931656519572 -0.24928616732358932 0.03545683311919371 0.5098335047562917 -0.04538333353896936 -0.38485350211461383 -0.08188966661691666 -0.3287624915440877 -0.1790430024266243 0.707615335782369 0.3650323326388995 0.5509631733099619 0.037721500266343355 0.6186635146538416 0.01395633384042109 -0.33431799709796906 0.32850732902685803
18 -0.1438444278069905 -0.3179198546069009 0.20190357097557612 -0.023814714247626916 0.5390894285270146 0.2828942856618336 0.435529283114842 -0.1039007135799953 -0.08325728614415441 -0.350747144648007 0.0890792863709586 -0.6575944210801806 -0.48075027976717266 0.06889299941914422 0.03703414276242256 0.47360428316252573 -0.27875071338244845 0.040425999888351986 0.5625540103231158 -0.05575014358120305 -0.4247492892401559 -0.08993414257253919 -0.3614241395677839 -0.19273842871189117 0.7812749998910087 0.4024260001523154 0.614606716803142 0.044548285858971734 0.683443009853363 0.019020714414572076 -0.3674255737236568 0.36186027952602934
19 -0.12298622147904502 -0.26637022228290635 0.16128255556234056 -0.015618333321375152 0.43760977613015306 0.23347533458015984 0.35357155710355276 -0.08217466647167587 -0.08348466662897004 -0.2842238885867927 0.07262755622569886 -0.5297258835699823 -0.39428444219811354 0.0563474442395899 0.03560277788589398 0.385042330974506 -0.22647522232081327 0.03118811154531108 0.4582711179844207 -0.056567333265168905 -0.3486294465449949 -0.06174933391998315 -0.29978488862980157 -0.15859077591449022 0.6396396666144332 0.3338236603885889 0.4976303385984566 0.04798077760885159 0.5554146764592992 0.017002667183987796 -0.30930489022284746 0.29618088400457054
20 -0.13567609136754816 -0.2967498166994615 0.18327627127820795 -0.01849618174178018 0.48521227728236804 0.2601661817594008 0.3890965472568165 -0.09676054526459087 -0.08211700008674101 -0.3152542737397281 0.07913245531645688 -0.5877306352962147 -0.4376323629509319 0.056436999277635055 0.03310009092092514 0.4285825409672477 -0.2536397251215848 0.03572972711514343 0.5082372779195959 -0.07055191018364647 -0.37954008985649457 -0.05902136371216991 -0.33030108972029254 -0.17283263396133075 0.7027811841531233 0.3659762685949152 0.5469642769206654 0.06307909163561734 0.6124235581267964 0.01576354583217339 -0.3302196386185559 0.3228476345539093
21 -0.1438444278069905 -0.3179198546069009 0.20190357097557612 -0.023814714247626916 0.5390894285270146 0.2828942856618336 0.435529283114842 -0.1039007135799953 -0.08325728614415441 -0.350747144648007 0.0890792863709586 -0.6575944210801806 -0.48075027976717266 0.06889299941914422 0.03703414276242256 0.47360428316252573 -0.27875071338244845 0.040425999888351986 0.5625540103231158 -0.05575014358120305 -0.4247492892401559 -0.08993414257253919 -0.3614241395677839 -0.19273842871189117 0.7812749998910087 0.4024260001523154 0.614606716803142 0.044548285858971734 0.683443009853363 0.019020714414572076 -0.3674255737236568 0.36186027952602934
22 -0.13567609136754816 -0.2967498166994615 0.18327627127820795 -0.01849618174178018 0.48521227728236804 0.2601661817594008 0.3890965472568165 -0.09676054526459087 -0.08211700008674101 -0.3152542737397281 0.07913245531645688 -0.5877306352962147 -0.4376323629509319 0.056436999277635055 0.03310009092092514 0.4285825409672477 -0.2536397251215848 0.03572972711514343 0.5082372779195959 -0.07055191018364647 -0.37954008985649457 -0.05902136371216991 -0.33030108972029254 -0.17283263396133075 0.7027811841531233 0.3659762685949152 0.5469642769206654 0.06307909163561734 0.6124235581267964 0.01576354583217339 -0.3302196386185559 0.3228476345539093
23 -0.13567609136754816 -0.2967498166994615 0.18327627127820795 -0.01849618174178018 0.48521227728236804 0.2601661817594008 0.3890965472568165 -0.09676054526459087 -0.08211700008674101 -0.3152542737397281 0.07913245531645688 -0.5877306352962147 -0.4376323629509319 0.056436999277635055 0.03310009092092514 0.4285825409672477 -0.2536397251215848 0.03572972711514343 0.5082372779195959 -0.07055191018364647 -0.37954008985649457 -0.05902136371216991 -0.33030108972029254 -0.17283263396133075 0.7027811841531233 0.3659762685949152 0.5469642769206654 0.06307909163561734 0.6124235581267964 0.01576354583217339 -0.3302196386185559 0.3228476345539093
24 -0.1438444278069905 -0.3179198546069009 0.20190357097557612 -0.023814714247626916 0.5390894285270146 0.2828942856618336 0.435529283114842 -0.1039007135799953 -0.08325728614415441 -0.350747144648007 0.0890792863709586 -0.6575944210801806 -0.48075027976717266 0.06889299941914422 0.03703414276242256 0.47360428316252573 -0.27875071338244845 0.040425999888351986 0.5625540103231158 -0.05575014358120305 -0.4247492892401559 -0.08993414257253919 -0.3614241395677839 -0.19273842871189117 0.7812749998910087 0.4024260001523154 0.614606716803142 0.044548285858971734 0.683443009853363 0.019020714414572076 -0.3674255737236568 0.36186027952602934
25 -0.13567609136754816 -0.2967498166994615 0.18327627127820795 -0.01849618174178018 0.48521227728236804 0.2601661817594008 0.3890965472568165 -0.09676054526459087 -0.08211700008674101 -0.3152542737397281 0.07913245531645688 -0.5877306352962147 -0.4376323629509319 0.056436999277635055 0.03310009092092514 0.4285825409672477 -0.2536397251215848 0.03572972711514343 0.5082372779195959 -0.07055191018364647 -0.37954008985649457 -0.05902136371216991 -0.33030108972029254 -0.17283263396133075 0.7027811841531233 0.3659762685949152 0.5469642769206654 0.06307909163561734 0.6124235581267964 0.01576354583217339 -0.3302196386185559 0.3228476345539093
26 -0.1388933335741361 -0.3126596659421921 0.1952841654419899 -0.018475166444356244 0.5335988253355026 0.2817258338133494 0.4337965001662572 -0.09877866630752881 -0.08532716706395149 -0.3452469954888026 0.09019483501712482 -0.6473948359489441 -0.47480333348115283 0.07264733252425988 0.04396399979790052 0.4634236643711726 -0.2736113319794337 0.03740866699566444 0.5604068438212076 -0.04615233341852824 -0.4273756742477417 -0.09362249945600827 -0.35857165853182477 -0.19314750035603842 0.7745166718959808 0.4011539965867996 0.6087201635042826 0.04736900019148985 0.6811655163764954 0.01891550012320901 -0.36752333243687946 0.35774166385332745
27 -0.1438444278069905 -0.3179198546069009 0.20190357097557612 -0.023814714247626916 0.5390894285270146 0.2828942856618336 0.435529283114842 -0.1039007135799953 -0.08325728614415441 -0.350747144648007 0.0890792863709586 -0.6575944210801806 -0.48075027976717266 0.06889299941914422 0.03703414276242256 0.47360428316252573 -0.27875071338244845 0.040425999888351986 0.5625540103231158 -0.05575014358120305 -0.4247492892401559 -0.08993414257253919 -0.3614241395677839 -0.19273842871189117 0.7812749998910087 0.4024260001523154 0.614606716803142 0.044548285858971734 0.683443009853363 0.019020714414572076 -0.3674255737236568 0.36186027952602934
28 -0.12298622147904502 -0.26637022228290635 0.16128255556234056 -0.015618333321375152 0.43760977613015306 0.23347533458015984 0.35357155710355276 -0.08217466647167587 -0.08348466662897004 -0.2842238885867927 0.07262755622569886 -0.5297258835699823 -0.39428444219811354 0.0563474442395899 0.03560277788589398 0.385042330974506 -0.22647522232081327 0.03118811154531108 0.4582711179844207 -0.056567333265168905 -0.3486294465449949 -0.06174933391998315 -0.29978488862980157 -0.15859077591449022 0.6396396666144332 0.3338236603885889 0.4976303385984566 0.04798077760885159 0.5554146764592992 0.017002667183987796 -0.30930489022284746 0.29618088400457054
29 -0.08617866613591711 -0.19648732990026474 0.11610966734588146 -0.011255666458358368 0.32311266163984936 0.17266683466732502 0.2590228319168091 -0.05814516544342041 -0.05327033344656229 -0.21391833138962588 0.060207834312071405 -0.3970783328016599 -0.29030432800451916 0.039966165592583515 0.01914633360380928 0.28417600070436794 -0.1658796655635039 0.01709800005968039 0.3493900050719579 -0.03284516689988474 -0.26084667071700096 -0.05418283368150393 -0.2189546637237072 -0.1186844992140929 0.4777670030792554 0.23751966344813505 0.3755050015946229 0.023626166706283886 0.4223970075448354 0.012098333798348904 -0.22797966500123343 0.21930566305915514
30 -0.1438444278069905 -0.3179198546069009 0.20190357097557612 -0.023814714247626916 0.5390894285270146 0.2828942856618336 0.435529283114842 -0.1039007135799953 -0.08325728614415441 -0.350747144648007 0.0890792863709586 -0.6575944210801806 -0.48075027976717266 0.06889299941914422 0.03703414276242256 0.47360428316252573 -0.27875071338244845 0.040425999888351986 0.5625540103231158 -0.05575014358120305 -0.4247492892401559 -0.08993414257253919 -0.3614241395677839 -0.19273842871189117 0.7812749998910087 0.4024260001523154 0.614606716803142 0.044548285858971734 0.683443009853363 0.019020714414572076 -0.3674255737236568 0.36186027952602934
31 -0.1388933335741361 -0.3126596659421921 0.1952841654419899 -0.018475166444356244 0.5335988253355026 0.2817258338133494 0.4337965001662572 -0.09877866630752881 -0.08532716706395149 -0.3452469954888026 0.09019483501712482 -0.6473948359489441 -0.47480333348115283 0.07264733252425988 0.04396399979790052 0.4634236643711726 -0.2736113319794337 0.03740866699566444 0.5604068438212076 -0.04615233341852824 -0.4273756742477417 -0.09362249945600827 -0.35857165853182477 -0.19314750035603842 0.7745166718959808 0.4011539965867996 0.6087201635042826 0.04736900019148985 0.6811655163764954 0.01891550012320901 -0.36752333243687946 0.35774166385332745
32 -0.1438444278069905 -0.3179198546069009 0.20190357097557612 -0.023814714247626916 0.5390894285270146 0.2828942856618336 0.435529283114842 -0.1039007135799953 -0.08325728614415441 -0.350747144648007 0.0890792863709586 -0.6575944210801806 -0.48075027976717266 0.06889299941914422 0.03703414276242256 0.47360428316252573 -0.27875071338244845 0.040425999888351986 0.5625540103231158 -0.05575014358120305 -0.4247492892401559 -0.08993414257253919 -0.3614241395677839 -0.19273842871189117 0.7812749998910087 0.4024260001523154 0.614606716803142 0.044548285858971734 0.683443009853363 0.019020714414572076 -0.3674255737236568 0.36186027952602934
33 -0.13567609136754816 -0.2967498166994615 0.18327627127820795 -0.01849618174178018 0.48521227728236804 0.2601661817594008 0.3890965472568165 -0.09676054526459087 -0.08211700008674101 -0.3152542737397281 0.07913245531645688 -0.5877306352962147 -0.4376323629509319 0.056436999277635055 0.03310009092092514 0.4285825409672477 -0.2536397251215848 0.03572972711514343 0.5082372779195959 -0.07055191018364647 -0.37954008985649457 -0.05902136371216991 -0.33030108972029254 -0.17283263396133075 0.7027811841531233 0.3659762685949152 0.5469642769206654 0.06307909163561734 0.6124235581267964 0.01576354583217339 -0.3302196386185559 0.3228476345539093
34 -0.1388933335741361 -0.3126596659421921 0.1952841654419899 -0.018475166444356244 0.5335988253355026 0.2817258338133494 0.4337965001662572 -0.09877866630752881 -0.08532716706395149 -0.3452469954888026 0.09019483501712482 -0.6473948359489441 -0.47480333348115283 0.07264733252425988 0.04396399979790052 0.4634236643711726 -0.2736113319794337 0.03740866699566444 0.5604068438212076 -0.04615233341852824 -0.4273756742477417 -0.09362249945600827 -0.35857165853182477 -0.19314750035603842 0.7745166718959808 0.4011539965867996 0.6087201635042826 0.04736900019148985 0.6811655163764954 0.01891550012320901 -0.36752333243687946 0.35774166385332745
35 -0.13567609136754816 -0.2967498166994615 0.18327627127820795 -0.01849618174178018 0.48521227728236804 0.2601661817594008 0.3890965472568165 -0.09676054526459087 -0.08211700008674101 -0.3152542737397281 0.07913245531645688 -0.5877306352962147 -0.4376323629509319 0.056436999277635055 0.03310009092092514 0.4285825409672477 -0.2536397251215848 0.03572972711514343 0.5082372779195959 -0.07055191018364647 -0.37954008985649457 -0.05902136371216991 -0.33030108972029254 -0.17283263396133075 0.7027811841531233 0.3659762685949152 0.5469642769206654 0.06307909163561734 0.6124235581267964 0.01576354583217339 -0.3302196386185559 0.3228476345539093
36 -0.1438444278069905 -0.3179198546069009 0.20190357097557612 -0.023814714247626916 0.5390894285270146 0.2828942856618336 0.435529283114842 -0.1039007135799953 -0.08325728614415441 -0.350747144648007 0.0890792863709586 -0.6575944210801806 -0.48075027976717266 0.06889299941914422 0.03703414276242256 0.47360428316252573 -0.27875071338244845 0.040425999888351986 0.5625540103231158 -0.05575014358120305 -0.4247492892401559 -0.08993414257253919 -0.3614241395677839 -0.19273842871189117 0.7812749998910087 0.4024260001523154 0.614606716803142 0.044548285858971734 0.683443009853363 0.019020714414572076 -0.3674255737236568 0.36186027952602934
37 -0.1438444278069905 -0.3179198546069009 0.20190357097557612 -0.023814714247626916 0.5390894285270146 0.2828942856618336 0.435529283114842 -0.1039007135799953 -0.08325728614415441 -0.350747144648007 0.0890792863709586 -0.6575944210801806 -0.48075027976717266 0.06889299941914422 0.03703414276242256 0.47360428316252573 -0.27875071338244845 0.040425999888351986 0.5625540103231158 -0.05575014358120305 -0.4247492892401559 -0.08993414257253919 -0.3614241395677839 -0.19273842871189117 0.7812749998910087 0.4024260001523154 0.614606716803142 0.044548285858971734 0.683443009853363 0.019020714414572076 -0.3674255737236568 0.36186027952602934
38 -0.1438444278069905 -0.3179198546069009 0.20190357097557612 -0.023814714247626916 0.5390894285270146 0.2828942856618336 0.435529283114842 -0.1039007135799953 -0.08325728614415441 -0.350747144648007 0.0890792863709586 -0.6575944210801806 -0.48075027976717266 0.06889299941914422 0.03703414276242256 0.47360428316252573 -0.27875071338244845 0.040425999888351986 0.5625540103231158 -0.05575014358120305 -0.4247492892401559 -0.08993414257253919 -0.3614241395677839 -0.19273842871189117 0.7812749998910087 0.4024260001523154 0.614606716803142 0.044548285858971734 0.683443009853363 0.019020714414572076 -0.3674255737236568 0.36186027952602934
39 -0.13567609136754816 -0.2967498166994615 0.18327627127820795 -0.01849618174178018 0.48521227728236804 0.2601661817594008 0.3890965472568165 -0.09676054526459087 -0.08211700008674101 -0.3152542737397281 0.07913245531645688 -0.5877306352962147 -0.4376323629509319 0.056436999277635055 0.03310009092092514 0.4285825409672477 -0.2536397251215848 0.03572972711514343 0.5082372779195959 -0.07055191018364647 -0.37954008985649457 -0.05902136371216991 -0.33030108972029254 -0.17283263396133075 0.7027811841531233 0.3659762685949152 0.5469642769206654 0.06307909163561734 0.6124235581267964 0.01576354583217339 -0.3302196386185559 0.3228476345539093
40 -0.1388933335741361 -0.3126596659421921 0.1952841654419899 -0.018475166444356244 0.5335988253355026 0.2817258338133494 0.4337965001662572 -0.09877866630752881 -0.08532716706395149 -0.3452469954888026 0.09019483501712482 -0.6473948359489441 -0.47480333348115283 0.07264733252425988 0.04396399979790052 0.4634236643711726 -0.2736113319794337 0.03740866699566444 0.5604068438212076 -0.04615233341852824 -0.4273756742477417 -0.09362249945600827 -0.35857165853182477 -0.19314750035603842 0.7745166718959808 0.4011539965867996 0.6087201635042826 0.04736900019148985 0.6811655163764954 0.01891550012320901 -0.36752333243687946 0.35774166385332745
41 -0.1438444278069905 -0.3179198546069009 0.20190357097557612 -0.023814714247626916 0.5390894285270146 0.2828942856618336 0.435529283114842 -0.1039007135799953 -0.08325728614415441 -0.350747144648007 0.0890792863709586 -0.6575944210801806 -0.48075027976717266 0.06889299941914422 0.03703414276242256 0.47360428316252573 -0.27875071338244845 0.040425999888351986 0.5625540103231158 -0.05575014358120305 -0.4247492892401559 -0.08993414257253919 -0.3614241395677839 -0.19273842871189117 0.7812749998910087 0.4024260001523154 0.614606716803142 0.044548285858971734 0.683443009853363 0.019020714414572076 -0.3674255737236568 0.36186027952602934
42 -0.1438444278069905 -0.3179198546069009 0.20190357097557612 -0.023814714247626916 0.5390894285270146 0.2828942856618336 0.435529283114842 -0.1039007135799953 -0.08325728614415441 -0.350747144648007 0.0890792863709586 -0.6575944210801806 -0.48075027976717266 0.06889299941914422 0.03703414276242256 0.47360428316252573 -0.27875071338244845 0.040425999888351986 0.5625540103231158 -0.05575014358120305 -0.4247492892401559 -0.08993414257253919 -0.3614241395677839 -0.19273842871189117 0.7812749998910087 0.4024260001523154 0.614606716803142 0.044548285858971734 0.683443009853363 0.019020714414572076 -0.3674255737236568 0.36186027952602934
43 -0.1388933335741361 -0.3126596659421921 0.1952841654419899 -0.018475166444356244 0.5335988253355026 0.2817258338133494 0.4337965001662572 -0.09877866630752881 -0.08532716706395149 -0.3452469954888026 0.09019483501712482 -0.6473948359489441 -0.47480333348115283 0.07264733252425988 0.04396399979790052 0.4634236643711726 -0.2736113319794337 0.03740866699566444 0.5604068438212076 -0.04615233341852824 -0.4273756742477417 -0.09362249945600827 -0.35857165853182477 -0.19314750035603842 0.7745166718959808 0.4011539965867996 0.6087201635042826 0.04736900019148985 0.6811655163764954 0.01891550012320901 -0.36752333243687946 0.35774166385332745
44 -0.1438444278069905 -0.3179198546069009 0.20190357097557612 -0.023814714247626916 0.5390894285270146 0.2828942856618336 0.435529283114842 -0.1039007135799953 -0.08325728614415441 -0.350747144648007 0.0890792863709586 -0.6575944210801806 -0.48075027976717266 0.06889299941914422 0.03703414276242256 0.47360428316252573 -0.27875071338244845 0.040425999888351986 0.5625540103231158 -0.05575014358120305 -0.4247492892401559 -0.08993414257253919 -0.3614241395677839 -0.19273842871189117 0.7812749998910087 0.4024260001523154 0.614606716803142 0.044548285858971734 0.683443009853363 0.019020714414572076 -0.3674255737236568 0.36186027952602934
45 -0.13567609136754816 -0.2967498166994615 0.18327627127820795 -0.01849618174178018 0.48521227728236804 0.2601661817594008 0.3890965472568165 -0.09676054526459087 -0.08211700008674101 -0.3152542737397281 0.07913245531645688 -0.5877306352962147 -0.4376323629509319 0.056436999277635055 0.03310009092092514 0.4285825409672477 -0.2536397251215848 0.03572972711514343 0.5082372779195959 -0.07055191018364647 -0.37954008985649457 -0.05902136371216991 -0.33030108972029254 -0.17283263396133075 0.7027811841531233 0.3659762685949152 0.5469642769206654 0.06307909163561734 0.6124235581267964 0.01576354583217339 -0.3302196386185559 0.3228476345539093
46 -0.1282876655459404 -0.2929474984606107 0.17932850122451782 -0.02344599987069766 0.49507583181063336 0.2573636670907338 0.395558829108874 -0.0962348332007726 -0.07563033327460289 -0.31578533351421356 0.08695916707317035 -0.593277836839358 -0.4324893256028493 0.06606949989994367 0.03289633337408304 0.4204931656519572 -0.24928616732358932 0.03545683311919371 0.5098335047562917 -0.04538333353896936 -0.38485350211461383 -0.08188966661691666 -0.3287624915440877 -0.1790430024266243 0.707615335782369 0.3650323326388995 0.5509631733099619 0.037721500266343355 0.6186635146538416 0.01395633384042109 -0.33431799709796906 0.32850732902685803
47 -0.1438444278069905 -0.3179198546069009 0.20190357097557612 -0.023814714247626916 0.5390894285270146 0.2828942856618336 0.435529283114842 -0.1039007135799953 -0.08325728614415441 -0.350747144648007 0.0890792863709586 -0.6575944210801806 -0.48075027976717266 0.06889299941914422 0.03703414276242256 0.47360428316252573 -0.27875071338244845 0.040425999888351986 0.5625540103231158 -0.05575014358120305 -0.4247492892401559 -0.08993414257253919 -0.3614241395677839 -0.19273842871189117 0.7812749998910087 0.4024260001523154 0.614606716803142 0.044548285858971734 0.683443009853363 0.019020714414572076 -0.3674255737236568 0.36186027952602934
48 -0.13567609136754816 -0.2967498166994615 0.18327627127820795 -0.01849618174178018 0.48521227728236804 0.2601661817594008 0.3890965472568165 -0.09676054526459087 -0.08211700008674101 -0.3152542737397281 0.07913245531645688 -0.5877306352962147 -0.4376323629509319 0.056436999277635055 0.03310009092092514 0.4285825409672477 -0.2536397251215848 0.03572972711514343 0.5082372779195959 -0.07055191018364647 -0.37954008985649457 -0.05902136371216991 -0.33030108972029254 -0.17283263396133075 0.7027811841531233 0.3659762685949152 0.5469642769206654 0.06307909163561734 0.6124235581267964 0.01576354583217339 -0.3302196386185559 0.3228476345539093
49 -0.1282876655459404 -0.2929474984606107 0.17932850122451782 -0.02344599987069766 0.49507583181063336 0.2573636670907338 0.395558829108874 -0.0962348332007726 -0.07563033327460289 -0.31578533351421356 0.08695916707317035 -0.593277836839358 -0.4324893256028493 0.06606949989994367 0.03289633337408304 0.4204931656519572 -0.24928616732358932 0.03545683311919371 0.5098335047562917 -0.04538333353896936 -0.38485350211461383 -0.08188966661691666 -0.3287624915440877 -0.1790430024266243 0.707615335782369 0.3650323326388995 0.5509631733099619 0.037721500266343355 0.6186635146538416 0.01395633384042109 -0.33431799709796906 0.32850732902685803
50 -0.13567609136754816 -0.2967498166994615 0.18327627127820795 -0.01849618174178018 0.48521227728236804 0.2601661817594008 0.3890965472568165 -0.09676054526459087 -0.08211700008674101 -0.3152542737397281 0.07913245531645688 -0.5877306352962147 -0.4376323629509319 0.056436999277635055 0.03310009092092514 0.4285825409672477 -0.2536397251215848 0.03572972711514343 0.5082372779195959 -0.07055191018364647 -0.37954008985649457 -0.05902136371216991 -0.33030108972029254 -0.17283263396133075 0.7027811841531233 0.3659762685949152 0.5469642769206654 0.06307909163561734 0.6124235581267964 0.01576354583217339 -0.3302196386185559 0.3228476345539093
51 -0.1438444278069905 -0.3179198546069009 0.20190357097557612 -0.023814714247626916 0.5390894285270146 0.2828942856618336 0.435529283114842 -0.1039007135799953 -0.08325728614415441 -0.350747144648007 0.0890792863709586 -0.6575944210801806 -0.48075027976717266 0.06889299941914422 0.03703414276242256 0.47360428316252573 -0.27875071338244845 0.040425999888351986 0.5625540103231158 -0.05575014358120305 -0.4247492892401559 -0.08993414257253919 -0.3614241395677839 -0.19273842871189117 0.7812749998910087 0.4024260001523154 0.614606716803142 0.044548285858971734 0.683443009853363 0.019020714414572076 -0.3674255737236568 0.36186027952602934
52 -0.13567609136754816 -0.2967498166994615 0.18327627127820795 -0.01849618174178018 0.48521227728236804 0.2601661817594008 0.3890965472568165 -0.09676054526459087 -0.08211700008674101 -0.3152542737397281 0.07913245531645688 -0.5877306352962147 -0.4376323629509319 0.056436999277635055 0.03310009092092514 0.4285825409672477 -0.2536397251215848 0.03572972711514343 0.5082372779195959 -0.07055191018364647 -0.37954008985649457 -0.05902136371216991 -0.33030108972029254 -0.17283263396133075 0.7027811841531233 0.3659762685949152 0.5469642769206654 0.06307909163561734 0.6124235581267964 0.01576354583217339 -0.3302196386185559 0.3228476345539093
53 -0.1282876655459404 -0.2929474984606107 0.17932850122451782 -0.02344599987069766 0.49507583181063336 0.2573636670907338 0.395558829108874 -0.0962348332007726 -0.07563033327460289 -0.31578533351421356 0.08695916707317035 -0.593277836839358 -0.4324893256028493 0.06606949989994367 0.03289633337408304 0.4204931656519572 -0.24928616732358932 0.03545683311919371 0.5098335047562917 -0.04538333353896936 -0.38485350211461383 -0.08188966661691666 -0.3287624915440877 -0.1790430024266243 0.707615335782369 0.3650323326388995 0.5509631733099619 0.037721500266343355 0.6186635146538416 0.01395633384042109 -0.33431799709796906 0.32850732902685803
54 -0.1282876655459404 -0.2929474984606107 0.17932850122451782 -0.02344599987069766 0.49507583181063336 0.2573636670907338 0.395558829108874 -0.0962348332007726 -0.07563033327460289 -0.31578533351421356 0.08695916707317035 -0.593277836839358 -0.4324893256028493 0.06606949989994367 0.03289633337408304 0.4204931656519572 -0.24928616732358932 0.03545683311919371 0.5098335047562917 -0.04538333353896936 -0.38485350211461383 -0.08188966661691666 -0.3287624915440877 -0.1790430024266243 0.707615335782369 0.3650323326388995 0.5509631733099619 0.037721500266343355 0.6186635146538416 0.01395633384042109 -0.33431799709796906 0.32850732902685803
55 -0.1438444278069905 -0.3179198546069009 0.20190357097557612 -0.023814714247626916 0.5390894285270146 0.2828942856618336 0.435529283114842 -0.1039007135799953 -0.08325728614415441 -0.350747144648007 0.0890792863709586 -0.6575944210801806 -0.48075027976717266 0.06889299941914422 0.03703414276242256 0.47360428316252573 -0.27875071338244845 0.040425999888351986 0.5625540103231158 -0.05575014358120305 -0.4247492892401559 -0.08993414257253919 -0.3614241395677839 -0.19273842871189117 0.7812749998910087 0.4024260001523154 0.614606716803142 0.044548285858971734 0.683443009853363 0.019020714414572076 -0.3674255737236568 0.36186027952602934
56 -0.1282876655459404 -0.2929474984606107 0.17932850122451782 -0.02344599987069766 0.49507583181063336 0.2573636670907338 0.395558829108874 -0.0962348332007726 -0.07563033327460289 -0.31578533351421356 0.08695916707317035 -0.593277836839358 -0.4324893256028493 0.06606949989994367 0.03289633337408304 0.4204931656519572 -0.24928616732358932 0.03545683311919371 0.5098335047562917 -0.04538333353896936 -0.38485350211461383 -0.08188966661691666 -0.3287624915440877 -0.1790430024266243 0.707615335782369 0.3650323326388995 0.5509631733099619 0.037721500266343355 0.6186635146538416 0.01395633384042109 -0.33431799709796906 0.32850732902685803
57 -0.1388933335741361 -0.3126596659421921 0.1952841654419899 -0.018475166444356244 0.5335988253355026 0.2817258338133494 0.4337965001662572 -0.09877866630752881 -0.08532716706395149 -0.3452469954888026 0.09019483501712482 -0.6473948359489441 -0.47480333348115283 0.07264733252425988 0.04396399979790052 0.4634236643711726 -0.2736113319794337 0.03740866699566444 0.5604068438212076 -0.04615233341852824 -0.4273756742477417 -0.09362249945600827 -0.35857165853182477 -0.19314750035603842 0.7745166718959808 0.4011539965867996 0.6087201635042826 0.04736900019148985 0.6811655163764954 0.01891550012320901 -0.36752333243687946 0.35774166385332745
58 -0.12298622147904502 -0.26637022228290635 0.16128255556234056 -0.015618333321375152 0.43760977613015306 0.23347533458015984 0.35357155710355276 -0.08217466647167587 -0.08348466662897004 -0.2842238885867927 0.07262755622569886 -0.5297258835699823 -0.39428444219811354 0.0563474442395899 0.03560277788589398 0.385042330974506 -0.22647522232081327 0.03118811154531108 0.4582711179844207 -0.056567333265168905 -0.3486294465449949 -0.06174933391998315 -0.29978488862980157 -0.15859077591449022 0.6396396666144332 0.3338236603885889 0.4976303385984566 0.04798077760885159 0.5554146764592992 0.017002667183987796 -0.30930489022284746 0.29618088400457054
59 -0.12298622147904502 -0.26637022228290635 0.16128255556234056 -0.015618333321375152 0.43760977613015306 0.23347533458015984 0.35357155710355276 -0.08217466647167587 -0.08348466662897004 -0.2842238885867927 0.07262755622569886 -0.5297258835699823 -0.39428444219811354 0.0563474442395899 0.03560277788589398 0.385042330974506 -0.22647522232081327 0.03118811154531108 0.4582711179844207 -0.056567333265168905 -0.3486294465449949 -0.06174933391998315 -0.29978488862980157 -0.15859077591449022 0.6396396666144332 0.3338236603885889 0.4976303385984566 0.04798077760885159 0.5554146764592992 0.017002667183987796 -0.30930489022284746 0.29618088400457054
60 -0.1438444278069905 -0.3179198546069009 0.20190357097557612 -0.023814714247626916 0.5390894285270146 0.2828942856618336 0.435529283114842 -0.1039007135799953 -0.08325728614415441 -0.350747144648007 0.0890792863709586 -0.6575944210801806 -0.48075027976717266 0.06889299941914422 0.03703414276242256 0.47360428316252573 -0.27875071338244845 0.040425999888351986 0.5625540103231158 -0.05575014358120305 -0.4247492892401559 -0.08993414257253919 -0.3614241395677839 -0.19273842871189117 0.7812749998910087 0.4024260001523154 0.614606716803142 0.044548285858971734 0.683443009853363 0.019020714414572076 -0.3674255737236568 0.36186027952602934
61 -0.13567609136754816 -0.2967498166994615 0.18327627127820795 -0.01849618174178018 0.48521227728236804 0.2601661817594008 0.3890965472568165 -0.09676054526459087 -0.08211700008674101 -0.3152542737397281 0.07913245531645688 -0.5877306352962147 -0.4376323629509319 0.056436999277635055 0.03310009092092514 0.4285825409672477 -0.2536397251215848 0.03572972711514343 0.5082372779195959 -0.07055191018364647 -0.37954008985649457 -0.05902136371216991 -0.33030108972029254 -0.17283263396133075 0.7027811841531233 0.3659762685949152 0.5469642769206654 0.06307909163561734 0.6124235581267964 0.01576354583217339 -0.3302196386185559 0.3228476345539093
62 -0.13567609136754816 -0.2967498166994615 0.18327627127820795 -0.01849618174178018 0.48521227728236804 0.2601661817594008 0.3890965472568165 -0.09676054526459087 -0.08211700008674101 -0.3152542737397281 0.07913245531645688 -0.5877306352962147 -0.4376323629509319 0.056436999277635055 0.03310009092092514 0.4285825409672477 -0.2536397251215848 0.03572972711514343 0.5082372779195959 -0.07055191018364647 -0.37954008985649457 -0.05902136371216991 -0.33030108972029254 -0.17283263396133075 0.7027811841531233 0.3659762685949152 0.5469642769206654 0.06307909163561734 0.6124235581267964 0.01576354583217339 -0.3302196386185559 0.3228476345539093
63 -0.1438444278069905 -0.3179198546069009 0.20190357097557612 -0.023814714247626916 0.5390894285270146 0.2828942856618336 0.435529283114842 -0.1039007135799953 -0.08325728614415441 -0.350747144648007 0.0890792863709586 -0.6575944210801806 -0.48075027976717266 0.06889299941914422 0.03703414276242256 0.47360428316252573 -0.27875071338244845 0.040425999888351986 0.5625540103231158 -0.05575014358120305 -0.4247492892401559 -0.08993414257253919 -0.3614241395677839 -0.19273842871189117 0.7812749998910087 0.4024260001523154 0.614606716803142 0.044548285858971734 0.683443009853363 0.019020714414572076 -0.3674255737236568 0.36186027952602934
64 -0.1438444278069905 -0.3179198546069009 0.20190357097557612 -0.023814714247626916 0.5390894285270146 0.2828942856618336 0.435529283114842 -0.1039007135799953 -0.08325728614415441 -0.350747144648007 0.0890792863709586 -0.6575944210801806 -0.48075027976717266 0.06889299941914422 0.03703414276242256 0.47360428316252573 -0.27875071338244845 0.040425999888351986 0.5625540103231158 -0.05575014358120305 -0.4247492892401559 -0.08993414257253919 -0.3614241395677839 -0.19273842871189117 0.7812749998910087 0.4024260001523154 0.614606716803142 0.044548285858971734 0.683443009853363 0.019020714414572076 -0.3674255737236568 0.36186027952602934
65 -0.1438444278069905 -0.3179198546069009 0.20190357097557612 -0.023814714247626916 0.5390894285270146 0.2828942856618336 0.435529283114842 -0.1039007135799953 -0.08325728614415441 -0.350747144648007 0.0890792863709586 -0.6575944210801806 -0.48075027976717266 0.06889299941914422 0.03703414276242256 0.47360428316252573 -0.27875071338244845 0.040425999888351986 0.5625540103231158 -0.05575014358120305 -0.4247492892401559 -0.08993414257253919 -0.3614241395677839 -0.19273842871189117 0.7812749998910087 0.4024260001523154 0.614606716803142 0.044548285858971734 0.683443009853363 0.019020714414572076 -0.3674255737236568 0.36186027952602934
66 -0.1438444278069905 -0.3179198546069009 0.20190357097557612 -0.023814714247626916 0.5390894285270146 0.2828942856618336 0.435529283114842 -0.1039007135799953 -0.08325728614415441 -0.350747144648007 0.0890792863709586 -0.6575944210801806 -0.48075027976717266 0.06889299941914422 0.03703414276242256 0.47360428316252573 -0.27875071338244845 0.040425999888351986 0.5625540103231158 -0.05575014358120305 -0.4247492892401559 -0.08993414257253919 -0.3614241395677839 -0.19273842871189117 0.7812749998910087 0.4024260001523154 0.614606716803142 0.044548285858971734 0.683443009853363 0.019020714414572076 -0.3674255737236568 0.36186027952602934
67 -0.1438444278069905 -0.3179198546069009 0.20190357097557612 -0.023814714247626916 0.5390894285270146 0.2828942856618336 0.435529283114842 -0.1039007135799953 -0.08325728614415441 -0.350747144648007 0.0890792863709586 -0.6575944210801806 -0.48075027976717266 0.06889299941914422 0.03703414276242256 0.47360428316252573 -0.27875071338244845 0.040425999888351986 0.5625540103231158 -0.05575014358120305 -0.4247492892401559 -0.08993414257253919 -0.3614241395677839 -0.19273842871189117 0.7812749998910087 0.4024260001523154 0.614606716803142 0.044548285858971734 0.683443009853363 0.019020714414572076 -0.3674255737236568 0.36186027952602934
68 -0.1282876655459404 -0.2929474984606107 0.17932850122451782 -0.02344599987069766 0.49507583181063336 0.2573636670907338 0.395558829108874 -0.0962348332007726 -0.07563033327460289 -0.31578533351421356 0.08695916707317035 -0.593277836839358 -0.4324893256028493 0.06606949989994367 0.03289633337408304 0.4204931656519572 -0.24928616732358932 0.03545683311919371 0.5098335047562917 -0.04538333353896936 -0.38485350211461383 -0.08188966661691666 -0.3287624915440877 -0.1790430024266243 0.707615335782369 0.3650323326388995 0.5509631733099619 0.037721500266343355 0.6186635146538416 0.01395633384042109 -0.33431799709796906 0.32850732902685803
69 -0.1438444278069905 -0.3179198546069009 0.20190357097557612 -0.023814714247626916 0.5390894285270146 0.2828942856618336 0.435529283114842 -0.1039007135799953 -0.08325728614415441 -0.350747144648007 0.0890792863709586 -0.6575944210801806 -0.48075027976717266 0.06889299941914422 0.03703414276242256 0.47360428316252573 -0.27875071338244845 0.040425999888351986 0.5625540103231158 -0.05575014358120305 -0.4247492892401559 -0.08993414257253919 -0.3614241395677839 -0.19273842871189117 0.7812749998910087 0.4024260001523154 0.614606716803142 0.044548285858971734 0.683443009853363 0.019020714414572076 -0.3674255737236568 0.36186027952602934
70 -0.08617866613591711 -0.19648732990026474 0.11610966734588146 -0.011255666458358368 0.32311266163984936 0.17266683466732502 0.2590228319168091 -0.05814516544342041 -0.05327033344656229 -0.21391833138962588 0.060207834312071405 -0.3970783328016599 -0.29030432800451916 0.039966165592583515 0.01914633360380928 0.28417600070436794 -0.1658796655635039 0.01709800005968039 0.3493900050719579 -0.03284516689988474 -0.26084667071700096 -0.05418283368150393 -0.2189546637237072 -0.1186844992140929 0.4777670030792554 0.23751966344813505 0.3755050015946229 0.023626166706283886 0.4223970075448354 0.012098333798348904 -0.22797966500123343 0.21930566305915514
71 -0.1388933335741361 -0.3126596659421921 0.1952841654419899 -0.018475166444356244 0.5335988253355026 0.2817258338133494 0.4337965001662572 -0.09877866630752881 -0.08532716706395149 -0.3452469954888026 0.09019483501712482 -0.6473948359489441 -0.47480333348115283 0.07264733252425988 0.04396399979790052 0.4634236643711726 -0.2736113319794337 0.03740866699566444 0.5604068438212076 -0.04615233341852824 -0.4273756742477417 -0.09362249945600827 -0.35857165853182477 -0.19314750035603842 0.7745166718959808 0.4011539965867996 0.6087201635042826 0.04736900019148985 0.6811655163764954 0.01891550012320901 -0.36752333243687946 0.35774166385332745
72 -0.1282876655459404 -0.2929474984606107 0.17932850122451782 -0.02344599987069766 0.49507583181063336 0.2573636670907338 0.395558829108874 -0.0962348332007726 -0.07563033327460289 -0.31578533351421356 0.08695916707317035 -0.593277836839358 -0.4324893256028493 0.06606949989994367 0.03289633337408304 0.4204931656519572 -0.24928616732358932 0.03545683311919371 0.5098335047562917 -0.04538333353896936 -0.38485350211461383 -0.08188966661691666 -0.3287624915440877 -0.1790430024266243 0.707615335782369 0.3650323326388995 0.5509631733099619 0.037721500266343355 0.6186635146538416 0.01395633384042109 -0.33431799709796906 0.32850732902685803
73 -0.13251536271788858 -0.3502223627133803 0.21998754821040414 -0.02506700005720962 0.5758206383748488 0.2775246379050342 0.4520792744376443 -0.12737645412033255 -0.0736096365885301 -0.35677545449950476 0.0903650007464669 -0.6946089999242262 -0.49417281421748077 0.07594818181612274 0.031229090961542996 0.47589909488504584 -0.2839629067616029 0.03701609102162448 0.5923749127171256 -0.052004636519334534 -0.4332191862843253 -0.10911927304484627 -0.375345995480364 -0.20778463780879974 0.7973280007188971 0.40857127037915314 0.6400949088009921 0.033288181674751366 0.7116265540773218 0.017244909138588064 -0.39520672776482324 0.3753978135910901
74 -0.12041619829833508 -0.27324679419398307 0.17198140025138856 -0.021769799664616583 0.45270639630034565 0.23216779939830304 0.3654072005301714 -0.08647459950952907 -0.07760979980230331 -0.2980856000445783 0.0756680017337203 -0.5518576009199023 -0.41120919603854417 0.05646639943588525 0.03532480001449585 0.3942489992827177 -0.23424719753675163 0.03441859968006611 0.4672018096782267 -0.046533400658518076 -0.3537118062376976 -0.06671660039573908 -0.30350619070231916 -0.16366459948476403 0.6476710112765431 0.3394821965135634 0.5087340047582984 0.046279000397771594 0.5720492215827108 0.010738400439731777 -0.31344899721443653 0.29846939612179996
75 -0.12041619829833508 -0.27324679419398307 0.17198140025138856 -0.021769799664616583 0.45270639630034565 0.23216779939830304 0.3654072005301714 -0.08647459950952907 -0.07760979980230331 -0.2980856000445783 0.0756680017337203 -0.5518576009199023 -0.41120919603854417 0.05646639943588525 0.03532480001449585 0.3942489992827177 -0.23424719753675163 0.03441859968006611 0.4672018096782267 -0.046533400658518076 -0.3537118062376976 -0.06671660039573908 -0.30350619070231916 -0.16366459948476403 0.6476710112765431 0.3394821965135634 0.5087340047582984 0.046279000397771594 0.5720492215827108 0.010738400439731777 -0.31344899721443653 0.29846939612179996
76 -0.12041619829833508 -0.27324679419398307 0.17198140025138856 -0.021769799664616583 0.45270639630034565 0.23216779939830304 0.3654072005301714 -0.08647459950952907 -0.07760979980230331 -0.2980856000445783 0.0756680017337203 -0.5518576009199023 -0.41120919603854417 0.05646639943588525 0.03532480001449585 0.3942489992827177 -0.23424719753675163 0.03441859968006611 0.4672018096782267 -0.046533400658518076 -0.3537118062376976 -0.06671660039573908 -0.30350619070231916 -0.16366459948476403 0.6476710112765431 0.3394821965135634 0.5087340047582984 0.046279000397771594 0.5720492215827108 0.010738400439731777 -0.31344899721443653 0.29846939612179996
77 -0.12041619829833508 -0.27324679419398307 0.17198140025138856 -0.021769799664616583 0.45270639630034565 0.23216779939830304 0.3654072005301714 -0.08647459950952907 -0.07760979980230331 -0.2980856000445783 0.0756680017337203 -0.5518576009199023 -0.41120919603854417 0.05646639943588525 0.03532480001449585 0.3942489992827177 -0.23424719753675163 0.03441859968006611 0.4672018096782267 -0.046533400658518076 -0.3537118062376976 -0.06671660039573908 -0.30350619070231916 -0.16366459948476403 0.6476710112765431 0.3394821965135634 0.5087340047582984 0.046279000397771594 0.5720492215827108 0.010738400439731777 -0.31344899721443653 0.29846939612179996
78 -0.03820971369610301 -0.09551656868175737 0.06097028571613399 -0.009998571293960725 0.15391099915307546 0.07837471632020813 0.12801514023781888 -0.032009570859372616 -0.023526142617421492 -0.10259714438871015 0.024723572199166353 -0.18711656965647958 -0.1395272861700505 0.02143585668610675 0.012872285862353497 0.13596528838388622 -0.07439542688163263 0.01496557124690818 0.16075114752831204 -0.02145871493433203 -0.12472757584016238 -0.019638286246585528 -0.10285285421247993 -0.056585427307124646 0.22083686104243888 0.12158171097481889 0.16995499565798258 0.01468985723996801 0.1923737220599183 0.002617428619747183 -0.10367028500851509 0.10088628585383828
79 -0.03820971369610301 -0.09551656868175737 0.06097028571613399 -0.009998571293960725 0.15391099915307546 0.07837471632020813 0.12801514023781888 -0.032009570859372616 -0.023526142617421492 -0.10259714438871015 0.024723572199166353 -0.18711656965647958 -0.1395272861700505 0.02143585668610675 0.012872285862353497 0.13596528838388622 -0.07439542688163263 0.01496557124690818 0.16075114752831204 -0.02145871493433203 -0.12472757584016238 -0.019638286246585528 -0.10285285421247993 -0.056585427307124646 0.22083686104243888 0.12158171097481889 0.16995499565798258 0.01468985723996801 0.1923737220599183 0.002617428619747183 -0.10367028500851509 0.10088628585383828
80 -0.12041619829833508 -0.27324679419398307 0.17198140025138856 -0.021769799664616583 0.45270639630034565 0.23216779939830304 0.3654072005301714 -0.08647459950952907 -0.07760979980230331 -0.2980856000445783 0.0756680017337203 -0.5518576009199023 -0.41120919603854417 0.05646639943588525 0.03532480001449585 0.3942489992827177 -0.23424719753675163 0.03441859968006611 0.4672018096782267 -0.046533400658518076 -0.3537118062376976 -0.06671660039573908 -0.30350619070231916 -0.16366459948476403 0.6476710112765431 0.3394821965135634 0.5087340047582984 0.046279000397771594 0.5720492215827108 0.010738400439731777 -0.31344899721443653 0.29846939612179996
81 -0.03820971369610301 -0.09551656868175737 0.06097028571613399 -0.009998571293960725 0.15391099915307546 0.07837471632020813 0.12801514023781888 -0.032009570859372616 -0.023526142617421492 -0.10259714438871015 0.024723572199166353 -0.18711656965647958 -0.1395272861700505 0.02143585668610675 0.012872285862353497 0.13596528838388622 -0.07439542688163263 0.01496557124690818 0.16075114752831204 -0.02145871493433203 -0.12472757584016238 -0.019638286246585528 -0.10285285421247993 -0.056585427307124646 0.22083686104243888 0.12158171097481889 0.16995499565798258 0.01468985723996801 0.1923737220599183 0.002617428619747183 -0.10367028500851509 0.10088628585383828
82 -0.03820971369610301 -0.09551656868175737 0.06097028571613399 -0.009998571293960725 0.15391099915307546 0.07837471632020813 0.12801514023781888 -0.032009570859372616 -0.023526142617421492 -0.10259714438871015 0.024723572199166353 -0.18711656965647958 -0.1395272861700505 0.02143585668610675 0.012872285862353497 0.13596528838388622 -0.07439542688163263 0.01496557124690818 0.16075114752831204 -0.02145871493433203 -0.12472757584016238 -0.019638286246585528 -0.10285285421247993 -0.056585427307124646 0.22083686104243888 0.12158171097481889 0.16995499565798258 0.01468985723996801 0.1923737220599183 0.002617428619747183 -0.10367028500851509 0.10088628585383828
83 -0.12041619829833508 -0.27324679419398307 0.17198140025138856 -0.021769799664616583 0.45270639630034565 0.23216779939830304 0.3654072005301714 -0.08647459950952907 -0.07760979980230331 -0.2980856000445783 0.0756680017337203 -0.5518576009199023 -0.41120919603854417 0.05646639943588525 0.03532480001449585 0.3942489992827177 -0.23424719753675163 0.03441859968006611 0.4672018096782267 -0.046533400658518076 -0.3537118062376976 -0.06671660039573908 -0.30350619070231916 -0.16366459948476403 0.6476710112765431 0.3394821965135634 0.5087340047582984 0.046279000397771594 0.5720492215827108 0.010738400439731777 -0.31344899721443653 0.29846939612179996
84 -0.03820971369610301 -0.09551656868175737 0.06097028571613399 -0.009998571293960725 0.15391099915307546 0.07837471632020813 0.12801514023781888 -0.032009570859372616 -0.023526142617421492 -0.10259714438871015 0.024723572199166353 -0.18711656965647958 -0.1395272861700505 0.02143585668610675 0.012872285862353497 0.13596528838388622 -0.07439542688163263 0.01496557124690818 0.16075114752831204 -0.02145871493433203 -0.12472757584016238 -0.019638286246585528 -0.10285285421247993 -0.056585427307124646 0.22083686104243888 0.12158171097481889 0.16995499565798258 0.01468985723996801 0.1923737220599183 0.002617428619747183 -0.10367028500851509 0.10088628585383828
85 -0.03820971369610301 -0.09551656868175737 0.06097028571613399 -0.009998571293960725 0.15391099915307546 0.07837471632020813 0.12801514023781888 -0.032009570859372616 -0.023526142617421492 -0.10259714438871015 0.024723572199166353 -0.18711656965647958 -0.1395272861700505 0.02143585668610675 0.012872285862353497 0.13596528838388622 -0.07439542688163263 0.01496557124690818 0.16075114752831204 -0.02145871493433203 -0.12472757584016238 -0.019638286246585528 -0.10285285421247993 -0.056585427307124646 0.22083686104243888 0.12158171097481889 0.16995499565798258 0.01468985723996801 0.1923737220599183 0.002617428619747183 -0.10367028500851509 0.10088628585383828
86 -0.03820971369610301 -0.09551656868175737 0.06097028571613399 -0.009998571293960725 0.15391099915307546 0.07837471632020813 0.12801514023781888 -0.032009570859372616 -0.023526142617421492 -0.10259714438871015 0.024723572199166353 -0.18711656965647958 -0.1395272861700505 0.02143585668610675 0.012872285862353497 0.13596528838388622 -0.07439542688163263 0.01496557124690818 0.16075114752831204 -0.02145871493433203 -0.12472757584016238 -0.019638286246585528 -0.10285285421247993 -0.056585427307124646 0.22083686104243888 0.12158171097481889 0.16995499565798258 0.01468985723996801 0.1923737220599183 0.002617428619747183 -0.10367028500851509 0.10088628585383828
87 -0.12041619829833508 -0.27324679419398307 0.17198140025138856 -0.021769799664616583 0.45270639630034565 0.23216779939830304 0.3654072005301714 -0.08647459950952907 -0.07760979980230331 -0.2980856000445783 0.0756680017337203 -0.5518576009199023 -0.41120919603854417 0.05646639943588525 0.03532480001449585 0.3942489992827177 -0.23424719753675163 0.03441859968006611 0.4672018096782267 -0.046533400658518076 -0.3537118062376976 -0.06671660039573908 -0.30350619070231916 -0.16366459948476403 0.6476710112765431 0.3394821965135634 0.5087340047582984 0.046279000397771594 0.5720492215827108 0.010738400439731777 -0.31344899721443653 0.29846939612179996
88 -0.03820971369610301 -0.09551656868175737 0.06097028571613399 -0.009998571293960725 0.15391099915307546 0.07837471632020813 0.12801514023781888 -0.032009570859372616 -0.023526142617421492 -0.10259714438871015 0.024723572199166353 -0.18711656965647958 -0.1395272861700505 0.02143585668610675 0.012872285862353497 0.13596528838388622 -0.07439542688163263 0.01496557124690818 0.16075114752831204 -0.02145871493433203 -0.12472757584016238 -0.019638286246585528 -0.10285285421247993 -0.056585427307124646 0.22083686104243888 0.12158171097481889 0.16995499565798258 0.01468985723996801 0.1923737220599183 0.002617428619747183 -0.10367028500851509 0.10088628585383828
89 -0.03820971369610301 -0.09551656868175737 0.06097028571613399 -0.009998571293960725 0.15391099915307546 0.07837471632020813 0.12801514023781888 -0.032009570859372616 -0.023526142617421492 -0.10259714438871015 0.024723572199166353 -0.18711656965647958 -0.1395272861700505 0.02143585668610675 0.012872285862353497 0.13596528838388622 -0.07439542688163263 0.01496557124690818 0.16075114752831204 -0.02145871493433203 -0.12472757584016238 -0.019638286246585528 -0.10285285421247993 -0.056585427307124646 0.22083686104243888 0.12158171097481889 0.16995499565798258 0.01468985723996801 0.1923737220599183 0.002617428619747183 -0.10367028500851509 0.10088628585383828
90 -0.12041619829833508 -0.27324679419398307 0.17198140025138856 -0.021769799664616583 0.45270639630034565 0.23216779939830304 0.3654072005301714 -0.08647459950952907 -0.07760979980230331 -0.2980856000445783 0.0756680017337203 -0.5518576009199023 -0.41120919603854417 0.05646639943588525 0.03532480001449585 0.3942489992827177 -0.23424719753675163 0.03441859968006611 0.4672018096782267 -0.046533400658518076 -0.3537118062376976 -0.06671660039573908 -0.30350619070231916 -0.16366459948476403 0.6476710112765431 0.3394821965135634 0.5087340047582984 0.046279000397771594 0.5720492215827108 0.010738400439731777 -0.31344899721443653 0.29846939612179996
91 -0.03820971369610301 -0.09551656868175737 0.06097028571613399 -0.009998571293960725 0.15391099915307546 0.07837471632020813 0.12801514023781888 -0.032009570859372616 -0.023526142617421492 -0.10259714438871015 0.024723572199166353 -0.18711656965647958 -0.1395272861700505 0.02143585668610675 0.012872285862353497 0.13596528838388622 -0.07439542688163263 0.01496557124690818 0.16075114752831204 -0.02145871493433203 -0.12472757584016238 -0.019638286246585528 -0.10285285421247993 -0.056585427307124646 0.22083686104243888 0.12158171097481889 0.16995499565798258 0.01468985723996801 0.1923737220599183 0.002617428619747183 -0.10367028500851509 0.10088628585383828
92 -0.03820971369610301 -0.09551656868175737 0.06097028571613399 -0.009998571293960725 0.15391099915307546 0.07837471632020813 0.12801514023781888 -0.032009570859372616 -0.023526142617421492 -0.10259714438871015 0.024723572199166353 -0.18711656965647958 -0.1395272861700505 0.02143585668610675 0.012872285862353497 0.13596528838388622 -0.07439542688163263 0.01496557124690818 0.16075114752831204 -0.02145871493433203 -0.12472757584016238 -0.019638286246585528 -0.10285285421247993 -0.056585427307124646 0.22083686104243888 0.12158171097481889 0.16995499565798258 0.01468985723996801 0.1923737220599183 0.002617428619747183 -0.10367028500851509 0.10088628585383828
93 -0.03820971369610301 -0.09551656868175737 0.06097028571613399 -0.009998571293960725 0.15391099915307546 0.07837471632020813 0.12801514023781888 -0.032009570859372616 -0.023526142617421492 -0.10259714438871015 0.024723572199166353 -0.18711656965647958 -0.1395272861700505 0.02143585668610675 0.012872285862353497 0.13596528838388622 -0.07439542688163263 0.01496557124690818 0.16075114752831204 -0.02145871493433203 -0.12472757584016238 -0.019638286246585528 -0.10285285421247993 -0.056585427307124646 0.22083686104243888 0.12158171097481889 0.16995499565798258 0.01468985723996801 0.1923737220599183 0.002617428619747183 -0.10367028500851509 0.10088628585383828
94 -0.03820971369610301 -0.09551656868175737 0.06097028571613399 -0.009998571293960725 0.15391099915307546 0.07837471632020813 0.12801514023781888 -0.032009570859372616 -0.023526142617421492 -0.10259714438871015 0.024723572199166353 -0.18711656965647958 -0.1395272861700505 0.02143585668610675 0.012872285862353497 0.13596528838388622 -0.07439542688163263 0.01496557124690818 0.16075114752831204 -0.02145871493433203 -0.12472757584016238 -0.019638286246585528 -0.10285285421247993 -0.056585427307124646 0.22083686104243888 0.12158171097481889 0.16995499565798258 0.01468985723996801 0.1923737220599183 0.002617428619747183 -0.10367028500851509 0.10088628585383828
95 -0.03820971369610301 -0.09551656868175737 0.06097028571613399 -0.009998571293960725 0.15391099915307546 0.07837471632020813 0.12801514023781888 -0.032009570859372616 -0.023526142617421492 -0.10259714438871015 0.024723572199166353 -0.18711656965647958 -0.1395272861700505 0.02143585668610675 0.012872285862353497 0.13596528838388622 -0.07439542688163263 0.01496557124690818 0.16075114752831204 -0.02145871493433203 -0.12472757584016238 -0.019638286246585528 -0.10285285421247993 -0.056585427307124646 0.22083686104243888 0.12158171097481889 0.16995499565798258 0.01468985723996801 0.1923737220599183 0.002617428619747183 -0.10367028500851509 0.10088628585383828
96 -0.03820971369610301 -0.09551656868175737 0.06097028571613399 -0.009998571293960725 0.15391099915307546 0.07837471632020813 0.12801514023781888 -0.032009570859372616 -0.023526142617421492 -0.10259714438871015 0.024723572199166353 -0.18711656965647958 -0.1395272861700505 0.02143585668610675 0.012872285862353497 0.13596528838388622 -0.07439542688163263 0.01496557124690818 0.16075114752831204 -0.02145871493433203 -0.12472757584016238 -0.019638286246585528 -0.10285285421247993 -0.056585427307124646 0.22083686104243888 0.12158171097481889 0.16995499565798258 0.01468985723996801 0.1923737220599183 0.002617428619747183 -0.10367028500851509 0.10088628585383828
97 -0.12041619829833508 -0.27324679419398307 0.17198140025138856 -0.021769799664616583 0.45270639630034565 0.23216779939830304 0.3654072005301714 -0.08647459950952907 -0.07760979980230331 -0.2980856000445783 0.0756680017337203 -0.5518576009199023 -0.41120919603854417 0.05646639943588525 0.03532480001449585 0.3942489992827177 -0.23424719753675163 0.03441859968006611 0.4672018096782267 -0.046533400658518076 -0.3537118062376976 -0.06671660039573908 -0.30350619070231916 -0.16366459948476403 0.6476710112765431 0.3394821965135634 0.5087340047582984 0.046279000397771594 0.5720492215827108 0.010738400439731777 -0.31344899721443653 0.29846939612179996
98 -0.03820971369610301 -0.09551656868175737 0.06097028571613399 -0.009998571293960725 0.15391099915307546 0.07837471632020813 0.12801514023781888 -0.032009570859372616 -0.023526142617421492 -0.10259714438871015 0.024723572199166353 -0.18711656965647958 -0.1395272861700505 0.02143585668610675 0.012872285862353497 0.13596528838388622 -0.07439542688163263 0.01496557124690818 0.16075114752831204 -0.02145871493433203 -0.12472757584016238 -0.019638286246585528 -0.10285285421247993 -0.056585427307124646 0.22083686104243888 0.12158171097481889 0.16995499565798258 0.01468985723996801 0.1923737220599183 0.002617428619747183 -0.10367028500851509 0.10088628585383828
99 -0.03820971369610301 -0.09551656868175737 0.06097028571613399 -0.009998571293960725 0.15391099915307546 0.07837471632020813 0.12801514023781888 -0.032009570859372616 -0.023526142617421492 -0.10259714438871015 0.024723572199166353 -0.18711656965647958 -0.1395272861700505 0.02143585668610675 0.012872285862353497 0.13596528838388622 -0.07439542688163263 0.01496557124690818 0.16075114752831204 -0.02145871493433203 -0.12472757584016238 -0.019638286246585528 -0.10285285421247993 -0.056585427307124646 0.22083686104243888 0.12158171097481889 0.16995499565798258 0.01468985723996801 0.1923737220599183 0.002617428619747183 -0.10367028500851509 0.10088628585383828
100 -0.03820971369610301 -0.09551656868175737 0.06097028571613399 -0.009998571293960725 0.15391099915307546 0.07837471632020813 0.12801514023781888 -0.032009570859372616 -0.023526142617421492 -0.10259714438871015 0.024723572199166353 -0.18711656965647958 -0.1395272861700505 0.02143585668610675 0.012872285862353497 0.13596528838388622 -0.07439542688163263 0.01496557124690818 0.16075114752831204 -0.02145871493433203 -0.12472757584016238 -0.019638286246585528 -0.10285285421247993 -0.056585427307124646 0.22083686104243888 0.12158171097481889 0.16995499565798258 0.01468985723996801 0.1923737220599183 0.002617428619747183 -0.10367028500851509 0.10088628585383828
101 -0.03820971369610301 -0.09551656868175737 0.06097028571613399 -0.009998571293960725 0.15391099915307546 0.07837471632020813 0.12801514023781888 -0.032009570859372616 -0.023526142617421492 -0.10259714438871015 0.024723572199166353 -0.18711656965647958 -0.1395272861700505 0.02143585668610675 0.012872285862353497 0.13596528838388622 -0.07439542688163263 0.01496557124690818 0.16075114752831204 -0.02145871493433203 -0.12472757584016238 -0.019638286246585528 -0.10285285421247993 -0.056585427307124646 0.22083686104243888 0.12158171097481889 0.16995499565798258 0.01468985723996801 0.1923737220599183 0.002617428619747183 -0.10367028500851509 0.10088628585383828
102 -0.03820971369610301 -0.09551656868175737 0.06097028571613399 -0.009998571293960725 0.15391099915307546 0.07837471632020813 0.12801514023781888 -0.032009570859372616 -0.023526142617421492 -0.10259714438871015 0.024723572199166353 -0.18711656965647958 -0.1395272861700505 0.02143585668610675 0.012872285862353497 0.13596528838388622 -0.07439542688163263 0.01496557124690818 0.16075114752831204 -0.02145871493433203 -0.12472757584016238 -0.019638286246585528 -0.10285285421247993 -0.056585427307124646 0.22083686104243888 0.12158171097481889 0.16995499565798258 0.01468985723996801 0.1923737220599183 0.002617428619747183 -0.10367028500851509 0.10088628585383828
103 -0.03820971369610301 -0.09551656868175737 0.06097028571613399 -0.009998571293960725 0.15391099915307546 0.07837471632020813 0.12801514023781888 -0.032009570859372616 -0.023526142617421492 -0.10259714438871015 0.024723572199166353 -0.18711656965647958 -0.1395272861700505 0.02143585668610675 0.012872285862353497 0.13596528838388622 -0.07439542688163263 0.01496557124690818 0.16075114752831204 -0.02145871493433203 -0.12472757584016238 -0.019638286246585528 -0.10285285421247993 -0.056585427307124646 0.22083686104243888 0.12158171097481889 0.16995499565798258 0.01468985723996801 0.1923737220599183 0.002617428619747183 -0.10367028500851509 0.10088628585383828
104 -0.1438444278069905 -0.3179198546069009 0.20190357097557612 -0.023814714247626916 0.5390894285270146 0.2828942856618336 0.435529283114842 -0.1039007135799953 -0.08325728614415441 -0.350747144648007 0.0890792863709586 -0.6575944210801806 -0.48075027976717266 0.06889299941914422 0.03703414276242256 0.47360428316252573 -0.27875071338244845 0.040425999888351986 0.5625540103231158 -0.05575014358120305 -0.4247492892401559 -0.08993414257253919 -0.3614241395677839 -0.19273842871189117 0.7812749998910087 0.4024260001523154 0.614606716803142 0.044548285858971734 0.683443009853363 0.019020714414572076 -0.3674255737236568 0.36186027952602934
105 -0.13567609136754816 -0.2967498166994615 0.18327627127820795 -0.01849618174178018 0.48521227728236804 0.2601661817594008 0.3890965472568165 -0.09676054526459087 -0.08211700008674101 -0.3152542737397281 0.07913245531645688 -0.5877306352962147 -0.4376323629509319 0.056436999277635055 0.03310009092092514 0.4285825409672477 -0.2536397251215848 0.03572972711514343 0.5082372779195959 -0.07055191018364647 -0.37954008985649457 -0.05902136371216991 -0.33030108972029254 -0.17283263396133075 0.7027811841531233 0.3659762685949152 0.5469642769206654 0.06307909163561734 0.6124235581267964 0.01576354583217339 -0.3302196386185559 0.3228476345539093
106 -0.1388933335741361 -0.3126596659421921 0.1952841654419899 -0.018475166444356244 0.5335988253355026 0.2817258338133494 0.4337965001662572 -0.09877866630752881 -0.08532716706395149 -0.3452469954888026 0.09019483501712482 -0.6473948359489441 -0.47480333348115283 0.07264733252425988 0.04396399979790052 0.4634236643711726 -0.2736113319794337 0.03740866699566444 0.5604068438212076 -0.04615233341852824 -0.4273756742477417 -0.09362249945600827 -0.35857165853182477 -0.19314750035603842 0.7745166718959808 0.4011539965867996 0.6087201635042826 0.04736900019148985 0.6811655163764954 0.01891550012320901 -0.36752333243687946 0.35774166385332745
107 -0.1282876655459404 -0.2929474984606107 0.17932850122451782 -0.02344599987069766 0.49507583181063336 0.2573636670907338 0.395558829108874 -0.0962348332007726 -0.07563033327460289 -0.31578533351421356 0.08695916707317035 -0.593277836839358 -0.4324893256028493 0.06606949989994367 0.03289633337408304 0.4204931656519572 -0.24928616732358932 0.03545683311919371 0.5098335047562917 -0.04538333353896936 -0.38485350211461383 -0.08188966661691666 -0.3287624915440877 -0.1790430024266243 0.707615335782369 0.3650323326388995 0.5509631733099619 0.037721500266343355 0.6186635146538416 0.01395633384042109 -0.33431799709796906 0.32850732902685803
108 -0.1438444278069905 -0.3179198546069009 0.20190357097557612 -0.023814714247626916 0.5390894285270146 0.2828942856618336 0.435529283114842 -0.1039007135799953 -0.08325728614415441 -0.350747144648007 0.0890792863709586 -0.6575944210801806 -0.48075027976717266 0.06889299941914422 0.03703414276242256 0.47360428316252573 -0.27875071338244845 0.040425999888351986 0.5625540103231158 -0.05575014358120305 -0.4247492892401559 -0.08993414257253919 -0.3614241395677839 -0.19273842871189117 0.7812749998910087 0.4024260001523154 0.614606716803142 0.044548285858971734 0.683443009853363 0.019020714414572076 -0.3674255737236568 0.36186027952602934
109 -0.13567609136754816 -0.2967498166994615 0.18327627127820795 -0.01849618174178018 0.48521227728236804 0.2601661817594008 0.3890965472568165 -0.09676054526459087 -0.08211700008674101 -0.3152542737397281 0.07913245531645688 -0.5877306352962147 -0.4376323629509319 0.056436999277635055 0.03310009092092514 0.4285825409672477 -0.2536397251215848 0.03572972711514343 0.5082372779195959 -0.07055191018364647 -0.37954008985649457 -0.05902136371216991 -0.33030108972029254 -0.17283263396133075 0.7027811841531233 0.3659762685949152 0.5469642769206654 0.06307909163561734 0.6124235581267964 0.01576354583217339 -0.3302196386185559 0.3228476345539093
110 -0.13567609136754816 -0.2967498166994615 0.18327627127820795 -0.01849618174178018 0.48521227728236804 0.2601661817594008 0.3890965472568165 -0.09676054526459087 -0.08211700008674101 -0.3152542737397281 0.07913245531645688 -0.5877306352962147 -0.4376323629509319 0.056436999277635055 0.03310009092092514 0.4285825409672477 -0.2536397251215848 0.03572972711514343 0.5082372779195959 -0.07055191018364647 -0.37954008985649457 -0.05902136371216991 -0.33030108972029254 -0.17283263396133075 0.7027811841531233 0.3659762685949152 0.5469642769206654 0.06307909163561734 0.6124235581267964 0.01576354583217339 -0.3302196386185559 0.3228476345539093
111 -0.1438444278069905 -0.3179198546069009 0.20190357097557612 -0.023814714247626916 0.5390894285270146 0.2828942856618336 0.435529283114842 -0.1039007135799953 -0.08325728614415441 -0.350747144648007 0.0890792863709586 -0.6575944210801806 -0.48075027976717266 0.06889299941914422 0.03703414276242256 0.47360428316252573 -0.27875071338244845 0.040425999888351986 0.5625540103231158 -0.05575014358120305 -0.4247492892401559 -0.08993414257253919 -0.3614241395677839 -0.19273842871189117 0.7812749998910087 0.4024260001523154 0.614606716803142 0.044548285858971734 0.683443009853363 0.019020714414572076 -0.3674255737236568 0.36186027952602934
112 -0.1388933335741361 -0.3126596659421921 0.1952841654419899 -0.018475166444356244 0.5335988253355026 0.2817258338133494 0.4337965001662572 -0.09877866630752881 -0.08532716706395149 -0.3452469954888026 0.09019483501712482 -0.6473948359489441 -0.47480333348115283 0.07264733252425988 0.04396399979790052 0.4634236643711726 -0.2736113319794337 0.03740866699566444 0.5604068438212076 -0.04615233341852824 -0.4273756742477417 -0.09362249945600827 -0.35857165853182477 -0.19314750035603842 0.7745166718959808 0.4011539965867996 0.6087201635042826 0.04736900019148985 0.6811655163764954 0.01891550012320901 -0.36752333243687946 0.35774166385332745
113 -0.1282876655459404 -0.2929474984606107 0.17932850122451782 -0.02344599987069766 0.49507583181063336 0.2573636670907338 0.395558829108874 -0.0962348332007726 -0.07563033327460289 -0.31578533351421356 0.08695916707317035 -0.593277836839358 -0.4324893256028493 0.06606949989994367 0.03289633337408304 0.4204931656519572 -0.24928616732358932 0.03545683311919371 0.5098335047562917 -0.04538333353896936 -0.38485350211461383 -0.08188966661691666 -0.3287624915440877 -0.1790430024266243 0.707615335782369 0.3650323326388995 0.5509631733099619 0.037721500266343355 0.6186635146538416 0.01395633384042109 -0.33431799709796906 0.32850732902685803
114 -0.1388933335741361 -0.3126596659421921 0.1952841654419899 -0.018475166444356244 0.5335988253355026 0.2817258338133494 0.4337965001662572 -0.09877866630752881 -0.08532716706395149 -0.3452469954888026 0.09019483501712482 -0.6473948359489441 -0.47480333348115283 0.07264733252425988 0.04396399979790052 0.4634236643711726 -0.2736113319794337 0.03740866699566444 0.5604068438212076 -0.04615233341852824 -0.4273756742477417 -0.09362249945600827 -0.35857165853182477 -0.19314750035603842 0.7745166718959808 0.4011539965867996 0.6087201635042826 0.04736900019148985 0.6811655163764954 0.01891550012320901 -0.36752333243687946 0.35774166385332745
115 -0.1388933335741361 -0.3126596659421921 0.1952841654419899 -0.018475166444356244 0.5335988253355026 0.2817258338133494 0.4337965001662572 -0.09877866630752881 -0.08532716706395149 -0.3452469954888026 0.09019483501712482 -0.6473948359489441 -0.47480333348115283 0.07264733252425988 0.04396399979790052 0.4634236643711726 -0.2736113319794337 0.03740866699566444 0.5604068438212076 -0.04615233341852824 -0.4273756742477417 -0.09362249945600827 -0.35857165853182477 -0.19314750035603842 0.7745166718959808 0.4011539965867996 0.6087201635042826 0.04736900019148985 0.6811655163764954 0.01891550012320901 -0.36752333243687946 0.35774166385332745
116 -0.1388933335741361 -0.3126596659421921 0.1952841654419899 -0.018475166444356244 0.5335988253355026 0.2817258338133494 0.4337965001662572 -0.09877866630752881 -0.08532716706395149 -0.3452469954888026 0.09019483501712482 -0.6473948359489441 -0.47480333348115283 0.07264733252425988 0.04396399979790052 0.4634236643711726 -0.2736113319794337 0.03740866699566444 0.5604068438212076 -0.04615233341852824 -0.4273756742477417 -0.09362249945600827 -0.35857165853182477 -0.19314750035603842 0.7745166718959808 0.4011539965867996 0.6087201635042826 0.04736900019148985 0.6811655163764954 0.01891550012320901 -0.36752333243687946 0.35774166385332745
117 -0.1388933335741361 -0.3126596659421921 0.1952841654419899 -0.018475166444356244 0.5335988253355026 0.2817258338133494 0.4337965001662572 -0.09877866630752881 -0.08532716706395149 -0.3452469954888026 0.09019483501712482 -0.6473948359489441 -0.47480333348115283 0.07264733252425988 0.04396399979790052 0.4634236643711726 -0.2736113319794337 0.03740866699566444 0.5604068438212076 -0.04615233341852824 -0.4273756742477417 -0.09362249945600827 -0.35857165853182477 -0.19314750035603842 0.7745166718959808 0.4011539965867996 0.6087201635042826 0.04736900019148985 0.6811655163764954 0.01891550012320901 -0.36752333243687946 0.35774166385332745
118 -0.1438444278069905 -0.3179198546069009 0.20190357097557612 -0.023814714247626916 0.5390894285270146 0.2828942856618336 0.435529283114842 -0.1039007135799953 -0.08325728614415441 -0.350747144648007 0.0890792863709586 -0.6575944210801806 -0.48075027976717266 0.06889299941914422 0.03703414276242256 0.47360428316252573 -0.27875071338244845 0.040425999888351986 0.5625540103231158 -0.05575014358120305 -0.4247492892401559 -0.08993414257253919 -0.3614241395677839 -0.19273842871189117 0.7812749998910087 0.4024260001523154 0.614606716803142 0.044548285858971734 0.683443009853363 0.019020714414572076 -0.3674255737236568 0.36186027952602934
119 -0.13567609136754816 -0.2967498166994615 0.18327627127820795 -0.01849618174178018 0.48521227728236804 0.2601661817594008 0.3890965472568165 -0.09676054526459087 -0.08211700008674101 -0.3152542737397281 0.07913245531645688 -0.5877306352962147 -0.4376323629509319 0.056436999277635055 0.03310009092092514 0.4285825409672477 -0.2536397251215848 0.03572972711514343 0.5082372779195959 -0.07055191018364647 -0.37954008985649457 -0.05902136371216991 -0.33030108972029254 -0.17283263396133075 0.7027811841531233 0.3659762685949152 0.5469642769206654 0.06307909163561734 0.6124235581267964 0.01576354583217339 -0.3302196386185559 0.3228476345539093
120 -0.1388933335741361 -0.3126596659421921 0.1952841654419899 -0.018475166444356244 0.5335988253355026 0.2817258338133494 0.4337965001662572 -0.09877866630752881 -0.08532716706395149 -0.3452469954888026 0.09019483501712482 -0.6473948359489441 -0.47480333348115283 0.07264733252425988 0.04396399979790052 0.4634236643711726 -0.2736113319794337 0.03740866699566444 0.5604068438212076 -0.04615233341852824 -0.4273756742477417 -0.09362249945600827 -0.35857165853182477 -0.19314750035603842 0.7745166718959808 0.4011539965867996 0.6087201635042826 0.04736900019148985 0.6811655163764954 0.01891550012320901 -0.36752333243687946 0.35774166385332745
121 -0.12290155484030645 -0.2658107778471377 0.16150299997793305 -0.014163666598809263 0.4381828872073028 0.23517411233236393 0.35297811264172196 -0.08261888867451085 -0.08155533329894145 -0.28746211083812845 0.07208844512287113 -0.5277286613515267 -0.3936028866511252 0.05598466646754079 0.03598588900381906 0.3834045531435145 -0.22617344455082072 0.031096556016968355 0.46044456244756776 -0.05749977773262395 -0.34783933544531465 -0.06070155608985159 -0.29842511088483864 -0.1579498870091306 0.6417861110013392 0.333406660395364 0.4990443386292706 0.04759077758838733 0.5528410098825892 0.015988778258259926 -0.3069686680100858 0.29562810622155666
122 -0.1282876655459404 -0.2929474984606107 0.17932850122451782 -0.02344599987069766 0.49507583181063336 0.2573636670907338 0.395558829108874 -0.0962348332007726 -0.07563033327460289 -0.31578533351421356 0.08695916707317035 -0.593277836839358 -0.4324893256028493 0.06606949989994367 0.03289633337408304 0.4204931656519572 -0.24928616732358932 0.03545683311919371 0.5098335047562917 -0.04538333353896936 -0.38485350211461383 -0.08188966661691666 -0.3287624915440877 -0.1790430024266243 0.707615335782369 0.3650323326388995 0.5509631733099619 0.037721500266343355 0.6186635146538416 0.01395633384042109 -0.33431799709796906 0.32850732902685803
123 -0.1388933335741361 -0.3126596659421921 0.1952841654419899 -0.018475166444356244 0.5335988253355026 0.2817258338133494 0.4337965001662572 -0.09877866630752881 -0.08532716706395149 -0.3452469954888026 0.09019483501712482 -0.6473948359489441 -0.47480333348115283 0.07264733252425988 0.04396399979790052 0.4634236643711726 -0.2736113319794337 0.03740866699566444 0.5604068438212076 -0.04615233341852824 -0.4273756742477417 -0.09362249945600827 -0.35857165853182477 -0.19314750035603842 0.7745166718959808 0.4011539965867996 0.6087201635042826 0.04736900019148985 0.6811655163764954 0.01891550012320901 -0.36752333243687946 0.35774166385332745
124 -0.1282876655459404 -0.2929474984606107 0.17932850122451782 -0.02344599987069766 0.49507583181063336 0.2573636670907338 0.395558829108874 -0.0962348332007726 -0.07563033327460289 -0.31578533351421356 0.08695916707317035 -0.593277836839358 -0.4324893256028493 0.06606949989994367 0.03289633337408304 0.4204931656519572 -0.24928616732358932 0.03545683311919371 0.5098335047562917 -0.04538333353896936 -0.38485350211461383 -0.08188966661691666 -0.3287624915440877 -0.1790430024266243 0.707615335782369 0.3650323326388995 0.5509631733099619 0.037721500266343355 0.6186635146538416 0.01395633384042109 -0.33431799709796906 0.32850732902685803
125 -0.1282876655459404 -0.2929474984606107 0.17932850122451782 -0.02344599987069766 0.49507583181063336 0.2573636670907338 0.395558829108874 -0.0962348332007726 -0.07563033327460289 -0.31578533351421356 0.08695916707317035 -0.593277836839358 -0.4324893256028493 0.06606949989994367 0.03289633337408304 0.4204931656519572 -0.24928616732358932 0.03545683311919371 0.5098335047562917 -0.04538333353896936 -0.38485350211461383 -0.08188966661691666 -0.3287624915440877 -0.1790430024266243 0.707615335782369 0.3650323326388995 0.5509631733099619 0.037721500266343355 0.6186635146538416 0.01395633384042109 -0.33431799709796906 0.32850732902685803
126 -0.1388933335741361 -0.3126596659421921 0.1952841654419899 -0.018475166444356244 0.5335988253355026 0.2817258338133494 0.4337965001662572 -0.09877866630752881 -0.08532716706395149 -0.3452469954888026 0.09019483501712482 -0.6473948359489441 -0.47480333348115283 0.07264733252425988 0.04396399979790052 0.4634236643711726 -0.2736113319794337 0.03740866699566444 0.5604068438212076 -0.04615233341852824 -0.4273756742477417 -0.09362249945600827 -0.35857165853182477 -0.19314750035603842 0.7745166718959808 0.4011539965867996 0.6087201635042826 0.04736900019148985 0.6811655163764954 0.01891550012320901 -0.36752333243687946 0.35774166385332745
127 -0.1282876655459404 -0.2929474984606107 0.17932850122451782 -0.02344599987069766 0.49507583181063336 0.2573636670907338 0.395558829108874 -0.0962348332007726 -0.07563033327460289 -0.31578533351421356 0.08695916707317035 -0.593277836839358 -0.4324893256028493 0.06606949989994367 0.03289633337408304 0.4204931656519572 -0.24928616732358932 0.03545683311919371 0.5098335047562917 -0.04538333353896936 -0.38485350211461383 -0.08188966661691666 -0.3287624915440877 -0.1790430024266243 0.707615335782369 0.3650323326388995 0.5509631733099619 0.037721500266343355 0.6186635146538416 0.01395633384042109 -0.33431799709796906 0.32850732902685803
128 -0.13567609136754816 -0.2967498166994615 0.18327627127820795 -0.01849618174178018 0.48521227728236804 0.2601661817594008 0.3890965472568165 -0.09676054526459087 -0.08211700008674101 -0.3152542737397281 0.07913245531645688 -0.5877306352962147 -0.4376323629509319 0.056436999277635055 0.03310009092092514 0.4285825409672477 -0.2536397251215848 0.03572972711514343 0.5082372779195959 -0.07055191018364647 -0.37954008985649457 -0.05902136371216991 -0.33030108972029254 -0.17283263396133075 0.7027811841531233 0.3659762685949152 0.5469642769206654 0.06307909163561734 0.6124235581267964 0.01576354583217339 -0.3302196386185559 0.3228476345539093
129 -0.1438444278069905 -0.3179198546069009 0.20190357097557612 -0.023814714247626916 0.5390894285270146 0.2828942856618336 0.435529283114842 -0.1039007135799953 -0.08325728614415441 -0.350747144648007 0.0890792863709586 -0.6575944210801806 -0.48075027976717266 0.06889299941914422 0.03703414276242256 0.47360428316252573 -0.27875071338244845 0.040425999888351986 0.5625540103231158 -0.05575014358120305 -0.4247492892401559 -0.08993414257253919 -0.3614241395677839 -0.19273842871189117 0.7812749998910087 0.4024260001523154 0.614606716803142 0.044548285858971734 0.683443009853363 0.019020714414572076 -0.3674255737236568 0.36186027952602934
130 -0.13567609136754816 -0.2967498166994615 0.18327627127820795 -0.01849618174178018 0.48521227728236804 0.2601661817594008 0.3890965472568165 -0.09676054526459087 -0.08211700008674101 -0.3152542737397281 0.07913245531645688 -0.5877306352962147 -0.4376323629509319 0.056436999277635055 0.03310009092092514 0.4285825409672477 -0.2536397251215848 0.03572972711514343 0.5082372779195959 -0.07055191018364647 -0.37954008985649457 -0.05902136371216991 -0.33030108972029254 -0.17283263396133075 0.7027811841531233 0.3659762685949152 0.5469642769206654 0.06307909163561734 0.6124235581267964 0.01576354583217339 -0.3302196386185559 0.3228476345539093
131 -0.1282876655459404 -0.2929474984606107 0.17932850122451782 -0.02344599987069766 0.49507583181063336 0.2573636670907338 0.395558829108874 -0.0962348332007726 -0.07563033327460289 -0.31578533351421356 0.08695916707317035 -0.593277836839358 -0.4324893256028493 0.06606949989994367 0.03289633337408304 0.4204931656519572 -0.24928616732358932 0.03545683311919371 0.5098335047562917 -0.04538333353896936 -0.38485350211461383 -0.08188966661691666 -0.3287624915440877 -0.1790430024266243 0.707615335782369 0.3650323326388995 0.5509631733099619 0.037721500266343355 0.6186635146538416 0.01395633384042109 -0.33431799709796906 0.32850732902685803
132 -0.13567609136754816 -0.2967498166994615 0.18327627127820795 -0.01849618174178018 0.48521227728236804 0.2601661817594008 0.3890965472568165 -0.09676054526459087 -0.08211700008674101 -0.3152542737397281 0.07913245531645688 -0.5877306352962147 -0.4376323629509319 0.056436999277635055 0.03310009092092514 0.4285825409672477 -0.2536397251215848 0.03572972711514343 0.5082372779195959 -0.07055191018364647 -0.37954008985649457 -0.05902136371216991 -0.33030108972029254 -0.17283263396133075 0.7027811841531233 0.3659762685949152 0.5469642769206654 0.06307909163561734 0.6124235581267964 0.01576354583217339 -0.3302196386185559 0.3228476345539093
133 -0.1282876655459404 -0.2929474984606107 0.17932850122451782 -0.02344599987069766 0.49507583181063336 0.2573636670907338 0.395558829108874 -0.0962348332007726 -0.07563033327460289 -0.31578533351421356 0.08695916707317035 -0.593277836839358 -0.4324893256028493 0.06606949989994367 0.03289633337408304 0.4204931656519572 -0.24928616732358932 0.03545683311919371 0.5098335047562917 -0.04538333353896936 -0.38485350211461383 -0.08188966661691666 -0.3287624915440877 -0.1790430024266243 0.707615335782369 0.3650323326388995 0.5509631733099619 0.037721500266343355 0.6186635146538416 0.01395633384042109 -0.33431799709796906 0.32850732902685803
134 -0.1388933335741361 -0.3126596659421921 0.1952841654419899 -0.018475166444356244 0.5335988253355026 0.2817258338133494 0.4337965001662572 -0.09877866630752881 -0.08532716706395149 -0.3452469954888026 0.09019483501712482 -0.6473948359489441 -0.47480333348115283 0.07264733252425988 0.04396399979790052 0.4634236643711726 -0.2736113319794337 0.03740866699566444 0.5604068438212076 -0.04615233341852824 -0.4273756742477417 -0.09362249945600827 -0.35857165853182477 -0.19314750035603842 0.7745166718959808 0.4011539965867996 0.6087201635042826 0.04736900019148985 0.6811655163764954 0.01891550012320901 -0.36752333243687946 0.35774166385332745
135 -0.1438444278069905 -0.3179198546069009 0.20190357097557612 -0.023814714247626916 0.5390894285270146 0.2828942856618336 0.435529283114842 -0.1039007135799953 -0.08325728614415441 -0.350747144648007 0.0890792863709586 -0.6575944210801806 -0.48075027976717266 0.06889299941914422 0.03703414276242256 0.47360428316252573 -0.27875071338244845 0.040425999888351986 0.5625540103231158 -0.05575014358120305 -0.4247492892401559 -0.08993414257253919 -0.3614241395677839 -0.19273842871189117 0.7812749998910087 0.4024260001523154 0.614606716803142 0.044548285858971734 0.683443009853363 0.019020714414572076 -0.3674255737236568 0.36186027952602934
136 -0.13567609136754816 -0.2967498166994615 0.18327627127820795 -0.01849618174178018 0.48521227728236804 0.2601661817594008 0.3890965472568165 -0.09676054526459087 -0.08211700008674101 -0.3152542737397281 0.07913245531645688 -0.5877306352962147 -0.4376323629509319 0.056436999277635055 0.03310009092092514 0.4285825409672477 -0.2536397251215848 0.03572972711514343 0.5082372779195959 -0.07055191018364647 -0.37954008985649457 -0.05902136371216991 -0.33030108972029254 -0.17283263396133075 0.7027811841531233 0.3659762685949152 0.5469642769206654 0.06307909163561734 0.6124235581267964 0.01576354583217339 -0.3302196386185559 0.3228476345539093
137 -0.1282876655459404 -0.2929474984606107 0.17932850122451782 -0.02344599987069766 0.49507583181063336 0.2573636670907338 0.395558829108874 -0.0962348332007726 -0.07563033327460289 -0.31578533351421356 0.08695916707317035 -0.593277836839358 -0.4324893256028493 0.06606949989994367 0.03289633337408304 0.4204931656519572 -0.24928616732358932 0.03545683311919371 0.5098335047562917 -0.04538333353896936 -0.38485350211461383 -0.08188966661691666 -0.3287624915440877 -0.1790430024266243 0.707615335782369 0.3650323326388995 0.5509631733099619 0.037721500266343355 0.6186635146538416 0.01395633384042109 -0.33431799709796906 0.32850732902685803
138 -0.12290155484030645 -0.2658107778471377 0.16150299997793305 -0.014163666598809263 0.4381828872073028 0.23517411233236393 0.35297811264172196 -0.08261888867451085 -0.08155533329894145 -0.28746211083812845 0.07208844512287113 -0.5277286613515267 -0.3936028866511252 0.05598466646754079 0.03598588900381906 0.3834045531435145 -0.22617344455082072 0.031096556016968355 0.46044456244756776 -0.05749977773262395 -0.34783933544531465 -0.06070155608985159 -0.29842511088483864 -0.1579498870091306 0.6417861110013392 0.333406660395364 0.4990443386292706 0.04759077758838733 0.5528410098825892 0.015988778258259926 -0.3069686680100858 0.29562810622155666
139 -0.1282876655459404 -0.2929474984606107 0.17932850122451782 -0.02344599987069766 0.49507583181063336 0.2573636670907338 0.395558829108874 -0.0962348332007726 -0.07563033327460289 -0.31578533351421356 0.08695916707317035 -0.593277836839358 -0.4324893256028493 0.06606949989994367 0.03289633337408304 0.4204931656519572 -0.24928616732358932 0.03545683311919371 0.5098335047562917 -0.04538333353896936 -0.38485350211461383 -0.08188966661691666 -0.3287624915440877 -0.1790430024266243 0.707615335782369 0.3650323326388995 0.5509631733099619 0.037721500266343355 0.6186635146538416 0.01395633384042109 -0.33431799709796906 0.32850732902685803
140 -0.12290155484030645 -0.2658107778471377 0.16150299997793305 -0.014163666598809263 0.4381828872073028 0.23517411233236393 0.35297811264172196 -0.08261888867451085 -0.08155533329894145 -0.28746211083812845 0.07208844512287113 -0.5277286613515267 -0.3936028866511252 0.05598466646754079 0.03598588900381906 0.3834045531435145 -0.22617344455082072 0.031096556016968355 0.46044456244756776 -0.05749977773262395 -0.34783933544531465 -0.06070155608985159 -0.29842511088483864 -0.1579498870091306 0.6417861110013392 0.333406660395364 0.4990443386292706 0.04759077758838733 0.5528410098825892 0.015988778258259926 -0.3069686680100858 0.29562810622155666
141 -0.1388933335741361 -0.3126596659421921 0.1952841654419899 -0.018475166444356244 0.5335988253355026 0.2817258338133494 0.4337965001662572 -0.09877866630752881 -0.08532716706395149 -0.3452469954888026 0.09019483501712482 -0.6473948359489441 -0.47480333348115283 0.07264733252425988 0.04396399979790052 0.4634236643711726 -0.2736113319794337 0.03740866699566444 0.5604068438212076 -0.04615233341852824 -0.4273756742477417 -0.09362249945600827 -0.35857165853182477 -0.19314750035603842 0.7745166718959808 0.4011539965867996 0.6087201635042826 0.04736900019148985 0.6811655163764954 0.01891550012320901 -0.36752333243687946 0.35774166385332745
142 -0.1282876655459404 -0.2929474984606107 0.17932850122451782 -0.02344599987069766 0.49507583181063336 0.2573636670907338 0.395558829108874 -0.0962348332007726 -0.07563033327460289 -0.31578533351421356 0.08695916707317035 -0.593277836839358 -0.4324893256028493 0.06606949989994367 0.03289633337408304 0.4204931656519572 -0.24928616732358932 0.03545683311919371 0.5098335047562917 -0.04538333353896936 -0.38485350211461383 -0.08188966661691666 -0.3287624915440877 -0.1790430024266243 0.707615335782369 0.3650323326388995 0.5509631733099619 0.037721500266343355 0.6186635146538416 0.01395633384042109 -0.33431799709796906 0.32850732902685803
143 -0.1438444278069905 -0.3179198546069009 0.20190357097557612 -0.023814714247626916 0.5390894285270146 0.2828942856618336 0.435529283114842 -0.1039007135799953 -0.08325728614415441 -0.350747144648007 0.0890792863709586 -0.6575944210801806 -0.48075027976717266 0.06889299941914422 0.03703414276242256 0.47360428316252573 -0.27875071338244845 0.040425999888351986 0.5625540103231158 -0.05575014358120305 -0.4247492892401559 -0.08993414257253919 -0.3614241395677839 -0.19273842871189117 0.7812749998910087 0.4024260001523154 0.614606716803142 0.044548285858971734 0.683443009853363 0.019020714414572076 -0.3674255737236568 0.36186027952602934
144 -0.1282876655459404 -0.2929474984606107 0.17932850122451782 -0.02344599987069766 0.49507583181063336 0.2573636670907338 0.395558829108874 -0.0962348332007726 -0.07563033327460289 -0.31578533351421356 0.08695916707317035 -0.593277836839358 -0.4324893256028493 0.06606949989994367 0.03289633337408304 0.4204931656519572 -0.24928616732358932 0.03545683311919371 0.5098335047562917 -0.04538333353896936 -0.38485350211461383 -0.08188966661691666 -0.3287624915440877 -0.1790430024266243 0.707615335782369 0.3650323326388995 0.5509631733099619 0.037721500266343355 0.6186635146538416 0.01395633384042109 -0.33431799709796906 0.32850732902685803
145 -0.1388933335741361 -0.3126596659421921 0.1952841654419899 -0.018475166444356244 0.5335988253355026 0.2817258338133494 0.4337965001662572 -0.09877866630752881 -0.08532716706395149 -0.3452469954888026 0.09019483501712482 -0.6473948359489441 -0.47480333348115283 0.07264733252425988 0.04396399979790052 0.4634236643711726 -0.2736113319794337 0.03740866699566444 0.5604068438212076 -0.04615233341852824 -0.4273756742477417 -0.09362249945600827 -0.35857165853182477 -0.19314750035603842 0.7745166718959808 0.4011539965867996 0.6087201635042826 0.04736900019148985 0.6811655163764954 0.01891550012320901 -0.36752333243687946 0.35774166385332745
146 -0.13567609136754816 -0.2967498166994615 0.18327627127820795 -0.01849618174178018 0.48521227728236804 0.2601661817594008 0.3890965472568165 -0.09676054526459087 -0.08211700008674101 -0.3152542737397281 0.07913245531645688 -0.5877306352962147 -0.4376323629509319 0.056436999277635055 0.03310009092092514 0.4285825409672477 -0.2536397251215848 0.03572972711514343 0.5082372779195959 -0.07055191018364647 -0.37954008985649457 -0.05902136371216991 -0.33030108972029254 -0.17283263396133075 0.7027811841531233 0.3659762685949152 0.5469642769206654 0.06307909163561734 0.6124235581267964 0.01576354583217339 -0.3302196386185559 0.3228476345539093
147 -0.1438444278069905 -0.3179198546069009 0.20190357097557612 -0.023814714247626916 0.5390894285270146 0.2828942856618336 0.435529283114842 -0.1039007135799953 -0.08325728614415441 -0.350747144648007 0.0890792863709586 -0.6575944210801806 -0.48075027976717266 0.06889299941914422 0.03703414276242256 0.47360428316252573 -0.27875071338244845 0.040425999888351986 0.5625540103231158 -0.05575014358120305 -0.4247492892401559 -0.08993414257253919 -0.3614241395677839 -0.19273842871189117 0.7812749998910087 0.4024260001523154 0.614606716803142 0.044548285858971734 0.683443009853363 0.019020714414572076 -0.3674255737236568 0.36186027952602934
148 -0.1388933335741361 -0.3126596659421921 0.1952841654419899 -0.018475166444356244 0.5335988253355026 0.2817258338133494 0.4337965001662572 -0.09877866630752881 -0.08532716706395149 -0.3452469954888026 0.09019483501712482 -0.6473948359489441 -0.47480333348115283 0.07264733252425988 0.04396399979790052 0.4634236643711726 -0.2736113319794337 0.03740866699566444 0.5604068438212076 -0.04615233341852824 -0.4273756742477417 -0.09362249945600827 -0.35857165853182477 -0.19314750035603842 0.7745166718959808 0.4011539965867996 0.6087201635042826 0.04736900019148985 0.6811655163764954 0.01891550012320901 -0.36752333243687946 0.35774166385332745
149 -0.13567609136754816 -0.2967498166994615 0.18327627127820795 -0.01849618174178018 0.48521227728236804 0.2601661817594008 0.3890965472568165 -0.09676054526459087 -0.08211700008674101 -0.3152542737397281 0.07913245531645688 -0.5877306352962147 -0.4376323629509319 0.056436999277635055 0.03310009092092514 0.4285825409672477 -0.2536397251215848 0.03572972711514343 0.5082372779195959 -0.07055191018364647 -0.37954008985649457 -0.05902136371216991 -0.33030108972029254 -0.17283263396133075 0.7027811841531233 0.3659762685949152 0.5469642769206654 0.06307909163561734 0.6124235581267964 0.01576354583217339 -0.3302196386185559 0.3228476345539093
150 -0.1388933335741361 -0.3126596659421921 0.1952841654419899 -0.018475166444356244 0.5335988253355026 0.2817258338133494 0.4337965001662572 -0.09877866630752881 -0.08532716706395149 -0.3452469954888026 0.09019483501712482 -0.6473948359489441 -0.47480333348115283 0.07264733252425988 0.04396399979790052 0.4634236643711726 -0.2736113319794337 0.03740866699566444 0.5604068438212076 -0.04615233341852824 -0.4273756742477417 -0.09362249945600827 -0.35857165853182477 -0.19314750035603842 0.7745166718959808 0.4011539965867996 0.6087201635042826 0.04736900019148985 0.6811655163764954 0.01891550012320901 -0.36752333243687946 0.35774166385332745
151 -0.12290155484030645 -0.2658107778471377 0.16150299997793305 -0.014163666598809263 0.4381828872073028 0.23517411233236393 0.35297811264172196 -0.08261888867451085 -0.08155533329894145 -0.28746211083812845 0.07208844512287113 -0.5277286613515267 -0.3936028866511252 0.05598466646754079 0.03598588900381906 0.3834045531435145 -0.22617344455082072 0.031096556016968355 0.46044456244756776 -0.05749977773262395 -0.34783933544531465 -0.06070155608985159 -0.29842511088483864 -0.1579498870091306 0.6417861110013392 0.333406660395364 0.4990443386292706 0.04759077758838733 0.5528410098825892 0.015988778258259926 -0.3069686680100858 0.29562810622155666
152 -0.13567609136754816 -0.2967498166994615 0.18327627127820795 -0.01849618174178018 0.48521227728236804 0.2601661817594008 0.3890965472568165 -0.09676054526459087 -0.08211700008674101 -0.3152542737397281 0.07913245531645688 -0.5877306352962147 -0.4376323629509319 0.056436999277635055 0.03310009092092514 0.4285825409672477 -0.2536397251215848 0.03572972711514343 0.5082372779195959 -0.07055191018364647 -0.37954008985649457 -0.05902136371216991 -0.33030108972029254 -0.17283263396133075 0.7027811841531233 0.3659762685949152 0.5469642769206654 0.06307909163561734 0.6124235581267964 0.01576354583217339 -0.3302196386185559 0.3228476345539093
153 -0.1282876655459404 -0.2929474984606107 0.17932850122451782 -0.02344599987069766 0.49507583181063336 0.2573636670907338 0.395558829108874 -0.0962348332007726 -0.07563033327460289 -0.31578533351421356 0.08695916707317035 -0.593277836839358 -0.4324893256028493 0.06606949989994367 0.03289633337408304 0.4204931656519572 -0.24928616732358932 0.03545683311919371 0.5098335047562917 -0.04538333353896936 -0.38485350211461383 -0.08188966661691666 -0.3287624915440877 -0.1790430024266243 0.707615335782369 0.3650323326388995 0.5509631733099619 0.037721500266343355 0.6186635146538416 0.01395633384042109 -0.33431799709796906 0.32850732902685803
154 -0.12290155484030645 -0.2658107778471377 0.16150299997793305 -0.014163666598809263 0.4381828872073028 0.23517411233236393 0.35297811264172196 -0.08261888867451085 -0.08155533329894145 -0.28746211083812845 0.07208844512287113 -0.5277286613515267 -0.3936028866511252 0.05598466646754079 0.03598588900381906 0.3834045531435145 -0.22617344455082072 0.031096556016968355 0.46044456244756776 -0.05749977773262395 -0.34783933544531465 -0.06070155608985159 -0.29842511088483864 -0.1579498870091306 0.6417861110013392 0.333406660395364 0.4990443386292706 0.04759077758838733 0.5528410098825892 0.015988778258259926 -0.3069686680100858 0.29562810622155666
